svm_type c_svc
kernel_type rbf
gamma 4
nr_class 2
total_sv 7686
rho -0.821425
label 0 1
probA -1.70466
probB -0.0729396
nr_sv 4410 3276
SV
8 1:-0.915995 2:0.0415248 3:-0.876154 4:-0.390168 5:0.0932038 6:-0.35691 7:-0.408557 8:-0.914603 9:-0.499623 10:-0.861113 11:-0.76937 
8 1:-0.937108 2:-0.00589285 3:-0.81857 4:-0.454245 5:0.0842526 6:-0.20801 7:-0.333055 8:-0.778341 9:-0.472779 10:-0.687355 11:-0.855817 
8 1:-0.628782 2:0.385362 3:-0.516228 4:-0.461598 5:0.239983 6:-0.388676 7:-0.395423 8:-0.865019 9:-0.505435 10:-0.855258 11:-0.790168 
8 1:-0.556151 2:0.164608 3:-0.445672 4:-0.0051323 5:0.260108 6:0.166737 7:-0.359531 8:-0.732143 9:-0.42811 10:-0.806489 11:-0.717572 
4.195359530101675 1:-0.649646 2:0.0399193 3:-0.496422 4:-0.0891805 5:0.170201 6:0.198921 7:-0.329518 8:-0.8266 9:-0.395911 10:-0.781386 11:-0.66314 
1.589004450697436 1:-0.815451 2:0.0333975 3:-0.787903 4:-0.437637 5:0.0417781 6:-0.279379 7:-0.501928 8:-0.863855 9:-0.58757 10:-0.945052 11:-0.849506 
0.896918958630456 1:-0.742082 2:0.245206 3:-0.726771 4:-0.227081 5:0.198259 6:-0.269474 7:-0.332739 8:-0.75086 9:0.331138 10:-0.677656 11:0.0332424 
8 1:-0.818947 2:0.0493476 3:-0.71902 4:-0.381041 5:0.0725043 6:-0.186473 7:-0.40566 8:-0.83291 9:-0.435721 10:-0.820452 11:-0.732716 
8 1:-0.695669 2:0.10595 3:-0.432642 4:-0.236977 5:0.22812 6:0.0923666 7:-0.343578 8:-0.769203 9:-0.433202 10:-0.742519 11:-0.709018 
4.656601020051468 1:-0.823844 2:0.394921 3:-0.818562 4:-0.111986 5:0.466646 6:-0.23142 7:-0.308046 8:-0.856888 9:-0.444805 10:-0.618411 11:-0.688202 
8 1:0.48047 2:0.726051 3:0.674208 4:0.866667 5:0.919048 6:0.896317 7:-0.321515 8:-0.728578 9:-0.378935 10:-0.700724 11:-0.659266 
8 1:-0.523853 2:0.180918 3:-0.40577 4:-0.0859877 5:0.288093 6:0.0952068 7:-0.411877 8:-0.954038 9:-0.467168 10:-0.850653 11:-0.872142 
8 1:-0.785584 2:0.0526862 3:-0.543362 4:-0.552728 5:0.0285037 6:-0.229689 7:-0.430844 8:-0.813738 9:-0.513562 10:-0.847146 11:-0.830724 
7.433953109225936 1:-0.773484 2:0.165298 3:-0.737974 4:-0.294039 5:0.143206 6:-0.279215 7:-0.440743 8:-0.82175 9:-0.453394 10:-0.826312 11:-0.708643 
7.687270268441638 1:-0.390938 2:0.232864 3:-0.170855 4:-0.115996 5:0.217872 6:0.177894 7:-0.0918476 8:-0.59563 9:-0.223917 10:-0.526021 11:-0.462904 
0.5574304660687875 1:-0.268657 2:0.0749077 3:-0.240994 4:0.957447 5:0.970527 6:0.957447 7:0.169033 8:1 9:1 10:-1 11:-1 
8 1:-0.400242 2:0.259664 3:-0.133737 4:-0.222765 5:0.214312 6:0.0492889 7:-0.435261 8:-0.826564 9:-0.53311 10:-0.868222 11:-0.800944 
0.8392256423652923 1:-0.437007 2:0.285554 3:-0.484315 4:0.313238 5:0.501272 6:0.265021 7:-0.346752 8:-0.204512 9:-0.416661 10:-0.77625 11:-0.690063 
0.03174372983953382 1:-0.47166 2:0.0976009 3:-0.397616 4:-0.0853855 5:0.140554 6:0.00625355 7:-0.639533 8:-0.937033 9:0.612258 10:1 11:-0.175095 
8 1:-0.801286 2:-0.0887337 3:-0.708882 4:-0.210649 5:0.0930007 6:0.143298 7:-0.364777 8:-0.844902 9:-0.43436 10:-0.820636 11:-0.716364 
8 1:-0.412011 2:0.235934 3:-0.388046 4:-0.137456 5:0.180187 6:0.0886253 7:-0.406026 8:-0.837755 9:-0.469563 10:-0.815265 11:-0.760965 
8 1:-0.851549 2:-0.0839192 3:-0.85863 4:-0.445472 5:-0.0881415 6:-0.385617 7:-0.0965085 8:-0.956143 9:-0.176754 10:-0.523176 11:-0.466424 
8 1:-0.823458 2:0.159739 3:-0.806553 4:-0.37372 5:0.10785 6:-0.369487 7:-0.223504 8:-0.899909 9:-0.265798 10:-0.660685 11:-0.560999 
8 1:-0.0275462 2:0.347377 3:0.124126 4:0.385541 5:0.462674 6:0.518254 7:-0.308321 8:-0.731468 9:-0.424879 10:-0.772482 11:-0.688616 
8 1:-0.89314 2:-0.0402515 3:-0.800103 4:-0.441767 5:-0.0146162 6:-0.34488 7:-0.403 8:-0.526694 9:-0.442842 10:-0.737977 11:-0.736216 
5.649350951635486 1:-0.872437 2:-0.0823137 3:-0.846545 4:-0.68002 5:-0.236437 6:-0.648283 7:-0.0842509 8:-0.888876 9:-0.143022 10:-0.50402 11:-0.499969 
8 1:-0.585385 2:0.160042 3:-0.489452 4:-0.206894 5:0.246634 6:-0.0639676 7:-0.338745 8:-0.824566 9:-0.496181 10:-0.799204 11:-0.765941 
8 1:-0.814625 2:-0.0364593 3:-0.754873 4:-0.368849 5:-0.0113694 6:-0.179214 7:-0.264576 8:-0.729214 9:0.178899 10:-0.564149 11:-0.0419015 
4.626963884523454 1:0.096325 2:0.666006 3:0.0739714 4:0.371006 5:0.590289 6:0.477012 7:-0.287269 8:-0.9054 9:-0.266353 10:-0.674023 11:-0.572363 
8 1:-0.538474 2:-0.0316229 3:-0.366316 4:0.208839 5:0.311745 6:0.492966 7:-0.250529 8:-0.814231 9:-0.350686 10:-0.622275 11:-0.580902 
5.283489237128062 1:-0.42502 2:0.249564 3:-0.249464 4:0.0170242 5:0.376295 6:0.24567 7:-0.536586 8:-0.909045 9:-0.565345 10:-0.886622 11:-0.857493 
0.3529134196867527 1:-0.775635 2:0.0929645 3:-0.668228 4:-0.297371 5:0.039022 6:-0.213463 7:-0.349921 8:-0.724562 9:0.495279 10:0.827791 11:-0.28739 
6.628154827477207 1:-0.916986 2:-0.0807801 3:-0.887725 4:-0.522118 5:-0.150113 6:-0.42392 7:-0.420179 8:-0.859117 9:-0.497152 10:-0.770879 11:-0.793134 
8 1:-0.80852 2:0.0587722 3:-0.708461 4:-0.689636 5:-0.0726722 6:-0.585025 7:-0.367958 8:-0.791053 9:-0.464522 10:-0.787046 11:-0.745107 
8 1:-0.736178 2:0.0341407 3:-0.43393 4:-0.354223 5:0.027262 6:-0.0428799 7:-0.358645 8:-0.310268 9:-0.425 10:-0.824328 11:-0.73438 
8 1:-0.962776 2:-0.0528746 3:-0.87791 4:-0.455936 5:0.0561746 6:-0.160732 7:-0.354022 8:-0.863708 9:-0.432684 10:-0.814272 11:-0.708419 
8 1:-0.749842 2:-0.163274 3:-0.679519 4:-0.0939697 5:0.178191 6:0.274511 7:-0.364294 8:-0.785534 9:-0.405936 10:-0.779406 11:-0.682031 
7.008681429213862 1:-0.0603978 2:0.372888 3:0.159614 4:0.368645 5:0.470738 6:0.606769 7:0.0105044 8:-0.876631 9:-0.292372 10:-0.776145 11:-0.513533 
1.402642843769673 1:-0.34447 2:0.292625 3:-0.39243 4:-0.0636304 5:0.32392 6:-0.0946784 7:-0.123742 8:-0.503292 9:-0.129509 10:-0.389199 11:-0.454502 
8 1:0.325759 2:0.634058 3:0.442275 4:0.550605 5:0.667044 6:0.819533 7:-0.379631 8:-0.909494 9:-0.43734 10:-0.807337 11:-0.717163 
2.028297528447239 1:-0.886226 2:-0.101005 3:-0.655366 4:-0.333233 5:-0.0879224 6:-0.0747559 7:0.028993 8:-0.634704 9:0.116243 10:-0.118632 11:0.224327 
3.07583306771981 1:-0.914551 2:0.00971487 3:-0.919054 4:-0.218236 5:0.262437 6:-0.228708 7:-0.412473 8:-0.73004 9:-0.486591 10:-0.799204 11:-0.765941 
0.1909518295430341 1:-0.892513 2:-0.0365951 3:-0.87436 4:-0.916854 5:-0.19913 6:-0.893993 7:-0.327425 8:-0.0277156 9:0.554305 10:-0.276338 11:0.81056 
8 1:-0.873319 2:-0.0776085 3:-0.811643 4:-0.581266 5:-0.164458 6:-0.458427 7:-0.402413 8:-0.571131 9:-0.49535 10:-0.803482 11:-0.784197 
0.1397669776113962 1:-0.881664 2:-0.19388 3:-0.805056 4:-0.464184 5:-0.0286739 6:-0.255853 7:-0.493258 8:-0.80056 9:-0.350475 10:-0.722938 11:-0.613076 
8 1:-0.0275394 2:0.386909 3:0.0633449 4:0.341688 5:0.449198 6:0.473323 7:-0.322387 8:-0.884459 9:-0.383723 10:-0.738929 11:-0.65557 
3.939220014511111 1:-0.833551 2:0.409506 3:-0.72302 4:-0.616035 5:0.199915 6:-0.537679 7:-0.351421 8:-0.740561 9:-0.554531 10:-0.926389 11:-0.840661 
8 1:-0.837814 2:-0.111922 3:-0.772688 4:-0.29723 5:0.0706671 6:-0.0776931 7:-0.350492 8:-0.754382 9:-0.425573 10:-0.81346 11:-0.775005 
8 1:-0.174242 2:0.304943 3:0.111951 4:0.161526 5:0.337873 6:0.481326 7:-0.340853 8:-0.869131 9:-0.277826 10:-0.81122 11:-0.586269 
8 1:-0.718625 2:-0.0343944 3:-0.590355 4:-0.28187 5:0.000371888 6:-0.0225564 7:-0.388661 8:-0.787602 9:-0.522417 10:-0.865919 11:-0.849271 
8 1:-0.657062 2:-0.00666384 3:-0.565383 4:-0.195743 5:0.0742199 6:-0.0377034 7:-0.413073 8:-0.819496 9:-0.496262 10:-0.941221 11:-0.896565 
8 1:0.276391 2:0.566085 3:0.472691 4:0.349131 5:0.431875 6:0.6703 7:-0.381506 8:-0.861353 9:-0.407231 10:-0.807775 11:-0.695878 
8 1:0.471097 2:0.679377 3:0.586048 4:0.714972 5:0.75878 6:0.762751 7:-0.302853 8:-0.934418 9:-0.375209 10:-0.777527 11:-0.628326 
0.9252513839973224 1:-0.69877 2:0.0667154 3:-0.457021 4:-0.264885 5:0.0657085 6:-0.00694309 7:0.0447391 8:-0.863977 9:-0.136544 10:-0.657225 11:-0.370057 
8 1:-0.729697 2:-0.0479486 3:-0.65947 4:-0.0654018 5:0.135097 6:0.105093 7:-0.4116 8:-0.89142 9:-0.488613 10:-0.802138 11:-0.790436 
8 1:-0.659231 2:0.0130561 3:-0.507063 4:-0.176292 5:0.137371 6:0.202422 7:-0.357778 8:-0.742919 9:-0.54491 10:-0.884241 11:-0.822047 
8 1:-0.617943 2:0.0603683 3:-0.552224 4:-0.00149467 5:0.282446 6:0.243893 7:-0.482379 8:-0.81412 9:-0.545674 10:-0.829616 11:-0.836839 
8 1:-0.689817 2:0.101302 3:-0.60034 4:-0.461007 5:0.0765945 6:-0.330759 7:-0.268858 8:-0.756478 9:-0.464132 10:-0.912592 11:-0.697458 
2.20480768312957 1:-0.547863 2:0.688193 3:-0.450045 4:0.0654186 5:0.619086 6:0.157311 7:-0.422693 8:-0.807246 9:-0.468858 10:-0.777848 11:-0.838057 
5.677236886217125 1:-0.860856 2:-0.0968577 3:-0.852836 4:-0.553889 5:-0.201919 6:-0.47638 7:0.818057 8:-0.839986 9:0.228032 10:-0.49609 11:0.486563 
1.403544293014631 1:-0.62635 2:0.265258 3:-0.577042 4:-0.250028 5:0.215726 6:-0.172172 7:-0.405855 8:-0.829651 9:0.779834 10:-0.214253 11:-0.540684 
8 1:-0.866687 2:-0.00627863 3:-0.804129 4:-0.414554 5:-0.0314165 6:-0.205218 7:-0.439555 8:-0.785568 9:-0.48772 10:-0.79514 11:-0.772109 
6.267331407373439 1:-0.434821 2:0.114011 3:-0.326568 4:0.236837 5:0.365997 6:0.365909 7:-0.3325 8:-0.554741 9:-0.382271 10:-0.78999 11:-0.66309 
8 1:-0.882773 2:-0.0767292 3:-0.769752 4:-0.621533 5:-0.144892 6:-0.468904 7:-0.29239 8:-0.632304 9:-0.49412 10:-0.841097 11:-0.784072 
0.367993908390493 1:-0.767814 2:0.471332 3:-0.587061 4:0.11358 5:0.629299 6:0.028099 7:-0.157422 8:0.549362 9:-0.436414 10:-0.876055 11:-0.652061 
1.844971783671832 1:-0.770464 2:0.00263733 3:-0.433693 4:-0.432061 5:-0.0368029 6:-0.154159 7:0.501314 8:-0.590415 9:-0.523155 10:-0.784728 11:-0.750858 
8 1:-0.639664 2:0.0461391 3:-0.481959 4:-0.0988896 5:0.169291 6:0.194272 7:-0.373028 8:-0.872064 9:-0.426719 10:-0.788649 11:-0.703195 
0.8123399347454432 1:-0.926687 2:-0.0225432 3:-0.765196 4:-0.841403 5:-0.194665 6:-0.726551 7:-0.418742 8:-0.0634631 9:-0.43974 10:-0.854675 11:-0.681621 
2.434398290557569 1:-0.681986 2:0.0742117 3:-0.641765 4:-0.184801 5:0.177842 6:0.044689 7:0.253286 8:-0.479669 9:-0.177334 10:-0.390431 11:-0.0912195 
3.229809649809882 1:-0.533346 2:0.208895 3:-0.276316 4:-0.00831766 5:0.381919 6:0.290824 7:-0.490012 8:0.376425 9:-0.435165 10:-0.685887 11:-0.789992 
8 1:-0.571504 2:0.136476 3:-0.257324 4:-0.0519808 5:0.218702 6:0.154692 7:-0.357004 8:-0.841288 9:-0.407848 10:-0.794593 11:-0.692431 
4.398644244419865 1:-0.934633 2:-0.167917 3:-0.93184 4:-0.512799 5:-0.167047 6:-0.489317 7:1 8:-0.998062 9:1 10:1 11:1 
8 1:0.377719 2:0.664708 3:0.698486 4:0.439311 5:0.637695 6:0.737576 7:-0.415594 8:-0.820607 9:-0.478464 10:-0.796411 11:-0.761326 
3.880534818068871 1:-0.738219 2:0.0403111 3:-0.612076 4:-0.40709 5:0.0294648 6:-0.235789 7:-0.423611 8:-0.849303 9:-0.265296 10:-0.725361 11:-0.710838 
8 1:-0.547941 2:0.20117 3:-0.423377 4:0.0885769 5:0.395958 6:0.270663 7:-0.329541 8:-0.812353 9:-0.405729 10:-0.770892 11:-0.671461 
8 1:-0.513787 2:0.228312 3:-0.46544 4:0.00269542 5:0.350329 6:0.023974 7:-0.321106 8:-0.891219 9:-0.51722 10:-0.816859 11:-0.723798 
8 1:-0.488065 2:0.111429 3:-0.679295 4:-0.184372 5:0.104067 6:-0.237454 7:-0.343417 8:-0.981593 9:-0.400314 10:-0.783099 11:-0.682028 
8 1:-0.760749 2:0.114147 3:-0.526045 4:-0.420452 5:0.135127 6:-0.130244 7:-0.375702 8:-0.80068 9:-0.466397 10:-0.804741 11:-0.738513 
8 1:-0.845914 2:-0.026874 3:-0.780348 4:-0.520319 5:-0.0310066 6:-0.332952 7:-0.409867 8:-0.748649 9:-0.506008 10:-0.808878 11:-0.764506 
8 1:-0.717424 2:0.0659654 3:-0.519131 4:-0.478259 5:-0.0161224 6:-0.270997 7:-0.334375 8:-0.756639 9:-0.51106 10:-0.876764 11:-0.768626 
8 1:0.453888 2:0.675807 3:0.799987 4:0.553976 5:0.637384 6:0.85567 7:-0.357549 8:-0.948616 9:-0.412999 10:-0.805122 11:-0.704081 
8 1:-0.780847 2:0.15208 3:-0.687545 4:-0.283037 5:0.172583 6:-0.134598 7:-0.41622 8:-0.823452 9:-0.446246 10:-0.829899 11:-0.874953 
8 1:-0.392502 2:0.164678 3:-0.149445 4:0.0995359 5:0.268162 6:0.346199 7:-0.383817 8:-0.665723 9:-0.443741 10:-0.768776 11:-0.7129 
3.269170341616682 1:-0.747888 2:0.139319 3:-0.663512 4:-0.290255 5:0.241934 6:-0.0513414 7:-0.47646 8:-0.498057 9:-0.459054 10:-0.796289 11:-0.70679 
8 1:-0.716102 2:0.150947 3:-0.584609 4:-0.544253 5:0.0611777 6:-0.409111 7:-0.226327 8:-0.780063 9:-0.19837 10:-0.657335 11:-0.433118 
0.08265736685199419 1:-0.702641 2:0.00337697 3:-0.606019 4:-0.572586 5:-0.238945 6:-0.458239 7:-0.279767 8:-0.830275 9:-0.100592 10:-0.876808 11:-0.395096 
2.837416782327596 1:-0.740238 2:0.401017 3:-0.592263 4:-0.241238 5:0.321811 6:-0.264023 7:-0.427134 8:-0.473598 9:-0.506249 10:-0.859885 11:-0.779451 
8 1:-0.793941 2:0.0139108 3:-0.504871 4:-0.354302 5:0.045799 6:-0.0026031 7:-0.274771 8:-0.696511 9:-0.526131 10:-0.839054 11:-0.796985 
0.5153658277180304 1:-0.604409 2:0.231115 3:-0.53103 4:-0.237829 5:0.186938 6:-0.152505 7:-0.371929 8:-0.518558 9:-0.203452 10:-0.726545 11:-0.839092 
1.124914698224945 1:-0.865404 2:-0.0802682 3:-0.845347 4:-0.563203 5:-0.224225 6:-0.495662 7:0.0637862 8:-0.835304 9:1 10:0.0107048 11:0.796834 
8 1:-0.525492 2:0.0945759 3:-0.24353 4:-0.0402729 5:0.175318 6:0.235521 7:-0.351458 8:-0.83743 9:-0.413732 10:-0.796622 11:-0.688102 
8 1:-0.788176 2:0.022075 3:-0.768749 4:-0.334298 5:0.0774613 6:-0.233315 7:-0.327457 8:-0.81775 9:-0.384863 10:-0.771497 11:-0.675131 
8 1:-0.752985 2:0.0506942 3:-0.540455 4:-0.438621 5:0.0393501 6:-0.271483 7:-0.362637 8:-0.856254 9:-0.420587 10:-0.790936 11:-0.723848 
8 1:-0.733333 2:0.115536 3:-0.662921 4:-0.305 5:0.20403 6:-0.168026 7:-0.410938 8:-0.933852 9:-0.552426 10:-0.867464 11:-0.83337 
1.818937331718288 1:-0.889158 2:-0.0758837 3:-0.879583 4:-0.480611 5:-0.0610785 6:-0.391342 7:0.201246 8:1 9:-0.462407 10:-0.904654 11:-0.680485 
0.6332490383516174 1:-0.6379 2:-0.00219156 3:-0.616534 4:-0.197682 5:0.0444607 6:-0.183147 7:0.383327 8:1 9:0.508038 10:0.571353 11:0.581776 
8 1:-0.802564 2:0.00207566 3:-0.768531 4:-0.118737 5:0.129063 6:0.0135296 7:-0.407224 8:-0.853114 9:-0.465494 10:-0.809029 11:-0.748058 
0.1090949365150032 1:-0.912275 2:0.156226 3:-0.894617 4:-0.685038 5:-0.0338408 6:-0.680403 7:-0.451777 8:0.185384 9:0.35921 10:0.00752647 11:0.163576 
8 1:-0.817807 2:0.015499 3:-0.728884 4:-0.440798 5:0.0601345 6:-0.293233 7:-0.421883 8:-0.834021 9:-0.501055 10:-0.848606 11:-0.762604 
8 1:-0.769231 2:0.285441 3:-0.708737 4:-0.0581667 5:0.508154 6:-0.0427038 7:-0.39252 8:-0.875105 9:-0.464285 10:-0.824458 11:-0.732582 
8 1:-0.666277 2:0.0164237 3:-0.555602 4:-0.223995 5:-0.00292396 6:-0.054602 7:-0.244262 8:-0.837162 9:-0.396594 10:-0.864108 11:-0.737181 
8 1:-0.580404 2:0.266187 3:-0.459966 4:-0.194117 5:0.252009 6:-0.0536391 7:-0.435808 8:-0.824133 9:-0.493505 10:-0.826375 11:-0.778027 
8 1:-0.430113 2:0.206005 3:-0.103989 4:-0.101419 5:0.254724 6:0.344607 7:-0.415507 8:-0.894755 9:-0.49207 10:-0.842792 11:-0.770616 
0.3444809447274192 1:-0.830419 2:-0.0614274 3:-0.80545 4:-0.434392 5:-0.149857 6:-0.305362 7:1 8:-0.265347 9:0.386271 10:-0.615139 11:0.75152 
1.8003018468182 1:-0.617176 2:0.141443 3:-0.480136 4:-0.384308 5:0.0944255 6:-0.321981 7:-0.299482 8:-0.657183 9:-0.306373 10:-0.575773 11:-0.618376 
8 1:-0.657589 2:0.0162032 3:-0.467533 4:-0.284112 5:-0.0147755 6:0.00810274 7:-0.38301 8:-0.819917 9:-0.422516 10:-0.803523 11:-0.704553 
0.9478147197241228 1:-0.911913 2:-0.0490926 3:-0.813274 4:-0.520134 5:-0.0948798 6:-0.326049 7:0.0378028 8:-0.420286 9:-0.406903 10:-0.834061 11:-0.622083 
1.387002021331744 1:-0.840486 2:-0.0348253 3:-0.842229 4:-0.650686 5:-0.0653792 6:-0.635108 7:-0.0607572 8:-0.795449 9:0.179481 10:0.348707 11:-0.462004 
0.09828096274510525 1:-0.358666 2:0.179192 3:-0.258717 4:0.196201 5:0.379713 6:0.351889 7:-0.480766 8:-0.899172 9:1 10:-0.54043 11:-0.786373 
8 1:-0.807969 2:-0.0477349 3:-0.754812 4:-0.40556 5:-0.0857041 6:-0.261779 7:-0.290767 8:-0.754106 9:-0.521265 10:-0.823693 11:-0.741309 
8 1:0.293 2:0.594785 3:0.535658 4:0.771638 5:0.821247 6:0.850834 7:-0.349896 8:-0.950229 9:-0.353135 10:-0.666916 11:-0.658903 
8 1:-0.546965 2:0.197894 3:-0.457172 4:-0.265419 5:0.211497 6:-0.0312006 7:-0.499503 8:-0.854565 9:-0.522585 10:-0.771448 11:-0.813121 
0.2589920821485468 1:-0.672709 2:0.0944362 3:-0.596695 4:-0.473491 5:-0.0788886 6:-0.368152 7:-0.29194 8:-0.414544 9:-0.519463 10:-0.84726 11:-0.801198 
0.07935412100346761 1:-0.169031 2:0.682809 3:-0.176146 4:0.101788 5:0.651655 6:0.0929206 7:0.316271 8:-0.427258 9:0.356827 10:0.177257 11:-0.053002 
8 1:-0.747992 2:0.0586449 3:-0.467731 4:-0.267161 5:0.150246 6:0.0773298 7:-0.393913 8:-0.563388 9:-0.4925 10:-0.832366 11:-0.787206 
4.067355376423557 1:-0.817974 2:-0.0463998 3:-0.744391 4:-0.0356818 5:0.297111 6:0.167542 7:-0.418534 8:-0.91933 9:-0.592949 10:-0.777472 11:-0.886953 
1.934653089942391 1:-0.792598 2:-0.0870993 3:-0.786243 4:-0.349398 5:-0.0718619 6:-0.350602 7:1 8:-0.100054 9:1 10:1 11:1 
8 1:-0.836804 2:0.00643407 3:-0.580351 4:-0.474028 5:-0.0203055 6:-0.230181 7:-0.390703 8:-0.701368 9:-0.449665 10:-0.784536 11:-0.730468 
8 1:-0.335074 2:0.195253 3:-0.0641569 4:0.171016 5:0.32635 6:0.475326 7:-0.35038 8:-0.836958 9:-0.318115 10:-0.791412 11:-0.608087 
8 1:-0.803624 2:-0.0723969 3:-0.725864 4:-0.376206 5:-0.0195111 6:-0.0776806 7:-0.429219 8:-0.804166 9:-0.427681 10:-0.798331 11:-0.720313 
5.661621485647033 1:-0.845577 2:-0.00965291 3:-0.753643 4:-0.52151 5:-0.135521 6:-0.414563 7:-0.434131 8:-0.290519 9:-0.562116 10:-0.992184 11:-0.814409 
0.06603486849971103 1:-0.748475 2:-0.0597678 3:-0.712607 4:-0.539678 5:-0.231462 6:-0.459835 7:0.206086 8:-0.185945 9:1 10:-0.655633 11:1 
1.685812123632495 1:-0.823559 2:-0.0781656 3:-0.753414 4:-0.373776 5:-0.0605631 6:-0.258332 7:-0.0212101 8:-0.862716 9:-0.195678 10:-0.739877 11:-0.352995 
8 1:-0.493366 2:0.3982 3:-0.240484 4:0.0070078 5:0.458054 6:0.1067 7:-0.429654 8:-0.816297 9:-0.456615 10:-1 11:-0.883959 
0.5607990900684041 1:-0.387026 2:0.223833 3:-0.371304 4:0.119429 5:0.33765 6:0.226384 7:-0.109199 8:-0.745678 9:0.308988 10:-0.178885 11:0.0506129 
5.221042102285415 1:-0.876712 2:-0.192252 3:-0.857366 4:-0.44721 5:-0.0901997 6:-0.317437 7:-0.39919 8:-0.819437 9:-0.417725 10:-0.812663 11:-0.532408 
8 1:-0.716156 2:0.0216506 3:-0.589744 4:-0.398212 5:0.0251667 6:-0.131603 7:-0.404822 8:-0.872104 9:-0.507657 10:-0.908045 11:-0.760174 
6.92528146866807 1:-0.856741 2:-0.0140643 3:-0.689216 4:-0.505607 5:-0.00885048 6:-0.239025 7:-0.308671 8:-0.718635 9:-0.467071 10:-0.304208 11:-0.788524 
8 1:-0.858237 2:-0.0749672 3:-0.860164 4:-0.466182 5:-0.0997234 6:-0.399098 7:-0.165169 8:-0.909802 9:-0.274452 10:-0.681513 11:-0.559667 
0.3321589179939629 1:-0.750993 2:0.0835231 3:-0.567034 4:-0.443122 5:-0.0292096 6:-0.264122 7:-0.360365 8:-0.611995 9:-0.405184 10:-0.785484 11:-0.684348 
0.05451212824015882 1:-0.638163 2:0.0747718 3:-0.567098 4:-0.223756 5:0.136969 6:-0.0187664 7:-0.470952 8:1 9:0.209947 10:1 11:1 
8 1:-0.0803802 2:0.460584 3:0.466306 4:0.414599 5:0.639704 6:0.719141 7:-0.382322 8:-0.846593 9:-0.465501 10:-0.811683 11:-0.745746 
8 1:-0.863943 2:-0.0362628 3:-0.798561 4:-0.602903 5:-0.194641 6:-0.497238 7:-0.413803 8:-0.6817 9:-0.499827 10:-0.827106 11:-0.741629 
8 1:-0.814653 2:0.0164553 3:-0.704072 4:-0.452012 5:0.0258315 6:-0.291772 7:-0.390377 8:-0.89733 9:-0.427941 10:-0.79224 11:-0.725422 
8 1:0.352562 2:0.649973 3:0.581752 4:0.6431 5:0.774268 6:0.856648 7:-0.322351 8:-0.773808 9:-0.405702 10:-0.739755 11:-0.675621 
2.363378199441931 1:-0.710997 2:0.0171113 3:-0.605801 4:-0.45995 5:-0.0876086 6:-0.287125 7:-0.349898 8:-0.758167 9:-0.21012 10:-0.640711 11:-0.39274 
8 1:-0.656713 2:0.0412969 3:-0.497577 4:-0.127602 5:0.152237 6:0.160246 7:-0.416825 8:-0.895084 9:-0.466505 10:-0.83601 11:-0.742851 
3.420145832724088 1:-0.827219 2:-0.0828306 3:-0.809866 4:-0.508836 5:-0.143209 6:-0.501762 7:0.840433 8:-0.984468 9:0.528845 10:0.117661 11:0.38583 
8 1:-0.303743 2:0.350445 3:-0.0584809 4:0.0101028 5:0.294076 6:0.384765 7:-0.377735 8:-0.767692 9:-0.436071 10:-0.738053 11:-0.72083 
1.755176954121414 1:-0.673801 2:0.664704 3:-0.72062 4:-0.0234238 5:0.719465 6:-0.323606 7:-0.334041 8:-0.567509 9:-0.383549 10:-0.771199 11:-0.657207 
8 1:0.00957057 2:0.424164 3:0.298869 4:0.143891 5:0.274649 6:0.478872 7:-0.404178 8:-0.920426 9:-0.424719 10:-0.780751 11:-0.715479 
2.241543001365315 1:-0.403735 2:0.269161 3:-0.270742 4:-0.10392 5:0.253765 6:0.0404528 7:-0.526233 8:-0.895581 9:-0.251619 10:-0.908094 11:-0.934977 
8 1:-0.945065 2:-0.097702 3:-0.904399 4:-0.592805 5:-0.14042 6:-0.488774 7:-0.350353 8:-0.892281 9:-0.491375 10:-0.808062 11:-0.774433 
8 1:-0.716926 2:-0.0044821 3:-0.629634 4:-0.349172 5:-0.0867937 6:-0.212785 7:-0.198848 8:-0.826198 9:-0.339969 10:-0.847656 11:-0.684033 
8 1:-0.355702 2:0.287798 3:-0.184186 4:0.141054 5:0.452581 6:0.384156 7:-0.518236 8:-0.892216 9:-0.583936 10:-0.872646 11:-0.885744 
0.3261403341532914 1:-0.919087 2:-0.0487354 3:-0.908928 4:-0.671018 5:-0.0656374 6:-0.622537 7:-0.285085 8:-0.469601 9:-0.543 10:-0.510362 11:0.234535 
8 1:0.265647 2:0.552739 3:0.683346 4:0.822946 5:0.842028 6:0.919911 7:-0.437546 8:-0.840128 9:-0.482565 10:-0.83947 11:-0.779718 
0.03180979924561411 1:-0.806993 2:-0.0800996 3:-0.695071 4:-0.274181 5:-0.0533204 6:-0.0913705 7:-0.391344 8:-0.320696 9:-0.290535 10:0.0740863 11:-0.637606 
8 1:-0.747817 2:0.0885161 3:-0.649321 4:0.0659884 5:0.416216 6:0.25 7:-0.389102 8:-0.762838 9:-0.459365 10:-0.757659 11:-0.741642 
0.428423124050072 1:0.0142857 2:0.647548 3:-0.0174654 4:0.442337 5:0.751866 6:0.305399 7:0.207114 8:0.722662 9:0.0204286 10:-0.101704 11:-0.247541 
8 1:-0.797889 2:0.00284585 3:-0.736473 4:-0.54011 5:-0.0896704 6:-0.366196 7:-0.481161 8:-0.814372 9:-0.533186 10:-0.881558 11:-0.817386 
0.1540605716467909 1:-0.92 2:0.0163441 3:-0.912892 4:-1 5:-0.190476 6:-1 7:-0.359557 8:1 9:1 10:-0.311198 11:-0.221571 
3.131032717011491 1:-0.273785 2:0.381271 3:-0.169463 4:0.478262 5:0.681074 6:0.325641 7:-0.323529 8:-0.853103 9:-0.354736 10:-0.769041 11:-0.629996 
2.393789515830969 1:-0.688917 2:0.182374 3:-0.667056 4:-0.380481 5:0.140565 6:-0.243924 7:-0.364878 8:-0.138446 9:-0.532018 10:-0.911061 11:-0.83313 
1.15741049338573 1:-0.676806 2:0.0606895 3:-0.573894 4:-0.273151 5:0.122179 6:-0.055666 7:-0.247905 8:-0.385535 9:-0.19143 10:-0.565374 11:-0.469835 
8 1:-0.27696 2:0.326191 3:-0.000623507 4:0.0720869 5:0.390084 6:0.343477 7:-0.61917 8:-0.750941 9:-0.580567 10:-0.797184 11:-0.905741 
8 1:-0.477874 2:0.2128 3:-0.324335 4:0.0477639 5:0.284254 6:0.154084 7:-0.345302 8:-0.759229 9:-0.557768 10:-0.844204 11:-0.826305 
0.06277764406144044 1:-0.606557 2:1 3:-0.803279 4:0.025641 5:1 6:-0.487179 7:1 8:1 9:1 10:1 11:1 
0.1428014361871001 1:-0.868321 2:-0.0404816 3:-0.836888 4:-0.807777 5:-0.201482 6:-0.747573 7:-0.385904 8:0.578818 9:1 10:-0.0986309 11:0.755568 
8 1:-0.752702 2:-0.029291 3:-0.519022 4:-0.205659 5:0.0556806 6:0.0684379 7:-0.383127 8:-0.831687 9:-0.421352 10:-0.794849 11:-0.745844 
8 1:-0.407565 2:0.419633 3:-0.29399 4:0.141687 5:0.497301 6:0.197189 7:-0.3609 8:-0.514975 9:-0.407665 10:-0.771838 11:-0.684224 
0.1264966979296893 1:-0.717787 2:0.160144 3:-0.756868 4:-0.501591 5:-0.0716549 6:-0.579168 7:-0.0388015 8:1 9:1 10:1 11:1 
5.406139553382997 1:-0.579693 2:0.131768 3:-0.400012 4:-0.180337 5:0.161776 6:0.0684685 7:-0.403332 8:-0.849486 9:-0.274511 10:-0.461852 11:-0.67057 
8 1:-0.822749 2:-0.0450416 3:-0.639724 4:-0.227495 5:0.0754117 6:-0.0113785 7:-0.382217 8:-0.839659 9:-0.342355 10:-0.775737 11:-0.748932 
8 1:0.556739 2:0.733128 3:0.824458 4:0.602757 5:0.695844 6:0.873464 7:-0.340993 8:-0.89936 9:-0.369893 10:-0.753296 11:-0.653114 
0.170835779407136 1:-0.204639 2:0.369803 3:-0.00544598 4:0.210946 5:0.501123 6:0.458418 7:-0.323704 8:0.169124 9:-0.426588 10:-0.556426 11:-0.741649 
1.180319344955873 1:-0.857199 2:0.238011 3:-0.796293 4:-0.333786 5:0.280676 6:-0.261003 7:-0.441046 8:-1 9:-0.463171 10:-0.877744 11:-0.766438 
8 1:0.556329 2:0.998296 3:0.516166 4:0.939813 5:1 6:0.706828 7:-0.314964 8:-0.821738 9:-0.40753 10:-0.762355 11:-0.682963 
8 1:-0.686382 2:0.182843 3:-0.598685 4:-0.185739 5:0.181483 6:0.0259211 7:-0.388665 8:-0.814178 9:-0.534253 10:-0.823097 11:-0.821719 
8 1:-0.679131 2:0.13058 3:-0.431579 4:-0.320879 5:0.137276 6:-0.0820073 7:-0.43784 8:-0.835695 9:-0.560716 10:-0.774753 11:-0.825083 
8 1:-0.768134 2:0.0743489 3:-0.58053 4:-0.537701 5:0.0611968 6:-0.34679 7:-0.47625 8:-0.819265 9:-0.560005 10:-0.882275 11:-0.8173 
8 1:0.298039 2:0.577348 3:0.63756 4:0.310028 5:0.455136 6:0.642056 7:-0.336648 8:-0.880981 9:-0.401509 10:-0.765107 11:-0.675719 
8 1:-0.457516 2:0.202472 3:-0.115371 4:0.00590445 5:0.260907 6:0.379759 7:-0.383578 8:-0.812345 9:-0.458447 10:-0.801341 11:-0.740416 
0.1990754360591949 1:-0.676077 2:-0.00910277 3:-0.599521 4:-0.36222 5:-0.0960806 6:-0.223605 7:0.297575 8:-0.481646 9:-0.416059 10:-0.778755 11:-0.619499 
8 1:-0.700505 2:-0.0162665 3:-0.579181 4:-0.16068 5:0.0700641 6:0.122784 7:-0.399992 8:-0.794872 9:-0.552364 10:-0.89804 11:-0.752586 
0.4785755376956413 1:-0.558955 2:0.190457 3:-0.408838 4:-0.11193 5:0.268966 6:0.0835226 7:-0.525865 8:-0.817738 9:-0.476426 10:-0.715546 11:-0.771385 
8 1:-0.410587 2:0.201166 3:0.0825288 4:-0.00897395 5:0.281069 6:0.440997 7:-0.388481 8:-0.75733 9:-0.428068 10:-0.77297 11:-0.712049 
8 1:0.323139 2:0.589445 3:0.483431 4:0.71222 5:0.752058 6:0.865468 7:-0.39961 8:-0.765998 9:-0.478201 10:-0.87945 11:-0.767673 
8 1:-0.434158 2:0.0688906 3:-0.311858 4:0.0817335 5:0.206925 6:0.298219 7:-0.416758 8:-0.727791 9:-0.421032 10:-0.80767 11:-0.714525 
8 1:-0.76258 2:0.0233658 3:-0.57258 4:-0.318892 5:0.0693677 6:-0.0173037 7:-0.396735 8:-0.79261 9:-0.429361 10:-0.782062 11:-0.726525 
0.04111267849931831 1:-0.916651 2:-0.0525909 3:-0.91462 4:-0.758322 5:-0.318799 6:-0.749208 7:1 8:1 9:0.371992 10:-1 11:1 
8 1:-0.426188 2:0.141739 3:-0.0509207 4:0.129667 5:0.294058 6:0.4702 7:-0.361809 8:-0.880703 9:-0.43927 10:-0.789172 11:-0.716142 
7.948286732549711 1:-0.744335 2:-0.117066 3:-0.715459 4:-0.21541 5:0.0872433 6:0.0057064 7:-0.147292 8:-0.840227 9:-0.189639 10:-0.42301 11:-0.546462 
8 1:-0.606234 2:0.0895914 3:-0.267278 4:-0.0749774 5:0.262424 6:0.335057 7:-0.376065 8:-0.61982 9:-0.444478 10:-0.828988 11:-0.744303 
8 1:-0.762808 2:0.0410179 3:-0.608489 4:-0.375752 5:0.12562 6:-0.212155 7:-0.283206 8:-0.724096 9:-0.296291 10:-0.642361 11:-0.590977 
8 1:-0.914496 2:-0.0686258 3:-0.896868 4:-0.390855 5:-0.0318234 6:-0.21293 7:-0.388893 8:-0.845773 9:-0.327673 10:-0.893884 11:-0.663768 
0.1096469252564169 1:-0.835902 2:0.284121 3:-0.882762 4:-0.47672 5:0.0747644 6:-0.623711 7:1 8:-0.947996 9:1 10:1 11:1 
1.134674629845607 1:-0.839627 2:0.157831 3:-0.836798 4:-0.508004 5:0.0927398 6:-0.522961 7:1 8:1 9:1 10:0.524192 11:1 
1.110016171961135 1:-0.726393 2:0.131004 3:-0.717712 4:-0.290876 5:0.0679991 6:-0.17044 7:-0.373415 8:-0.639548 9:-0.280485 10:-0.432061 11:-0.506409 
8 1:-0.833089 2:0.0362419 3:-0.777014 4:-0.292461 5:0.178798 6:-0.0953088 7:-0.469742 8:-0.819199 9:-0.510331 10:-0.822222 11:-0.802184 
8 1:-0.707157 2:0.00513295 3:-0.632191 4:-0.339899 5:-0.0305433 6:-0.230484 7:-0.308452 8:-0.884502 9:-0.435077 10:-0.835594 11:-0.671958 
0.1039622428735321 1:-0.736511 2:0.0828169 3:-0.712595 4:-0.323002 5:0.142032 6:-0.132474 7:0.325387 8:1 9:1 10:0.0827298 11:1 
8 1:-0.667508 2:0.104156 3:-0.488742 4:-0.44529 5:0.0666147 6:-0.172525 7:-0.439405 8:-0.873545 9:-0.526247 10:-0.857472 11:-0.809582 
8 1:-0.264275 2:0.231065 3:0.0222972 4:0.157256 5:0.326329 6:0.488424 7:-0.362853 8:-0.82835 9:-0.410216 10:-0.73887 11:-0.698261 
8 1:-0.7518 2:-0.0526976 3:-0.640547 4:-0.34544 5:-0.0642069 6:-0.134584 7:-0.389245 8:-0.800734 9:-0.408962 10:-0.784456 11:-0.70464 
4.805930425030675 1:-0.184114 2:0.369473 3:0.0551402 4:0.15508 5:0.384743 6:0.4866 7:-0.291812 8:-0.832842 9:-0.309033 10:-0.649564 11:-0.600339 
0.9339767646361948 1:-0.824965 2:-0.0903598 3:-0.74873 4:-0.387076 5:-0.0851356 6:-0.204142 7:0.336622 8:-0.826904 9:0.471833 10:-0.317086 11:0.244859 
8 1:-0.907074 2:-0.119173 3:-0.898379 4:-0.434517 5:-0.10259 6:-0.31201 7:1 8:0.0471689 9:1 10:1 11:1 
0.9746295802336608 1:-0.870096 2:-0.00124724 3:-0.862535 4:-0.61313 5:-0.0135355 6:-0.548938 7:-0.44767 8:-0.741155 9:-0.419645 10:-0.931419 11:-0.863983 
8 1:-0.166991 2:0.355792 3:0.131222 4:0.0346487 5:0.325675 6:0.31744 7:-0.387053 8:-0.802978 9:-0.44868 10:-0.768775 11:-0.739161 
1.806372299114765 1:-0.798297 2:0.0205614 3:-0.749624 4:-0.231424 5:0.136259 6:-0.0558681 7:-0.302019 8:-1 9:-0.366659 10:-0.745813 11:-0.647953 
8 1:-0.783215 2:0.0717132 3:-0.672668 4:-0.352094 5:0.152004 6:-0.109043 7:-0.265943 8:-0.747406 9:-0.429953 10:-0.942315 11:-0.69709 
8 1:-0.658831 2:0.0906656 3:-0.52335 4:-0.259233 5:0.0617385 6:-0.0610038 7:-0.299884 8:-0.650753 9:-0.54002 10:-0.833625 11:-0.840053 
4.155459033817261 1:-0.890753 2:-0.118428 3:-0.872585 4:-0.755252 5:-0.361167 6:-0.722109 7:1 8:1 9:1 10:1 11:1 
0.006362432355475555 1:-0.775631 2:0.0813015 3:-0.744979 4:-0.442222 5:0.0919715 6:-0.369442 7:-0.452221 8:-0.167317 9:0.965737 10:-0.892864 11:-0.925736 
8 1:-0.328462 2:0.324481 3:-0.106113 4:-0.0408051 5:0.380408 6:0.189984 7:-0.478034 8:-0.800452 9:-0.591334 10:-0.939698 11:-0.850159 
8 1:-0.762867 2:-0.00680053 3:-0.654941 4:-0.397113 5:0.0494195 6:-0.158513 7:-0.314702 8:-0.837418 9:-0.54502 10:-0.908045 11:-0.760174 
8 1:-0.726324 2:0.0644291 3:-0.497573 4:-0.351708 5:0.102807 6:-0.105011 7:-0.413082 8:-0.799979 9:-0.520421 10:-0.797493 11:-0.808849 
0.8124902116184637 1:-0.90333 2:0.0819765 3:-0.909238 4:-0.479283 5:-0.0159946 6:-0.470371 7:0.0412882 8:-0.279468 9:-0.178772 10:-0.817758 11:-0.615672 
8 1:-0.530065 2:0.0655001 3:-0.34589 4:-0.023849 5:0.173101 6:0.209476 7:-0.451914 8:-0.869838 9:-0.40562 10:-0.828186 11:-0.757075 
2.148411581836943 1:0.085187 2:0.424881 3:0.23208 4:0.679012 5:0.709506 6:0.649631 7:-0.372319 8:1 9:-0.416045 10:-0.628709 11:-0.710901 
0.2940775837025039 1:-0.952057 2:-0.0646926 3:-0.949818 4:-0.899143 5:-0.279529 6:-0.882537 7:-0.282976 8:1 9:-0.569038 10:-0.908084 11:-0.832223 
8 1:-0.580932 2:0.036922 3:-0.407649 4:-0.121249 5:0.108936 6:0.0383863 7:-0.369102 8:-0.809327 9:-0.503464 10:-0.852654 11:-0.796013 
8 1:-0.801955 2:0.216805 3:-0.544072 4:-0.345172 5:0.205419 6:-0.177318 7:-0.366211 8:-0.742875 9:-0.543688 10:-0.888107 11:-0.807542 
8 1:-0.736577 2:0.0337013 3:-0.682773 4:-0.253705 5:0.0683851 6:-0.0403227 7:-0.440993 8:-0.866553 9:-0.46814 10:-0.825426 11:-0.754436 
0.07818794885613252 1:-0.862763 2:-0.0565614 3:-0.857662 4:-0.712435 5:-0.239994 6:-0.690909 7:1 8:1 9:-0.608135 10:-1 11:1 
8 1:-0.536066 2:0.245809 3:-0.0477383 4:0.221687 5:0.567145 6:0.440481 7:-0.254322 8:-0.865922 9:-0.543835 10:-0.919823 11:-0.772578 
8 1:-0.983542 2:-0.0800181 3:-0.956764 4:-0.621007 5:-0.0774147 6:-0.460414 7:-0.255309 8:-0.818539 9:-0.485455 10:-0.82559 11:-0.750505 
0.3937323852316597 1:-0.784013 2:0.078216 3:-0.711191 4:-0.303382 5:0.194043 6:-0.145658 7:0.476243 8:-0.398669 9:-0.153921 10:-0.621289 11:0.0508424 
0.8666223771620334 1:-0.831776 2:-0.0124396 3:-0.831208 4:-0.556053 5:-0.173811 6:-0.539046 7:1 8:-0.771065 9:0.204184 10:0.0127633 11:1 
0.40148325285329 1:-0.840211 2:-0.114159 3:-0.815228 4:-0.532134 5:-0.224856 6:-0.446873 7:1 8:-0.708365 9:1 10:0.427921 11:1 
0.09093918308629917 1:-0.920721 2:-0.115793 3:-0.90815 4:-0.69344 5:-0.283142 6:-0.644764 7:1 8:0.145875 9:0.318249 10:-0.772396 11:1 
3.634260343995408 1:-0.496263 2:0.107511 3:-0.393861 4:-0.262759 5:0.00496427 6:-0.142857 7:-0.252633 8:-0.0131458 9:-0.00244739 10:-0.235295 11:-0.283698 
1.603277649600171 1:-0.450835 2:0.138814 3:-0.349837 4:0.0211765 5:0.245522 6:0.128107 7:-0.407938 8:-0.89364 9:1 10:-0.555136 11:-0.0174135 
8 1:-0.7799 2:0.0339201 3:-0.607406 4:-0.402781 5:0.0270868 6:-0.140183 7:-0.379092 8:-0.819562 9:-0.440983 10:-0.814676 11:-0.719753 
8 1:-0.633503 2:0.154451 3:-0.386142 4:-0.361507 5:0.0798702 6:-0.0376556 7:-0.381511 8:-0.817609 9:-0.499646 10:-0.818117 11:-0.787801 
8 1:-0.519083 2:0.184481 3:-0.251052 4:-0.187994 5:0.236443 6:0.128155 7:-0.438556 8:-0.730387 9:-0.375701 10:-0.755025 11:-0.691343 
7.667991214715379 1:-0.711223 2:-0.0196062 3:-0.594283 4:-0.300882 5:-0.00120187 6:-0.0742216 7:-0.414846 8:-0.520231 9:-0.45327 10:-0.809438 11:-0.74547 
0.05366384895822372 1:-0.910699 2:-0.0349445 3:-0.905801 4:-0.819458 5:-0.269829 6:-0.804714 7:1 8:1 9:-0.22024 10:1 11:1 
0.05850838215969563 1:-1 2:0.173828 3:-1 4:-0.448366 5:0.275833 6:-0.38925 7:1 8:-0.933449 9:0.966829 10:-0.230205 11:1 
8 1:0.37977 2:0.674385 3:0.8948 4:0.585711 5:0.742724 6:0.812266 7:-0.425491 8:-0.81172 9:-0.482041 10:-0.805237 11:-0.760819 
0.007566352006263661 1:-0.90963 2:-0.107297 3:-0.902116 4:-0.428362 5:-0.158159 6:-0.343066 7:-0.326218 8:-0.753299 9:1 10:1 11:-0.524712 
0.2671275423142027 1:-0.538617 2:0.199577 3:-0.46432 4:-0.388894 5:0.133952 6:-0.249878 7:-0.523517 8:0.215506 9:0.505401 10:0.394771 11:-0.790756 
8 1:-0.103318 2:0.327727 3:0.543864 4:0.29266 5:0.434003 6:0.736306 7:-0.391041 8:-0.848409 9:-0.461865 10:-0.867494 11:-0.760059 
3.026396391233003 1:-0.82528 2:-0.000917685 3:-0.804225 4:-0.593974 5:-0.186623 6:-0.533977 7:-0.269396 8:-0.791837 9:-0.118559 10:-0.689957 11:-0.193651 
8 1:-0.727241 2:-0.0155517 3:-0.58913 4:-0.239098 5:0.0838691 6:0.138792 7:-0.396248 8:-0.776717 9:-0.55001 10:-0.877402 11:-0.855278 
8 1:-0.985418 2:0.0221967 3:-0.952504 4:-0.468127 5:0.111965 6:-0.253719 7:-0.368914 8:-0.817681 9:-0.497338 10:-0.837529 11:-0.776095 
0.5637913995082403 1:-0.328344 2:0.196367 3:-0.227924 4:0.000262659 5:0.190397 6:0.0889994 7:0.556107 8:0.220889 9:1 10:1 11:1 
8 1:-0.531955 2:0.145609 3:-0.470434 4:-0.254276 5:0.197865 6:-0.000822972 7:-0.384467 8:-0.872869 9:-0.550234 10:-0.866779 11:-0.83125 
8 1:-0.73955 2:0.0678906 3:-0.556419 4:-0.314896 5:0.0668965 6:0.00803366 7:-0.32501 8:-0.768339 9:-0.5247 10:-0.859442 11:-0.803182 
7.415003755442474 1:-0.823651 2:0.0478385 3:-0.778167 4:-0.289139 5:0.214121 6:-0.115942 7:-0.411407 8:-0.899366 9:-0.100883 10:-0.638207 11:-0.480642 
8 1:-0.727273 2:0.0942757 3:-0.679626 4:-0.205159 5:0.220215 6:-0.076156 7:-0.503891 8:-0.978249 9:-0.542713 10:-0.883399 11:-0.828156 
5.45011148075979 1:-0.604361 2:0.487288 3:-0.560285 4:-0.0988765 5:0.42956 6:-0.218031 7:-0.415316 8:-0.878628 9:-0.506388 10:-0.900702 11:-0.769832 
0.08997275650185381 1:0.473214 2:0.667923 3:0.473214 4:0.764706 5:0.774826 6:0.764706 7:1 8:1 9:1 10:1 11:-1 
8 1:-0.684703 2:0.046576 3:-0.558154 4:-0.205983 5:0.114785 6:0.00338847 7:-0.48993 8:-0.848118 9:-0.488291 10:-0.79542 11:-0.738629 
8 1:-0.681733 2:-0.0219398 3:-0.573696 4:-0.0450438 5:0.156569 6:0.203148 7:-0.396077 8:-0.873122 9:-0.445018 10:-0.806748 11:-0.72166 
8 1:-0.194449 2:0.39363 3:-0.00470469 4:0.0786992 5:0.439857 6:0.262812 7:-0.157855 8:-0.988578 9:-0.489629 10:-0.96646 11:-0.699721 
8 1:-0.360866 2:0.283155 3:-0.163229 4:-0.179381 5:0.23595 6:0.0877098 7:-0.523975 8:-0.821059 9:-0.566618 10:-0.862309 11:-0.853128 
7.878107602005308 1:0.22036 2:0.527131 3:0.453447 4:0.668061 5:0.722001 6:0.643604 7:-0.403236 8:-0.815844 9:-0.420039 10:-0.787642 11:-0.707655 
8 1:-0.843978 2:-0.0555666 3:-0.794451 4:-0.377835 5:-0.0797704 6:-0.274536 7:-0.439208 8:-0.873301 9:-0.603076 10:-0.695389 11:-0.806948 
8 1:-0.566528 2:0.111129 3:-0.449144 4:-0.0539411 5:0.226339 6:0.13247 7:-0.376043 8:-0.704964 9:-0.437536 10:-0.846138 11:-0.704945 
8 1:-0.793693 2:0.0677727 3:-0.600645 4:-0.327571 5:0.116741 6:-0.0959207 7:-0.217419 8:-0.804587 9:-0.466139 10:-0.803667 11:-0.707805 
8 1:-0.643641 2:0.172057 3:-0.401299 4:-0.140171 5:0.253575 6:0.140736 7:-0.398058 8:-0.702227 9:-0.427803 10:-0.792103 11:-0.723136 
8 1:-0.738688 2:0.117948 3:-0.732903 4:-0.309756 5:0.134323 6:-0.161801 7:-0.290069 8:-0.812456 9:-0.38042 10:-0.757923 11:-0.641324 
8 1:-0.716723 2:-0.013705 3:-0.549312 4:-0.203326 5:0.0341622 6:0.0163339 7:-0.345805 8:-0.840101 9:-0.406971 10:-0.744419 11:-0.691626 
8 1:0.438906 2:0.71445 3:0.611148 4:0.667133 5:0.751068 6:0.925242 7:-0.344783 8:-0.954464 9:-0.347021 10:-0.768024 11:-0.653187 
8 1:-0.80586 2:0.0435197 3:-0.715237 4:-0.444087 5:0.11237 6:-0.296078 7:-0.263761 8:-0.800384 9:-0.461656 10:-0.798385 11:-0.734274 
8 1:-0.672094 2:0.337844 3:-0.571105 4:0.0240008 5:0.414957 6:0.0834527 7:-0.32594 8:-0.805767 9:-0.371513 10:-0.77159 11:-0.6536 
0.403563552470044 1:-0.663715 2:0.0663266 3:-0.631137 4:-0.300862 5:0.160069 6:-0.178089 7:1 8:0.0282655 9:-0.13982 10:-0.902918 11:0.479793 
8 1:-0.644946 2:0.0169103 3:-0.459526 4:-0.279264 5:-0.0163625 6:-0.0102508 7:-0.384831 8:-0.810072 9:-0.404602 10:-0.783325 11:-0.704262 
8 1:-0.737008 2:-0.0250105 3:-0.65685 4:-0.498025 5:-0.0896802 6:-0.314456 7:-0.206994 8:-0.794927 9:-0.284913 10:-0.876808 11:-0.516128 
2.532306487214527 1:-0.884999 2:0.1583 3:-0.783801 4:-0.571181 5:0.0236945 6:-0.500253 7:-0.384789 8:-0.752002 9:-0.508586 10:-0.659744 11:-0.864423 
8 1:-0.529102 2:0.144386 3:-0.417057 4:-0.376966 5:0.0389907 6:-0.280316 7:-0.401975 8:-0.745177 9:-0.470876 10:-0.780485 11:-0.750811 
8 1:-0.615254 2:0.0652768 3:-0.69349 4:-0.393612 5:-0.0088362 6:-0.309564 7:-0.293239 8:-0.825025 9:-0.371529 10:-0.768985 11:-0.645951 
6.475904558281234 1:-1 2:-0.0410156 3:-1 4:-0.484914 5:0.00318347 6:-0.436277 7:-0.0183012 8:-0.857244 9:-0.665567 10:-0.750219 11:-0.681605 
0.3993089146271521 1:-0.741114 2:0.356012 3:-0.635721 4:-0.425502 5:0.242437 6:-0.477448 7:0.143034 8:-0.64181 9:-0.57558 10:-0.885769 11:-0.844551 
2.525071657892765 1:-0.779652 2:0.06367 3:-0.741571 4:-0.47713 5:-0.0332681 6:-0.408571 7:-0.273043 8:-0.755212 9:-0.583464 10:-0.851344 11:-0.842423 
0.8928714574491236 1:-0.738253 2:-0.0463606 3:-0.669201 4:-0.160639 5:0.0885046 6:0.0461082 7:0.498928 8:-0.663886 9:0.567267 10:-0.193382 11:0.12077 
4.870407086650749 1:-0.916554 2:-0.0129245 3:-0.880376 4:-0.840531 5:-0.219035 6:-0.799445 7:-0.372287 8:1 9:-0.248399 10:-0.191007 11:-0.611486 
8 1:-0.767533 2:0.0425068 3:-0.580297 4:-0.437875 5:0.0778182 6:-0.102536 7:-0.366753 8:-0.836376 9:-0.467822 10:-0.831305 11:-0.723214 
0.1517147786299782 1:-0.649159 2:-0.0817204 3:-0.642862 4:0.252525 5:0.277206 6:0.25537 7:0.180657 8:1 9:1 10:0.0424558 11:0.0435086 
8 1:-0.75603 2:0.0471517 3:-0.708841 4:-0.300262 5:0.096932 6:-0.202212 7:-0.462515 8:-0.812443 9:-0.547783 10:-0.904474 11:-0.777282 
8 1:-0.840006 2:0.0217222 3:-0.815514 4:-0.222606 5:0.164552 6:-0.0754403 7:-0.431827 8:-0.778128 9:-0.477715 10:-0.794849 11:-0.75764 
8 1:-0.559248 2:0.268429 3:-0.239937 4:-0.323519 5:0.277673 6:-0.15031 7:-0.433648 8:-0.840026 9:-0.443889 10:-0.75595 11:-0.73744 
8 1:0.275091 2:0.563262 3:0.487868 4:0.412322 5:0.517776 6:0.666132 7:-0.337955 8:-0.924944 9:-0.387943 10:-0.771718 11:-0.674442 
8 1:-0.183101 2:0.282401 3:0.0463969 4:0.262127 5:0.37024 6:0.576489 7:-0.369824 8:-0.937609 9:-0.439481 10:-0.841682 11:-0.711644 
5.28547967332308 1:-0.385087 2:0.130926 3:-0.168118 4:-0.054321 5:0.154122 6:0.180012 7:0.166562 8:-0.715864 9:0.135016 10:-0.458013 11:-0.0822566 
0.4240856361548974 1:-0.92208 2:-0.0632225 3:-0.912354 4:-0.465843 5:-0.0293648 6:-0.365816 7:0.251874 8:-0.68979 9:-0.355756 10:-0.869334 11:-0.750033 
8 1:0.117741 2:0.641932 3:0.240925 4:0.556305 5:0.787861 6:0.595239 7:-0.418732 8:-0.854066 9:-0.496717 10:-0.828155 11:-0.770981 
8 1:0.529628 2:0.834626 3:0.798047 4:0.875662 5:0.965322 6:0.926867 7:-0.402497 8:-0.898017 9:-0.440978 10:-0.824014 11:-0.734607 
8 1:0.0597231 2:0.47776 3:0.364205 4:0.460056 5:0.576627 6:0.701565 7:-0.367163 8:-0.867345 9:-0.392037 10:-0.768141 11:-0.677208 
8 1:-0.387946 2:0.249228 3:-0.254331 4:-0.0199307 5:0.209539 6:0.0666277 7:-0.354137 8:-0.757046 9:-0.336957 10:-0.780791 11:-0.72623 
8 1:-0.605804 2:0.337403 3:-0.560849 4:-0.0702799 5:0.447425 6:0.0919703 7:-0.466664 8:-0.879902 9:-0.549357 10:-0.909236 11:-0.823657 
3.36897360984592 1:-0.752274 2:-0.0164244 3:-0.74634 4:-0.346755 5:-0.0463339 6:-0.371092 7:-0.0907004 8:0.675283 9:-0.0978506 10:-0.0212913 11:-0.230965 
8 1:-0.75457 2:0.0595194 3:-0.671396 4:-0.496915 5:-0.046593 6:-0.348801 7:-0.386823 8:-0.89023 9:-0.457859 10:-0.839709 11:-0.738244 
8 1:-0.650095 2:0.0415241 3:-0.503904 4:-0.255544 5:-0.00289072 6:-0.0357345 7:-0.378931 8:-0.752945 9:-0.470926 10:-0.773717 11:-0.777623 
8 1:0.0789899 2:0.423573 3:0.425 4:0.491975 5:0.559641 6:0.799385 7:-0.367101 8:-0.786914 9:-0.445399 10:-0.81761 11:-0.717643 
8 1:-0.755019 2:-0.0557293 3:-0.687991 4:-0.590042 5:-0.176165 6:-0.440221 7:-0.17685 8:-0.792451 9:-0.296224 10:-0.741448 11:-0.395096 
8 1:1 2:1 3:0.993693 4:1 5:1 6:0.997547 7:-0.493369 8:-1 9:-0.54762 10:-0.94613 11:-0.835319 
8 1:-0.82182 2:0.18624 3:-0.743395 4:-0.387331 5:0.0769228 6:-0.274542 7:-0.387531 8:-0.837907 9:-0.509933 10:-0.803521 11:-0.789902 
2.678939581522257 1:-0.789677 2:0.0517019 3:-0.779917 4:-0.580645 5:-0.106452 6:-0.604592 7:1 8:-0.597159 9:1 10:1 11:1 
1.798752939354506 1:-0.433757 2:0.13275 3:-0.155601 4:-0.0484057 5:0.186102 6:0.261056 7:-0.088931 8:-0.896127 9:-0.23606 10:-0.666414 11:-0.43101 
0.4212824532167645 1:-0.889107 2:-0.0146227 3:-0.774182 4:-0.751212 5:-0.148278 6:-0.634938 7:-0.453939 8:-0.809444 9:-0.361146 10:-0.828899 11:-0.765691 
8 1:-0.749017 2:0.0552507 3:-0.574536 4:-0.343783 5:0.0472283 6:-0.0848655 7:-0.363461 8:-0.816692 9:-0.514433 10:-0.838942 11:-0.793844 
8 1:-0.666667 2:0.151975 3:-0.654732 4:-0.367647 5:0.174517 6:-0.302633 7:-0.395917 8:-0.854461 9:-0.560379 10:-0.881987 11:-0.683947 
8 1:0.584156 2:0.979063 3:0.286418 4:0.971426 5:1 6:0.665976 7:-0.247581 8:-0.839236 9:-0.355555 10:-0.674732 11:-0.627275 
0.1191143128875966 1:0.248 2:1 3:-0.48 4:1 5:1 6:0.111111 7:1 8:1 9:1 10:1 11:1 
8 1:-0.708333 2:0.288508 3:-0.74521 4:-0.16346 5:0.443632 6:-0.12971 7:-0.425916 8:-0.929101 9:-0.567741 10:-0.881345 11:-0.863982 
8 1:-0.389233 2:0.175098 3:-0.216397 4:0.0342634 5:0.210396 6:0.290323 7:-0.376153 8:-0.87721 9:-0.433214 10:-0.835279 11:-0.739772 
8 1:-0.171131 2:0.290122 3:0.0925055 4:0.223987 5:0.321246 6:0.445078 7:-0.349275 8:-0.866692 9:-0.417755 10:-0.800625 11:-0.68483 
3.85785026549659 1:-0.739728 2:0.0973304 3:-0.614286 4:-0.577895 5:0.00752536 6:-0.43734 7:0.0670508 8:-0.850379 9:-0.480448 10:-0.829849 11:-0.792977 
8 1:-0.816125 2:0.118088 3:-0.716321 4:-0.419212 5:0.0831917 6:-0.35052 7:-0.23123 8:-0.80117 9:-0.278891 10:-0.657628 11:-0.560083 
8 1:-0.805389 2:-0.128814 3:-0.732051 4:-0.404852 5:-0.122391 6:-0.226821 7:-0.203064 8:-0.650923 9:-0.342799 10:-0.823471 11:-0.698659 
1.382725535804904 1:-0.705612 2:0.0519552 3:-0.669498 4:-0.308994 5:0.0754248 6:-0.224673 7:-0.545115 8:0.0040946 9:-0.5651 10:-0.975429 11:-0.505107 
0.00923644205485152 1:-0.94995 2:-0.160131 3:-0.922861 4:-0.727956 5:-0.191621 6:-0.630054 7:-0.270695 8:-0.54963 9:1 10:1 11:-0.323835 
8 1:-0.766101 2:0.0327464 3:-0.656441 4:-0.393602 5:0.0513251 6:-0.226209 7:-0.386428 8:-0.824973 9:-0.465343 10:-0.768504 11:-0.740026 
8 1:-0.746929 2:-0.029592 3:-0.615029 4:-0.174283 5:0.0642189 6:0.100132 7:-0.405679 8:-0.793319 9:-0.52213 10:-0.866139 11:-0.752328 
8 1:-0.697211 2:0.237175 3:-0.297804 4:-0.409158 5:0.150362 6:-0.150054 7:-0.288179 8:-0.792408 9:-0.493257 10:-0.817178 11:-0.753663 
8 1:-0.769053 2:0.0962945 3:-0.594969 4:-0.431005 5:0.0830816 6:-0.214293 7:-0.425096 8:-0.829215 9:-0.475985 10:-0.826422 11:-0.755528 
0.3937023110262902 1:-0.874981 2:-0.0120942 3:-0.828403 4:-0.563058 5:-0.134146 6:-0.495299 7:-0.303223 8:1 9:-0.463744 10:-0.825402 11:0.619753 
8 1:-0.858242 2:-0.0241944 3:-0.800258 4:-0.302644 5:0.0908334 6:-0.189463 7:-0.34759 8:-0.920687 9:-0.429624 10:-0.817802 11:-0.696687 
0.03739061289290619 1:-0.730801 2:0.158323 3:-0.599153 4:-0.535074 5:0.00193216 6:-0.524941 7:0.775873 8:-0.377605 9:-0.313551 10:-0.877171 11:1 
0.01264788303361368 1:-0.907706 2:0.00496557 3:-0.93362 4:-0.519861 5:-0.0811721 6:-0.552177 7:1 8:-0.490894 9:1 10:0.463755 11:1 
8 1:-0.236403 2:0.414968 3:-0.267088 4:0.247707 5:0.539079 6:0.32607 7:-0.420203 8:-0.804433 9:-0.482627 10:-0.769736 11:-0.760455 
7.062495019939176 1:-0.785198 2:-0.0106253 3:-0.573528 4:-0.255395 5:0.0318779 6:0.012968 7:-0.160708 8:-0.571136 9:-0.457226 10:-0.816034 11:-0.716666 
0.7711956736882738 1:-0.825844 2:0.0179883 3:-0.797834 4:-0.293651 5:0.153555 6:-0.225625 7:-0.0611989 8:0.466997 9:0.176666 10:0.10179 11:-0.279584 
4.962930038777092 1:-0.516683 2:0.121434 3:-0.363144 4:-0.167665 5:0.0972562 6:0.0347688 7:0.278993 8:-0.840236 9:-0.427781 10:-0.778755 11:-0.271417 
8 1:-0.894476 2:0.0841388 3:-0.830889 4:-0.409117 5:0.105641 6:-0.275433 7:-0.473226 8:-0.793725 9:-0.543226 10:-0.921677 11:-0.8037 
0.05457271760461831 1:-0.954303 2:-0.0673869 3:-0.950761 4:-0.789351 5:-0.199997 6:-0.769658 7:1 8:1 9:-0.58147 10:-0.678382 11:-0.946651 
0.07695127276248664 1:-0.625247 2:0.0462512 3:-0.517688 4:-0.303464 5:0.00834 6:-0.131352 7:0.475085 8:-0.0641033 9:-0.56348 10:-0.534453 11:-0.854425 
8 1:0.577628 2:0.978874 3:0.293808 4:0.958011 5:1 6:0.665805 7:-0.254739 8:-0.842784 9:-0.358356 10:-0.680307 11:-0.630704 
1.903785973191092 1:-0.0488925 2:0.342702 3:0.0243708 4:0.304419 5:0.414742 6:0.45448 7:-0.211858 8:0.88415 9:-0.365872 10:-0.466881 11:-0.559067 
8 1:0.576411 2:0.768782 3:0.768053 4:0.832933 5:0.873187 6:0.939856 7:-0.414304 8:-0.91995 9:-0.462572 10:-0.839928 11:-0.755823 
1.331936020938149 1:-0.767887 2:-0.0284449 3:-0.714377 4:-0.266479 5:-0.00775811 6:-0.0797764 7:-0.0769827 8:-0.739642 9:1 10:0.132 11:1 
8 1:-0.661635 2:0.130348 3:-0.544051 4:-0.395802 5:0.0821868 6:-0.252623 7:-0.411149 8:-0.786449 9:-0.479947 10:-0.771471 11:-0.760146 
0.4196415223515838 1:-0.740422 2:-0.0760583 3:-0.746253 4:-0.299269 5:-0.00011497 6:-0.24072 7:-0.167416 8:-0.677519 9:-0.125217 10:-0.0975042 11:-0.363031 
8 1:-0.820646 2:-0.089485 3:-0.713329 4:-0.298177 5:-0.0357177 6:-0.0978443 7:-0.319851 8:-0.793885 9:-0.426034 10:-0.789762 11:-0.647423 
8 1:-0.882801 2:0.33314 3:-0.762799 4:-0.396722 5:0.275702 6:-0.295539 7:-0.399407 8:-0.729581 9:-0.546444 10:-0.926389 11:-0.840661 
8 1:-0.465638 2:0.374481 3:-0.373854 4:-0.0719052 5:0.361272 6:0.0113308 7:-0.447491 8:-0.835677 9:-0.614456 10:-0.800124 11:-0.742471 
0.8473920664663073 1:-0.941069 2:-0.0053339 3:-0.924242 4:-0.5975 5:-0.0230647 6:-0.438471 7:-0.544105 8:-0.652542 9:-0.203141 10:-0.921224 11:-0.835079 
8 1:-0.610896 2:0.146108 3:-0.315592 4:-0.479358 5:0.0460505 6:-0.2034 7:-0.400525 8:-0.837943 9:-0.461497 10:-0.818785 11:-0.738488 
2.513669295718406 1:-0.576471 2:0.187633 3:-0.44086 4:-0.200823 5:0.255667 6:-0.00311526 7:-0.450246 8:-0.385927 9:-0.0940124 10:-0.0116984 11:-0.585029 
6.457111427971543 1:-0.671965 2:0.0555318 3:-0.549862 4:-0.149274 5:0.0578847 6:-0.0394244 7:-0.38682 8:-0.948354 9:-0.474594 10:-0.841928 11:-0.72726 
0.0383178754440947 1:-0.732159 2:-0.0330224 3:-0.623228 4:-0.333446 5:0.0372768 6:-0.188779 7:1 8:1 9:-0.661275 10:1 11:-0.948969 
0.2663294406630921 1:-0.656353 2:-0.00400105 3:-0.604683 4:-0.26197 5:-0.0318872 6:-0.204863 7:0.576261 8:1 9:0.642802 10:1 11:0.499211 
8 1:-0.507565 2:0.183672 3:-0.289256 4:0.00380065 5:0.345295 6:0.230982 7:-0.456315 8:-0.782127 9:-0.515048 10:-0.811408 11:-0.796777 
0.3940243958442395 1:-0.786908 2:-0.112542 3:-0.656662 4:-0.151643 5:0.124021 6:0.0867785 7:-0.385442 8:-0.614077 9:-0.487467 10:-0.805695 11:-0.775487 
8 1:-0.831014 2:-0.0184247 3:-0.718864 4:-0.466696 5:-0.108705 6:-0.239186 7:-0.224959 8:-0.822789 9:-0.218577 10:-0.722205 11:-0.696706 
8 1:-0.568222 2:0.182552 3:-0.272152 4:-0.304049 5:0.208416 6:-0.0186125 7:-0.44199 8:-0.85744 9:-0.534046 10:-0.835066 11:-0.815356 
0.6124434912272838 1:-0.794351 2:0.0799933 3:-0.710541 4:-0.340976 5:0.147117 6:-0.172957 7:-0.295423 8:-0.854023 9:-0.36091 10:-0.601219 11:-0.667221 
8 1:-0.76965 2:-0.0577278 3:-0.659544 4:-0.342429 5:-0.0781931 6:-0.126108 7:-0.369829 8:-0.873352 9:-0.402865 10:-0.773557 11:-0.702993 
8 1:-0.643768 2:0.11258 3:-0.461673 4:-0.115137 5:0.212085 6:0.210641 7:-0.324625 8:-0.774511 9:-0.413466 10:-0.728078 11:-0.700278 
8 1:-0.791283 2:0.0728435 3:-0.623115 4:-0.221944 5:0.216305 6:0.0639497 7:-0.384373 8:-0.725092 9:-0.473278 10:-0.770247 11:-0.771282 
5.300042308424936 1:-0.768709 2:0.00741964 3:-0.747579 4:-0.568826 5:-0.125199 6:-0.459462 7:-0.302339 8:-0.791544 9:-0.395486 10:-0.780271 11:-0.666916 
8 1:-0.13053 2:0.422772 3:0.220472 4:0.14141 5:0.491786 6:0.42562 7:-0.518647 8:-0.845455 9:-0.604404 10:-0.961997 11:-0.913673 
8 1:-0.615381 2:0.177326 3:-0.493961 4:-0.138381 5:0.189123 6:0.000945137 7:-0.436678 8:-0.802384 9:-0.48159 10:-0.835769 11:-0.745059 
8 1:-0.792985 2:-0.0178553 3:-0.718089 4:-0.316089 5:-0.00947955 6:-0.112583 7:-0.392221 8:-0.845736 9:-0.440225 10:-0.651844 11:-0.730153 
8 1:0.892963 2:0.938994 3:0.989525 4:0.789125 5:0.821098 6:0.971204 7:-0.479256 8:-0.994102 9:-0.542249 10:-0.886144 11:-0.822098 
8 1:0.766703 2:0.926514 3:0.953191 4:0.894298 5:0.941972 6:0.955721 7:-0.434058 8:-0.908576 9:-0.511924 10:-0.851261 11:-0.793032 
0.1221201497435409 1:-0.789172 2:0.0299461 3:-0.776564 4:-0.2 5:0.25121 6:-0.0776699 7:1 8:1 9:-0.597866 10:-0.66971 11:0.0114063 
0.8620922221045541 1:-0.737602 2:-0.0284015 3:-0.662688 4:-0.451397 5:-0.157512 6:-0.423599 7:-0.144155 8:0.0333455 9:-0.0644422 10:-0.627048 11:-0.339242 
8 1:-0.906209 2:-0.0828571 3:-0.778646 4:-0.727429 5:-0.163035 6:-0.641148 7:-0.342567 8:-0.85482 9:-0.40625 10:-0.769671 11:-0.683645 
1.144221705585886 1:-0.88 2:0.0139667 3:-0.878247 4:-0.589744 5:0.0113782 6:-0.566161 7:-0.398756 8:0.644625 9:-0.3534 10:-0.999184 11:-0.744622 
8 1:-0.727837 2:0.0955114 3:-0.601461 4:0.0575397 5:0.400226 6:0.295518 7:-0.527219 8:-0.889977 9:-0.59185 10:-0.904055 11:-0.88166 
8 1:-0.825964 2:0.0480073 3:-0.692211 4:-0.505127 5:0.0599427 6:-0.305744 7:-0.338542 8:-0.877657 9:-0.465011 10:-0.802007 11:-0.756383 
8 1:-0.0171607 2:0.46101 3:0.380492 4:0.251599 5:0.528426 6:0.566236 7:-0.389967 8:-0.819685 9:-0.47113 10:-0.794811 11:-0.743222 
8 1:-0.749915 2:0.1142 3:-0.650642 4:-0.192689 5:0.223395 6:-0.0140102 7:-0.40215 8:-0.733144 9:-0.468695 10:-0.860217 11:-0.738311 
8 1:-0.891489 2:-0.0280257 3:-0.804874 4:-0.49282 5:-0.0146889 6:-0.268776 7:-0.351824 8:-0.825212 9:-0.491982 10:-0.814256 11:-0.743427 
0.4316990505834541 1:-0.796167 2:0.0692699 3:-0.744198 4:-0.20828 5:0.230743 6:-0.127504 7:-0.477108 8:-0.926713 9:-0.555118 10:-0.989375 11:-0.872414 
0.1999563887270583 1:-0.254528 2:0.361031 3:-0.086647 4:-0.100369 5:0.348213 6:0.174211 7:-0.48837 8:-0.820071 9:-0.564871 10:-0.888576 11:-0.838656 
3.681541461878719 1:-0.935093 2:-0.0404748 3:-0.91726 4:-0.29845 5:0.143453 6:-0.11731 7:-0.482766 8:-0.813115 9:-0.530536 10:-0.775319 11:-0.768783 
8 1:-0.660891 2:0.0874249 3:-0.5099 4:-0.03577 5:0.261392 6:0.234094 7:-0.336135 8:-0.812061 9:-0.417 10:-0.755308 11:-0.698177 
8 1:-0.43648 2:0.240283 3:-0.20709 4:0.0508576 5:0.386877 6:0.31026 7:-0.394176 8:-0.795479 9:-0.434522 10:-0.763541 11:-0.716483 
8 1:-0.836143 2:-0.132158 3:-0.78047 4:-0.354303 5:-0.0231156 6:-0.122299 7:-0.344459 8:-0.799589 9:-0.412289 10:-0.784424 11:-0.677522 
8 1:-0.74352 2:0.104552 3:-0.565081 4:-0.38891 5:0.113049 6:-0.162244 7:-0.436098 8:-0.685502 9:-0.490278 10:-0.840892 11:-0.771115 
1.328738893907966 1:0.467005 2:0.671417 3:0.530754 4:0.749315 5:0.766834 6:0.773789 7:0.295004 8:-0.930951 9:0.152343 10:-0.261118 11:-0.215912 
8 1:-0.250283 2:0.252256 3:-0.0130387 4:0.25974 5:0.425925 6:0.557315 7:-0.40382 8:-0.854223 9:-0.458513 10:-0.824125 11:-0.731835 
6.244437942571818 1:-0.775483 2:-0.068039 3:-0.699702 4:-0.392192 5:-0.0781039 6:-0.256129 7:-0.300195 8:1 9:-0.199545 10:-0.48985 11:-0.513176 
0.186867879526455 1:0.139241 2:0.454885 3:0.227164 4:0.575 5:0.625595 6:0.750372 7:1 8:1 9:-0.161964 10:-0.958404 11:-0.289355 
1.167316299551538 1:-0.695677 2:-0.0449228 3:-0.652447 4:-0.215977 5:0.0861903 6:0.0264877 7:-0.218626 8:-0.842686 9:-0.288041 10:-0.458193 11:-0.633995 
0.06506816716142592 1:-0.69207 2:0.101158 3:-0.570957 4:-0.741114 5:-0.0896247 6:-0.627422 7:-0.460478 8:1 9:-0.550955 10:1 11:-0.647507 
8 1:-0.495222 2:0.216193 3:-0.112015 4:-0.25991 5:0.205941 6:-0.0265683 7:-0.364594 8:-0.802784 9:-0.41851 10:-0.788934 11:-0.694444 
8 1:-0.584671 2:0.0972812 3:-0.477304 4:0.187109 5:0.386529 6:0.38175 7:-0.361583 8:-0.903546 9:-0.396935 10:-0.792136 11:-0.698377 
3.591194825552193 1:-0.683062 2:0.00674794 3:-0.609746 4:-0.206493 5:0.158021 6:0.0329493 7:1 8:-0.624412 9:-0.26639 10:-0.77961 11:-0.610332 
8 1:-0.527879 2:0.0663198 3:-0.32334 4:-0.169966 5:0.0446338 6:0.140403 7:-0.403419 8:-0.649121 9:-0.433367 10:-0.805323 11:-0.710654 
8 1:-0.927292 2:-0.0157758 3:-0.849002 4:-0.453996 5:0.0838681 6:-0.356052 7:-0.335203 8:-0.868153 9:-0.485971 10:-0.860446 11:-0.770216 
6.384239984060528 1:-0.547491 2:0.135576 3:-0.404572 4:-0.0898527 5:0.23052 6:0.186216 7:-0.447185 8:-0.658225 9:-0.436735 10:-0.451609 11:-0.747907 
8 1:-0.142028 2:0.520787 3:-0.0753975 4:0.128463 5:0.518625 6:0.273491 7:-0.346263 8:-0.806715 9:-0.402043 10:-0.768092 11:-0.693927 
8 1:0.787338 2:0.874203 3:0.971826 4:0.820226 5:0.849274 6:0.9618 7:-0.399185 8:-1 9:-0.456322 10:-0.854312 11:-0.744427 
8 1:-0.468465 2:0.214873 3:-0.162979 4:0.0108668 5:0.341659 6:0.34916 7:-0.413022 8:-0.788724 9:-0.527986 10:-0.834932 11:-0.810173 
8 1:-0.525805 2:0.154644 3:-0.417162 4:0.0016955 5:0.172301 6:0.14874 7:-0.386643 8:-0.7758 9:-0.432121 10:-0.802504 11:-0.718833 
8 1:-0.847806 2:-0.056469 3:-0.792911 4:-0.356153 5:-0.0746252 6:-0.219288 7:-0.399425 8:-0.872199 9:-0.433509 10:-0.729301 11:-0.730025 
8 1:-0.529666 2:0.154749 3:-0.109635 4:-0.12572 5:0.232688 6:0.333289 7:-0.381919 8:-0.625398 9:-0.443861 10:-0.71027 11:-0.725186 
8 1:-0.732418 2:-0.0390493 3:-0.610043 4:-0.273512 5:0.0274345 6:0.0139603 7:-0.393675 8:-0.767763 9:-0.514934 10:-0.876182 11:-0.854426 
8 1:-0.702863 2:0.164663 3:-0.497573 4:-0.283525 5:0.216153 6:-0.105011 7:-0.413082 8:-0.799979 9:-0.520421 10:-0.797493 11:-0.808849 
8 1:0.474499 2:0.679248 3:0.852541 4:0.602469 5:0.668242 6:0.910066 7:-0.422332 8:-0.886506 9:-0.488373 10:-0.823628 11:-0.767793 
0.683113515708784 1:-0.426983 2:0.103995 3:-0.319779 4:0.130785 5:0.25276 6:0.270942 7:-0.333396 8:0.445951 9:-0.370381 10:-0.733855 11:-0.652395 
8 1:-0.817102 2:-0.0606123 3:-0.738303 4:-0.438601 5:-0.0971445 6:-0.291668 7:-0.408559 8:-0.832977 9:-0.43232 10:-0.844182 11:-0.731031 
8 1:-0.829122 2:0.0512751 3:-0.732655 4:-0.313234 5:0.198592 6:-0.0429226 7:-0.402912 8:-0.81187 9:-0.502763 10:-0.847485 11:-0.787379 
0.004748536740239383 1:-0.355246 2:0.70178 3:-0.484476 4:0.117576 5:0.705985 6:-0.09758 7:-0.432503 8:-0.879314 9:-0.326107 10:1 11:-0.816438 
8 1:0.197116 2:0.634213 3:0.358541 4:0.789605 5:0.872345 6:0.683719 7:-0.456711 8:-0.808648 9:-0.492498 10:-0.880223 11:-0.795021 
8 1:0.103905 2:0.505289 3:0.440004 4:0.539027 5:0.628112 6:0.743033 7:-0.348784 8:-0.887028 9:-0.412087 10:-0.785253 11:-0.694634 
8 1:0.439441 2:0.667863 3:0.61904 4:0.80893 5:0.853942 6:0.848287 7:-0.450742 8:-0.950464 9:-0.483839 10:-0.838871 11:-0.777783 
8 1:-0.621761 2:0.144967 3:-0.387075 4:-0.37688 5:0.092426 6:-0.143946 7:-0.386281 8:-0.748382 9:-0.367622 10:-0.759603 11:-0.795574 
2.711698970121092 1:-0.0926829 2:0.333358 3:0.0999036 4:0.518072 5:0.56856 6:0.635152 7:-0.409603 8:-0.530047 9:-0.460065 10:-0.865281 11:-0.740862 
2.394305846995002 1:-0.896411 2:-0.238625 3:-0.87666 4:-0.497605 5:-0.0211163 6:-0.46664 7:-0.0158913 8:1 9:-0.303055 10:-0.0591188 11:-0.39096 
8 1:0.667256 2:1 3:0.605686 4:1 5:1 6:0.807192 7:-0.364958 8:-0.872407 9:-0.438369 10:-0.815205 11:-0.712284 
8 1:-0.407326 2:0.272999 3:-0.151683 4:0.148495 5:0.479688 6:0.490885 7:-0.429583 8:-0.818085 9:-0.482636 10:-0.770677 11:-0.769878 
0.04188699389531006 1:-0.228316 2:0.398145 3:-0.202974 4:0.329945 5:0.462391 6:0.282979 7:-0.25512 8:-0.179694 9:1 10:0.0363756 11:1 
0.9837663835949603 1:-0.798542 2:-0.101605 3:-0.725652 4:-0.283877 5:-0.0637896 6:-0.0525708 7:-0.343924 8:-0.71265 9:1 10:0.121956 11:1 
3.596324914845075 1:-0.47096 2:0.276274 3:-0.281512 4:0.0994432 5:0.459279 6:0.360964 7:-0.128087 8:-0.648164 9:-0.221374 10:-0.532125 11:-0.51832 
8 1:-0.815224 2:0.0839239 3:-0.781654 4:-0.378062 5:-0.082676 6:-0.320878 7:-0.364126 8:-0.812933 9:-0.471458 10:-0.840031 11:-0.729528 
8 1:-0.640018 2:0.0699964 3:-0.487761 4:-0.233412 5:0.104388 6:-0.0405616 7:-0.387947 8:-0.831399 9:-0.459468 10:-0.834412 11:-0.729706 
4.883433441541905 1:-0.990244 2:0.168738 3:-0.921446 4:-0.807728 5:0.00852492 6:-0.579357 7:-0.395805 8:-0.831118 9:-0.443865 10:-0.831678 11:-0.728481 
8 1:-0.580188 2:0.0730703 3:-0.464718 4:-0.294609 5:0.0566329 6:-0.164875 7:-0.44948 8:-0.664009 9:-0.378403 10:-0.658192 11:-0.7703 
0.642155810279826 1:-0.334316 2:0.280561 3:-0.0169786 4:0.192938 5:0.494825 6:0.493125 7:1 8:-0.559299 9:-0.282831 10:-0.586834 11:-0.532613 
1.275127872913813 1:-0.406847 2:0.209428 3:-0.305091 4:-0.15759 5:0.172073 6:-0.0533808 7:-0.419873 8:-0.404252 9:-0.499518 10:-0.736218 11:-0.783243 
2.195140695252694 1:-0.377741 2:0.281394 3:-0.219377 4:0.117906 5:0.34961 6:0.296321 7:-0.299312 8:-0.879296 9:-0.34024 10:-0.784577 11:-0.631822 
8 1:-0.453455 2:0.24579 3:-0.0384615 4:0.112652 5:0.447758 6:0.48318 7:-0.409182 8:-0.821162 9:-0.475481 10:-0.797499 11:-0.745509 
8 1:-0.703883 2:0.0630686 3:-0.303915 4:-0.577325 5:-0.116672 6:-0.343308 7:-0.387559 8:-0.953117 9:-0.467482 10:-0.805371 11:-0.749995 
0.8594532959188782 1:-0.840974 2:-0.0205928 3:-0.788654 4:-0.292747 5:0.023429 6:-0.0721787 7:-0.368312 8:-0.835299 9:-0.399681 10:-0.696572 11:-0.699165 
8 1:-0.558992 2:0.162104 3:-0.3112 4:-0.0132048 5:0.314279 6:0.27415 7:-0.387524 8:-0.511908 9:-0.353623 10:-0.565187 11:-0.651205 
8 1:-0.371681 2:0.219019 3:-0.18403 4:0.0934397 5:0.354105 6:0.444133 7:-0.26993 8:-0.784509 9:-0.30495 10:-0.656408 11:-0.592225 
0.7042700884739996 1:-0.74866 2:0.20554 3:-0.603847 4:-0.371777 5:0.297911 6:-0.215482 7:-0.318439 8:0.464953 9:-0.531431 10:-0.867323 11:-0.818599 
0.4017593464604173 1:-0.78813 2:-0.0167137 3:-0.635526 4:-0.515733 5:-0.0971145 6:-0.323248 7:-0.351678 8:-0.673883 9:-0.406251 10:0.512763 11:-0.740076 
5.745645946269319 1:-0.817012 2:-0.205301 3:-0.799816 4:-0.315534 5:0.0309508 6:-0.135882 7:-0.316989 8:-0.879809 9:-0.496839 10:-0.831128 11:-0.800491 
2.351878057338883 1:-0.875116 2:-0.0901914 3:-0.761404 4:-0.351496 5:0.000466053 6:-0.104046 7:-0.186162 8:0.172652 9:-0.23031 10:-0.352008 11:-0.444225 
0.1423248280419047 1:-0.856718 2:-0.110611 3:-0.838239 4:-0.390975 5:-0.0879292 6:-0.246534 7:1 8:1 9:-0.0962407 10:0.771464 11:-0.357215 
8 1:-0.511993 2:0.193784 3:-0.285604 4:-0.179601 5:0.195796 6:0.0612623 7:-0.342402 8:-0.797659 9:-0.416173 10:-0.796307 11:-0.68867 
1.745059431564888 1:-0.797404 2:0.0426604 3:-0.76615 4:-0.228869 5:0.217896 6:-0.0818723 7:0.390388 8:-0.609397 9:-0.424516 10:-0.773874 11:-0.243788 
4.33438270815013 1:-0.467945 2:0.145815 3:-0.124805 4:-0.0350222 5:0.212573 6:0.139494 7:-0.473101 8:-0.174906 9:-0.489956 10:-0.626199 11:-0.77358 
8 1:-0.770172 2:0.076155 3:-0.574363 4:-0.39995 5:0.0603667 6:-0.126048 7:-0.380456 8:-0.831797 9:-0.525932 10:-0.855557 11:-0.795402 
8 1:0.225794 2:0.585143 3:0.517537 4:0.45195 5:0.649264 6:0.715825 7:-0.345979 8:-0.74782 9:-0.408413 10:-0.718634 11:-0.692296 
8 1:-0.545569 2:0.170697 3:-0.49534 4:-0.321949 5:0.0967067 6:-0.161018 7:-0.392882 8:-0.80138 9:-0.536508 10:-0.870194 11:-0.785753 
0.2608173499708143 1:-0.827207 2:-0.0752337 3:-0.757714 4:-0.375798 5:-0.0655341 6:-0.189017 7:1 8:-0.841391 9:-0.483377 10:1 11:-0.528003 
0.2161362602837268 1:-0.0666667 2:0.841839 3:-0.333333 4:0.12 5:0.798462 6:-0.2 7:1 8:1 9:1 10:1 11:1 
0.3820277312995174 1:-0.776863 2:0.0962423 3:-0.64814 4:-0.270806 5:0.124525 6:-0.105865 7:-0.452334 8:-0.87005 9:-0.323482 10:-0.284136 11:-0.750941 
8 1:-0.474629 2:0.196049 3:-0.263597 4:-0.0524112 5:0.262638 6:0.109364 7:-0.324434 8:-0.793634 9:-0.424313 10:-0.738681 11:-0.699101 
8 1:-0.609135 2:0.0525517 3:-0.480281 4:-0.00755337 5:0.222342 6:0.235805 7:-0.40581 8:-0.892828 9:-0.462047 10:-0.837738 11:-0.733574 
5.02950230376048 1:-0.869549 2:0.0239124 3:-0.738962 4:-0.527162 5:-0.0246001 6:-0.339254 7:-0.317544 8:-0.858591 9:-0.400615 10:-0.770938 11:-0.672468 
8 1:-0.718008 2:-0.0171559 3:-0.604535 4:-0.299012 5:0.00416552 6:-0.0756303 7:-0.188728 8:-0.582668 9:-0.381457 10:-0.524849 11:-0.690393 
8 1:-0.800283 2:0.106585 3:-0.596209 4:-0.40223 5:0.105876 6:-0.159549 7:-0.352619 8:-0.783989 9:-0.475807 10:-0.830632 11:-0.760858 
4.036740953154546 1:-0.57271 2:0.145074 3:-0.287359 4:-0.201127 5:0.11503 6:0.071849 7:-0.166123 8:-0.900132 9:-0.23498 10:-0.65387 11:-0.513877 
8 1:0.231434 2:0.556397 3:0.570304 4:0.2783 5:0.452677 6:0.630812 7:-0.390815 8:-0.841478 9:-0.398241 10:-0.779066 11:-0.679432 
0.08650001308978278 1:-0.609302 2:0.790398 3:-0.782946 4:-0.0328358 5:0.695582 6:-0.462687 7:1 8:1 9:1 10:-1 11:1 
0.05314843170061792 1:-0.876613 2:-0.0728931 3:-0.872223 4:-0.591207 5:-0.194736 6:-0.557376 7:1 8:-0.275842 9:-0.04271 10:0.274745 11:-0.146159 
8 1:-0.586213 2:0.348302 3:-0.393242 4:0.0703621 5:0.384027 6:0.280547 7:-0.334846 8:-0.841577 9:-0.391107 10:-0.740359 11:-0.671794 
4.105166638231101 1:-0.984326 2:-0.072536 3:-0.959555 4:-0.65782 5:-0.0857118 6:-0.561554 7:-0.486938 8:-0.859126 9:-0.441825 10:-0.809812 11:-0.664779 
8 1:-0.736247 2:0.123466 3:-0.477279 4:-0.412862 5:0.118883 6:-0.123899 7:-0.380935 8:-0.787674 9:-0.43999 10:-0.791741 11:-0.722263 
8 1:-0.723376 2:0.110056 3:-0.67088 4:-0.302553 5:0.106436 6:-0.174318 7:-0.352056 8:-0.783484 9:-0.521096 10:-0.83167 11:-0.771975 
1.966310078257263 1:-0.868207 2:-0.08008 3:-0.860145 4:-0.680153 5:-0.242181 6:-0.681542 7:0.860733 8:-0.712431 9:0.698987 10:0.534659 11:0.513426 
8 1:-0.916461 2:-0.00900771 3:-0.703319 4:-0.375933 5:0.151076 6:0.0613377 7:-0.411692 8:-0.808294 9:-0.491609 10:-0.834964 11:-0.780137 
0.05824065636022698 1:-0.979592 2:-0.0846151 3:-0.979592 4:-0.78125 5:-0.244662 6:-0.78125 7:1 8:-0.302779 9:1 10:-1 11:1 
7.907535309786849 1:-0.42786 2:0.180748 3:-0.312817 4:0.0752779 5:0.235622 6:0.395293 7:-0.38091 8:-0.265616 9:-0.210714 10:-0.628579 11:-0.55704 
0.1095888800360397 1:-0.924779 2:-0.0385895 3:-0.921548 4:-0.432069 5:0.091627 6:-0.354839 7:1 8:1 9:-0.57025 10:-1 11:1 
0.294455394543301 1:-0.74896 2:-0.0540325 3:-0.654433 4:-0.134987 5:0.119897 6:0.0337285 7:0.0557486 8:-0.928173 9:-0.168865 10:-0.309618 11:-0.512921 
4.748311326854435 1:0.0261956 2:0.491136 3:0.430619 4:0.243815 5:0.536457 6:0.491955 7:-0.576921 8:-0.966234 9:-0.557239 10:-0.779633 11:-0.871936 
8 1:0.359118 2:0.615754 3:0.690018 4:0.553894 5:0.624113 6:0.848885 7:-0.372109 8:-0.963211 9:-0.420856 10:-0.800317 11:-0.712301 
8 1:-0.838844 2:0.0206839 3:-0.659763 4:-0.826103 5:-0.136779 6:-0.705185 7:-0.32464 8:-0.880717 9:-0.274816 10:-0.549235 11:-0.627122 
8 1:-0.310156 2:0.202326 3:-0.104781 4:0.150214 5:0.295456 6:0.383467 7:-0.381884 8:-0.814919 9:-0.412478 10:-0.786186 11:-0.69216 
8 1:-0.662719 2:0.0341683 3:-0.551133 4:-0.08971 5:0.144842 6:0.171321 7:-0.369486 8:-0.661495 9:-0.45536 10:-0.779208 11:-0.705886 
8 1:-0.330739 2:0.288309 3:-0.174101 4:0.0161042 5:0.353874 6:0.384655 7:-0.376716 8:-0.685295 9:-0.407632 10:-0.672375 11:-0.705038 
2.868259929021167 1:-0.828283 2:-0.0938832 3:-0.823678 4:-0.518987 5:-0.162178 6:-0.514416 7:1 8:-0.99646 9:1 10:1 11:1 
0.03038056332713126 1:-0.857875 2:0.0389446 3:-0.828269 4:-0.872222 5:-0.127089 6:-0.877717 7:-0.617471 8:1 9:0.850874 10:1 11:0.680877 
8 1:0.41895 2:0.633095 3:0.501172 4:0.680687 5:0.697629 6:0.842829 7:-0.462583 8:-0.83648 9:-0.535624 10:-0.872635 11:-0.819667 
8 1:-0.614696 2:0.115052 3:-0.465563 4:-0.282503 5:0.109328 6:-0.0406111 7:-0.463355 8:-0.843811 9:-0.492751 10:-0.902603 11:-0.835361 
8 1:0.308549 2:0.63035 3:0.71985 4:0.45697 5:0.65633 6:0.786291 7:-0.388103 8:-0.805135 9:-0.450852 10:-0.768638 11:-0.73403 
0.7198113100828709 1:-0.104375 2:0.332051 3:0.168139 4:0.288089 5:0.444401 6:0.52476 7:-0.343151 8:-0.611924 9:-0.446028 10:-0.838225 11:-0.712798 
8 1:-0.798503 2:0.0364398 3:-0.723785 4:-0.455787 5:-0.0527294 6:-0.323098 7:-0.348217 8:-0.603157 9:-0.428276 10:-0.857366 11:-0.705541 
8 1:-0.159208 2:0.308712 3:0.291507 4:0.317217 5:0.442506 6:0.691267 7:-0.390385 8:-0.936988 9:-0.430402 10:-0.816859 11:-0.707179 
8 1:-0.539521 2:0.166945 3:-0.188144 4:-0.00718981 5:0.303109 6:0.357794 7:-0.408221 8:-0.758938 9:-0.476384 10:-0.781686 11:-0.758133 
0.1712281511935415 1:-0.782946 2:0.344227 3:-0.844961 4:-0.269565 5:0.289217 6:-0.478261 7:1 8:-0.891724 9:1 10:-1 11:-1 
0.05253937663354868 1:-0.923641 2:-0.119475 3:-0.943776 4:-0.681472 5:-0.268004 6:-0.696356 7:0.804743 8:0.207901 9:0.600202 10:0.480096 11:0.324948 
8 1:-0.627931 2:0.138822 3:-0.48694 4:-0.0161769 5:0.315205 6:0.216879 7:-0.394518 8:-0.818641 9:-0.463813 10:-0.798663 11:-0.747578 
8 1:-0.826967 2:-0.0738793 3:-0.800259 4:-0.518546 5:-0.133053 6:-0.475039 7:0.00593351 8:-0.838066 9:-0.309741 10:-0.725551 11:-0.554801 
8 1:-0.821291 2:-0.00858802 3:-0.767849 4:-0.317603 5:0.0734449 6:-0.18187 7:-0.317828 8:-0.873187 9:-0.367021 10:-0.787067 11:-0.649989 
8 1:-0.721823 2:0.272413 3:-0.420081 4:-0.393104 5:0.184408 6:-0.145924 7:-0.342268 8:-0.803498 9:-0.450221 10:-0.802148 11:-0.725797 
8 1:-0.569311 2:0.259995 3:-0.349419 4:-0.17067 5:0.316007 6:0.0898823 7:-0.397628 8:-0.857166 9:-0.474827 10:-0.862028 11:-0.758795 
8 1:-0.671933 2:0.113304 3:-0.763025 4:-0.362269 5:0.0301357 6:-0.371782 7:-0.332652 8:-0.91736 9:-0.393804 10:-0.78913 11:-0.670381 
3.194889207101647 1:-0.653188 2:0.002646 3:-0.469575 4:0.0408829 5:0.231803 6:0.294338 7:0.866266 8:-0.659544 9:-0.596126 10:-0.929534 11:-0.693619 
5.624338271705744 1:-0.57161 2:0.209302 3:-0.48484 4:0.0213716 5:0.340949 6:0.147606 7:-0.445072 8:-0.927487 9:-0.612892 10:-0.875374 11:-0.826367 
0.3812825386802091 1:-0.95128 2:-0.239989 3:-0.925831 4:-0.73985 5:-0.353259 6:-0.634657 7:0.150141 8:-0.772165 9:1 10:-0.449234 11:-0.184451 
0.5800516672255204 1:-0.506204 2:0.0405862 3:-0.450774 4:0.0777808 5:0.224085 6:0.172486 7:-0.640565 8:-0.935053 9:-0.13427 10:-0.573352 11:-0.976273 
8 1:-0.579693 2:0.131768 3:-0.400012 4:-0.200597 5:0.152959 6:0.0593728 7:-0.403332 8:-0.849486 9:-0.274511 10:-0.461852 11:-0.67057 
4.227382661095631 1:-0.757307 2:0.0809172 3:-0.598604 4:-0.421895 5:0.0913404 6:-0.225 7:-0.479132 8:-0.815035 9:-0.535529 10:-0.790576 11:-0.859957 
0.1303681471195139 1:-0.517438 2:0.205479 3:-0.412286 4:0.0959841 5:0.439337 6:0.286137 7:-0.315279 8:-0.401806 9:-0.481887 10:-0.288381 11:-0.636111 
8 1:-0.705854 2:0.0872651 3:-0.511241 4:-0.234733 5:0.190178 6:0.0906863 7:-0.349317 8:-0.764893 9:-0.452727 10:-0.75885 11:-0.722574 
8 1:1 2:1 3:0.999258 4:1 5:1 6:0.947329 7:-0.993245 8:-1 9:-0.948215 10:-1 11:-1 
0.07792534574986565 1:-0.425157 2:0.140419 3:-0.336592 4:-0.0655547 5:0.1212 6:0.0161542 7:1 8:-0.217661 9:-0.679827 10:-0.97754 11:-0.97754 
8 1:-0.842025 2:-0.0709418 3:-0.807984 4:-0.472166 5:-0.0383576 6:-0.314629 7:-0.408784 8:-0.813489 9:-0.530434 10:-0.86609 11:-0.781921 
8 1:-0.656713 2:0.0412969 3:-0.497577 4:-0.127602 5:0.152237 6:0.160246 7:-0.408427 8:-0.889336 9:-0.45786 10:-0.827758 11:-0.734479 
8 1:-0.651157 2:0.0208715 3:-0.25872 4:-0.133283 5:0.170145 6:0.347187 7:-0.379211 8:-0.780908 9:-0.438243 10:-0.768655 11:-0.719527 
8 1:-0.742339 2:0.030114 3:-0.622371 4:-0.215251 5:0.0606709 6:0.0739191 7:-0.351992 8:-0.769661 9:-0.528752 10:-0.809354 11:-0.825754 
8 1:-0.764059 2:-0.0138588 3:-0.745308 4:-0.408317 5:-0.0247891 6:-0.336739 7:0.642024 8:-0.633375 9:-0.13384 10:-0.597186 11:-0.0932004 
4.547732805349758 1:-0.675112 2:-0.0447113 3:-0.561421 4:-0.228199 5:0.01247 6:-0.0504451 7:-0.379041 8:-0.681972 9:-0.0168616 10:-0.153946 11:-0.195562 
8 1:-0.867142 2:0.00782571 3:-0.697049 4:-0.507219 5:-0.0264674 6:-0.279324 7:-0.421317 8:-0.705399 9:-0.506198 10:-0.791903 11:-0.800371 
8 1:-0.848117 2:0.0976983 3:-0.886857 4:-0.592722 5:-0.0455012 6:-0.650097 7:-0.19798 8:-0.882356 9:-0.269781 10:-0.657603 11:-0.549581 
6.600980834889737 1:-0.843038 2:-0.170933 3:-0.820716 4:-0.339108 5:-0.0874778 6:-0.22683 7:-0.233773 8:-0.646876 9:-0.493654 10:-0.825636 11:-0.687291 
0.3962504707999423 1:-0.680163 2:-0.00202011 3:-0.46041 4:-0.069919 5:0.216642 6:0.138868 7:0.551081 8:-0.587574 9:-0.558953 10:-0.911027 11:-0.740995 
8 1:-0.342006 2:0.300225 3:-0.0348118 4:-0.225818 5:0.261765 6:0.0777988 7:-0.475415 8:-0.833057 9:-0.527389 10:-0.899742 11:-0.810718 
5.079999689818169 1:-0.628315 2:-0.0238241 3:-0.46844 4:-0.101344 5:0.0809685 6:0.156889 7:-0.186057 8:-0.793399 9:-0.283911 10:-0.644689 11:-0.564171 
1.70666539191488 1:-0.423947 2:0.191433 3:-0.244842 4:0.00159356 5:0.223125 6:0.204061 7:-0.00647384 8:-0.853402 9:-0.0886544 10:-0.764604 11:-0.345402 
8 1:0.577208 2:0.735293 3:0.894162 4:0.707876 5:0.758676 6:0.942697 7:-0.336812 8:-0.871963 9:-0.395778 10:-0.764283 11:-0.676157 
8 1:-0.906569 2:-0.0155252 3:-0.843609 4:-0.363624 5:0.116473 6:-0.134707 7:-0.0332849 8:-0.881277 9:-0.471191 10:-0.858288 11:-0.58178 
0.1361742126556513 1:-0.702803 2:-0.04231 3:-0.689523 4:-0.238095 5:-0.00140056 6:-0.239443 7:0.739248 8:-0.308216 9:0.09886 10:-0.171712 11:-0.132468 
8 1:1 2:1 3:1 4:0.871795 5:0.883266 6:0.933505 7:-1 8:-1 9:-1 10:-1 11:-1 
1.6340673194264 1:-0.4702 2:0.146253 3:-0.155459 4:-0.102053 5:0.135188 6:0.345757 7:-0.326881 8:1 9:-0.395894 10:-0.783297 11:-0.682084 
8 1:0.368086 2:0.615868 3:0.455438 4:0.785585 5:0.819435 6:0.877677 7:-0.425817 8:-0.939828 9:-0.472555 10:-0.828375 11:-0.760894 
0.5933059551628518 1:-0.787992 2:-0.104421 3:-0.758358 4:-0.394285 5:-0.125578 6:-0.192125 7:0.0985539 8:-0.797305 9:0.66489 10:0.115775 11:0.197212 
8 1:-0.786767 2:0.0586666 3:-0.562594 4:-0.34106 5:0.147915 6:-0.0769231 7:-0.377417 8:-0.793803 9:-0.453729 10:-0.760555 11:-0.731656 
8 1:-0.762867 2:-0.00680053 3:-0.654941 4:-0.400144 5:0.0554977 6:-0.144603 7:-0.314702 8:-0.837418 9:-0.54502 10:-0.908045 11:-0.760174 
4.324588284124661 1:-0.521426 2:0.166987 3:-0.215473 4:-0.0663918 5:0.136509 6:0.216624 7:-0.406605 8:-0.529407 9:-0.098512 10:-0.689049 11:-0.445683 
8 1:0.332947 2:0.629388 3:0.506352 4:0.564975 5:0.632379 6:0.743839 7:-0.396809 8:-0.870241 9:-0.460398 10:-0.85621 11:-0.740258 
0.07406648758062612 1:-0.731977 2:-0.0802905 3:-0.633321 4:-0.430225 5:-0.14206 6:-0.299695 7:0.0569755 8:-0.823571 9:1 10:0.0725682 11:1 
0.07714216402047409 1:-0.804558 2:0.0798093 3:-0.786631 4:-0.535283 5:-0.0706341 6:-0.528453 7:-0.417218 8:-0.16966 9:1 10:-0.656629 11:1 
1.607370540570259 1:-0.612925 2:0.0964849 3:-0.436088 4:-0.442005 5:-0.0077038 6:-0.259222 7:-0.485439 8:-0.787376 9:-0.58691 10:-0.778755 11:-0.814409 
0.2623376132627279 1:-0.486769 2:0.723212 3:-0.306322 4:-0.0851207 5:0.573396 6:-0.0332765 7:-0.41211 8:-0.814771 9:-0.438888 10:-0.0238252 11:-0.808734 
8 1:-0.739967 2:0.041194 3:-0.575337 4:-0.224142 5:0.141788 6:0.0514767 7:-0.476316 8:-0.859775 9:-0.484147 10:-0.713378 11:-0.833018 
0.8807210501140142 1:-0.804395 2:-0.0578584 3:-0.671738 4:-0.274843 5:0.0458898 6:0.143502 7:-0.321175 8:-0.837052 9:-0.0585892 10:0.728772 11:-0.418135 
8 1:0.440673 2:0.77629 3:0.731734 4:0.994866 5:1 6:0.902048 7:-0.438145 8:-0.8823 9:-0.503529 10:-0.876954 11:-0.798198 
0.1777835767620123 1:-0.61 2:1 3:-0.8375 4:0.0434783 5:1 6:-0.565217 7:1 8:1 9:1 10:1 11:-1 
8 1:0.303839 2:0.757551 3:0.403866 4:0.758381 5:0.880285 6:0.806078 7:-0.410768 8:-0.895268 9:-0.463453 10:-0.792828 11:-0.741175 
8 1:0.502912 2:0.673992 3:0.726052 4:0.624651 5:0.693425 6:0.867159 7:-0.41182 8:-0.841457 9:-0.489396 10:-0.847832 11:-0.770182 
0.3301275710393375 1:-0.922773 2:-0.150961 3:-0.933179 4:-0.4747 5:-0.239076 6:-0.482007 7:0.41901 8:0.989341 9:0.644681 10:0.723832 11:0.391 
8 1:0.335802 2:0.623266 3:0.658162 4:0.753682 5:0.796235 6:0.890916 7:-0.433222 8:-0.884167 9:-0.483286 10:-0.864918 11:-0.775681 
8 1:-0.789518 2:0.0487852 3:-0.561736 4:-0.45906 5:0.0722375 6:-0.212996 7:-0.292729 8:-0.854552 9:-0.383136 10:-0.771167 11:-0.6936 
8 1:-0.833056 2:0.0854031 3:-0.710273 4:-0.494191 5:0.0329894 6:-0.247317 7:-0.395117 8:-0.760394 9:-0.501609 10:-0.848868 11:-0.792404 
0.8688897601992944 1:-0.548919 2:0.783009 3:-0.634196 4:-0.348477 5:0.588491 6:-0.465724 7:-0.420173 8:-0.787398 9:-0.464142 10:-0.792542 11:-0.748337 
8 1:-0.68952 2:0.234766 3:-0.515157 4:-0.273503 5:0.327925 6:-0.0232038 7:-0.537261 8:-0.82295 9:-0.527317 10:-0.866032 11:-0.824224 
8 1:-0.604449 2:0.125895 3:-0.240296 4:-0.235764 5:0.167771 6:0.281983 7:-0.399655 8:-0.851205 9:-0.48562 10:-0.830906 11:-0.770675 
8 1:-0.313496 2:0.300122 3:-0.00153644 4:0.186732 5:0.471783 6:0.451551 7:-0.343636 8:-0.74403 9:-0.388358 10:-0.701607 11:-0.675587 
2.062468724803072 1:-0.790576 2:0.0320062 3:-0.738494 4:-0.138793 5:0.187045 6:-0.16504 7:-0.324909 8:0.658587 9:-0.22718 10:-0.157409 11:-0.42964 
8 1:0.316312 2:0.59244 3:0.664167 4:0.49544 5:0.582521 6:0.797825 7:-0.3811 8:-0.947922 9:-0.42605 10:-0.810231 11:-0.717613 
8 1:-0.815482 2:0.145712 3:-0.709631 4:-0.714832 5:0.00639695 6:-0.60894 7:-0.421255 8:-0.798103 9:-0.516225 10:-0.82201 11:-0.823336 
8 1:-0.674556 2:0.00675398 3:-0.541856 4:-0.103433 5:0.124362 6:0.119852 7:-0.381598 8:-0.780481 9:-0.445215 10:-0.794266 11:-0.726235 
8 1:0.148772 2:0.617558 3:0.302792 4:0.448007 5:0.678002 6:0.566756 7:-0.372636 8:-0.834678 9:-0.496679 10:-0.843209 11:-0.721894 
0.04827786777495666 1:-0.835725 2:-0.0703714 3:-0.817518 4:-0.278261 5:0.136818 6:-0.126583 7:1 8:-0.946057 9:0.905796 10:-0.375566 11:1 
8 1:0.419313 2:0.645288 3:0.548964 4:0.66324 5:0.696507 6:0.814933 7:-0.330855 8:-0.916415 9:-0.422505 10:-0.753261 11:-0.694715 
2.355003141204402 1:-0.694561 2:-0.10715 3:-0.625445 4:-0.130746 5:0.0767151 6:0.108059 7:0.321677 8:-0.562726 9:0.430337 10:0.12339 11:0.192709 
1.586400041711131 1:0.281371 2:0.571631 3:0.626498 4:0.50286 5:0.594156 6:0.867377 7:-0.319832 8:-0.938329 9:-0.283738 10:-0.723819 11:-0.60565 
0.04759751982542118 1:-0.858074 2:-0.0707939 3:-0.852902 4:-0.725174 5:-0.303352 6:-0.707291 7:1 8:1 9:0.152724 10:-0.678998 11:0.721776 
5.598410476934466 1:-0.581938 2:0.204429 3:-0.261749 4:-0.258226 5:0.0840196 6:0.0611966 7:-0.0472014 8:-0.808764 9:-0.179199 10:-0.589031 11:-0.424202 
0.2984941706721324 1:-0.850801 2:-0.0608588 3:-0.867998 4:-0.634015 5:-0.225167 6:-0.597431 7:0.375632 8:-1 9:0.731766 10:0.595856 11:0.135894 
0.2980218362243123 1:-0.525006 2:0.0167284 3:-0.426361 4:0.102278 5:0.207806 6:0.237882 7:1 8:-0.0589207 9:1 10:0.13839 11:0.647799 
8 1:-0.653258 2:0.206173 3:-0.233539 4:-0.129489 5:0.423179 6:0.294451 7:-0.438865 8:-0.793331 9:-0.547928 10:-0.818478 11:-0.828317 
0.157963311644876 1:-0.823175 2:-0.00943396 3:-0.579782 4:-0.360297 5:0.197264 6:-0.0902142 7:-0.231541 8:0.346275 9:-0.48866 10:-0.786558 11:-0.768858 
8 1:-0.515895 2:0.219617 3:-0.342806 4:0.0657628 5:0.428174 6:0.407767 7:-0.463789 8:-0.679534 9:-0.420481 10:-0.792562 11:-0.818551 
1.948698452727305 1:-0.363926 2:0.393963 3:-0.328979 4:0.238533 5:0.459473 6:0.277237 7:-0.342484 8:-0.38085 9:-0.395409 10:-0.777599 11:-0.675646 
8 1:-0.736287 2:-0.00869739 3:-0.566004 4:-0.182818 5:0.0151843 6:0.109756 7:-0.393839 8:-0.795474 9:-0.555758 10:-0.814795 11:-0.836689 
8 1:-0.75415 2:-0.0799073 3:-0.679553 4:-0.081654 5:0.174743 6:0.219864 7:-0.405489 8:-0.787746 9:-0.523421 10:-0.805715 11:-0.798528 
0.7732533894366096 1:-0.619168 2:0.190822 3:-0.579477 4:0.266549 5:0.472715 6:0.362591 7:-0.138411 8:-0.8692 9:-0.367302 10:-0.70134 11:-0.526928 
0.1293317412072261 1:-0.804359 2:-0.0230137 3:-0.72962 4:-0.382726 5:0.0655121 6:-0.267796 7:-0.33302 8:-0.014886 9:-0.170576 10:1 11:1 
8 1:-0.925705 2:-0.054653 3:-0.820764 4:-0.561079 5:-0.105038 6:-0.318486 7:-0.412674 8:-0.795854 9:-0.467903 10:-0.817291 11:-0.749605 
8 1:-0.271198 2:0.20703 3:0.0545455 4:0.279676 5:0.378026 6:0.519132 7:-0.349863 8:-0.812796 9:-0.425631 10:-0.779049 11:-0.700436 
8 1:0.278105 2:0.58386 3:0.797909 4:0.64451 5:0.715972 6:0.923119 7:-0.389499 8:-0.879391 9:-0.448185 10:-0.827583 11:-0.733377 
8 1:-0.846102 2:-0.0439907 3:-0.58807 4:-0.29954 5:0.0579959 6:0.0436754 7:-0.446196 8:-0.820073 9:-0.478201 10:-0.827596 11:-0.81558 
0.4878008855379532 1:-0.823968 2:-0.0901117 3:-0.710005 4:-0.471228 5:-0.0912634 6:-0.293238 7:-0.424934 8:-0.483345 9:-0.479024 10:-0.243295 11:-0.0783572 
0.8190616437403371 1:-0.560191 2:0.173633 3:-0.399625 4:-0.318934 5:0.170816 6:-0.14718 7:-0.177402 8:-0.747559 9:-0.400988 10:-0.940521 11:-0.620378 
8 1:-0.84896 2:-0.179406 3:-0.807373 4:-0.14591 5:0.133304 6:0.0900535 7:-0.264559 8:-0.81487 9:-0.321368 10:-0.831691 11:-0.662264 
8 1:-0.717035 2:0.0205927 3:-0.496548 4:-0.260729 5:0.0395956 6:0.132763 7:-0.346734 8:-0.656669 9:-0.478072 10:-0.842666 11:-0.759062 
0.1820071269087492 1:0 2:1 3:-0.5 4:0.473684 5:1 6:-0.263158 7:1 8:-1 9:1 10:1 11:1 
8 1:-0.845637 2:0.00956451 3:-0.639589 4:-0.573782 5:-0.0186408 6:-0.419099 7:-0.385147 8:-0.866753 9:-0.425006 10:-0.830637 11:-0.700694 
0.08220925510427743 1:-0.754785 2:-0.0666104 3:-0.719306 4:-0.0681818 5:0.0958304 6:-0.0587139 7:1 8:-0.531298 9:0.453554 10:-1 11:1 
8 1:-0.726187 2:0.00173845 3:-0.521285 4:-0.407548 5:-0.059335 6:-0.0924026 7:-0.385315 8:-0.803964 9:-0.461987 10:-0.816511 11:-0.74142 
8 1:-0.539352 2:0.19282 3:-0.391037 4:-0.180634 5:0.23979 6:0.0937841 7:-0.413996 8:-0.847633 9:-0.517819 10:-0.835352 11:-0.781774 
0.8235779854616895 1:-0.832867 2:-0.0683153 3:-0.809746 4:-0.443629 5:-0.0859806 6:-0.370893 7:-0.0319637 8:-0.631407 9:-0.119848 10:-0.442653 11:-0.375202 
2.771860350903254 1:-0.41825 2:0.142739 3:-0.304891 4:0.388179 5:0.494829 6:0.499423 7:-0.352852 8:-0.92604 9:-0.340694 10:-0.745852 11:-0.639675 
8 1:-0.402572 2:0.310935 3:-0.272152 4:0.239587 5:0.565495 6:0.369355 7:-0.429016 8:-0.815469 9:-0.476245 10:-0.851243 11:-0.75514 
8 1:-0.739402 2:-0.0228182 3:-0.733071 4:-0.384457 5:-0.0480151 6:-0.349617 7:-0.389273 8:-0.893182 9:-0.552023 10:-0.82502 11:-0.670934 
4.76080748790153 1:-0.702022 2:-0.0852022 3:-0.603967 4:-0.102142 5:0.109388 6:0.221137 7:-0.328865 8:-0.853569 9:-0.362414 10:-0.754252 11:-0.643285 
8 1:-0.788479 2:0.0399979 3:-0.74359 4:-0.235556 5:0.189839 6:-0.0371991 7:-0.36003 8:-0.794319 9:-0.439765 10:-0.762593 11:-0.718422 
8 1:-0.835433 2:0.0300343 3:-0.768304 4:-0.368336 5:0.036331 6:-0.188525 7:-0.362986 8:-0.79073 9:-0.460626 10:-0.841972 11:-0.775578 
8 1:-0.864035 2:-0.106361 3:-0.774665 4:-0.525343 5:-0.170388 6:-0.333269 7:-0.210802 8:-0.823177 9:-0.505851 10:-0.813399 11:-0.722597 
5.664732397898073 1:-0.713125 2:0.192091 3:-0.716778 4:-0.0441454 5:0.262811 6:-0.10071 7:-0.139357 8:-1 9:-0.184313 10:-0.546573 11:-0.483949 
8 1:-0.57161 2:0.209302 3:-0.48484 4:-0.0264935 5:0.309512 6:0.125127 7:-0.445072 8:-0.927487 9:-0.612892 10:-0.875374 11:-0.826367 
8 1:-0.666848 2:0.0343442 3:-0.526396 4:-0.07877 5:0.197376 6:0.229691 7:-0.335064 8:-0.802941 9:-0.413165 10:-0.744565 11:-0.69329 
0.2127050628159413 1:-0.833038 2:0.0957644 3:-0.748301 4:-0.467972 5:0.0811027 6:-0.345687 7:-0.353992 8:-0.720521 9:-0.395636 10:-0.659777 11:-0.697067 
8 1:-0.677528 2:0.119728 3:-0.488791 4:-0.170084 5:0.204391 6:0.119442 7:-0.405879 8:-0.854214 9:-0.501174 10:-0.828064 11:-0.80317 
2.195636394139733 1:-0.828595 2:-0.0734307 3:-0.743615 4:-0.509794 5:-0.071798 6:-0.411242 7:-0.0911166 8:-0.340983 9:-0.602081 10:-0.695549 11:-0.684944 
8 1:-0.545678 2:0.0870424 3:-0.335674 4:-0.193946 5:0.0461731 6:0.083952 7:-0.411993 8:-0.880961 9:-0.426922 10:-0.808956 11:-0.719381 
0.06648142963066782 1:-0.545827 2:0.254433 3:-0.529117 4:-0.190294 5:0.233903 6:-0.180723 7:0.516429 8:-0.346988 9:-0.0694208 10:-0.840052 11:1 
5.073181940808284 1:-0.813604 2:-0.00511406 3:-0.772248 4:-0.512683 5:-0.0532226 6:-0.349593 7:1 8:1 9:1 10:1 11:1 
8 1:0.146787 2:0.604622 3:0.358541 4:0.716601 5:0.798016 6:0.683719 7:-0.456711 8:-0.808648 9:-0.492498 10:-0.880223 11:-0.795021 
0.2202268088015714 1:-0.6 2:0.188247 3:-0.579832 4:-0.333333 5:0.206751 6:-0.339888 7:0.382245 8:-0.808166 9:1 10:-0.998505 11:0.240567 
0.03268129919747883 1:-0.958728 2:-0.202483 3:-0.957724 4:-0.541053 5:-0.177782 6:-0.514925 7:1 8:-0.861608 9:-0.579735 10:-1 11:1 
8 1:-0.674677 2:0.0881061 3:-0.44853 4:-0.30139 5:0.118924 6:8.13074e-05 7:-0.40473 8:-0.804991 9:-0.494431 10:-0.842993 11:-0.753719 
5.628114041479477 1:-0.519708 2:0.18298 3:-0.423806 4:0.0718802 5:0.383765 6:0.334107 7:-0.448459 8:-0.838344 9:-0.418287 10:-0.440331 11:-0.496069 
8 1:0.418635 2:0.678958 3:0.907851 4:0.62499 5:0.747695 6:0.894318 7:-0.447668 8:-0.87074 9:-0.522709 10:-0.869027 11:-0.825807 
8 1:-0.777406 2:0.0634972 3:-0.674976 4:-0.313664 5:0.152725 6:-0.0229817 7:-0.393223 8:-0.781681 9:-0.519872 10:-0.855389 11:-0.796953 
8 1:0.237281 2:0.564802 3:0.57651 4:0.525644 5:0.627947 6:0.878498 7:-0.36091 8:-0.910952 9:-0.397049 10:-0.802094 11:-0.689507 
8 1:0.623851 2:0.778449 3:0.912455 4:0.720826 5:0.778568 6:0.928005 7:-0.418935 8:-0.901939 9:-0.477052 10:-0.821423 11:-0.758616 
8 1:-0.816304 2:-0.0356895 3:-0.729581 4:-0.27332 5:0.0163872 6:-0.0147522 7:-0.402789 8:-0.766581 9:-0.468982 10:-0.913977 11:-0.818854 
8 1:-0.350184 2:0.301766 3:0.015897 4:-0.0917817 5:0.296732 6:0.172525 7:-0.392586 8:-0.711104 9:-0.517087 10:-0.856783 11:-0.835817 
8 1:-0.226556 2:0.454261 3:-0.0783653 4:0.156768 5:0.41237 6:0.197731 7:-0.397721 8:-0.869111 9:-0.472456 10:-0.841091 11:-0.740524 
8 1:-0.407326 2:0.272999 3:-0.151683 4:0.103987 5:0.455997 6:0.446147 7:-0.429583 8:-0.818085 9:-0.482636 10:-0.770677 11:-0.769878 
8 1:-0.264254 2:0.328189 3:0.115312 4:0.0977871 5:0.415773 6:0.433915 7:-0.438433 8:-0.78154 9:-0.50641 10:-0.789313 11:-0.793367 
8 1:0.612524 2:0.769134 3:0.903792 4:0.672577 5:0.737084 6:0.930552 7:-0.372919 8:-0.988827 9:-0.413683 10:-0.802216 11:-0.702467 
0.1713314518807316 1:-0.83423 2:0.00796123 3:-0.775013 4:-0.594293 5:-0.0128926 6:-0.441197 7:-0.0805671 8:1 9:0.0769783 10:1 11:-0.648397 
4.435029598884538 1:-0.780918 2:-0.0555479 3:-0.742307 4:-0.372099 5:-0.0766841 6:-0.266629 7:-0.256246 8:-0.822364 9:-0.262468 10:-0.844132 11:-0.708604 
8 1:0.0119483 2:0.464108 3:0.553134 4:0.348921 5:0.575588 6:0.681996 7:-0.375068 8:-0.800853 9:-0.445566 10:-0.767266 11:-0.729067 
8 1:-0.818165 2:-0.0204161 3:-0.661322 4:-0.45967 5:-0.0617106 6:-0.16418 7:-0.396858 8:-0.806713 9:-0.490095 10:-0.810152 11:-0.811411 
1.661340400247782 1:-0.628705 2:0.137535 3:-0.575484 4:-0.38721 5:-0.067382 6:-0.329088 7:-0.374358 8:-0.694203 9:-0.52686 10:-0.857801 11:-0.829139 
8 1:-0.538527 2:0.154338 3:-0.135787 4:-0.17558 5:0.205523 6:0.10959 7:-0.313702 8:-0.754627 9:-0.440002 10:-0.763278 11:-0.702305 
8 1:-0.68932 2:0.0158446 3:-0.589599 4:-0.202106 5:0.144464 6:0.0565762 7:-0.468867 8:-0.908561 9:-0.562559 10:-0.778755 11:-0.814409 
0.0967711968895788 1:-0.683856 2:0.0607151 3:-0.658633 4:-0.173316 5:0.183535 6:0.0181024 7:1 8:1 9:-0.675968 10:-0.848272 11:-0.958148 
8 1:1 2:1 3:0.995263 4:0.871795 5:0.883266 6:0.970379 7:-0.896504 8:-1 9:-0.851555 10:-0.966669 11:-1 
8 1:-0.792236 2:-0.042163 3:-0.588135 4:-0.357773 5:-0.0273418 6:-0.080674 7:-0.320862 8:-0.809554 9:-0.391731 10:-0.748239 11:-0.665475 
0.1084625577206253 1:-0.940439 2:-0.0391064 3:-0.873817 4:-0.910214 5:-0.222707 6:-0.830508 7:-0.449079 8:0.7001 9:-0.473284 10:1 11:-0.647801 
0.4959733812938158 1:-0.791043 2:0.139665 3:-0.820942 4:-0.48652 5:-0.0610988 6:-0.431402 7:-0.30811 8:-0.796594 9:0.398013 10:0.0591465 11:0.105408 
3.112959064306102 1:-0.819614 2:-0.0826948 3:-0.748242 4:-0.259461 5:0.022696 6:-0.0896352 7:-0.389452 8:1 9:-0.317919 10:-0.681005 11:-0.5747 
8 1:-0.660567 2:0.0121216 3:-0.513949 4:-0.138341 5:0.130052 6:0.191199 7:-0.405188 8:-0.794767 9:-0.557583 10:-0.853374 11:-0.850541 
5.67222530597686 1:-0.756662 2:0.0440256 3:-0.609847 4:-0.381704 5:0.0602987 6:-0.0451147 7:-0.39616 8:-0.464303 9:-0.423717 10:-0.589274 11:-0.747902 
8 1:-0.570593 2:0.06883 3:-0.306275 4:-0.0155521 5:0.179647 6:0.2805 7:-0.342023 8:-0.860491 9:-0.423236 10:-0.761391 11:-0.699052 
5.804382472171828 1:-0.212563 2:0.281652 3:0.077804 4:0.370246 5:0.511975 6:0.623896 7:-0.450157 8:-0.867747 9:-0.481684 10:-0.665266 11:-0.796665 
7.598304984232572 1:0.0154172 2:0.480563 3:0.0625697 4:0.465575 5:0.582296 6:0.573139 7:-0.249036 8:-0.891801 9:-0.227868 10:-0.418656 11:-0.553179 
8 1:-0.62771 2:0.164131 3:-0.402289 4:-0.1991 5:0.180199 6:0.0129585 7:-0.436362 8:-0.833453 9:-0.496816 10:-0.823487 11:-0.780007 
0.7775908038667236 1:-0.623579 2:0.0114462 3:-0.565305 4:-0.220212 5:-0.00742186 6:-0.0539416 7:0.107808 8:-0.757428 9:1 10:0.363818 11:0.537434 
0.05463697870636648 1:-0.904 2:0.135059 3:-0.92 4:-0.828571 5:-0.292063 6:-0.857143 7:1 8:1 9:1 10:-1 11:1 
0.003121350500074727 1:-0.888305 2:-0.00939887 3:-0.869029 4:-0.863736 5:-0.191756 6:-0.834369 7:-0.395594 8:-0.400293 9:1 10:1 11:0.00617609 
8 1:-0.650968 2:0.120939 3:-0.315153 4:-0.227166 5:0.197997 6:-0.00132927 7:-0.366126 8:-0.807945 9:-0.235957 10:-0.459246 11:-0.686631 
8 1:-0.793369 2:0.101662 3:-0.670861 4:-0.300278 5:0.125636 6:-0.104569 7:-0.443974 8:-0.833947 9:-0.41697 10:-0.46356 11:-0.696231 
2.201492264741531 1:-0.681736 2:0.00865803 3:-0.59866 4:-0.258266 5:0.0276884 6:-0.191803 7:-0.036416 8:-0.434205 9:-0.181592 10:-0.84298 11:-0.341934 
8 1:-0.482054 2:0.101859 3:-0.223724 4:0.0216581 5:0.15935 6:0.288229 7:-0.379452 8:-0.815127 9:-0.419297 10:-0.793719 11:-0.694332 
0.04440615926659501 1:1 2:1 3:0.0909091 4:1 5:1 6:0 7:1 8:1 9:1 10:1 11:1 
3.85116949106991 1:-0.335908 2:0.315758 3:0.0486348 4:-0.0701562 5:0.241136 6:0.326605 7:-0.39314 8:-0.757563 9:-0.446854 10:-0.755721 11:-0.643992 
0.3126798515088037 1:-0.775035 2:0.154417 3:-0.729055 4:-0.451069 5:0.131571 6:-0.231008 7:-0.266117 8:0.993179 9:-0.168481 10:1 11:-0.703239 
8 1:-0.398929 2:0.21733 3:-0.210431 4:-0.208075 5:0.159339 6:-0.0508857 7:-0.368301 8:-0.859243 9:-0.382964 10:-0.744632 11:-0.680582 
8 1:-0.370765 2:0.279168 3:-0.340168 4:0.448298 5:0.586623 6:0.393626 7:-0.373425 8:-0.88111 9:-0.457202 10:-0.828378 11:-0.728034 
8 1:-0.772104 2:-0.105595 3:-0.643861 4:-0.27028 5:0.00754556 6:-0.042838 7:-0.345649 8:-0.738709 9:-0.427423 10:-0.806647 11:-0.754496 
8 1:-0.776399 2:0.131762 3:-0.560756 4:-0.370685 5:0.145208 6:-0.119131 7:-0.364415 8:-0.80565 9:-0.502492 10:-0.84666 11:-0.778482 
0.04989849548969012 1:-0.799366 2:0.053472 3:-0.758095 4:-0.8818 5:-0.192315 6:-0.848117 7:-0.454055 8:1 9:0.350033 10:1 11:-0.545159 
8 1:-0.342808 2:0.263085 3:-0.228029 4:-0.122871 5:0.22891 6:0.0684332 7:-0.400489 8:-0.879726 9:-0.474335 10:-0.818715 11:-0.746553 
8 1:0.177591 2:0.513294 3:0.595941 4:0.552872 5:0.642776 6:0.83584 7:-0.357075 8:-1 9:-0.400814 10:-0.757265 11:-0.705011 
8 1:-0.63529 2:0.149418 3:-0.447138 4:-0.0891734 5:0.250846 6:0.195638 7:-0.389034 8:-0.800463 9:-0.477079 10:-0.789351 11:-0.755071 
0.4517144545882184 1:-0.885121 2:-0.14807 3:-0.861253 4:-0.145882 5:0.00903649 6:-0.0751985 7:1 8:1 9:1 10:1 11:1 
8 1:-0.508442 2:0.127034 3:-0.22977 4:-0.105519 5:0.173548 6:0.173895 7:-0.402326 8:-0.649371 9:-0.481808 10:-0.870758 11:-0.742474 
8 1:-0.43648 2:0.240283 3:-0.20709 4:0.0508576 5:0.386877 6:0.31026 7:-0.408245 8:-0.810044 9:-0.44975 10:-0.778147 11:-0.731719 
0.7517231243795347 1:-0.900367 2:-0.0597212 3:-0.903077 4:-0.535909 5:-0.16065 6:-0.524992 7:0.162313 8:-0.402205 9:0.15045 10:-0.226436 11:-0.16836 
8 1:-0.542561 2:0.19613 3:-0.319042 4:-0.164267 5:0.290413 6:0.100775 7:-0.462083 8:-0.847956 9:-0.473836 10:-0.821869 11:-0.780351 
8 1:0.107576 2:0.486143 3:0.513642 4:0.289288 5:0.460452 6:0.613465 7:-0.362223 8:-0.828746 9:-0.405822 10:-0.800698 11:-0.68523 
8 1:0.308549 2:0.63035 3:0.71985 4:0.507821 5:0.689769 6:0.829088 7:-0.388103 8:-0.805135 9:-0.450852 10:-0.768638 11:-0.73403 
6.305393851451135 1:0.571303 2:0.9719 3:0.207401 4:1 5:1 6:0.617582 7:-0.217119 8:-0.837553 9:-0.335827 10:-0.649137 11:-0.607071 
8 1:-0.631104 2:-0.0231307 3:-0.870955 4:-0.310641 5:0.0173867 6:-0.3249 7:-0.29096 8:-0.899636 9:-0.33939 10:-0.772806 11:-0.660338 
8 1:-0.573207 2:0.128779 3:-0.419676 4:-0.228319 5:0.176105 6:0.0892784 7:-0.371397 8:-0.899796 9:-0.441506 10:-0.824769 11:-0.7267 
0.5412241594933985 1:-0.590233 2:0.989334 3:-0.515174 4:-0.314565 5:0.684695 6:-0.255645 7:-0.350512 8:-0.763373 9:-0.407192 10:-0.743938 11:-0.687392 
2.928270391660807 1:-0.787649 2:-0.0706843 3:-0.770442 4:-0.280899 5:-0.0595671 6:-0.266219 7:0.160025 8:1 9:1 10:1 11:1 
8 1:-0.949189 2:-0.0706369 3:-0.943737 4:-0.472407 5:-0.0471642 6:-0.455521 7:-0.25719 8:-0.824913 9:-0.361452 10:-0.72741 11:-0.622165 
0.1740807011304744 1:-0.846911 2:-0.0319568 3:-0.815945 4:-0.614245 5:-0.179831 6:-0.543575 7:0.955139 8:-0.591081 9:-0.607257 10:-0.888625 11:-0.379662 
0.5939957421948987 1:-0.766584 2:0.243207 3:-0.666051 4:-0.374886 5:0.313096 6:-0.277427 7:-0.31004 8:-0.808065 9:-0.155779 10:-0.620915 11:-0.646123 
4.235732887425593 1:-0.986748 2:-0.127116 3:-0.975037 4:-0.619161 5:-0.202392 6:-0.480894 7:-0.368248 8:-0.824577 9:-0.462781 10:-0.769425 11:-0.737445 
8 1:-0.654497 2:0.164551 3:-0.515851 4:-0.285753 5:0.156986 6:-0.187785 7:-0.376004 8:-0.795714 9:-0.469674 10:-0.798818 11:-0.742316 
8 1:-0.554884 2:0.11081 3:-0.478095 4:-0.189354 5:0.134213 6:-0.0951001 7:-0.382211 8:-0.672278 9:-0.449481 10:-0.771764 11:-0.729007 
8 1:-0.729431 2:0.0203276 3:-0.511048 4:-0.35717 5:0.00649127 6:-0.0856193 7:-0.404371 8:-0.794855 9:-0.553284 10:-0.860696 11:-0.850736 
8 1:0.786195 2:0.877129 3:0.971761 4:0.696919 5:0.752623 6:0.956419 7:-0.461675 8:-0.962491 9:-0.492372 10:-0.836814 11:-0.774444 
0.1654329256074191 1:-0.888944 2:-0.117095 3:-0.885384 4:-0.520861 5:-0.167284 6:-0.442509 7:1 8:-0.987266 9:1 10:0.799739 11:1 
8 1:0.578947 2:0.71088 3:0.729453 4:0.722892 5:0.77366 6:0.898804 7:-0.436253 8:-0.834468 9:-0.516839 10:-0.857267 11:-0.806167 
8 1:-0.740142 2:0.255034 3:-0.756013 4:-0.118959 5:0.313515 6:-0.242366 7:-0.428802 8:-0.770459 9:-0.514567 10:-0.904729 11:-0.711022 
8 1:-0.821118 2:-0.0143073 3:-0.645043 4:-0.475622 5:-0.0746433 6:-0.23204 7:-0.373176 8:-0.776481 9:-0.512876 10:-0.875268 11:-0.73208 
8 1:-0.804184 2:-0.00469122 3:-0.54032 4:-0.3947 5:-0.058717 6:-0.136719 7:-0.446064 8:-0.8816 9:-0.490936 10:-0.799473 11:-0.803325 
8 1:-0.739116 2:0.219405 3:-0.675474 4:-0.0163348 5:0.538455 6:0.207726 7:-0.359606 8:-0.828854 9:-0.501176 10:-0.813664 11:-0.779496 
8 1:0.61039 2:0.771861 3:0.628039 4:0.631579 5:0.683714 6:0.627253 7:-0.425507 8:-0.845544 9:-0.437439 10:-0.802102 11:-0.735932 
8 1:0.165431 2:0.503811 3:0.670508 4:0.57603 5:0.682783 6:0.86961 7:-0.396406 8:-0.848807 9:-0.45439 10:-0.811709 11:-0.733721 
8 1:-0.770799 2:-0.00494874 3:-0.572171 4:-0.336693 5:0.0116508 6:0.0938127 7:-0.394383 8:-0.770378 9:-0.549395 10:-0.926389 11:-0.840661 
2.706255965316845 1:-0.513743 2:0.176596 3:-0.257532 4:-0.342291 5:0.0416057 6:-0.194507 7:-0.0182322 8:-0.731709 9:-0.467533 10:-0.887806 11:-0.721882 
8 1:-0.854292 2:-0.0421077 3:-0.686855 4:-0.470045 5:-0.0379055 6:-0.231498 7:-0.355492 8:-0.792306 9:-0.468948 10:-0.750713 11:-0.725731 
0.04564944728380625 1:-0.836897 2:-0.0706136 3:-0.818809 4:-0.277794 5:0.139131 6:-0.115614 7:1 8:-0.935391 9:0.999623 10:-0.700306 11:1 
6.320301185420672 1:-0.78803 2:0.00292595 3:-0.679727 4:-0.623744 5:-0.115293 6:-0.458486 7:-0.283341 8:-0.7561 9:-0.283335 10:-0.63569 11:-0.595376 
8 1:0.39658 2:0.644673 3:0.682022 4:0.698408 5:0.75939 6:0.928698 7:-0.418076 8:-0.904477 9:-0.480227 10:-0.830301 11:-0.760579 
8 1:-0.207683 2:0.346073 3:0.371403 4:0.175813 5:0.454984 6:0.608055 7:-0.367647 8:-0.849039 9:-0.463949 10:-0.812821 11:-0.734407 
0.1274561531783104 1:0.148718 2:0.964715 3:-0.28917 4:0.703896 5:0.998405 6:0.0495452 7:-0.385142 8:-0.586125 9:-0.0996953 10:1 11:-0.723413 
8 1:-0.353208 2:0.386544 3:0.0106846 4:-0.0405463 5:0.36324 6:0.295137 7:-0.400833 8:-0.736732 9:-0.432611 10:-0.778437 11:-0.735179 
0.06312299658934221 1:-0.788759 2:0.0136164 3:-0.786904 4:-0.294118 5:0.132941 6:-0.266504 7:1 8:1 9:-0.00626445 10:-0.987237 11:1 
8 1:-0.695154 2:0.0367446 3:-0.625988 4:-0.366991 5:0.0338902 6:-0.186803 7:-0.433415 8:-0.859577 9:-0.453261 10:-0.872328 11:-0.770428 
0.5039194009133426 1:-0.524542 2:0.106398 3:-0.421537 4:-0.232323 5:0.0930113 6:-0.125683 7:-0.132533 8:-0.628099 9:1 10:-0.553925 11:-0.0116984 
8 1:-0.915108 2:-0.134038 3:-0.820821 4:-0.493518 5:-0.1108 6:-0.136014 7:-0.392877 8:-0.813265 9:-0.501303 10:-0.825775 11:-0.801864 
8 1:-0.655532 2:0.0936141 3:-0.370847 4:-0.32147 5:0.117018 6:0.028284 7:-0.369406 8:-0.771796 9:-0.427867 10:-0.805521 11:-0.704447 
3.634576294852915 1:-0.82382 2:0.0252757 3:-0.750154 4:-0.577396 5:-0.155536 6:-0.430863 7:-0.384982 8:-0.680749 9:-0.452807 10:-0.760099 11:-0.731614 
4.119332214172835 1:-0.132026 2:0.39773 3:0.124161 4:0.50443 5:0.64889 6:0.761356 7:-0.323338 8:-0.772799 9:-0.428154 10:-0.854002 11:-0.727687 
8 1:-0.805185 2:-0.0241103 3:-0.642447 4:-0.445516 5:-0.0663912 6:-0.150703 7:-0.41968 8:-0.820207 9:-0.50315 10:-0.827596 11:-0.817045 
8 1:-0.8084 2:-0.172434 3:-0.722393 4:-0.241706 5:0.0108647 6:-0.00906245 7:-0.239353 8:-0.820168 9:-0.2197 10:-0.825775 11:-0.476266 
6.128097392923744 1:-0.770837 2:0.317452 3:-0.653442 4:-0.126692 5:0.38832 6:-0.0364478 7:-0.335891 8:-0.821357 9:-0.421629 10:-0.778311 11:-0.669358 
8 1:-0.684892 2:0.127815 3:-0.408355 4:-0.30449 5:0.15228 6:-0.0391615 7:-0.400924 8:-0.87518 9:-0.573507 10:-0.794407 11:-0.836638 
0.921778911203273 1:0.204301 2:1 3:-0.26197 4:1 5:1 6:0.298207 7:-0.445827 8:-0.874285 9:-0.460788 10:-0.534491 11:-0.864508 
8 1:-0.154115 2:0.368807 3:0.111819 4:-0.0226729 5:0.282912 6:0.263029 7:-0.30078 8:-0.878456 9:-0.483103 10:-0.81739 11:-0.752302 
8 1:-0.624294 2:0.106369 3:-0.52638 4:0.0198098 5:0.313004 6:0.299571 7:-0.324325 8:-0.817092 9:-0.409019 10:-0.753409 11:-0.683487 
8 1:-0.340435 2:0.281562 3:-0.0988087 4:0.163523 5:0.46369 6:0.397955 7:-0.370581 8:-0.777267 9:-0.423704 10:-0.744753 11:-0.704281 
8 1:-0.644282 2:0.124973 3:-0.475028 4:-0.14048 5:0.211954 6:0.108797 7:-0.485015 8:-0.833601 9:-0.518515 10:-0.818715 11:-0.80926 
0.2192081369343687 1:0.346439 2:0.596128 3:0.500781 4:0.542508 5:0.577746 6:0.671858 7:1 8:-0.448529 9:1 10:-1 11:1 
8 1:-0.779656 2:0.0447464 3:-0.713134 4:-0.201715 5:0.165873 6:0.0707948 7:-0.423591 8:-0.809335 9:-0.422745 10:-0.884622 11:-0.894906 
8 1:-0.823206 2:0.076947 3:-0.757247 4:-0.435059 5:0.0426327 6:-0.41493 7:-0.245181 8:-0.898014 9:-0.369821 10:-0.798219 11:-0.645913 
0.1101706898366824 1:-0.727411 2:0.0881351 3:-0.687771 4:-0.419067 5:0.0974761 6:-0.264892 7:-0.488181 8:-0.567038 9:-0.148344 10:-0.110597 11:-0.58867 
0.06679002764297544 1:-0.80569 2:-0.089922 3:-0.785614 4:-0.354869 5:-0.103861 6:-0.298131 7:1 8:-0.895549 9:1 10:0.703473 11:1 
8 1:0.186909 2:0.555269 3:0.440001 4:0.529328 5:0.652253 6:0.674181 7:-0.388028 8:-0.867526 9:-0.447298 10:-0.860111 11:-0.74662 
2.069300461120351 1:-0.690403 2:0.084042 3:-0.62877 4:-0.240766 5:0.120735 6:0.00869565 7:1 8:1 9:1 10:1 11:1 
8 1:0.0466614 2:0.503225 3:0.209687 4:0.331598 5:0.577859 6:0.653059 7:-0.381052 8:-0.824253 9:-0.463237 10:-0.777568 11:-0.737687 
8 1:-0.120339 2:0.430511 3:-0.106844 4:0.204348 5:0.461624 6:0.292673 7:-0.301948 8:-0.809982 9:-0.385743 10:-0.767156 11:-0.654977 
4.631010846043131 1:-0.950332 2:-0.082812 3:-0.883531 4:-0.409228 5:0.0472007 6:-0.194204 7:-0.349582 8:-0.811208 9:-0.435076 10:-0.734737 11:-0.718196 
8 1:-0.346914 2:0.438066 3:-0.135312 4:0.447038 5:0.769616 6:0.508823 7:-0.529594 8:-0.8595 9:-0.540925 10:-0.77055 11:-0.913931 
4.266719791989215 1:-0.858503 2:0.000609346 3:-0.835197 4:-0.318166 5:0.198832 6:-0.165468 7:-0.430905 8:-0.534804 9:-0.439204 10:-0.669973 11:-0.717206 
1.040469216267929 1:-0.805241 2:-0.053214 3:-0.695063 4:-0.0236601 5:0.152056 6:0.134605 7:-0.331732 8:-0.771351 9:-0.260569 10:-0.0949474 11:-0.641347 
8 1:-0.810741 2:0.145131 3:-0.717003 4:-0.226326 5:0.186102 6:-0.0947985 7:-0.469626 8:-0.779654 9:-0.501477 10:-0.793016 11:-0.800054 
8 1:-0.692727 2:0.339544 3:-0.575578 4:-0.199963 5:0.338493 6:-0.0613974 7:-0.394731 8:-0.864236 9:-0.475866 10:-0.791645 11:-0.762496 
8 1:-0.477781 2:0.274594 3:-0.263593 4:0.0115881 5:0.34924 6:0.21144 7:-0.332292 8:-0.751026 9:-0.392229 10:-0.769642 11:-0.670941 
8 1:0.273996 2:0.707533 3:0.451541 4:0.660762 5:0.771585 6:0.79367 7:-0.342618 8:-0.898622 9:-0.400304 10:-0.781856 11:-0.677639 
8 1:-0.481748 2:0.224396 3:-0.330529 4:-0.178864 5:0.255344 6:-0.0224542 7:-0.429428 8:-0.811316 9:-0.48131 10:-0.798677 11:-0.761996 
8 1:-0.769217 2:-0.0070496 3:-0.62078 4:-0.352894 5:-0.0315595 6:-0.22938 7:-0.449145 8:-0.521225 9:-0.406836 10:-0.78217 11:-0.721139 
7.98621061406772 1:-0.794361 2:0.0629083 3:-0.659068 4:-0.576541 5:0.0259875 6:-0.408789 7:-0.310185 8:-0.751201 9:-0.499819 10:-0.873941 11:-0.720414 
8 1:-0.742308 2:0.00154014 3:-0.584728 4:-0.238527 5:0.0905349 6:0.0304888 7:-0.358602 8:-0.845342 9:-0.457199 10:-0.813094 11:-0.732168 
6.752312068620625 1:-0.410789 2:0.0274216 3:-0.3194 4:0.220738 5:0.440597 6:0.452282 7:-0.193954 8:-0.70362 9:-0.561231 10:-0.828801 11:-0.830147 
0.07533944277074547 1:-0.947949 2:-0.149605 3:-0.946297 4:-0.691139 5:-0.27405 6:-0.670092 7:1 8:1 9:-0.606633 10:-0.68017 11:-0.0369938 
8 1:-0.431272 2:0.133365 3:-0.27633 4:0.155983 5:0.320139 6:0.440122 7:-0.395976 8:-0.835087 9:-0.476284 10:-0.812844 11:-0.770934 
8 1:-0.70318 2:0.157167 3:-0.733958 4:-0.277806 5:0.186351 6:-0.168196 7:-0.28981 8:-0.798036 9:-0.379258 10:-0.750496 11:-0.639905 
6.014002764560919 1:-0.562465 2:0.149614 3:-0.310005 4:-0.429918 5:-0.0146233 6:-0.141814 7:-0.36092 8:-0.807748 9:-0.493876 10:-0.812548 11:-0.785713 
8 1:-0.757457 2:-0.00905299 3:-0.676423 4:-0.301538 5:0.060593 6:-0.0864506 7:-0.285836 8:-0.884736 9:-0.581275 10:-0.992184 11:-0.7361 
8 1:-0.459461 2:0.240063 3:-0.298942 4:-0.113514 5:0.252564 6:0.0923423 7:-0.388938 8:-0.705386 9:-0.560926 10:-0.863968 11:-0.828271 
1.081335907856031 1:-0.961998 2:-0.0144176 3:-0.942529 4:-0.867362 5:-0.170144 6:-0.831697 7:-0.307108 8:-0.101065 9:-0.015645 10:-0.407197 11:-0.422982 
6.46214772083917 1:-0.819301 2:-0.058396 3:-0.764325 4:-0.333412 5:-0.103153 6:-0.137765 7:-0.21643 8:-0.438451 9:-0.314817 10:-0.751863 11:-0.550076 
8 1:-0.00166617 2:0.394607 3:0.183456 4:0.427096 5:0.495061 6:0.580617 7:-0.37824 8:-0.919345 9:-0.432753 10:-0.804067 11:-0.712355 
8 1:-0.80167 2:-0.0127142 3:-0.729586 4:-0.412162 5:0.0129092 6:-0.248198 7:-0.413709 8:-0.811987 9:-0.483968 10:-0.796469 11:-0.765353 
8 1:-0.823407 2:-0.0816987 3:-0.776194 4:-0.262639 5:0.0131287 6:-0.0515247 7:-0.392497 8:-0.904918 9:-0.454071 10:-0.83226 11:-0.73443 
8 1:0.475197 2:0.685286 3:0.809517 4:0.599425 5:0.658258 6:0.872966 7:-0.377014 8:-1 9:-0.428271 10:-0.804712 11:-0.721574 
0.006024212396190711 1:-0.890408 2:0.0654682 3:-0.908578 4:-0.527001 5:-0.0569822 6:-0.563002 7:1 8:0.175303 9:0.864694 10:-0.753908 11:0.251373 
3.023032212414514 1:-0.676744 2:0.257103 3:-0.588229 4:-0.33805 5:0.267679 6:-0.171916 7:-0.435 8:-0.738224 9:-0.529268 10:-0.824917 11:-0.806268 
8 1:-0.256972 2:0.252207 3:-0.122853 4:0.24026 5:0.456149 6:0.403213 7:-0.298855 8:-0.671398 9:-0.504851 10:-0.828989 11:-0.803862 
8 1:-0.610794 2:0.154355 3:-0.478732 4:0.0235863 5:0.235917 6:0.160416 7:-0.378029 8:-0.790779 9:-0.424203 10:-0.79496 11:-0.715291 
0.4949976384276155 1:-0.476032 2:0.393817 3:-0.494608 4:0.103662 5:0.453096 6:-0.049244 7:-0.292484 8:-0.894616 9:-0.333655 10:-0.730909 11:-0.611699 
0.6209778682646825 1:-0.678571 2:0.259244 3:-0.697832 4:0.125 5:0.585227 6:0.109436 7:-0.516842 8:-0.939851 9:0.313755 10:-0.50955 11:-0.59524 
8 1:-0.5262 2:0.0782547 3:-0.279909 4:-0.0811859 5:0.131672 6:0.229598 7:-0.387273 8:-0.811307 9:-0.407568 10:-0.786039 11:-0.695222 
8 1:0.784142 2:0.876764 3:0.971902 4:0.713977 5:0.764214 6:0.956561 7:-0.438416 8:-0.996314 9:-0.509198 10:-0.855146 11:-0.788776 
8 1:-0.520965 2:0.114778 3:-0.21777 4:-0.228538 5:0.069286 6:0.00365205 7:-0.339688 8:-0.827889 9:-0.375906 10:-0.763647 11:-0.651643 
8 1:0.892963 2:0.938994 3:0.989525 4:0.789125 5:0.821098 6:0.971204 7:-0.465814 8:-0.981542 9:-0.528825 10:-0.875082 11:-0.80866 
8 1:-0.616105 2:0.11842 3:-0.354012 4:-0.21236 5:0.0600653 6:0.0540777 7:-0.356997 8:-0.838394 9:-0.406137 10:-0.792569 11:-0.693383 
7.564328448100479 1:-0.424616 2:0.134991 3:-0.237048 4:-0.0199269 5:0.18311 6:0.290369 7:-0.175514 8:-0.658979 9:-0.175273 10:-0.613645 11:-0.561667 
