svm_type c_svc
kernel_type rbf
gamma 8
nr_class 2
total_sv 2837
rho -22.8752
label 1 0
probA -0.454022
probB -0.335531
nr_sv 1459 1378
SV
11374.23412985837 1:-0.0248828 2:-0.116064 3:-0.216862 4:-0.248033 5:0.040226 6:-0.313792 
16384 1:-0.88674 2:-0.868866 3:-0.787423 4:-0.721291 5:-0.417947 6:-0.548191 
16384 1:-0.895345 2:-0.810182 3:-0.928071 4:-0.863472 5:-0.753151 6:-0.870286 
16384 1:-0.820293 2:-0.671781 3:-0.809707 4:-0.748607 5:-0.544537 6:-0.691129 
16384 1:-0.671247 2:-0.2749 3:-0.639938 4:-0.735546 5:-0.504455 6:-0.670336 
16384 1:-0.908191 2:-0.868543 3:-0.882113 4:-0.826717 5:-0.701617 6:-0.838548 
16384 1:-0.861826 2:-0.665635 3:-0.813735 4:-0.735392 5:-0.521872 6:-0.760166 
6422.881545877717 1:-0.55956 2:-0.270886 3:-0.588518 4:-0.559004 5:-0.322634 6:-0.543729 
9042.77176995759 1:-0.641184 2:-0.512031 3:-0.58976 4:-0.486807 5:-0.201763 6:-0.390831 
16384 1:0.304571 2:0.728071 3:0.304571 4:-0.232882 5:0.380111 6:-0.232882 
4766.434656156327 1:-0.641485 2:-0.256917 3:-0.637226 4:-0.760646 5:-0.567022 6:-0.804424 
16384 1:-0.982183 2:-0.973476 3:-0.966543 4:-0.878227 5:-0.778741 6:-0.87735 
2329.876941080181 1:-0.735282 2:-0.645679 3:-0.696468 4:-0.332082 5:-0.0973242 6:-0.42161 
16384 1:-0.894453 2:-0.817883 3:-0.846614 4:-0.671689 5:-0.448309 6:-0.730175 
9880.417079846784 1:-0.887398 2:-0.832334 3:-0.821024 4:-0.672708 5:-0.463142 6:-0.699 
16384 1:-0.594449 2:0.0435634 3:-0.548567 4:-0.663017 5:-0.372235 6:-0.653516 
16384 1:-0.968522 2:-0.948566 3:-0.860427 4:-0.838113 5:-0.619354 6:-0.76756 
16384 1:-0.577165 2:-0.00710471 3:-0.509765 4:-0.627136 5:-0.304911 6:-0.632556 
16384 1:-0.921983 2:-0.870954 3:-0.959918 4:-0.832606 5:-0.722298 6:-0.875278 
16384 1:-0.979502 2:-0.966233 3:-0.950026 4:-0.882764 5:-0.783005 6:-0.87426 
16384 1:-0.496305 2:-0.277936 3:-0.501794 4:-0.643672 5:-0.321522 6:-0.667641 
16384 1:-0.883885 2:-0.772437 3:-0.888016 4:-0.796846 5:-0.657734 6:-0.790904 
16384 1:-0.924489 2:-0.738301 3:-0.923841 4:-0.478939 5:-0.22067 6:-0.468653 
16384 1:-0.939907 2:-0.914394 3:-0.963278 4:-0.8738 5:-0.763631 6:-0.872869 
16384 1:-0.44862 2:-0.0320931 3:-0.44862 4:-0.428154 5:-0.149329 6:-0.428154 
16384 1:-0.816663 2:-0.699363 3:-0.742464 4:-0.722156 5:-0.494707 6:-0.687226 
16384 1:-0.843565 2:-0.703607 3:-0.767319 4:-0.760968 5:-0.481891 6:-0.729655 
16384 1:-0.832612 2:-0.814594 3:-0.735691 4:-0.769754 5:-0.554639 6:-0.777743 
16384 1:-0.850774 2:-0.835856 3:-0.86644 4:-0.789725 5:-0.569215 6:-0.755113 
31.9485500381867 1:-0.362182 2:-0.378669 3:-0.37901 4:-0.695305 5:-0.194165 6:-0.64671 
16384 1:-0.886038 2:-0.798883 3:-0.771825 4:-0.652777 5:-0.412525 6:-0.617581 
16384 1:-0.687184 2:-0.569594 3:-0.62045 4:-0.684758 5:-0.433844 6:-0.631903 
16384 1:-0.893216 2:-0.786866 3:-0.82756 4:-0.810031 5:-0.608871 6:-0.786556 
741.2574862755034 1:-0.79012 2:-0.672156 3:-0.832253 4:-0.562959 5:-0.30144 6:-0.63912 
15819.50952685316 1:-0.691699 2:-0.627948 3:-0.726109 4:-0.646773 5:-0.304266 6:-0.606399 
16384 1:-0.896496 2:-0.809054 3:-0.925698 4:-0.863327 5:-0.751967 6:-0.870032 
16384 1:-0.72208 2:-0.491317 3:-0.717092 4:-0.675336 5:-0.381293 6:-0.709765 
16384 1:-0.902517 2:-0.885962 3:-0.803852 4:-0.754496 5:-0.434771 6:-0.583564 
16384 1:-0.921319 2:-0.8701 3:-0.960569 4:-0.869505 5:-0.752565 6:-0.874782 
16384 1:-0.878744 2:-0.848492 3:-0.823133 4:-0.810368 5:-0.611843 6:-0.787013 
7492.725203460852 1:-0.611414 2:-0.551182 3:-0.726922 4:-0.74103 5:-0.533372 6:-0.737343 
16384 1:-0.693046 2:-0.361448 3:-0.692511 4:-0.708351 5:-0.465774 6:-0.701778 
16384 1:-0.841052 2:-0.819419 3:-0.652162 4:-0.853334 5:-0.494149 6:-0.729499 
16384 1:-0.807477 2:-0.633571 3:-0.735886 4:-0.698595 5:-0.470435 6:-0.646388 
16384 1:-0.966024 2:-0.964058 3:-0.939929 4:-0.877064 5:-0.772639 6:-0.87428 
16384 1:-0.951719 2:-0.94034 3:-0.957446 4:-0.881448 5:-0.761676 6:-0.870925 
6360.216883308647 1:-0.720504 2:-0.342957 3:-0.701398 4:-0.658323 5:-0.376367 6:-0.657253 
16384 1:-0.939298 2:-0.917974 3:-0.962909 4:-0.873926 5:-0.761695 6:-0.871798 
639.7522279695255 1:-0.572399 2:-0.0429005 3:-0.626394 4:-0.682526 5:-0.408188 6:-0.695064 
16384 1:-0.846863 2:-0.850618 3:-0.604481 4:-0.853066 5:-0.487269 6:-0.746135 
16384 1:-0.930878 2:-0.848206 3:-0.857216 4:-0.869688 5:-0.696464 6:-0.824347 
16384 1:-0.883885 2:-0.772437 3:-0.888016 4:-0.796846 5:-0.657734 6:-0.790904 
16384 1:-0.981787 2:-0.973879 3:-0.951438 4:-0.88085 5:-0.784943 6:-0.870235 
16384 1:-0.924619 2:-0.892575 3:-0.960677 4:-0.867308 5:-0.753795 6:-0.871728 
15581.5085473963 1:-0.730613 2:-0.624088 3:-0.709012 4:-0.67211 5:-0.506125 6:-0.649389 
16384 1:-0.986101 2:-0.969009 3:-0.943201 4:-0.877234 5:-0.776973 6:-0.872559 
16384 1:-0.582246 2:-0.0975994 3:-0.577415 4:-0.660186 5:-0.370885 6:-0.66198 
4788.043288864128 1:-0.766426 2:-0.647111 3:-0.666259 4:-0.76867 5:-0.617905 6:-0.710502 
1101.974257922361 1:-0.592233 2:-0.50582 3:-0.386706 4:-0.447632 5:-0.115421 6:-0.392287 
16384 1:-0.975957 2:-0.96337 3:-0.951946 4:-0.877305 5:-0.788666 6:-0.879393 
15289.13449754036 1:-0.618096 2:-0.414892 3:-0.656741 4:-0.6607 5:-0.349192 6:-0.733368 
921.3995502394819 1:-0.0364612 2:-0.11718 3:-0.318806 4:-0.290106 5:0.00185291 6:-0.413739 
16384 1:-0.592572 2:-0.0771688 3:-0.592147 4:-0.666358 5:-0.381505 6:-0.669856 
16384 1:-0.918578 2:-0.881441 3:-0.956951 4:-0.867806 5:-0.753317 6:-0.870799 
16384 1:-0.904894 2:-0.858366 3:-0.897788 4:-0.815138 5:-0.62464 6:-0.776168 
2435.017197611137 1:-0.75312 2:-0.73896 3:-0.639944 4:-0.542676 5:-0.353035 6:-0.507319 
16384 1:-0.384617 2:-0.306042 3:-0.715991 4:-0.519215 5:-0.215426 6:-0.71894 
16384 1:-0.873671 2:-0.754555 3:-0.856637 4:-0.771405 5:-0.521176 6:-0.770291 
16384 1:-0.72766 2:-0.370172 3:-0.702537 4:-0.647784 5:-0.356696 6:-0.660695 
16384 1:-0.941006 2:-0.89778 3:-0.867689 4:-0.818377 5:-0.580877 6:-0.715652 
16384 1:-0.790758 2:-0.721018 3:-0.822997 4:-0.772506 5:-0.584104 6:-0.737477 
16384 1:-0.556329 2:-0.437855 3:-0.535157 4:-0.647806 5:-0.366974 6:-0.594272 
16384 1:-0.9551 2:-0.94188 3:-0.962362 4:-0.869429 5:-0.76979 6:-0.872721 
16384 1:-0.816398 2:-0.714437 3:-0.742478 4:-0.733976 5:-0.500767 6:-0.687231 
16384 1:-0.786472 2:-0.698733 3:-0.8229 4:-0.758644 5:-0.546549 6:-0.731842 
16384 1:-0.950724 2:-0.918992 3:-0.956953 4:-0.872324 5:-0.755966 6:-0.870799 
16384 1:-0.971429 2:-0.970663 3:-0.935126 4:-0.871668 5:-0.767574 6:-0.87246 
16384 1:-0.90252 2:-0.885967 3:-0.803856 4:-0.754502 5:-0.434792 6:-0.583581 
16384 1:-0.926012 2:-0.862887 3:-0.896148 4:-0.844417 5:-0.67966 6:-0.821354 
87.99028742535113 1:-0.166251 2:-0.399246 3:-0.166251 4:-0.254337 5:0.05288 6:-0.254337 
2895.053805231924 1:-0.427038 2:0.186126 3:-0.421777 4:-0.71634 5:-0.510739 6:-0.713211 
16384 1:-0.92759 2:-0.72931 3:-0.931735 4:-0.48627 5:-0.236359 6:-0.474266 
4835.789851253438 1:-0.567253 2:-0.264124 3:-0.58926 4:-0.658615 5:-0.387507 6:-0.692081 
16384 1:-0.568701 2:0.0181114 3:-0.516814 4:-0.627479 5:-0.308978 6:-0.6319 
16384 1:-0.605281 2:-0.290988 3:-0.559378 4:-0.714034 5:-0.43329 6:-0.700095 
594.1737189257697 1:-0.560331 2:-0.30909 3:-0.501675 4:-0.655834 5:-0.365876 6:-0.667613 
16384 1:-0.922369 2:-0.712567 3:-0.927328 4:-0.488604 5:-0.235384 6:-0.480125 
16384 1:-0.80162 2:-0.610298 3:-0.805604 4:-0.765727 5:-0.586261 6:-0.766379 
16384 1:-0.665799 2:-0.260789 3:-0.630457 4:-0.774727 5:-0.577902 6:-0.774791 
16384 1:-0.9447 2:-0.921378 3:-0.963437 4:-0.871926 5:-0.758269 6:-0.871744 
2217.242954266125 1:0.0436588 2:-0.0961065 3:-0.251544 4:-0.235506 5:0.00765145 6:-0.378597 
16379.05102059493 1:0.61415 2:0.443146 3:0.61415 4:0.382164 5:0.768098 6:0.382164 
16384 1:-0.86344 2:-0.812097 3:-0.782491 4:-0.734678 5:-0.383738 6:-0.661136 
16384 1:-0.839732 2:-0.783903 3:-0.768455 4:-0.8381 5:-0.51052 6:-0.736853 
16384 1:-0.923239 2:-0.884694 3:-0.958712 4:-0.872887 5:-0.758218 6:-0.870149 
16384 1:-0.932322 2:-0.845128 3:-0.86825 4:-0.810388 5:-0.629258 6:-0.802214 
5696.590316195025 1:-0.410709 2:-0.111505 3:-0.381332 4:-0.292029 5:0.00341745 6:-0.415071 
8067.062135655729 1:-0.716722 2:-0.621576 3:-0.82619 4:-0.66513 5:-0.355088 6:-0.71614 
16384 1:-0.925211 2:-0.829664 3:-0.862596 4:-0.818061 5:-0.628083 6:-0.800789 
16384 1:-0.693046 2:-0.361448 3:-0.693046 4:-0.708351 5:-0.465774 6:-0.708351 
16384 1:-0.948561 2:-0.90437 3:-0.955219 4:-0.8643 5:-0.749106 6:-0.874236 
9581.906778672883 1:-0.39221 2:-0.0802984 3:-0.376624 4:-0.272493 5:0.0163595 6:-0.411065 
16384 1:-0.816383 2:-0.714416 3:-0.742461 4:-0.733971 5:-0.500757 6:-0.687226 
16384 1:-0.797358 2:-0.722221 3:-0.743469 4:-0.495063 5:-0.225935 6:-0.500228 
16384 1:-0.883597 2:-0.806016 3:-0.771825 4:-0.61429 5:-0.365043 6:-0.617578 
16384 1:-0.7997 2:-0.684075 3:-0.733938 4:-0.692595 5:-0.465997 6:-0.669998 
16384 1:-0.842354 2:-0.885864 3:-0.856656 4:-0.793185 5:-0.569694 6:-0.742646 
16384 1:-0.956743 2:-0.922636 3:-0.937819 4:-0.872457 5:-0.76576 6:-0.873543 
16384 1:-0.737208 2:-0.560207 3:-0.713772 4:-0.675182 5:-0.394408 6:-0.684025 
16384 1:-0.845933 2:-0.826585 3:-0.845746 4:-0.731678 5:-0.559305 6:-0.752342 
16384 1:-0.705135 2:-0.348054 3:-0.697345 4:-0.639887 5:-0.338513 6:-0.66002 
16384 1:-0.42525 2:-0.163471 3:-0.404981 4:-0.336603 5:-0.041018 6:-0.407754 
16384 1:-0.863645 2:-0.794414 3:-0.81818 4:-0.777338 5:-0.558375 6:-0.698051 
16384 1:-0.934078 2:-0.846965 3:-0.867365 4:-0.812441 5:-0.635107 6:-0.803968 
16384 1:-0.989136 2:-0.984837 3:-0.943008 4:-0.871577 5:-0.769614 6:-0.875144 
16384 1:-0.857124 2:-0.735075 3:-0.829238 4:-0.805255 5:-0.646266 6:-0.715029 
16384 1:-0.753026 2:-0.560708 3:-0.668806 4:-0.677052 5:-0.39268 6:-0.622404 
16384 1:-0.925133 2:-0.863905 3:-0.894792 4:-0.842711 5:-0.678309 6:-0.818433 
1179.767420070451 1:-0.444565 2:0.00190776 3:-0.506555 4:-0.693727 5:-0.421151 6:-0.654796 
16384 1:-0.931177 2:-0.843754 3:-0.867873 4:-0.811815 5:-0.628925 6:-0.803494 
11252.55200426711 1:-0.81768 2:-0.794176 3:-0.804558 4:-0.665356 5:-0.349622 6:-0.727894 
3173.300052475317 1:-0.917923 2:-0.724191 3:-0.923425 4:-0.447488 5:-0.187657 6:-0.468892 
16384 1:-0.738592 2:-0.545765 3:-0.689856 4:-0.637547 5:-0.328243 6:-0.621552 
16384 1:-0.807271 2:-0.739024 3:-0.766011 4:-0.783498 5:-0.539078 6:-0.739569 
16384 1:-0.928721 2:-0.896716 3:-0.958712 4:-0.874954 5:-0.760927 6:-0.870149 
16384 1:-0.852868 2:-0.766944 3:-0.756071 4:-0.599066 5:-0.340642 6:-0.59835 
16384 1:-0.923389 2:-0.885305 3:-0.958712 4:-0.871357 5:-0.759378 6:-0.870148 
16384 1:-0.906196 2:-0.877737 3:-0.801524 4:-0.760624 5:-0.44447 6:-0.597119 
16384 1:-0.982342 2:-0.981282 3:-0.969073 4:-0.88812 5:-0.782645 6:-0.874756 
16384 1:0.136279 2:0.205917 3:0.169925 4:-0.257013 5:0.0197771 6:-0.162202 
16384 1:-0.928619 2:-0.835203 3:-0.862958 4:-0.807192 5:-0.614721 6:-0.802293 
16384 1:-0.517256 2:0.0321722 3:-0.554613 4:-0.735121 5:-0.498221 6:-0.733523 
16384 1:-0.9184 2:-0.722118 3:-0.927 4:-0.489733 5:-0.236219 6:-0.478913 
16384 1:-0.955627 2:-0.918251 3:-0.896416 4:-0.840285 5:-0.6426 6:-0.775085 
10025.67549573425 1:-0.482799 2:-0.139939 3:-0.481078 4:-0.452711 5:-0.114729 6:-0.449828 
1652.866427621291 1:-0.804253 2:-0.726458 3:-0.666445 4:-0.700506 5:-0.444447 6:-0.597882 
16384 1:-0.822887 2:-0.812369 3:-0.803382 4:-0.786255 5:-0.602616 6:-0.683898 
824.5456221659292 1:-0.689308 2:-0.450724 3:-0.61373 4:-0.538708 5:-0.223553 6:-0.503751 
16384 1:-0.882252 2:-0.771752 3:-0.810188 4:-0.829455 5:-0.594814 6:-0.799015 
16384 1:-0.822108 2:-0.720136 3:-0.8242 4:-0.708063 5:-0.440933 6:-0.713052 
16384 1:-0.879681 2:-0.893628 3:-0.803095 4:-0.695723 5:-0.45594 6:-0.603384 
16384 1:-0.902519 2:-0.885964 3:-0.803853 4:-0.754497 5:-0.434772 6:-0.583564 
16384 1:-0.693046 2:-0.361448 3:-0.693046 4:-0.708351 5:-0.465774 6:-0.708351 
16384 1:-0.941676 2:-0.898331 3:-0.863317 4:-0.818581 5:-0.585133 6:-0.71349 
16384 1:-0.88169 2:-0.82557 3:-0.787932 4:-0.849366 5:-0.542676 6:-0.765478 
16384 1:-0.577491 2:0.0164366 3:-0.510728 4:-0.663584 5:-0.362827 6:-0.639861 
6748.215794926862 1:-0.728305 2:-0.362986 3:-0.731565 4:-0.645721 5:-0.360078 6:-0.650517 
16384 1:-0.83873 2:-0.821797 3:-0.727403 4:-0.752425 5:-0.370361 6:-0.655432 
16108.26488378149 1:-0.376075 2:-0.303155 3:-0.275648 4:-0.351664 5:-0.0253876 6:-0.279933 
16384 1:-0.929518 2:-0.884784 3:-0.863138 4:-0.798958 5:-0.596723 6:-0.713032 
16384 1:-0.906197 2:-0.87774 3:-0.801525 4:-0.760626 5:-0.444476 6:-0.597123 
16384 1:-0.903163 2:-0.729985 3:-0.799764 4:-0.70438 5:-0.454688 6:-0.718172 
16384 1:-0.952258 2:-0.942563 3:-0.96692 4:-0.874872 5:-0.760237 6:-0.87217 
16384 1:-0.645016 2:-0.22143 3:-0.610003 4:-0.780604 5:-0.588155 6:-0.783107 
16384 1:-0.870208 2:-0.628431 3:-0.761676 4:-0.565561 5:-0.358047 6:-0.497213 
16384 1:-0.934502 2:-0.836117 3:-0.798668 4:-0.801822 5:-0.546085 6:-0.76426 
9765.696298907258 1:-0.342372 2:-0.366454 3:-0.730628 4:-0.311274 5:-0.0658542 6:-0.597131 
16384 1:-0.730771 2:-0.525247 3:-0.699312 4:-0.663942 5:-0.346876 6:-0.630045 
16384 1:-0.957056 2:-0.961846 3:-0.934248 4:-0.871816 5:-0.772264 6:-0.876738 
16384 1:-0.902519 2:-0.885964 3:-0.803853 4:-0.754497 5:-0.434772 6:-0.583564 
16384 1:-0.931086 2:-0.896106 3:-0.875583 4:-0.872805 5:-0.713697 6:-0.824819 
16384 1:-0.85256 2:-0.844679 3:-0.770724 4:-0.734384 5:-0.37921 6:-0.657951 
16384 1:-0.721683 2:-0.367103 3:-0.694673 4:-0.652699 5:-0.365035 6:-0.656612 
16384 1:-0.958501 2:-0.937188 3:-0.961453 4:-0.872471 5:-0.754398 6:-0.87072 
16384 1:-0.647833 2:-0.656564 3:-0.557468 4:-0.538833 5:-0.289313 6:-0.464462 
16384 1:-0.978995 2:-0.943635 3:-0.920667 4:-0.843503 5:-0.734669 6:-0.844921 
13773.74010468912 1:-0.574764 2:-0.524606 3:-0.53727 4:-0.534141 5:-0.179214 6:-0.515327 
16384 1:-0.696223 2:-0.452081 3:-0.632893 4:-0.68904 5:-0.397461 6:-0.654124 
16384 1:-0.903801 2:-0.842996 3:-0.822306 4:-0.662118 5:-0.443509 6:-0.69895 
16384 1:-0.517474 2:0.0348385 3:-0.50788 4:-0.626351 5:-0.299612 6:-0.633178 
16384 1:-0.952754 2:-0.939489 3:-0.960848 4:-0.87105 5:-0.772441 6:-0.87479 
16384 1:-0.830289 2:-0.732344 3:-0.810476 4:-0.721935 5:-0.472032 6:-0.736274 
14086.95184740014 1:-0.64199 2:-0.527571 3:-0.514246 4:-0.729636 5:-0.443907 6:-0.603022 
16384 1:-0.931075 2:-0.906097 3:-0.959102 4:-0.873274 5:-0.762499 6:-0.871916 
16384 1:-0.941001 2:-0.897771 3:-0.867676 4:-0.818378 5:-0.580874 6:-0.715651 
1.105392605195242 1:-0.0309521 2:0.111771 3:0.0954365 4:-0.0967222 5:0.267561 6:-0.0153598 
16384 1:-0.923328 2:-0.88452 3:-0.959817 4:-0.866656 5:-0.74573 6:-0.873384 
1023.866162262719 1:-0.18334 2:-0.310762 3:-0.71526 4:-0.305425 5:-0.0343404 6:-0.587129 
16384 1:-0.883896 2:-0.772458 3:-0.889771 4:-0.796846 5:-0.657734 6:-0.790999 
16384 1:-0.931923 2:-0.888133 3:-0.859065 4:-0.814935 5:-0.576515 6:-0.709451 
2791.711335285135 1:-0.450098 2:0.101028 3:-0.511588 4:-0.710496 5:-0.463885 6:-0.733118 
16384 1:-0.959262 2:-0.909732 3:-0.896349 4:-0.82829 5:-0.623486 6:-0.790311 
7917.188081142918 1:-0.705187 2:-0.325982 3:-0.639938 4:-0.733146 5:-0.497568 6:-0.670336 
3741.361139981656 1:-0.850128 2:-0.829181 3:-0.814496 4:-0.600973 5:-0.20386 6:-0.564903 
9990.361447652518 1:-0.667117 2:-0.595085 3:-0.604124 4:-0.669708 5:-0.311995 6:-0.552063 
16384 1:-0.943852 2:-0.884233 3:-0.937506 4:-0.774653 5:-0.586863 6:-0.798778 
4317.856136218468 1:-0.794042 2:-0.741879 3:-0.562181 4:-0.650835 5:-0.313385 6:-0.575468 
16384 1:-0.902522 2:-0.885966 3:-0.803858 4:-0.7545 5:-0.434771 6:-0.583568 
16384 1:-0.58823 2:-0.0831484 3:-0.57518 4:-0.704357 5:-0.454873 6:-0.69227 
4005.691861204428 1:-0.428714 2:0.137363 3:-0.428714 4:-0.676626 5:-0.415623 6:-0.676626 
11741.36790736721 1:-0.769409 2:-0.651831 3:-0.742769 4:-0.607517 5:-0.220584 6:-0.706506 
11212.08213197343 1:-0.754318 2:-0.474242 3:-0.690842 4:-0.721206 5:-0.493804 6:-0.711143 
16384 1:-0.759242 2:-0.495289 3:-0.74794 4:-0.631249 5:-0.360838 6:-0.619936 
12015.1377317805 1:-0.917721 2:-0.715776 3:-0.925017 4:-0.48649 5:-0.232166 6:-0.478059 
8416.15698319022 1:-0.840526 2:-0.614479 3:-0.800261 4:-0.728157 5:-0.505437 6:-0.755668 
16384 1:-0.79542 2:-0.668744 3:-0.8206 4:-0.741622 5:-0.530018 6:-0.750664 
16384 1:-0.905048 2:-0.83343 3:-0.95868 4:-0.865924 5:-0.754051 6:-0.875847 
16384 1:-0.799468 2:-0.723348 3:-0.815184 4:-0.706286 5:-0.477094 6:-0.656284 
16384 1:-0.902519 2:-0.885961 3:-0.803853 4:-0.754499 5:-0.434769 6:-0.583566 
2346.693618504453 1:-0.661683 2:-0.45957 3:-0.830872 4:-0.559381 5:-0.297031 6:-0.647206 
4.585937893035841 1:0.115944 2:0.193441 3:0.257437 4:-0.205456 5:0.0740222 6:-0.0944642 
15316.59700437891 1:-0.514028 2:-0.0367008 3:-0.563289 4:-0.631473 5:-0.294837 6:-0.659788 
16384 1:-0.93083 2:-0.843539 3:-0.86711 4:-0.806921 5:-0.63185 6:-0.804269 
16384 1:-0.902522 2:-0.885966 3:-0.803858 4:-0.7545 5:-0.434771 6:-0.583568 
16384 1:-0.879359 2:-0.875465 3:-0.789153 4:-0.75996 5:-0.431638 6:-0.700047 
16384 1:-0.71717 2:-0.380411 3:-0.691394 4:-0.644311 5:-0.35608 6:-0.655742 
16384 1:-0.867091 2:-0.85387 3:-0.693714 4:-0.841952 5:-0.516492 6:-0.770092 
16384 1:-0.592865 2:-0.0394739 3:-0.563577 4:-0.684229 5:-0.411557 6:-0.666197 
16384 1:-0.905249 2:-0.878237 3:-0.70778 4:-0.852613 5:-0.508273 6:-0.724356 
72.19345702335379 1:-0.476071 2:-0.54174 3:-0.515855 4:-0.631859 5:-0.127533 6:-0.538096 
60.14978525234786 1:-0.57691 2:-0.471923 3:-0.400076 4:-0.467083 5:-0.204617 6:-0.416135 
16384 1:-0.905164 2:-0.884394 3:-0.805735 4:-0.781641 5:-0.416871 6:-0.582852 
16384 1:-0.805389 2:-0.775253 3:-0.826553 4:-0.761416 5:-0.55896 6:-0.731046 
9035.619919070314 1:-0.799849 2:-0.726419 3:-0.743469 4:-0.497949 5:-0.232427 6:-0.500228 
16384 1:-0.942521 2:-0.914184 3:-0.960091 4:-0.872754 5:-0.777172 6:-0.869686 
16384 1:-0.94449 2:-0.90307 3:-0.864977 4:-0.821786 5:-0.589168 6:-0.715896 
16384 1:-0.824668 2:-0.697486 3:-0.808691 4:-0.759208 5:-0.559934 6:-0.704202 
16384 1:-0.781914 2:-0.694759 3:-0.822882 4:-0.75878 5:-0.545382 6:-0.725968 
16384 1:-0.858679 2:-0.849492 3:-0.678922 4:-0.847793 5:-0.488609 6:-0.734732 
8347.006075916433 1:-0.0287484 2:-0.113009 3:-0.216821 4:-0.248395 5:0.0396198 6:-0.313769 
16384 1:-0.961004 2:-0.942805 3:-0.84427 4:-0.834052 5:-0.638087 6:-0.73519 
16384 1:-0.62679 2:-0.134386 3:-0.600086 4:-0.700707 5:-0.442721 6:-0.681804 
16384 1:-0.902519 2:-0.885965 3:-0.803854 4:-0.754499 5:-0.434783 6:-0.583573 
16384 1:-0.68675 2:-0.728718 3:-0.679149 4:-0.73908 5:-0.504822 6:-0.68306 
16384 1:-0.895079 2:-0.849152 3:-0.806698 4:-0.806807 5:-0.587895 6:-0.708299 
16384 1:-0.97504 2:-0.961721 3:-0.960533 4:-0.879566 5:-0.758267 6:-0.872914 
58.33035602924737 1:-0.0480193 2:-0.0663193 3:-0.0358972 4:-0.122938 5:0.140994 6:-0.0636425 
16384 1:-0.917921 2:-0.878491 3:-0.956951 4:-0.87451 5:-0.760211 6:-0.870798 
16384 1:-0.911119 2:-0.826162 3:-0.85979 4:-0.73843 5:-0.550865 6:-0.745725 
16384 1:-0.624483 2:-0.245434 3:-0.672223 4:-0.667423 5:-0.365583 6:-0.688783 
16384 1:-0.817296 2:-0.672587 3:-0.723664 4:-0.727857 5:-0.494625 6:-0.673154 
16384 1:-0.93583 2:-0.843874 3:-0.867161 4:-0.815118 5:-0.632421 6:-0.802696 
11943.97599539249 1:-0.655761 2:-0.311705 3:-0.703394 4:-0.698533 5:-0.427925 6:-0.738468 
16384 1:-0.934848 2:-0.890845 3:-0.86183 4:-0.81691 5:-0.582077 6:-0.71099 
10867.19622701271 1:-0.678125 2:-0.616282 3:-0.499814 4:-0.602022 5:-0.311106 6:-0.520198 
16384 1:-0.667117 2:-0.595085 3:-0.604124 4:-0.669708 5:-0.311995 6:-0.552063 
16384 1:-0.527207 2:-0.379781 3:-0.555158 4:-0.454465 5:-0.276749 6:-0.403383 
16384 1:-0.953521 2:-0.944285 3:-0.959031 4:-0.881793 5:-0.765031 6:-0.866972 
10213.55360124075 1:-0.578181 2:-0.426749 3:-0.562981 4:-0.58623 5:-0.278182 6:-0.611451 
16384 1:-0.790932 2:-0.681012 3:-0.724776 4:-0.729667 5:-0.445786 6:-0.685845 
16384 1:-0.934843 2:-0.843019 3:-0.865962 4:-0.809786 5:-0.621046 6:-0.808913 
16384 1:-0.907036 2:-0.88734 3:-0.805739 4:-0.741943 5:-0.402641 6:-0.582841 
16384 1:-0.924052 2:-0.75476 3:-0.923208 4:-0.48397 5:-0.225156 6:-0.489053 
16384 1:-0.963334 2:-0.938112 3:-0.916466 4:-0.856942 5:-0.707273 6:-0.853921 
16384 1:-0.627089 2:-0.135087 3:-0.604979 4:-0.70073 5:-0.442773 6:-0.684574 
16384 1:-0.780937 2:-0.712666 3:-0.817157 4:-0.760032 5:-0.598056 6:-0.737331 
16384 1:-0.902527 2:-0.88597 3:-0.803866 4:-0.754499 5:-0.434771 6:-0.583566 
16384 1:-0.91371 2:-0.8031 3:-0.886043 4:-0.823755 5:-0.625757 6:-0.813615 
16384 1:-0.728999 2:-0.392031 3:-0.709561 4:-0.648898 5:-0.360258 6:-0.653395 
16384 1:-0.893376 2:-0.834978 3:-0.849727 4:-0.70931 5:-0.537758 6:-0.713767 
16384 1:-0.951779 2:-0.939755 3:-0.957789 4:-0.882107 5:-0.761168 6:-0.870583 
16384 1:-0.699146 2:-0.286338 3:-0.675339 4:-0.662405 5:-0.385738 6:-0.660702 
16384 1:-0.967858 2:-0.946055 3:-0.866232 4:-0.812293 5:-0.629543 6:-0.762088 
16384 1:-0.963755 2:-0.944186 3:-0.952756 4:-0.873162 5:-0.752893 6:-0.86811 
16384 1:-0.527207 2:-0.379781 3:-0.555158 4:-0.454465 5:-0.276749 6:-0.403383 
3718.545165929901 1:-0.780285 2:-0.677954 3:-0.773505 4:-0.763199 5:-0.556152 6:-0.78025 
861.8203518944697 1:-0.595349 2:-0.262088 3:-0.527442 4:-0.663511 5:-0.372923 6:-0.725204 
16384 1:-0.927101 2:-0.894047 3:-0.961234 4:-0.87496 5:-0.762461 6:-0.873052 
388.2795314885824 1:-0.27674 2:-0.150146 3:-0.226476 4:-0.260207 5:0.11571 6:-0.257169 
209.1771220939396 1:-0.675167 2:-0.685794 3:-0.523467 4:-0.528131 5:-0.269439 6:-0.434732 
0.8040755550217511 1:-0.031753 2:-0.0379221 3:0.184508 4:-0.164652 5:0.0511987 6:-0.0209565 
16384 1:-0.969358 2:-0.958817 3:-0.966034 4:-0.877302 5:-0.784551 6:-0.875186 
274.1663310195244 1:-0.39056 2:-0.23665 3:-0.35052 4:-0.396031 5:0.0548775 6:-0.419571 
16384 1:-0.922589 2:-0.865378 3:-0.931785 4:-0.861124 5:-0.744378 6:-0.868113 
16384 1:-0.809514 2:-0.814017 3:-0.68432 4:-0.672078 5:-0.423793 6:-0.598613 
16384 1:-0.78874 2:-0.499478 3:-0.757078 4:-0.739578 5:-0.518569 6:-0.694386 
16384 1:-0.843306 2:-0.851778 3:-0.772555 4:-0.760569 5:-0.393229 6:-0.672717 
16384 1:-0.851096 2:-0.767968 3:-0.813711 4:-0.658982 5:-0.445521 6:-0.70006 
16384 1:-0.629442 2:-0.537991 3:-0.535007 4:-0.721069 5:-0.434739 6:-0.607614 
15986.3553883716 1:-0.747573 2:-0.673499 3:-0.669222 4:-0.678105 5:-0.368765 6:-0.583718 
428.0327843900475 1:-0.404298 2:-0.00213929 3:-0.409359 4:-0.413211 5:-0.170978 6:-0.417958 
16384 1:-0.686796 2:-0.47277 3:-0.669979 4:-0.653135 5:-0.345217 6:-0.641532 
16384 1:-0.610161 2:-0.396876 3:-0.562885 4:-0.683793 5:-0.413913 6:-0.710408 
16384 1:-0.89685 2:-0.947242 3:-0.842806 4:-0.774564 5:-0.337908 6:-0.660881 
3180.774008179259 1:-0.810748 2:-0.75281 3:-0.843928 4:-0.843839 5:-0.458413 6:-0.741791 
16384 1:-0.630183 2:-0.514128 3:-0.505077 4:-0.686429 5:-0.354183 6:-0.588724 
16384 1:-0.848506 2:-0.702739 3:-0.810233 4:-0.745425 5:-0.460292 6:-0.679627 
16384 1:-0.746468 2:-0.669225 3:-0.652147 4:-0.170837 5:0.0213464 6:-0.19796 
16384 1:-0.846193 2:-0.784043 3:-0.82278 4:-0.787056 5:-0.554806 6:-0.739966 
16384 1:-0.821108 2:-0.713116 3:-0.803246 4:-0.662222 5:-0.439573 6:-0.714552 
16384 1:-0.620297 2:-0.107202 3:-0.588604 4:-0.721825 5:-0.49935 6:-0.70704 
4868.713161975033 1:-0.516086 2:-0.127148 3:-0.567899 4:-0.550194 5:-0.262797 6:-0.670759 
16384 1:-0.9176 2:-0.713829 3:-0.925507 4:-0.486813 5:-0.231702 6:-0.477092 
16384 1:-0.96457 2:-0.938001 3:-0.914027 4:-0.854628 5:-0.698386 6:-0.85138 
16384 1:-0.977736 2:-0.97209 3:-0.967689 4:-0.862277 5:-0.750871 6:-0.877449 
16384 1:-0.448729 2:-0.138674 3:-0.430776 4:-0.473923 5:-0.244112 6:-0.470153 
7250.736391478152 1:-0.535188 2:-0.286541 3:-0.704096 4:-0.620259 5:-0.398714 6:-0.670809 
4243.257420697272 1:-0.773701 2:-0.672933 3:-0.828362 4:-0.692318 5:-0.399877 6:-0.699898 
3141.878688811236 1:-0.530587 2:-0.466179 3:-0.392206 4:-0.420394 5:-0.164935 6:-0.351119 
16384 1:-0.66079 2:-0.559101 3:-0.667749 4:-0.673476 5:-0.406553 6:-0.633119 
16384 1:-0.788639 2:-0.689762 3:-0.781263 4:-0.762075 5:-0.555878 6:-0.784038 
16384 1:-0.661083 2:-0.55267 3:-0.583726 4:-0.586203 5:-0.260895 6:-0.488467 
16384 1:-0.873367 2:-0.756558 3:-0.799181 4:-0.760403 5:-0.478263 6:-0.679254 
16384 1:-0.980158 2:-0.969404 3:-0.942764 4:-0.870327 5:-0.785493 6:-0.876234 
16384 1:-0.906577 2:-0.876305 3:-0.796855 4:-0.75489 5:-0.47659 6:-0.677133 
16384 1:-0.858842 2:-0.685233 3:-0.884583 4:-0.815369 5:-0.658237 6:-0.806244 
16384 1:-0.866418 2:-0.775702 3:-0.847826 4:-0.683471 5:-0.414205 6:-0.591597 
2722.703202244687 1:-0.479902 2:0.151044 3:-0.633709 4:-0.657676 5:-0.383376 6:-0.662968 
16384 1:-0.514182 2:0.0362999 3:-0.505929 4:-0.624528 5:-0.297265 6:-0.632506 
16384 1:-0.578488 2:-0.45677 3:-0.569731 4:-0.635503 5:-0.325376 6:-0.628666 
16384 1:-0.902086 2:-0.856037 3:-0.936642 4:-0.857476 5:-0.734917 6:-0.878204 
16384 1:-0.876433 2:-0.782562 3:-0.827103 4:-0.831019 5:-0.62744 6:-0.775583 
13623.40735582248 1:-0.705048 2:-0.602916 3:-0.659927 4:-0.764931 5:-0.576227 6:-0.712512 
16384 1:-0.917824 2:-0.875175 3:-0.958242 4:-0.866364 5:-0.75193 6:-0.871631 
9255.784783767525 1:-0.620297 2:-0.107202 3:-0.588604 4:-0.721829 5:-0.499359 6:-0.707043 
181.5057344556664 1:-0.612993 2:-0.597567 3:-0.74549 4:-0.403759 5:-0.119039 6:-0.332478 
3841.210823317353 1:-0.883508 2:-0.7808 3:-0.843229 4:-0.682372 5:-0.465586 6:-0.736948 
319.7367959372065 1:0.129644 2:0.0302438 3:-0.138399 4:-0.250002 5:0.0515267 6:-0.290559 
3748.058580978501 1:-0.740713 2:-0.476685 3:-0.668554 4:-0.667352 5:-0.348637 6:-0.708478 
16384 1:-0.517256 2:0.0321722 3:-0.554613 4:-0.735121 5:-0.498221 6:-0.733523 
16384 1:-0.860615 2:-0.788472 3:-0.827978 4:-0.804719 5:-0.463906 6:-0.742055 
16384 1:-0.979246 2:-0.973103 3:-0.948814 4:-0.883307 5:-0.768115 6:-0.875786 
7972.414032977483 1:-0.714255 2:-0.429487 3:-0.762114 4:-0.731434 5:-0.518053 6:-0.781902 
16384 1:-0.965598 2:-0.959587 3:-0.954405 4:-0.875829 5:-0.781124 6:-0.876479 
13786.67100128229 1:-0.693051 2:-0.377283 3:-0.61954 4:-0.669202 5:-0.3788 6:-0.699054 
142.1715982950389 1:-0.221205 2:-0.343163 3:-0.723589 4:-0.338833 5:-0.0774424 6:-0.594552 
16384 1:-0.902521 2:-0.885963 3:-0.803855 4:-0.754498 5:-0.434765 6:-0.583563 
70.25098357769973 1:-0.940734 2:-0.760446 3:-0.93379 4:-0.58149 5:-0.278308 6:-0.504507 
3893.689145855054 1:-0.600402 2:-0.161829 3:-0.547341 4:-0.650255 5:-0.332939 6:-0.726251 
16384 1:-0.805241 2:-0.70652 3:-0.848984 4:-0.743764 5:-0.554056 6:-0.706392 
334.9092100618127 1:-0.394519 2:-0.244633 3:-0.354841 4:-0.461678 5:-0.00772855 6:-0.454563 
16384 1:-0.913713 2:-0.858923 3:-0.911212 4:-0.848966 5:-0.676018 6:-0.822346 
16384 1:-0.900634 2:-0.873727 3:-0.797708 4:-0.777134 5:-0.512261 6:-0.706776 
16384 1:-0.939474 2:-0.896054 3:-0.865844 4:-0.817867 5:-0.583107 6:-0.718575 
2486.467627313936 1:-0.553481 2:-0.270883 3:-0.572289 4:-0.630735 5:-0.266871 6:-0.693169 
16384 1:-0.970554 2:-0.940373 3:-0.847955 4:-0.829116 5:-0.634846 6:-0.75227 
16384 1:-0.930091 2:-0.834034 3:-0.868213 4:-0.824792 5:-0.637788 6:-0.809915 
16384 1:-0.958382 2:-0.953565 3:-0.854032 4:-0.820308 5:-0.604403 6:-0.763857 
16384 1:-0.789331 2:-0.676208 3:-0.828197 4:-0.562225 5:-0.299045 6:-0.63243 
16384 1:-0.902519 2:-0.885961 3:-0.803853 4:-0.7545 5:-0.43477 6:-0.583567 
16384 1:-0.650132 2:-0.499695 3:-0.584674 4:-0.660777 5:-0.378167 6:-0.612896 
16376.63845876713 1:0.61415 2:0.443146 3:0.61415 4:0.382164 5:0.768098 6:0.382164 
16384 1:-0.820197 2:-0.77197 3:-0.691876 4:-0.728966 5:-0.438365 6:-0.651223 
5351.787193175476 1:-0.65639 2:-0.480134 3:-0.592724 4:-0.765449 5:-0.548159 6:-0.752628 
16384 1:-0.44862 2:-0.0320931 3:-0.44862 4:-0.428162 5:-0.149339 6:-0.428162 
16384 1:-0.545878 2:-0.419264 3:-0.606918 4:-0.583773 5:-0.273331 6:-0.53183 
16384 1:-0.960146 2:-0.939078 3:-0.843093 4:-0.839952 5:-0.638455 6:-0.746006 
16384 1:-0.743566 2:-0.477394 3:-0.7183 4:-0.67698 5:-0.400816 6:-0.678136 
940.7964999826255 1:-0.409761 2:-0.299206 3:-0.151963 4:-0.482903 5:-0.177015 6:-0.373079 
5182.443043692771 1:-0.704074 2:-0.606689 3:-0.598854 4:-0.576055 5:-0.258231 6:-0.455812 
13839.36177079938 1:-0.560331 2:-0.30909 3:-0.501675 4:-0.655834 5:-0.365876 6:-0.667613 
16384 1:-0.982575 2:-0.975762 3:-0.968398 4:-0.875091 5:-0.782361 6:-0.868287 
1146.958270008056 1:-0.911386 2:-0.962456 3:-0.811369 4:-0.803829 5:-0.55387 6:-0.69731 
16384 1:-0.799388 2:-0.792179 3:-0.671626 4:-0.734469 5:-0.468065 6:-0.646157 
16384 1:-0.76817 2:-0.729109 3:-0.691206 4:-0.737429 5:-0.394673 6:-0.646059 
16384 1:-0.982135 2:-0.973278 3:-0.966732 4:-0.878664 5:-0.779116 6:-0.877292 
1622.365832591638 1:-0.90921 2:-0.894614 3:-0.788622 4:-0.776303 5:-0.48947 6:-0.716552 
16384 1:-0.778909 2:-0.596652 3:-0.695774 4:-0.703207 5:-0.412175 6:-0.639994 
16384 1:-0.855965 2:-0.781366 3:-0.827494 4:-0.810819 5:-0.540509 6:-0.756175 
2139.740372399505 1:-0.502388 2:-0.485244 3:-0.725635 4:-0.501544 5:-0.211791 6:-0.587958 
16384 1:-0.775555 2:-0.684028 3:-0.693816 4:-0.691092 5:-0.425292 6:-0.601579 
16384 1:-0.935148 2:-0.84547 3:-0.866367 4:-0.811637 5:-0.634973 6:-0.801084 
11654.85218372956 1:-0.821576 2:-0.747934 3:-0.795527 4:-0.73278 5:-0.523488 6:-0.750777 
488.9693354243352 1:-0.811825 2:-0.921129 3:-0.822481 4:-0.779248 5:-0.57362 6:-0.698335 
16384 1:-0.592881 2:-0.0395215 3:-0.563595 4:-0.684228 5:-0.411556 6:-0.666196 
16384 1:-0.834388 2:-0.803769 3:-0.78896 4:-0.70603 5:-0.533425 6:-0.70653 
1382.118080930444 1:-0.591626 2:-0.438815 3:-0.594391 4:-0.564143 5:-0.293345 6:-0.482891 
16384 1:-0.544174 2:-0.152499 3:-0.559157 4:-0.778624 5:-0.522369 6:-0.758277 
16384 1:-0.733709 2:-0.640644 3:-0.720802 4:-0.457105 5:-0.167579 6:-0.462456 
16384 1:-0.973986 2:-0.935954 3:-0.920106 4:-0.842622 5:-0.726227 6:-0.843992 
16384 1:-0.931978 2:-0.734795 3:-0.927295 4:-0.49035 5:-0.238205 6:-0.481114 
16384 1:-0.709778 2:-0.335743 3:-0.693508 4:-0.65183 5:-0.369104 6:-0.664352 
16384 1:-0.932168 2:-0.87282 3:-0.939085 4:-0.867385 5:-0.74863 6:-0.871708 
1320.507403432651 1:-0.756092 2:-0.741111 3:-0.57877 4:-0.518659 5:-0.345141 6:-0.431688 
15451.59022498505 1:-0.512699 2:0.0613613 3:-0.524954 4:-0.644763 5:-0.336229 6:-0.642285 
16384 1:-0.963089 2:-0.9481 3:-0.959775 4:-0.878674 5:-0.764358 6:-0.874259 
436.3038860018746 1:-0.934834 2:-0.940464 3:-0.757625 4:-0.858304 5:-0.508759 6:-0.745733 
14180.45009438184 1:-0.513015 2:-0.141559 3:-0.63243 4:-0.674316 5:-0.362399 6:-0.704554 
16384 1:-0.973845 2:-0.967493 3:-0.944085 4:-0.881369 5:-0.784605 6:-0.875662 
16384 1:-0.666388 2:-0.555559 3:-0.515672 4:-0.568188 5:-0.251302 6:-0.45861 
16384 1:-0.902517 2:-0.885962 3:-0.803852 4:-0.754496 5:-0.434771 6:-0.583564 
16384 1:-0.878121 2:-0.758105 3:-0.853038 4:-0.822066 5:-0.610412 6:-0.770155 
16384 1:-0.913675 2:-0.809557 3:-0.854392 4:-0.801579 5:-0.599726 6:-0.811447 
1636.680591755766 1:-0.729502 2:-0.572451 3:-0.694424 4:-0.618161 5:-0.390886 6:-0.666746 
16384 1:-0.943034 2:-0.900348 3:-0.866008 4:-0.820856 5:-0.585718 6:-0.715265 
1369.179652342463 1:-0.875579 2:-0.808395 3:-0.751975 4:-0.778345 5:-0.581818 6:-0.746598 
16384 1:-0.885632 2:-0.84713 3:-0.876012 4:-0.848633 5:-0.659621 6:-0.807318 
16384 1:-0.95838 2:-0.953739 3:-0.938877 4:-0.872377 5:-0.775723 6:-0.876192 
375.3506300791286 1:-0.34128 2:-0.350486 3:-0.407292 4:-0.742438 5:-0.285075 6:-0.658313 
2567.175260991871 1:-0.819973 2:-0.717079 3:-0.829144 4:-0.703502 5:-0.422045 6:-0.70963 
122.0751673355083 1:-0.481976 2:-0.378668 3:-0.264875 4:-0.425762 5:-0.107566 6:-0.368514 
16384 1:-0.71835 2:-0.31826 3:-0.706122 4:-0.658476 5:-0.380471 6:-0.662179 
16384 1:-0.806894 2:-0.71614 3:-0.801325 4:-0.725694 5:-0.518122 6:-0.734802 
16384 1:-0.902526 2:-0.885971 3:-0.803865 4:-0.7545 5:-0.434779 6:-0.583572 
2560.856245727672 1:-0.662808 2:-0.594014 3:-0.464929 4:-0.545721 5:-0.195094 6:-0.430806 
74.02120734310989 1:-0.323092 2:-0.205969 3:-0.123697 4:-0.274253 5:-0.0176653 6:-0.152858 
16384 1:-0.902526 2:-0.885971 3:-0.803865 4:-0.7545 5:-0.434779 6:-0.583572 
16384 1:-0.821314 2:-0.902811 3:-0.822499 4:-0.759715 5:-0.580307 6:-0.698342 
4789.406358866899 1:-0.800136 2:-0.514929 3:-0.779305 4:-0.729152 5:-0.410027 6:-0.750076 
16384 1:-0.930216 2:-0.836943 3:-0.872435 4:-0.815812 5:-0.636162 6:-0.805127 
16384 1:-0.929074 2:-0.841779 3:-0.871256 4:-0.818654 5:-0.63665 6:-0.807161 
16384 1:-0.963653 2:-0.947673 3:-0.935694 4:-0.856814 5:-0.720442 6:-0.838935 
4825.679322788525 1:-0.581494 2:-0.541878 3:-0.418691 4:-0.5384 5:-0.290782 6:-0.432122 
16384 1:-0.822858 2:-0.772064 3:-0.693745 4:-0.6828 5:-0.403245 6:-0.61002 
16384 1:-0.911932 2:-0.83602 3:-0.859255 4:-0.802408 5:-0.531339 6:-0.805179 
3460.261842619347 1:-0.771932 2:-0.721181 3:-0.609333 4:-0.83363 5:-0.482622 6:-0.704488 
16384 1:0.30455 2:0.728057 3:0.30455 4:-0.232942 5:0.379972 6:-0.232942 
16384 1:-0.750927 2:-0.695134 3:-0.727962 4:-0.723873 5:-0.492378 6:-0.641626 
13209.06134752096 1:-0.757331 2:-0.576272 3:-0.626712 4:-0.604275 5:-0.239655 6:-0.500593 
16384 1:-0.91777 2:-0.851002 3:-0.876901 4:-0.802009 5:-0.526049 6:-0.799904 
16384 1:-0.641208 2:-0.50016 3:-0.52892 4:-0.658104 5:-0.345314 6:-0.61796 
6179.644826766181 1:-0.639171 2:-0.538479 3:-0.717956 4:-0.771525 5:-0.493197 6:-0.764069 
9822.082513499774 1:-0.640674 2:-0.514944 3:-0.513289 4:-0.744322 5:-0.456553 6:-0.588619 
16384 1:-0.691607 2:-0.599654 3:-0.593551 4:-0.58123 5:-0.261658 6:-0.460819 
16384 1:-0.924931 2:-0.887566 3:-0.959163 4:-0.874633 5:-0.759961 6:-0.869811 
16384 1:-0.848445 2:-0.805272 3:-0.744331 4:-0.767562 5:-0.523651 6:-0.691907 
16384 1:-0.645922 2:-0.593776 3:-0.623965 4:-0.736498 5:-0.495162 6:-0.638282 
16384 1:-0.607068 2:-0.1268 3:-0.58647 4:-0.766085 5:-0.54036 6:-0.758813 
16384 1:-0.621282 2:-0.305696 3:-0.60468 4:-0.644561 5:-0.324741 6:-0.619713 
16384 1:-0.801652 2:-0.634032 3:-0.723664 4:-0.703253 5:-0.457925 6:-0.673154 
16384 1:-0.937943 2:-0.895666 3:-0.860042 4:-0.81757 5:-0.577587 6:-0.704915 
16384 1:-0.640541 2:-0.514861 3:-0.513118 4:-0.744321 5:-0.456551 6:-0.588614 
16384 1:-0.982058 2:-0.977463 3:-0.968419 4:-0.874928 5:-0.777151 6:-0.868007 
4752.378458322012 1:-0.53039 2:-0.159489 3:-0.683623 4:-0.672103 5:-0.380615 6:-0.645608 
16384 1:-0.816383 2:-0.714416 3:-0.742461 4:-0.733971 5:-0.500757 6:-0.687226 
16384 1:-0.93153 2:-0.894038 3:-0.958925 4:-0.834367 5:-0.726939 6:-0.873725 
16384 1:-0.798795 2:-0.660436 3:-0.810419 4:-0.757425 5:-0.53849 6:-0.794305 
861.8735027270795 1:-0.624774 2:-0.453713 3:-0.746701 4:-0.685601 5:-0.330081 6:-0.693046 
16384 1:-0.827362 2:-0.907053 3:-0.822499 4:-0.755573 5:-0.572715 6:-0.698342 
16384 1:-0.84918 2:-0.809905 3:-0.706369 4:-0.741495 5:-0.449223 6:-0.639433 
16384 1:-0.929579 2:-0.835263 3:-0.849795 4:-0.817726 5:-0.623488 6:-0.805483 
16384 1:-0.935539 2:-0.891614 3:-0.860602 4:-0.818276 5:-0.581384 6:-0.711161 
16384 1:-0.97806 2:-0.977697 3:-0.968216 4:-0.874968 5:-0.781309 6:-0.867726 
168.7903647429904 1:-0.216624 2:0.103531 3:-0.167046 4:-0.340855 5:-0.0898144 6:-0.247584 
5003.324212926241 1:-0.877223 2:-0.819776 3:-0.801678 4:-0.667728 5:-0.457731 6:-0.698506 
15757.37636700256 1:-0.639171 2:-0.538479 3:-0.717956 4:-0.771525 5:-0.493197 6:-0.764069 
16384 1:-0.875591 2:-0.808404 3:-0.75199 4:-0.778348 5:-0.581826 6:-0.746599 
16384 1:-0.953664 2:-0.925132 3:-0.957136 4:-0.874386 5:-0.748007 6:-0.870311 
16384 1:-0.609685 2:-0.308601 3:-0.603439 4:-0.705513 5:-0.473643 6:-0.710554 
16384 1:-0.870157 2:-0.873194 3:-0.689751 4:-0.826244 5:-0.508292 6:-0.770649 
16384 1:-0.923474 2:-0.824951 3:-0.859 4:-0.811229 5:-0.61196 6:-0.813769 
16384 1:-0.790355 2:-0.6972 3:-0.833458 4:-0.674226 5:-0.424063 6:-0.599402 
16384 1:-0.610228 2:-0.494654 3:-0.491812 4:-0.636466 5:-0.311057 6:-0.569247 
16384 1:-0.812226 2:-0.543636 3:-0.789248 4:-0.734597 5:-0.494723 6:-0.736314 
16384 1:-0.894175 2:-0.857531 3:-0.876193 4:-0.852802 5:-0.609399 6:-0.807861 
28.40183041205621 1:-0.116557 2:0.187892 3:-0.252963 4:-0.359556 5:-0.10896 6:-0.414555 
16384 1:-0.93735 2:-0.895502 3:-0.859651 4:-0.813536 5:-0.580466 6:-0.710173 
1928.170243031543 1:-0.52434 2:0.0306914 3:-0.457808 4:-0.642388 5:-0.327052 6:-0.605078 
16384 1:-0.880548 2:-0.840367 3:-0.874715 4:-0.837301 5:-0.611758 6:-0.806247 
16384 1:-0.867837 2:-0.888319 3:-0.853799 4:-0.769933 5:-0.46657 6:-0.717157 
16384 1:-0.911915 2:-0.838257 3:-0.881783 4:-0.803749 5:-0.542168 6:-0.794292 
16384 1:-0.815565 2:-0.728225 3:-0.733888 4:-0.715347 5:-0.472092 6:-0.669987 
16384 1:-0.932956 2:-0.854159 3:-0.863464 4:-0.8784 5:-0.693257 6:-0.828271 
16384 1:-0.720518 2:-0.372104 3:-0.70708 4:-0.654677 5:-0.36463 6:-0.663247 
16384 1:-0.883885 2:-0.772437 3:-0.888016 4:-0.796846 5:-0.657734 6:-0.790904 
16384 1:-0.917942 2:-0.753219 3:-0.927654 4:-0.479048 5:-0.220653 6:-0.479048 
16384 1:-0.604901 2:-0.344933 3:-0.679033 4:-0.699705 5:-0.402851 6:-0.751797 
659.207792505673 1:-0.596642 2:-0.468723 3:-0.79883 4:-0.699954 5:-0.432298 6:-0.669007 
84.59829788478557 1:-0.348613 2:-0.0940881 3:-0.122887 4:-0.107214 5:0.19741 6:-0.212882 
16384 1:-0.923861 2:-0.890857 3:-0.956951 4:-0.86698 5:-0.751337 6:-0.870799 
7656.894922821655 1:-0.569415 2:-0.450022 3:-0.489457 4:-0.568306 5:-0.260359 6:-0.506445 
7534.442646444022 1:-0.6376 2:-0.56923 3:-0.525514 4:-0.54079 5:-0.19568 6:-0.477148 
16384 1:-0.64299 2:-0.34982 3:-0.649614 4:-0.664026 5:-0.380811 6:-0.653244 
16384 1:-0.693046 2:-0.361448 3:-0.693046 4:-0.708351 5:-0.465774 6:-0.708351 
9193.928120792238 1:-0.453163 2:-0.222699 3:-0.416146 4:-0.355917 5:-0.0563736 6:-0.4006 
16384 1:-0.920168 2:-0.699796 3:-0.927423 4:-0.481746 5:-0.225891 6:-0.476975 
16384 1:-0.942944 2:-0.916568 3:-0.960834 4:-0.873367 5:-0.767545 6:-0.870887 
3973.396875236816 1:-0.6198 2:-0.540952 3:-0.532011 4:-0.671678 5:-0.247726 6:-0.625644 
16384 1:-0.883597 2:-0.806016 3:-0.771825 4:-0.61429 5:-0.365043 6:-0.617578 
16384 1:-0.640978 2:-0.25189 3:-0.635209 4:-0.662045 5:-0.366833 6:-0.654117 
16384 1:-0.607045 2:-0.126755 3:-0.586446 4:-0.766078 5:-0.540342 6:-0.758804 
16384 1:-0.523657 2:0.06735 3:-0.505717 4:-0.628999 5:-0.318211 6:-0.637598 
16384 1:-0.720476 2:-0.364745 3:-0.703539 4:-0.647667 5:-0.351631 6:-0.660778 
16384 1:-0.902527 2:-0.88597 3:-0.803866 4:-0.754499 5:-0.43477 6:-0.583566 
16384 1:-0.956557 2:-0.93335 3:-0.961454 4:-0.877519 5:-0.748191 6:-0.870721 
16384 1:-0.637972 2:-0.167722 3:-0.603362 4:-0.779644 5:-0.577401 6:-0.778398 
16384 1:-0.903899 2:-0.877404 3:-0.790565 4:-0.790642 5:-0.491756 6:-0.718111 
442.764695047507 1:-0.621366 2:-0.535218 3:-0.561941 4:-0.63423 5:-0.343725 6:-0.578368 
16384 1:-0.692847 2:-0.361084 3:-0.702447 4:-0.708334 5:-0.465736 6:-0.706526 
16384 1:-0.739334 2:-0.546484 3:-0.68995 4:-0.639192 5:-0.329701 6:-0.620828 
16384 1:-0.517086 2:0.0325315 3:-0.554533 4:-0.735114 5:-0.498205 6:-0.733517 
6216.574933197978 1:-0.636327 2:-0.261346 3:-0.612218 4:-0.681709 5:-0.412418 6:-0.718606 
16384 1:-0.94374 2:-0.901209 3:-0.866015 4:-0.819713 5:-0.584274 6:-0.715266 
16384 1:-0.855009 2:-0.840341 3:-0.810368 4:-0.781702 5:-0.520319 6:-0.743327 
16384 1:-0.943257 2:-0.901161 3:-0.862912 4:-0.824138 5:-0.581575 6:-0.714355 
16384 1:-0.883896 2:-0.772458 3:-0.889771 4:-0.796846 5:-0.657734 6:-0.790999 
16384 1:-0.97768 2:-0.971905 3:-0.967354 4:-0.862635 5:-0.751041 6:-0.877043 
16384 1:-0.825341 2:-0.774485 3:-0.807469 4:-0.772055 5:-0.495051 6:-0.701488 
16384 1:-0.748828 2:-0.593601 3:-0.760695 4:-0.66098 5:-0.443391 6:-0.70256 
16384 1:-0.631541 2:-0.334793 3:-0.653396 4:-0.663832 5:-0.381084 6:-0.655531 
16384 1:-0.923499 2:-0.704098 3:-0.929561 4:-0.4892 5:-0.235415 6:-0.476409 
16384 1:-0.981263 2:-0.981266 3:-0.969047 4:-0.888526 5:-0.784148 6:-0.874746 
0.3244061766859183 1:-0.653781 2:-0.357318 3:-0.870357 4:-0.817923 5:-0.618434 6:-0.823854 
445.1247533390022 1:-0.959404 2:-0.825215 3:-0.953674 4:-0.623362 5:-0.320728 6:-0.647386 
16384 1:-0.952027 2:-0.928181 3:-0.959786 4:-0.865708 5:-0.767622 6:-0.875199 
16384 1:-0.951703 2:-0.918098 3:-0.961291 4:-0.854445 5:-0.738351 6:-0.869533 
16384 1:-0.953515 2:-0.910711 3:-0.89615 4:-0.835979 5:-0.635769 6:-0.772957 
10243.39384801095 1:-0.470662 2:-0.104374 3:-0.465846 4:-0.44076 5:-0.121482 6:-0.436062 
40.65507731232783 1:-0.728675 2:-0.635098 3:-0.720798 4:-0.480069 5:-0.21337 6:-0.462454 
16384 1:-0.815405 2:-0.711263 3:-0.733891 4:-0.705395 5:-0.483099 6:-0.669986 
16384 1:-0.902874 2:-0.829516 3:-0.958161 4:-0.863348 5:-0.750496 6:-0.874989 
16384 1:-0.799674 2:-0.684036 3:-0.733891 4:-0.692589 5:-0.465981 6:-0.669986 
16384 1:-0.875537 2:-0.864354 3:-0.659766 4:-0.835995 5:-0.456597 6:-0.74527 
7.840966879943352 1:-0.0480193 2:-0.0663193 3:-0.0358972 4:-0.122938 5:0.140994 6:-0.0636425 
16384 1:-0.84761 2:-0.822549 3:-0.811474 4:-0.791021 5:-0.547447 6:-0.742852 
16384 1:-0.661306 2:-0.577351 3:-0.693297 4:-0.684723 5:-0.34339 6:-0.633133 
16384 1:-0.738812 2:-0.552915 3:-0.693613 4:-0.63628 5:-0.328558 6:-0.615943 
16384 1:-0.759124 2:-0.688865 3:-0.726109 4:-0.682603 5:-0.365497 6:-0.606399 
7091.017542786785 1:-0.837234 2:-0.688475 3:-0.793215 4:-0.685331 5:-0.373229 6:-0.663415 
3804.41183325678 1:-0.428356 2:-0.312717 3:-0.375793 4:-0.460988 5:-0.161555 6:-0.408876 
66.77015696743251 1:-0.408842 2:-0.248009 3:-0.273664 4:-0.340568 5:0.00217327 6:-0.271572 
16384 1:-0.827419 2:-0.836004 3:-0.839436 4:-0.759036 5:-0.380479 6:-0.724745 
16384 1:-0.932632 2:-0.885078 3:-0.939542 4:-0.86877 5:-0.750014 6:-0.866268 
16384 1:-0.937354 2:-0.89417 3:-0.943782 4:-0.871616 5:-0.75313 6:-0.86652 
16384 1:-0.924598 2:-0.82557 3:-0.856475 4:-0.812999 5:-0.512141 6:-0.77864 
10320.52721689876 1:-0.411588 2:-0.165362 3:-0.38727 4:-0.361811 5:-0.0899836 6:-0.376126 
16384 1:-0.642529 2:-0.269366 3:-0.665589 4:-0.702085 5:-0.436832 6:-0.715088 
14206.20286871334 1:-0.699243 2:-0.374497 3:-0.703125 4:-0.694539 5:-0.433396 6:-0.706074 
16384 1:-0.886225 2:-0.840525 3:-0.764029 4:-0.739663 5:-0.483596 6:-0.650014 
16384 1:-0.719381 2:-0.506288 3:-0.711958 4:-0.601112 5:-0.304892 6:-0.6012 
202.6468964361796 1:-0.498985 2:0.00259282 3:-0.47201 4:-0.604917 5:-0.263464 6:-0.602122 
16384 1:-0.605281 2:-0.290988 3:-0.559378 4:-0.714034 5:-0.43329 6:-0.700095 
16384 1:-0.890941 2:-0.906439 3:-0.813512 4:-0.780821 5:-0.617899 6:-0.717093 
5639.297437708025 1:-0.887906 2:-0.881232 3:-0.865707 4:-0.637005 5:-0.446483 6:-0.724202 
16384 1:-0.823133 2:-0.720895 3:-0.822607 4:-0.67404 5:-0.370009 6:-0.713141 
16384 1:-0.575593 2:-0.437935 3:-0.6399 4:-0.537046 5:-0.272736 6:-0.517222 
16384 1:-0.881693 2:-0.825571 3:-0.787934 4:-0.849365 5:-0.542673 6:-0.765478 
16384 1:-0.84776 2:-0.862066 3:-0.846381 4:-0.791267 5:-0.411271 6:-0.758725 
16384 1:-0.979878 2:-0.959295 3:-0.953728 4:-0.878436 5:-0.787861 6:-0.877359 
16384 1:-0.817705 2:-0.892515 3:-0.822483 4:-0.759713 5:-0.580294 6:-0.698339 
3940.637947581637 1:-0.524051 2:-0.544698 3:-0.242874 4:-0.563184 5:-0.232098 6:-0.441174 
16384 1:-0.880516 2:-0.808138 3:-0.837153 4:-0.838781 5:-0.462249 6:-0.742544 
6150.359200937764 1:-0.761124 2:-0.734141 3:-0.709429 4:-0.705478 5:-0.322653 6:-0.641952 
64.51852643941143 1:-0.0114416 2:-0.0938535 3:-0.342455 4:-0.242891 5:0.0351505 6:-0.413654 
11845.98595439448 1:-0.603633 2:-0.221944 3:-0.54946 4:-0.591425 5:-0.249559 6:-0.592933 
16384 1:-0.857628 2:-0.684406 3:-0.883306 4:-0.815226 5:-0.657718 6:-0.804345 
16041.55871834297 1:-0.782935 2:-0.71742 3:-0.716819 4:-0.488607 5:-0.222101 6:-0.441755 
16384 1:-0.817094 2:-0.771146 3:-0.720139 4:-0.690325 5:-0.340446 6:-0.649106 
16384 1:-0.874523 2:-0.778915 3:-0.771827 4:-0.62741 5:-0.384727 6:-0.617577 
4886.222667397236 1:-0.75174 2:-0.663148 3:-0.709482 4:-0.472557 5:-0.205311 6:-0.461768 
16384 1:-0.723595 2:-0.368362 3:-0.693359 4:-0.64542 5:-0.355566 6:-0.658864 
16384 1:-0.71708 2:-0.349382 3:-0.684948 4:-0.643551 5:-0.355277 6:-0.647035 
16384 1:-0.930619 2:-0.892292 3:-0.959124 4:-0.835774 5:-0.727648 6:-0.873554 
16384 1:-0.787701 2:-0.674519 3:-0.719425 4:-0.687042 5:-0.397217 6:-0.679569 
16384 1:-0.924619 2:-0.892575 3:-0.960677 4:-0.867308 5:-0.753795 6:-0.871728 
1401.858781398271 1:-0.476071 2:-0.54174 3:-0.515855 4:-0.631859 5:-0.127533 6:-0.538096 
16384 1:-0.923968 2:-0.699953 3:-0.930925 4:-0.490167 5:-0.235179 6:-0.475502 
16384 1:-0.902526 2:-0.885971 3:-0.803865 4:-0.7545 5:-0.434779 6:-0.583572 
16384 1:-0.883089 2:-0.833872 3:-0.762442 4:-0.778129 5:-0.399377 6:-0.644664 
16384 1:-0.884061 2:-0.775401 3:-0.808812 4:-0.835383 5:-0.613858 6:-0.802665 
2912.758057865176 1:-0.496305 2:-0.277936 3:-0.501794 4:-0.643673 5:-0.321524 6:-0.667639 
16384 1:-0.848796 2:-0.840084 3:-0.806638 4:-0.735751 5:-0.451129 6:-0.645835 
7822.436515088983 1:-0.833614 2:-0.669698 3:-0.770316 4:-0.611923 5:-0.281521 6:-0.595572 
16384 1:-0.777721 2:-0.591751 3:-0.695973 4:-0.705189 5:-0.417786 6:-0.64131 
10839.1658998039 1:-0.76323 2:-0.70836 3:-0.629232 4:-0.724451 5:-0.404705 6:-0.600824 
16384 1:-0.952127 2:-0.93859 3:-0.961417 4:-0.870237 5:-0.771041 6:-0.874489 
16384 1:-0.607068 2:-0.1268 3:-0.58647 4:-0.766084 5:-0.540357 6:-0.758812 
16384 1:-0.929518 2:-0.884784 3:-0.863138 4:-0.798958 5:-0.596723 6:-0.713032 
16384 1:-0.867382 2:-0.825021 3:-0.762423 4:-0.713568 5:-0.339325 6:-0.644662 
16384 1:-0.976866 2:-0.965247 3:-0.944085 4:-0.881506 5:-0.785404 6:-0.875662 
16384 1:-0.560331 2:-0.30909 3:-0.501675 4:-0.655834 5:-0.365876 6:-0.667613 
16384 1:-0.980456 2:-0.975431 3:-0.949219 4:-0.883404 5:-0.757687 6:-0.876112 
16384 1:-0.937258 2:-0.894964 3:-0.858221 4:-0.813715 5:-0.5809 6:-0.708793 
59.99107327354985 1:-0.646912 2:-0.531982 3:-0.54388 4:-0.664777 5:-0.443022 6:-0.596992 
16384 1:-0.97046 2:-0.951104 3:-0.867277 4:-0.796322 5:-0.556395 6:-0.749014 
16384 1:-0.582678 2:0.0494713 3:-0.524977 4:-0.663014 5:-0.372227 6:-0.64697 
550.427015561045 1:-0.798442 2:-0.812429 3:-0.545166 4:-0.788559 5:-0.399485 6:-0.667078 
2167.749472141743 1:-0.540417 2:-0.461473 3:-0.552903 4:-0.572548 5:-0.278557 6:-0.566326 
16052.13218982964 1:-0.533544 2:-0.516688 3:-0.347136 4:-0.583108 5:-0.276686 6:-0.484084 
16384 1:-0.915124 2:-0.849332 3:-0.883655 4:-0.801922 5:-0.542295 6:-0.795993 
16384 1:-0.955361 2:-0.928074 3:-0.961139 4:-0.864525 5:-0.766069 6:-0.874402 
191.0213814741566 1:-0.206589 2:0.0913253 3:-0.201824 4:-0.284299 5:0.0217624 6:-0.297893 
14783.73424698495 1:-0.578604 2:-0.498379 3:-0.526347 4:-0.578049 5:-0.308392 6:-0.51889 
4983.050429281652 1:-0.798112 2:-0.726965 3:-0.742178 4:-0.525773 5:-0.255178 6:-0.496218 
16384 1:-0.34654 2:-0.0434652 3:-0.34654 4:-0.303225 5:0.217125 6:-0.303225 
16384 1:-0.937811 2:-0.890846 3:-0.965107 4:-0.881562 5:-0.780403 6:-0.879372 
14.29102633662067 1:-0.674598 2:-0.276805 3:-0.639657 4:-0.557159 5:-0.276208 6:-0.656246 
16384 1:-0.975549 2:-0.96749 3:-0.949273 4:-0.882454 5:-0.785957 6:-0.873621 
16384 1:-0.66145 2:-0.387946 3:-0.559545 4:-0.672066 5:-0.389748 6:-0.678351 
3236.601055793109 1:-0.48561 2:-0.0587076 3:-0.567114 4:-0.531675 5:-0.2269 6:-0.663113 
1795.734769632342 1:-0.749558 2:-0.420715 3:-0.686061 4:-0.722079 5:-0.502099 6:-0.68747 
2650.675130145562 1:-0.673256 2:-0.647553 3:-0.634782 4:-0.708888 5:-0.477629 6:-0.776637 
16384 1:-0.922369 2:-0.712567 3:-0.927328 4:-0.488604 5:-0.235384 6:-0.480125 
16384 1:-0.825334 2:-0.788753 3:-0.834065 4:-0.795914 5:-0.576905 6:-0.744557 
12344.36778659972 1:-0.434126 2:-0.00814894 3:-0.434126 4:-0.428104 5:-0.149266 6:-0.428104 
16384 1:-0.645793 2:-0.30989 3:-0.663947 4:-0.700218 5:-0.430542 6:-0.710853 
16384 1:-0.848297 2:-0.770579 3:-0.766246 4:-0.737495 5:-0.386807 6:-0.654567 
7278.885971943745 1:-0.608338 2:-0.497973 3:-0.744766 4:-0.601993 5:-0.362381 6:-0.470995 
16384 1:-0.60468 2:-0.0329615 3:-0.504923 4:-0.658107 5:-0.347104 6:-0.695194 
16384 1:-0.942806 2:-0.9199 3:-0.845579 4:-0.82814 5:-0.577831 6:-0.790667 
16384 1:-0.724876 2:-0.368284 3:-0.702537 4:-0.6492 5:-0.359263 6:-0.660695 
16384 1:-0.880172 2:-0.788695 3:-0.84589 4:-0.694823 5:-0.533003 6:-0.7171 
16384 1:-0.888214 2:-0.846794 3:-0.876484 4:-0.841365 5:-0.610136 6:-0.805951 
16384 1:-0.715465 2:-0.491886 3:-0.710348 4:-0.601006 5:-0.315155 6:-0.60466 
16384 1:-0.568701 2:0.0181114 3:-0.516814 4:-0.62748 5:-0.308982 6:-0.631901 
16384 1:-0.774024 2:-0.742937 3:-0.688045 4:-0.650291 5:-0.275005 6:-0.622336 
16384 1:-0.666031 2:-0.26127 3:-0.630703 4:-0.774734 5:-0.577922 6:-0.774796 
16384 1:-0.9447 2:-0.921378 3:-0.963437 4:-0.871926 5:-0.758269 6:-0.871744 
16384 1:-0.925113 2:-0.738285 3:-0.92508 4:-0.481975 5:-0.224193 6:-0.469912 
3093.094604825417 1:-0.523663 2:-0.539445 3:-0.22541 4:-0.552471 5:-0.287927 6:-0.462475 
16384 1:-0.930227 2:-0.886842 3:-0.859107 4:-0.815352 5:-0.579211 6:-0.709449 
6841.931821609124 1:-0.6366 2:-0.00133188 3:-0.558195 4:-0.663019 5:-0.372239 6:-0.655372 
11809.43293234757 1:-0.724994 2:-0.664204 3:-0.713398 4:-0.499329 5:-0.204493 6:-0.440425 
16384 1:-0.867382 2:-0.825021 3:-0.762423 4:-0.713568 5:-0.339325 6:-0.644662 
1063.697422058001 1:0.0671417 2:-0.103474 3:-0.29597 4:-0.197231 5:0.0855607 6:-0.331201 
5247.721054023805 1:-0.867426 2:-0.825424 3:-0.760981 4:-0.714582 5:-0.341632 6:-0.640638 
16384 1:-0.652475 2:-0.504371 3:-0.584674 4:-0.64365 5:-0.335907 6:-0.612896 
16376.740475746 1:-0.197161 2:-0.0332208 3:-0.107135 4:-0.0797289 5:0.172405 6:-0.0976171 
16384 1:-0.662081 2:-0.509044 3:-0.659673 4:-0.711124 5:-0.451934 6:-0.694362 
8876.861804136734 1:-0.636327 2:-0.261346 3:-0.612218 4:-0.681709 5:-0.412418 6:-0.718606 
16384 1:-0.554936 2:0.0462285 3:-0.522265 4:-0.628985 5:-0.318179 6:-0.62925 
16384 1:-0.982661 2:-0.97705 3:-0.968129 4:-0.878342 5:-0.781839 6:-0.868101 
4195.920985377948 1:-0.798112 2:-0.726965 3:-0.742178 4:-0.525773 5:-0.255178 6:-0.496218 
16384 1:-0.60468 2:-0.0329615 3:-0.504923 4:-0.658106 5:-0.347102 6:-0.695193 
408.0510749773778 1:-0.430516 2:0.171896 3:-0.428251 4:-0.739385 5:-0.534812 6:-0.761688 
4144.494981988974 1:-0.877223 2:-0.819776 3:-0.801678 4:-0.667728 5:-0.457731 6:-0.698506 
16384 1:-0.675798 2:-0.494145 3:-0.619345 4:-0.58357 5:-0.334634 6:-0.547687 
4.73028652028414 1:-0.35934 2:-0.0888374 3:-0.407437 4:-0.365327 5:-0.0981442 6:-0.359125 
16384 1:-0.955627 2:-0.918251 3:-0.896416 4:-0.840285 5:-0.6426 6:-0.775085 
1965.638478111512 1:-0.858431 2:-0.742659 3:-0.900778 4:-0.738788 5:-0.537334 6:-0.709153 
16384 1:-0.798412 2:-0.699492 3:-0.837424 4:-0.778691 5:-0.52007 6:-0.728123 
16384 1:-0.885769 2:-0.844623 3:-0.877305 4:-0.836959 5:-0.610936 6:-0.806885 
16384 1:-0.903362 2:-0.915991 3:-0.819574 4:-0.734937 5:-0.426359 6:-0.61251 
16384 1:-0.738018 2:-0.545481 3:-0.689856 4:-0.640168 5:-0.327602 6:-0.621548 
16384 1:-0.853587 2:-0.567047 3:-0.870538 4:-0.569077 5:-0.363042 6:-0.516509 
16384 1:-0.698903 2:-0.688947 3:-0.618951 4:-0.580592 5:-0.318236 6:-0.48383 
11066.36318467837 1:-0.858308 2:-0.773763 3:-0.847127 4:-0.669931 5:-0.45164 6:-0.715528 
16384 1:-0.981114 2:-0.980922 3:-0.969047 4:-0.888386 5:-0.783483 6:-0.874746 
2492.649621626313 1:-0.377264 2:-0.0627966 3:-0.361765 4:-0.269155 5:0.0222927 6:-0.412795 
16384 1:-0.946882 2:-0.898964 3:-0.941479 4:-0.86886 5:-0.759257 6:-0.871468 
16384 1:-0.686796 2:-0.47277 3:-0.669979 4:-0.653134 5:-0.345215 6:-0.641532 
16384 1:-0.575412 2:-0.00566871 3:-0.520841 4:-0.660448 5:-0.351761 6:-0.638095 
16384 1:-0.671956 2:-0.48393 3:-0.575118 4:-0.713302 5:-0.445622 6:-0.666392 
13080.97082329236 1:-0.599659 2:-0.166596 3:-0.547687 4:-0.715486 5:-0.422246 6:-0.721002 
16384 1:-0.924724 2:-0.730245 3:-0.924746 4:-0.479048 5:-0.220653 6:-0.479048 
16384 1:-0.77876 2:-0.644775 3:-0.76079 4:-0.662693 5:-0.439774 6:-0.706724 
11082.65298511914 1:-0.522806 2:0.118151 3:-0.493238 4:-0.631055 5:-0.323423 6:-0.631055 
16384 1:-0.848503 2:-0.702734 3:-0.810228 4:-0.745422 5:-0.460288 6:-0.679624 
16384 1:-0.931667 2:-0.843999 3:-0.867872 4:-0.808101 5:-0.627644 6:-0.803492 
15910.64479204042 1:-0.547527 2:-0.422957 3:-0.586574 4:-0.567335 5:-0.230918 6:-0.523022 
16384 1:-0.922107 2:-0.886106 3:-0.956417 4:-0.87464 5:-0.76002 6:-0.871332 
11194.76751031084 1:-0.521422 2:-0.269356 3:-0.633669 4:-0.647273 5:-0.289007 6:-0.653006 
2132.284307510596 1:-0.49443 2:0.0796694 3:-0.552576 4:-0.641494 5:-0.328915 6:-0.667943 
4061.238833150325 1:-0.693402 2:-0.628807 3:-0.449287 4:-0.558081 5:-0.231513 6:-0.410883 
16384 1:-0.939469 2:-0.896048 3:-0.865835 4:-0.817861 5:-0.583099 6:-0.718567 
16384 1:-0.929884 2:-0.89995 3:-0.958711 4:-0.875097 5:-0.761942 6:-0.870149 
16384 1:-0.93774 2:-0.895293 3:-0.858225 4:-0.812982 5:-0.578641 6:-0.708787 
16384 1:-0.56887 2:-0.455626 3:-0.553052 4:-0.648161 5:-0.410797 6:-0.579844 
16384 1:-0.812181 2:-0.690836 3:-0.803231 4:-0.640684 5:-0.414763 6:-0.709958 
16384 1:-0.637687 2:-0.17728 3:-0.602408 4:-0.780927 5:-0.578056 6:-0.781004 
15680.06798963175 1:-0.610665 2:-0.533607 3:-0.520977 4:-0.713925 5:-0.402339 6:-0.595743 
13299.94814446486 1:-0.80448 2:-0.688048 3:-0.843995 4:-0.779827 5:-0.511975 6:-0.730648 
5604.187996920107 1:-0.648852 2:-0.660106 3:-0.714551 4:-0.694241 5:-0.266996 6:-0.559213 
16384 1:-0.955651 2:-0.927309 3:-0.853862 4:-0.83612 5:-0.588812 6:-0.75042 
588.0657943218464 1:-0.92983 2:-0.721319 3:-0.92906 4:-0.468202 5:-0.11538 6:-0.477427 
16384 1:-0.519713 2:0.00420729 3:-0.505346 4:-0.636832 5:-0.311073 6:-0.630659 
903.5296684552741 1:-0.872099 2:-0.557173 3:-0.773691 4:-0.750798 5:-0.482929 6:-0.74324 
16384 1:-0.920635 2:-0.882862 3:-0.957136 4:-0.875809 5:-0.76096 6:-0.87031 
11766.0291338199 1:-0.756619 2:-0.695567 3:-0.754973 4:-0.604534 5:-0.20548 6:-0.700379 
16384 1:-0.787654 2:-0.688753 3:-0.842441 4:-0.755527 5:-0.540399 6:-0.72546 
16384 1:-0.844201 2:-0.732912 3:-0.776481 4:-0.660107 5:-0.401867 6:-0.592286 
16384 1:-0.34654 2:-0.0434652 3:-0.34654 4:-0.303225 5:0.217125 6:-0.303225 
16384 1:-0.816871 2:-0.804244 3:-0.71887 4:-0.702368 5:-0.470701 6:-0.65689 
16384 1:-0.746468 2:-0.669225 3:-0.652147 4:-0.170838 5:0.0213455 6:-0.197961 
16384 1:-0.928347 2:-0.883285 3:-0.863053 4:-0.799561 5:-0.591335 6:-0.713916 
5121.421068305435 1:-0.631064 2:-0.443548 3:-0.562258 4:-0.558567 5:-0.268103 6:-0.556525 
16384 1:-0.805307 2:-0.701235 3:-0.804286 4:-0.622284 5:-0.298834 6:-0.743583 
16384 1:-0.807859 2:-0.767747 3:-0.760746 4:-0.717849 5:-0.360232 6:-0.630017 
16384 1:-0.879155 2:-0.82387 3:-0.801532 4:-0.666684 5:-0.456306 6:-0.695611 
16384 1:-0.817705 2:-0.892515 3:-0.822483 4:-0.759713 5:-0.580295 6:-0.69834 
16384 1:-0.504297 2:-0.0927476 3:-0.54332 4:-0.672136 5:-0.36415 6:-0.665165 
60.36530039599474 1:-0.375419 2:-0.330385 3:-0.716029 4:-0.70901 5:-0.459996 6:-0.71894 
16384 1:-0.81148 2:-0.67011 3:-0.768607 4:-0.717411 5:-0.459561 6:-0.717004 
16044.26524747647 1:-0.911386 2:-0.962456 3:-0.811369 4:-0.803829 5:-0.55387 6:-0.69731 
16384 1:-0.931342 2:-0.705988 3:-0.929542 4:-0.481713 5:-0.225126 6:-0.480948 
16384 1:-0.918578 2:-0.881441 3:-0.956951 4:-0.867806 5:-0.753317 6:-0.870799 
16384 1:-0.399567 2:-0.140325 3:-0.417476 4:-0.370587 5:-0.0483789 6:-0.41091 
16384 1:-0.902519 2:-0.885965 3:-0.803854 4:-0.754499 5:-0.434783 6:-0.583573 
16384 1:-0.902519 2:-0.885965 3:-0.803854 4:-0.754499 5:-0.434783 6:-0.583573 
2709.297846724653 1:-0.52514 2:-0.442224 3:-0.345572 4:-0.390616 5:-0.110951 6:-0.343096 
13012.02189133022 1:-0.727693 2:-0.667966 3:-0.847307 4:-0.786226 5:-0.40088 6:-0.715985 
1432.201890563335 1:-0.70809 2:-0.616444 3:-0.702076 4:-0.663525 5:-0.410877 6:-0.56293 
23.07510104743331 1:0.209893 2:0.0362787 3:-0.381627 4:-0.00952129 5:0.225286 6:-0.332502 
16384 1:-0.417792 2:-0.174955 3:-0.438221 4:-0.39989 5:-0.0677116 6:-0.432752 
634.4599123846119 1:-0.258085 2:-0.12972 3:-0.267442 4:-0.436519 5:-0.200556 6:-0.363253 
16384 1:-0.884993 2:-0.820146 3:-0.848812 4:-0.783761 5:-0.598856 6:-0.732998 
7963.990838639156 1:-0.78382 2:-0.671282 3:-0.776694 4:-0.708474 5:-0.438563 6:-0.740246 
25.13358520615035 1:-0.618286 2:-0.553645 3:-0.739987 4:-0.196973 5:0.111398 6:-0.511905 
483.0085574022083 1:-0.70809 2:-0.616444 3:-0.702076 4:-0.663525 5:-0.410877 6:-0.56293 
260.5142991832331 1:-0.640674 2:-0.514944 3:-0.513289 4:-0.744322 5:-0.456553 6:-0.588619 
9924.115783295028 1:-0.669591 2:-0.648062 3:-0.55105 4:-0.703588 5:-0.484408 6:-0.57042 
98.22282835635912 1:-0.408842 2:-0.248009 3:-0.273664 4:-0.340568 5:0.00217327 6:-0.271572 
13929.93423343077 1:-0.725065 2:-0.372249 3:-0.703539 4:-0.646601 5:-0.344358 6:-0.660777 
16384 1:-0.880516 2:-0.808138 3:-0.837153 4:-0.838781 5:-0.46225 6:-0.742545 
16384 1:-0.931086 2:-0.896106 3:-0.875583 4:-0.872805 5:-0.713697 6:-0.824819 
16384 1:-0.631064 2:-0.443548 3:-0.562258 4:-0.558567 5:-0.268103 6:-0.556525 
16384 1:-0.967142 2:-0.961408 3:-0.942266 4:-0.856096 5:-0.717859 6:-0.835902 
16384 1:-0.926012 2:-0.862887 3:-0.896148 4:-0.844417 5:-0.679661 6:-0.821354 
10698.27955585235 1:-0.780479 2:-0.709688 3:-0.70803 4:-0.686112 5:-0.348062 6:-0.58897 
8001.795435983833 1:-0.767062 2:-0.685822 3:-0.599838 4:-0.608799 5:-0.283279 6:-0.534131 
58.97930318957204 1:0.115584 2:0.0277827 3:-0.162768 4:-0.185633 5:0.107731 6:-0.257377 
16384 1:-0.838939 2:-0.798205 3:-0.858736 4:-0.775054 5:-0.611564 6:-0.760235 
16384 1:-0.90007 2:-0.829362 3:-0.863283 4:-0.736456 5:-0.544127 6:-0.753122 
16384 1:-0.815569 2:-0.728231 3:-0.733893 4:-0.715346 5:-0.472091 6:-0.669985 
16384 1:-0.815442 2:-0.711314 3:-0.733938 4:-0.705404 5:-0.48312 6:-0.669998 
16384 1:-0.732182 2:-0.423322 3:-0.70439 4:-0.675434 5:-0.403075 6:-0.668856 
3052.743118252767 1:-0.613729 2:-0.530376 3:-0.551134 4:-0.648409 5:-0.281964 6:-0.640157 
2303.755662099071 1:-0.71243 2:-0.575628 3:-0.717988 4:-0.800032 5:-0.563063 6:-0.764075 
16384 1:-0.807477 2:-0.633571 3:-0.735886 4:-0.698595 5:-0.470435 6:-0.646388 
16384 1:-0.801924 2:-0.556251 3:-0.75466 4:-0.572583 5:-0.367415 6:-0.493449 
16384 1:-0.571366 2:0.0231621 3:-0.531663 4:-0.658966 5:-0.357117 6:-0.642888 
117.871352340419 1:-0.334073 2:-0.0951659 3:-0.312638 4:-0.455211 5:-0.186156 6:-0.395437 
16384 1:-0.612546 2:-0.124689 3:-0.612546 4:-0.672338 5:-0.40222 6:-0.672338 
10631.08448832731 1:-0.64199 2:-0.527571 3:-0.514246 4:-0.729636 5:-0.443907 6:-0.603022 
3150.253321553697 1:-0.442644 2:-0.211316 3:-0.34916 4:-0.451132 5:-0.191526 6:-0.363942 
16384 1:-0.801924 2:-0.556251 3:-0.754934 4:-0.572583 5:-0.367415 6:-0.498658 
7342.941976738446 1:-0.52001 2:-0.449702 3:-0.54412 4:-0.566346 5:-0.267941 6:-0.569528 
16384 1:-0.937868 2:-0.895003 3:-0.861653 4:-0.818772 5:-0.581608 6:-0.715773 
358.2400772358308 1:-0.861176 2:-0.866945 3:-0.821566 4:-0.681344 5:-0.274966 6:-0.582768 
7765.560724003686 1:-0.429965 2:-0.31776 3:-0.323257 4:-0.447792 5:-0.197232 6:-0.389334 
16384 1:-0.890229 2:-0.82129 3:-0.836532 4:-0.840291 5:-0.464221 6:-0.74489 
16384 1:-0.885275 2:-0.816726 3:-0.842422 4:-0.821282 5:-0.468272 6:-0.740474 
10331.07641647783 1:-0.923088 2:-0.751462 3:-0.922792 4:-0.488994 5:-0.229842 6:-0.492079 
16384 1:-0.902526 2:-0.885971 3:-0.803865 4:-0.7545 5:-0.434785 6:-0.583576 
5704.08069102693 1:-0.873917 2:-0.858843 3:-0.784468 4:-0.777253 5:-0.504224 6:-0.707208 
16384 1:-0.521327 2:-0.160331 3:-0.550264 4:-0.647599 5:-0.308757 6:-0.64557 
10410.69997174685 1:-0.884539 2:-0.831204 3:-0.807735 4:-0.661934 5:-0.447337 6:-0.698358 
16384 1:-0.524108 2:0.0349232 3:-0.499485 4:-0.625233 5:-0.304358 6:-0.630256 
7428.81919416195 1:-0.805773 2:-0.645123 3:-0.790009 4:-0.75025 5:-0.448912 6:-0.662228 
1965.873483513979 1:-0.632532 2:-0.589638 3:-0.785728 4:-0.585922 5:-0.34103 6:-0.538968 
16384 1:-0.591303 2:-0.509066 3:-0.558468 4:-0.707702 5:-0.487076 6:-0.682814 
16384 1:-0.95897 2:-0.954925 3:-0.856392 4:-0.8172 5:-0.60582 6:-0.761575 
16384 1:-0.908803 2:-0.831157 3:-0.876756 4:-0.808046 5:-0.590589 6:-0.800522 
5906.472343458695 1:-0.898419 2:-0.846131 3:-0.771899 4:-0.736164 5:-0.391791 6:-0.664688 
152.415967959661 1:-0.323665 2:-0.0113254 3:-0.302409 4:-0.273174 5:-0.0145322 6:-0.412562 
16384 1:-0.953643 2:-0.91696 3:-0.961181 4:-0.878847 5:-0.750687 6:-0.872858 
4110.483937426292 1:-0.579436 2:-0.434672 3:-0.749073 4:-0.569836 5:-0.219374 6:-0.667998 
184.3563283423631 1:-0.44598 2:-0.186712 3:-0.324014 4:-0.382521 5:0.0675898 6:-0.279552 
16384 1:-0.782935 2:-0.71742 3:-0.716819 4:-0.488608 5:-0.222102 6:-0.441756 
16384 1:-0.715777 2:-0.492285 3:-0.710669 4:-0.601058 5:-0.315245 6:-0.60471 
7336.429369823983 1:-0.526767 2:-0.0481388 3:-0.531747 4:-0.773243 5:-0.515149 6:-0.768036 
1602.28421658789 1:-0.628036 2:-0.178806 3:-0.637226 4:-0.761242 5:-0.562959 6:-0.804424 
16384 1:-0.728556 2:-0.533535 3:-0.742285 4:-0.614358 5:-0.310562 6:-0.633577 
16384 1:-0.576984 2:0.00609871 3:-0.527192 4:-0.653741 5:-0.375393 6:-0.628842 
16384 1:-0.905473 2:-0.839687 3:-0.821647 4:-0.661224 5:-0.441573 6:-0.698832 
16384 1:-0.90252 2:-0.885967 3:-0.803856 4:-0.754502 5:-0.434792 6:-0.583581 
16384 1:-0.902524 2:-0.88597 3:-0.803863 4:-0.7545 5:-0.434779 6:-0.583572 
3001.885711638978 1:-0.646912 2:-0.531982 3:-0.54388 4:-0.664777 5:-0.443022 6:-0.596992 
16384 1:-0.90252 2:-0.885968 3:-0.803858 4:-0.754497 5:-0.434774 6:-0.583566 
16384 1:-0.934408 2:-0.845464 3:-0.866367 4:-0.811656 5:-0.63388 6:-0.801082 
16384 1:-0.937715 2:-0.899074 3:-0.80169 4:-0.859425 5:-0.558587 6:-0.7785 
16384 1:-0.732118 2:-0.545562 3:-0.704488 4:-0.617726 5:-0.393435 6:-0.670498 
16384 1:-0.816398 2:-0.714437 3:-0.742478 4:-0.733976 5:-0.500767 6:-0.687231 
16384 1:-0.969605 2:-0.960664 3:-0.964021 4:-0.874263 5:-0.778481 6:-0.8753 
16384 1:-0.97768 2:-0.971905 3:-0.967354 4:-0.862635 5:-0.751041 6:-0.877043 
16384 1:-0.756636 2:-0.575981 3:-0.798992 4:-0.712871 5:-0.483502 6:-0.754042 
686.5950710838661 1:-0.785968 2:-0.834749 3:-0.758502 4:-0.610265 5:-0.430355 6:-0.630902 
4.883734705483335 1:-0.466192 2:-0.618044 3:-0.23696 4:-0.370724 5:0.0649878 6:-0.262338 
16384 1:-0.91442 2:-0.866393 3:-0.959223 4:-0.863712 5:-0.739141 6:-0.873586 
841.0577702589416 1:-0.464472 2:-0.0621315 3:-0.531704 4:-0.695465 5:-0.425973 6:-0.657929 
16384 1:-0.944975 2:-0.92758 3:-0.949443 4:-0.872762 5:-0.773749 6:-0.873038 
16384 1:-0.826569 2:-0.688208 3:-0.8074 4:-0.74974 5:-0.545908 6:-0.693262 
7737.78643078357 1:-0.577838 2:-0.424587 3:-0.54577 4:-0.464624 5:-0.14989 6:-0.411201 
16384 1:-0.915171 2:-0.886664 3:-0.952697 4:-0.862528 5:-0.743251 6:-0.871203 
16384 1:-0.563799 2:-0.103955 3:-0.677111 4:-0.648999 5:-0.323061 6:-0.677168 
16384 1:-0.957895 2:-0.941476 3:-0.959689 4:-0.866348 5:-0.767232 6:-0.873586 
4198.729613183795 1:-0.691378 2:-0.571193 3:-0.678058 4:-0.66656 5:-0.376616 6:-0.717377 
16384 1:-0.902526 2:-0.885971 3:-0.803865 4:-0.7545 5:-0.434785 6:-0.583576 
16384 1:-0.505762 2:-0.0559307 3:-0.569337 4:-0.613006 5:-0.329744 6:-0.660945 
16384 1:-0.640978 2:-0.25189 3:-0.635209 4:-0.662046 5:-0.366836 6:-0.654119 
16384 1:-0.881693 2:-0.825571 3:-0.787934 4:-0.849365 5:-0.542673 6:-0.765478 
16384 1:-0.816529 2:-0.701491 3:-0.742466 4:-0.735601 5:-0.506063 6:-0.687225 
6272.207205632594 1:-0.796512 2:-0.72381 3:-0.795163 4:-0.702679 5:-0.399478 6:-0.722816 
16384 1:-0.715465 2:-0.491886 3:-0.710348 4:-0.601006 5:-0.315155 6:-0.60466 
16384 1:-0.930804 2:-0.887186 3:-0.882151 4:-0.826661 5:-0.701924 6:-0.838059 
16384 1:-0.896272 2:-0.833185 3:-0.850758 4:-0.686162 5:-0.468518 6:-0.753098 
505.9349612767803 1:-0.429051 2:-0.206459 3:-0.324655 4:-0.426001 5:-0.123311 6:-0.40632 
16384 1:-0.942584 2:-0.899735 3:-0.863934 4:-0.818796 5:-0.587362 6:-0.716833 
16384 1:-0.760948 2:-0.554537 3:-0.714586 4:-0.68368 5:-0.400287 6:-0.690746 
12222.39962529723 1:-0.837234 2:-0.688475 3:-0.793215 4:-0.685331 5:-0.373229 6:-0.663415 
6558.342067342211 1:-0.874499 2:-0.854586 3:-0.782637 4:-0.764724 5:-0.46528 6:-0.707035 
16384 1:-0.899196 2:-0.874467 3:-0.824329 4:-0.760895 5:-0.518644 6:-0.696073 
16384 1:-0.801652 2:-0.634032 3:-0.723664 4:-0.703253 5:-0.457925 6:-0.673154 
1037.047032894243 1:-0.466019 2:-0.490061 3:-0.257852 4:-0.466141 5:-0.177227 6:-0.429984 
16384 1:-0.838902 2:-0.770419 3:-0.81025 4:-0.749242 5:-0.542627 6:-0.767622 
16384 1:-0.902521 2:-0.885963 3:-0.803855 4:-0.754498 5:-0.434765 6:-0.583563 
16384 1:-0.815675 2:-0.717346 3:-0.818254 4:-0.758232 5:-0.488041 6:-0.712489 
16384 1:-0.660906 2:-0.387997 3:-0.606214 4:-0.699772 5:-0.389058 6:-0.692615 
16384 1:-0.943852 2:-0.884233 3:-0.937506 4:-0.774653 5:-0.586863 6:-0.798778 
16384 1:-0.858838 2:-0.685223 3:-0.88458 4:-0.815371 5:-0.658239 6:-0.806245 
1695.028554568077 1:-0.811128 2:-0.65752 3:-0.71266 4:-0.602502 5:-0.345932 6:-0.56393 
16384 1:-0.923354 2:-0.890678 3:-0.95695 4:-0.874596 5:-0.760418 6:-0.870799 
2.697561685335063 1:-0.44598 2:-0.186712 3:-0.375255 4:-0.382521 5:0.0675898 6:-0.33797 
55.91579026740171 1:-0.466192 2:-0.618044 3:-0.23696 4:-0.370724 5:0.0649878 6:-0.262338 
16384 1:-0.902521 2:-0.885963 3:-0.803855 4:-0.754498 5:-0.434765 6:-0.583563 
16384 1:-0.771314 2:-0.736724 3:-0.687158 4:-0.752487 5:-0.412308 6:-0.64927 
16384 1:-0.97667 2:-0.942842 3:-0.872689 4:-0.796656 5:-0.61934 6:-0.76017 
16384 1:-0.921246 2:-0.855974 3:-0.90027 4:-0.789833 5:-0.555048 6:-0.710147 
5446.488430140977 1:-0.578344 2:-0.590419 3:-0.469655 4:-0.589822 5:-0.324891 6:-0.439032 
16384 1:-0.865242 2:-0.807707 3:-0.797663 4:-0.77882 5:-0.643803 6:-0.696266 
16384 1:-0.883383 2:-0.783095 3:-0.768699 4:-0.829248 5:-0.561881 6:-0.76589 
16384 1:-0.939461 2:-0.901892 3:-0.861337 4:-0.81357 5:-0.595558 6:-0.741299 
15821.09297712472 1:-0.658992 2:-0.343765 3:-0.68381 4:-0.591312 5:-0.35868 6:-0.570902 
16384 1:-0.821142 2:-0.701181 3:-0.829692 4:-0.604515 5:-0.350293 6:-0.627642 
16384 1:-0.972716 2:-0.968392 3:-0.940908 4:-0.880756 5:-0.770971 6:-0.876353 
16384 1:-0.783495 2:-0.703721 3:-0.822294 4:-0.757504 5:-0.545654 6:-0.725729 
954.0838165161011 1:-0.556172 2:-0.458166 3:-0.402595 4:-0.332001 5:-0.056576 6:-0.264689 
16384 1:-0.919572 2:-0.711901 3:-0.923585 4:-0.480646 5:-0.224125 6:-0.469515 
16384 1:-0.98218 2:-0.973474 3:-0.966544 4:-0.878069 5:-0.781069 6:-0.877351 
5120.003206224543 1:-0.516861 2:0.070978 3:-0.516125 4:-0.631792 5:-0.316257 6:-0.642345 
16384 1:-0.936924 2:-0.892826 3:-0.863096 4:-0.81748 5:-0.576928 6:-0.712105 
6574.333730542423 1:-0.73195 2:-0.324724 3:-0.723247 4:-0.704611 5:-0.453136 6:-0.658294 
16384 1:-0.945316 2:-0.892811 3:-0.895861 4:-0.877668 5:-0.733465 6:-0.870263 
282.4406734353443 1:-0.433021 2:-0.338291 3:-0.203553 4:-0.426049 5:-0.0832515 6:-0.314481 
2206.763486182785 1:-0.516808 2:0.0272876 3:-0.506425 4:-0.628183 5:-0.298647 6:-0.635843 
8080.365408126123 1:-0.103006 2:-0.175225 3:-0.270754 4:-0.298311 5:-0.0307827 6:-0.36586 
13618.85874494148 1:-0.921117 2:-0.702988 3:-0.925057 4:-0.480541 5:-0.223421 6:-0.483015 
16384 1:-0.770306 2:-0.666538 3:-0.737917 4:-0.608415 5:-0.221908 6:-0.705955 
16384 1:-0.838388 2:-0.835118 3:-0.798091 4:-0.76782 5:-0.547974 6:-0.675608 
16384 1:-0.858838 2:-0.685223 3:-0.88458 4:-0.815371 5:-0.658239 6:-0.806245 
1223.991999069403 1:-0.384199 2:-0.180759 3:-0.277269 4:-0.405428 5:-0.148935 6:-0.402843 
9693.248331806561 1:-0.71035 2:-0.623784 3:-0.706934 4:-0.736642 5:-0.330955 6:-0.7041 
5885.47004524776 1:-0.946273 2:-0.978796 3:-0.841496 4:-0.844354 5:-0.517142 6:-0.737225 
2329.027043468879 1:-0.748695 2:-0.578373 3:-0.665554 4:-0.668477 5:-0.392394 6:-0.609072 
16384 1:-0.724766 2:-0.36543 3:-0.707229 4:-0.644916 5:-0.353302 6:-0.662951 
16384 1:-0.923861 2:-0.890857 3:-0.956951 4:-0.86698 5:-0.751337 6:-0.870799 
16237.30137277613 1:-0.782935 2:-0.71742 3:-0.716819 4:-0.488607 5:-0.222101 6:-0.441755 
16384 1:-0.925167 2:-0.82869 3:-0.860006 4:-0.805237 5:-0.603204 6:-0.808192 
16384 1:-0.833672 2:-0.772263 3:-0.802809 4:-0.744882 5:-0.473446 6:-0.708271 
16384 1:-0.930566 2:-0.897647 3:-0.950845 4:-0.876908 5:-0.766182 6:-0.868025 
16384 1:-0.84865 2:-0.837084 3:-0.86644 4:-0.790312 5:-0.568052 6:-0.755113 
16384 1:-0.821037 2:-0.747937 3:-0.798776 4:-0.732715 5:-0.524223 6:-0.752199 
16384 1:-0.956506 2:-0.959439 3:-0.938416 4:-0.873646 5:-0.773965 6:-0.876934 
16384 1:-0.9184 2:-0.722118 3:-0.927 4:-0.489733 5:-0.236219 6:-0.478913 
16193.67778114988 1:-0.572399 2:-0.0429005 3:-0.626394 4:-0.682526 5:-0.408188 6:-0.695064 
1859.772021504448 1:-0.711421 2:-0.301167 3:-0.696167 4:-0.667831 5:-0.413426 6:-0.666319 
16384 1:-0.976294 2:-0.978767 3:-0.935369 4:-0.890815 5:-0.775999 6:-0.876271 
16384 1:-0.931177 2:-0.843754 3:-0.867873 4:-0.811814 5:-0.628924 6:-0.803494 
4672.730131923131 1:-0.0417943 2:-0.136746 3:-0.124092 4:-0.286213 5:-0.0446253 6:-0.229419 
16384 1:-0.517256 2:0.0321722 3:-0.554613 4:-0.735121 5:-0.498221 6:-0.733523 
16384 1:-0.950855 2:-0.927609 3:-0.959799 4:-0.883601 5:-0.781867 6:-0.879963 
16384 1:-0.434554 2:-0.206615 3:-0.467607 4:-0.424312 5:-0.0958805 6:-0.463605 
16384 1:-0.829563 2:-0.720354 3:-0.807808 4:-0.659604 5:-0.43332 6:-0.712129 
12853.54197618602 1:-0.622411 2:-0.26332 3:-0.602846 4:-0.766184 5:-0.579398 6:-0.774187 
16384 1:-0.738938 2:-0.550274 3:-0.69799 4:-0.665855 5:-0.392963 6:-0.630352 
8879.563587495937 1:-0.728675 2:-0.635098 3:-0.720798 4:-0.480069 5:-0.21337 6:-0.462454 
10372.16964342701 1:-0.900673 2:-0.956274 3:-0.842806 4:-0.783135 5:-0.336036 6:-0.660878 
16384 1:-0.978218 2:-0.941353 3:-0.920132 4:-0.845937 5:-0.726254 6:-0.844283 
16384 1:-0.906196 2:-0.877737 3:-0.801524 4:-0.760624 5:-0.44447 6:-0.597119 
16384 1:-0.899227 2:-0.906024 3:-0.873858 4:-0.775145 5:-0.543311 6:-0.711402 
16384 1:-0.651114 2:-0.642104 3:-0.613816 4:-0.631498 5:-0.366378 6:-0.560584 
16384 1:-0.906197 2:-0.87774 3:-0.801525 4:-0.760626 5:-0.444474 6:-0.597121 
2103.471409694932 1:-0.803877 2:-0.644441 3:-0.823618 4:-0.800151 5:-0.493391 6:-0.819343 
16384 1:-0.795973 2:-0.701643 3:-0.72476 4:-0.721949 5:-0.440937 6:-0.685846 
16384 1:-0.902524 2:-0.88597 3:-0.803863 4:-0.7545 5:-0.434779 6:-0.583572 
16384 1:-0.512699 2:0.0613613 3:-0.524954 4:-0.644763 5:-0.336229 6:-0.642285 
16384 1:-0.612546 2:-0.124689 3:-0.612546 4:-0.672338 5:-0.40222 6:-0.672338 
16384 1:-0.582678 2:0.0494713 3:-0.524977 4:-0.663016 5:-0.372231 6:-0.646972 
16384 1:-0.69425 2:-0.266171 3:-0.675983 4:-0.658473 5:-0.380465 6:-0.666513 
2817.691467164849 1:-0.741334 2:-0.717994 3:-0.535959 4:-0.568747 5:-0.362281 6:-0.434505 
15685.91262121618 1:-0.404298 2:-0.00213929 3:-0.409359 4:-0.413211 5:-0.170978 6:-0.417958 
2417.369499806076 1:-0.541648 2:-0.244007 3:-0.540968 4:-0.644132 5:-0.280801 6:-0.648912 
16384 1:-0.782668 2:-0.737306 3:-0.696415 4:-0.742107 5:-0.407903 6:-0.651296 
16384 1:-0.921398 2:-0.885782 3:-0.956951 4:-0.869742 5:-0.756376 6:-0.870798 
16384 1:-0.834711 2:-0.805236 3:-0.797253 4:-0.742427 5:-0.489712 6:-0.695884 
16384 1:-0.582678 2:0.0494713 3:-0.524977 4:-0.663016 5:-0.372231 6:-0.646972 
16384 1:-0.816038 2:-0.739894 3:-0.805288 4:-0.728763 5:-0.5178 6:-0.719946 
16384 1:-0.931177 2:-0.843751 3:-0.86787 4:-0.811811 5:-0.628915 6:-0.803491 
14456.48462098903 1:-0.711421 2:-0.301167 3:-0.696167 4:-0.667831 5:-0.413426 6:-0.666319 
79.43250986248871 1:-0.583495 2:-0.778399 3:-0.583495 4:-0.244781 5:0.0534005 6:-0.244781 
2849.278799712351 1:-0.45941 2:0.18025 3:-0.673527 4:-0.631052 5:-0.323415 6:-0.64778 
16384 1:-0.902527 2:-0.88597 3:-0.803866 4:-0.754499 5:-0.43477 6:-0.583566 
16384 1:-0.414513 2:-0.155287 3:-0.441398 4:-0.393231 5:-0.0732385 6:-0.43343 
16384 1:-0.969954 2:-0.966603 3:-0.967534 4:-0.869766 5:-0.773019 6:-0.876085 
16384 1:-0.746468 2:-0.669225 3:-0.652147 4:-0.170837 5:0.0213464 6:-0.19796 
16384 1:-0.752075 2:-0.587216 3:-0.732807 4:-0.630612 5:-0.429506 6:-0.679488 
16384 1:-0.7142 2:-0.314975 3:-0.703501 4:-0.658476 5:-0.380471 6:-0.65795 
1443.04135153997 1:-0.633973 2:-0.329132 3:-0.533411 4:-0.498612 5:-0.219782 6:-0.457934 
16384 1:-0.932087 2:-0.839422 3:-0.872434 4:-0.814789 5:-0.632939 6:-0.805129 
5030.23737954014 1:-0.349612 2:-0.230116 3:-0.319539 4:-0.408681 5:-0.11972 6:-0.383835 
16367.05859031783 1:-0.404298 2:-0.00213929 3:-0.409359 4:-0.413211 5:-0.170978 6:-0.417958 
11110.93161180936 1:-0.616727 2:-0.0321492 3:-0.505033 4:-0.662065 5:-0.338282 6:-0.656177 
16384 1:-0.932167 2:-0.845296 3:-0.868251 4:-0.81079 5:-0.628312 6:-0.802215 
12371.27201576416 1:-0.811395 2:-0.725629 3:-0.720795 4:-0.737444 5:-0.499281 6:-0.606251 
16384 1:-0.700754 2:-0.289147 3:-0.677645 4:-0.662059 5:-0.385264 6:-0.658672 
8043.669272209551 1:-0.649623 2:-0.618689 3:-0.445774 4:-0.642622 5:-0.348898 6:-0.508132 
16384 1:-0.729224 2:-0.527453 3:-0.695893 4:-0.664204 5:-0.346589 6:-0.620901 
2832.69825443165 1:-0.748194 2:-0.742934 3:-0.603349 4:-0.512033 5:-0.263702 6:-0.405899 
16384 1:-0.870963 2:-0.804445 3:-0.84961 4:-0.792461 5:-0.51456 6:-0.767811 
10326.91847929844 1:-0.550888 2:-0.217588 3:-0.541175 4:-0.690196 5:-0.417115 6:-0.723592 
7.94206445447855 1:0.0310237 2:-0.179731 3:0.00879892 4:-0.256525 5:0.0239498 6:0.0787536 
12221.93229452376 1:-0.0248828 2:-0.116064 3:-0.216862 4:-0.248033 5:0.040226 6:-0.313792 
13946.99019956036 1:-0.764429 2:-0.619584 3:-0.811215 4:-0.675079 5:-0.471919 6:-0.714155 
16384 1:-0.920502 2:-0.861365 3:-0.959151 4:-0.868471 5:-0.753259 6:-0.871729 
1360.405710462768 1:-0.709734 2:-0.636741 3:-0.739987 4:-0.367902 5:-0.0392991 6:-0.511905 
16384 1:-0.933716 2:-0.889815 3:-0.860624 4:-0.818857 5:-0.582306 6:-0.711139 
16384 1:-0.896722 2:-0.852208 3:-0.874916 4:-0.821834 5:-0.686556 6:-0.8322 
16384 1:-0.90252 2:-0.885968 3:-0.803858 4:-0.754497 5:-0.434774 6:-0.583566 
8387.529790990582 1:-0.773668 2:-0.716895 3:-0.702903 4:-0.685255 5:-0.337441 6:-0.663858 
16384 1:-0.897901 2:-0.910776 3:-0.818842 4:-0.720005 5:-0.392655 6:-0.60407 
16384 1:-0.923418 2:-0.736539 3:-0.924352 4:-0.485306 5:-0.229558 6:-0.484663 
16384 1:-0.911067 2:-0.846536 3:-0.958891 4:-0.867694 5:-0.752466 6:-0.874966 
16384 1:-0.812547 2:-0.68184 3:-0.815266 4:-0.746177 5:-0.533696 6:-0.748067 
2100.672917172738 1:-0.741168 2:-0.55002 3:-0.69799 4:-0.665881 5:-0.392819 6:-0.630352 
16384 1:-0.933488 2:-0.841049 3:-0.872434 4:-0.819702 5:-0.638124 6:-0.805126 
388.4177464664377 1:-0.53069 2:-0.129174 3:-0.521679 4:-0.671384 5:-0.363583 6:-0.663332 
16384 1:-0.823092 2:-0.725268 3:-0.830472 4:-0.766867 5:-0.565748 6:-0.725686 
16384 1:-0.986968 2:-0.980251 3:-0.933735 4:-0.871106 5:-0.764204 6:-0.873687 
13139.40187006638 1:-0.673657 2:-0.535373 3:-0.686346 4:-0.73869 5:-0.461631 6:-0.754951 
15467.28547312853 1:-0.607221 2:-0.0352306 3:-0.504923 4:-0.658198 5:-0.347781 6:-0.695194 
16384 1:-0.693046 2:-0.361448 3:-0.693046 4:-0.708357 5:-0.465789 6:-0.698867 
810.05694557744 1:-0.490435 2:-0.0256566 3:-0.423329 4:-0.708349 5:-0.479637 6:-0.710013 
8397.498201186205 1:-0.619839 2:-0.467594 3:-0.686922 4:-0.576294 5:-0.307318 6:-0.498217 
920.7820502628434 1:-0.653781 2:-0.357318 3:-0.870357 4:-0.817923 5:-0.618434 6:-0.823854 
608.1852596267266 1:-0.923088 2:-0.751462 3:-0.922792 4:-0.488994 5:-0.229842 6:-0.492079 
16384 1:-0.696302 2:-0.525471 3:-0.780054 4:-0.707399 5:-0.449825 6:-0.739387 
16384 1:-0.903163 2:-0.729985 3:-0.799764 4:-0.704381 5:-0.45469 6:-0.718172 
1235.479996212126 1:-0.959404 2:-0.825215 3:-0.953674 4:-0.623362 5:-0.320728 6:-0.647386 
16384 1:-0.887942 2:-0.973084 3:-0.836531 4:-0.832126 5:-0.455125 6:-0.744895 
514.6812872188352 1:-0.960623 2:-0.851426 3:-0.944961 4:-0.617142 5:-0.346295 6:-0.546621 
16384 1:-0.724819 2:-0.632276 3:-0.796506 4:-0.708679 5:-0.401671 6:-0.723447 
16384 1:-0.949324 2:-0.909783 3:-0.959519 4:-0.873301 5:-0.749771 6:-0.874924 
16384 1:-0.832367 2:-0.831019 3:-0.652631 4:-0.807734 5:-0.460637 6:-0.707201 
16384 1:-0.915988 2:-0.846066 3:-0.882622 4:-0.817417 5:-0.603067 6:-0.801857 
995.90491656199 1:-0.82531 2:-0.766997 3:-0.781285 4:-0.554549 5:-0.0314175 6:-0.55767 
16384 1:-0.95905 2:-0.935304 3:-0.962479 4:-0.87157 5:-0.758715 6:-0.871147 
16384 1:-0.872763 2:-0.854893 3:-0.817427 4:-0.802705 5:-0.593609 6:-0.703626 
16384 1:-0.830942 2:-0.722808 3:-0.813092 4:-0.667731 5:-0.451281 6:-0.714811 
16384 1:-0.951759 2:-0.921005 3:-0.957138 4:-0.8726 5:-0.758041 6:-0.87031 
16384 1:-0.892829 2:-0.791466 3:-0.821822 4:-0.820655 5:-0.620045 6:-0.785208 
16384 1:-0.94382 2:-0.906204 3:-0.957548 4:-0.859488 5:-0.745718 6:-0.872556 
9861.364562318522 1:-0.669327 2:-0.310153 3:-0.666196 4:-0.64503 5:-0.342399 6:-0.637399 
16384 1:-0.942668 2:-0.922263 3:-0.962129 4:-0.877447 5:-0.761163 6:-0.870222 
16384 1:-0.957664 2:-0.932868 3:-0.958715 4:-0.872039 5:-0.760007 6:-0.870149 
1120.724823714515 1:-0.608264 2:-0.108932 3:-0.573852 4:-0.775713 5:-0.543667 6:-0.710153 
16384 1:-0.757961 2:-0.684385 3:-0.799473 4:-0.68946 5:-0.493763 6:-0.656856 
8962.434475018321 1:-0.691892 2:-0.282262 3:-0.703526 4:-0.651225 5:-0.353965 6:-0.657256 
7295.875946906332 1:-0.924502 2:-0.746742 3:-0.923607 4:-0.498019 5:-0.239043 6:-0.508955 
16384 1:-0.821008 2:-0.796579 3:-0.722677 4:-0.722985 5:-0.336839 6:-0.65136 
3317.780585803888 1:-0.7342 2:-0.278218 3:-0.761796 4:-0.712123 5:-0.444651 6:-0.737058 
2106.656187312235 1:-0.886392 2:-0.974999 3:-0.837032 4:-0.830054 5:-0.453556 6:-0.742209 
16384 1:-0.88026 2:-0.788763 3:-0.846047 4:-0.696963 5:-0.500175 6:-0.714787 
3348.395575991461 1:0.00114476 2:-0.10483 3:-0.233918 4:-0.241328 5:0.0420365 6:-0.307481 
16384 1:-0.64301 2:-0.276714 3:-0.670667 4:-0.700883 5:-0.433419 6:-0.716384 
16384 1:-0.64299 2:-0.34982 3:-0.649614 4:-0.664026 5:-0.380811 6:-0.653244 
16384 1:-0.677962 2:-0.561253 3:-0.594052 4:-0.686532 5:-0.43645 6:-0.62213 
16384 1:-0.933626 2:-0.843104 3:-0.872227 4:-0.816431 5:-0.632181 6:-0.806532 
16384 1:-0.931211 2:-0.843048 3:-0.867872 4:-0.808101 5:-0.627644 6:-0.803492 
16384 1:-0.973584 2:-0.969493 3:-0.940908 4:-0.881278 5:-0.77148 6:-0.876353 
10335.87081731655 1:-0.813277 2:-0.74687 3:-0.73881 4:-0.508781 5:-0.232935 6:-0.489606 
16384 1:-0.782825 2:-0.604345 3:-0.699954 4:-0.714051 5:-0.430716 6:-0.636924 
12615.25912800873 1:-0.594609 2:-0.569476 3:-0.666277 4:-0.68768 5:-0.372602 6:-0.640179 
16371.87459458737 1:0.136279 2:0.205917 3:0.169925 4:-0.257008 5:0.0197811 6:-0.162197 
4136.968442113223 1:-0.415833 2:-0.337015 3:-0.35131 4:-0.305101 5:-0.0672944 6:-0.310058 
16384 1:-0.705527 2:-0.539372 3:-0.676389 4:-0.605576 5:-0.388598 6:-0.647866 
16384 1:-0.634075 2:-0.323146 3:-0.559967 4:-0.670824 5:-0.381835 6:-0.635784 
16384 1:-0.941983 2:-0.897888 3:-0.881853 4:-0.806429 5:-0.615912 6:-0.741465 
1800.650107990338 1:-0.419101 2:-0.121981 3:-0.376636 4:-0.326352 5:-0.0301249 6:-0.404395 
2318.335127842853 1:-0.673256 2:-0.647553 3:-0.634782 4:-0.708888 5:-0.477629 6:-0.776637 
15986.17994460434 1:-0.732747 2:-0.528861 3:-0.694469 4:-0.665739 5:-0.350685 6:-0.618191 
16384 1:-0.979883 2:-0.97164 3:-0.949275 4:-0.884288 5:-0.783922 6:-0.873622 
16384 1:-0.807461 2:-0.633552 3:-0.73587 4:-0.698592 5:-0.470435 6:-0.646385 
16384 1:-0.846984 2:-0.649927 3:-0.770982 4:-0.55335 5:-0.33357 6:-0.500186 
16384 1:-0.827419 2:-0.836004 3:-0.839436 4:-0.759036 5:-0.380479 6:-0.724745 
16384 1:-0.932088 2:-0.839427 3:-0.872437 4:-0.814785 5:-0.632933 6:-0.805126 
16384 1:-0.779947 2:-0.697069 3:-0.740074 4:-0.499338 5:-0.230181 6:-0.478831 
16384 1:-0.594449 2:0.0435634 3:-0.548567 4:-0.663019 5:-0.372239 6:-0.653518 
7840.399150373709 1:-0.562892 2:-0.263961 3:-0.541113 4:-0.695636 5:-0.432 6:-0.722711 
6807.955740921729 1:-0.73195 2:-0.324724 3:-0.723247 4:-0.704611 5:-0.453136 6:-0.658294 
906.7244282382544 1:-0.280932 2:-0.179695 3:-0.276602 4:-0.424043 5:-0.190299 6:-0.337669 
16384 1:-0.919225 2:-0.707713 3:-0.929016 4:-0.480572 5:-0.223923 6:-0.467916 
14873.17814871655 1:-0.640674 2:-0.514944 3:-0.513289 4:-0.744322 5:-0.456553 6:-0.588619 
16384 1:-0.598556 2:-0.0518048 3:-0.5685 4:-0.686518 5:-0.415859 6:-0.668766 
15243.44307825487 1:-0.840501 2:-0.84896 3:-0.556448 4:-0.828289 5:-0.414505 6:-0.705619 
16384 1:-0.9412 2:-0.898597 3:-0.86523 4:-0.821062 5:-0.586282 6:-0.715408 
9078.075398131472 1:-0.804163 2:-0.696822 3:-0.804478 4:-0.616035 5:-0.294078 6:-0.740673 
16384 1:-0.795438 2:-0.669336 3:-0.820926 4:-0.743236 5:-0.534219 6:-0.754488 
7149.804543731145 1:-0.840809 2:-0.851268 3:-0.779426 4:-0.793234 5:-0.516091 6:-0.672732 
16384 1:-0.517086 2:0.0325315 3:-0.554533 4:-0.735114 5:-0.498205 6:-0.733517 
16384 1:-0.887398 2:-0.832334 3:-0.821024 4:-0.672708 5:-0.463142 6:-0.699 
16384 1:-0.921397 2:-0.88578 3:-0.95695 4:-0.870234 5:-0.757931 6:-0.870799 
16384 1:-0.786188 2:-0.686141 3:-0.842631 4:-0.757018 5:-0.542807 6:-0.725374 
8169.434143693281 1:-0.750923 2:-0.557969 3:-0.695674 4:-0.653237 5:-0.331043 6:-0.641371 
7105.765960833615 1:-0.498985 2:0.00259282 3:-0.47201 4:-0.604917 5:-0.263464 6:-0.602122 
16384 1:-0.51981 2:-0.185113 3:-0.647839 4:-0.640703 5:-0.281552 6:-0.652782 
16384 1:-0.941 2:-0.89777 3:-0.867675 4:-0.818374 5:-0.580865 6:-0.715645 
16384 1:-0.894623 2:-0.876008 3:-0.789843 4:-0.736732 5:-0.469731 6:-0.584302 
16384 1:-0.832399 2:-0.7735 3:-0.811212 4:-0.772003 5:-0.489268 6:-0.700084 
14721.55236012033 1:-0.839168 2:-0.847467 3:-0.766679 4:-0.756722 5:-0.397217 6:-0.704852 
16384 1:-0.946501 2:-0.894958 3:-0.89683 4:-0.877826 5:-0.733847 6:-0.871606 
9345.293354576474 1:-0.699243 2:-0.374497 3:-0.703125 4:-0.694539 5:-0.433396 6:-0.706074 
16384 1:-0.874523 2:-0.778915 3:-0.771827 4:-0.62741 5:-0.384727 6:-0.617577 
16384 1:-0.932675 2:-0.845596 3:-0.867437 4:-0.810383 5:-0.631393 6:-0.803428 
156.2043314912094 1:-0.408842 2:-0.248009 3:-0.273664 4:-0.340568 5:0.00217327 6:-0.271572 
368.1336533755984 1:-0.839246 2:-0.777554 3:-0.803063 4:-0.618644 5:-0.253951 6:-0.735472 
16384 1:-0.928659 2:-0.884295 3:-0.882151 4:-0.826661 5:-0.701924 6:-0.838059 
16384 1:-0.727596 2:-0.370446 3:-0.702537 4:-0.648319 5:-0.358969 6:-0.660693 
16384 1:-0.779771 2:-0.712774 3:-0.716816 4:-0.474752 5:-0.204166 6:-0.441748 
12011.21465415524 1:-0.677315 2:-0.362578 3:-0.738444 4:-0.717777 5:-0.497947 6:-0.706756 
9589.49963733247 1:-0.70809 2:-0.616444 3:-0.702076 4:-0.663525 5:-0.410877 6:-0.56293 
16384 1:-0.822942 2:-0.754474 3:-0.796427 4:-0.73298 5:-0.524679 6:-0.751004 
16384 1:-0.827419 2:-0.836004 3:-0.839436 4:-0.759036 5:-0.380479 6:-0.724745 
16384 1:-0.946637 2:-0.900512 3:-0.871368 4:-0.810798 5:-0.585101 6:-0.724466 
16384 1:-0.806162 2:-0.671724 3:-0.761951 4:-0.659344 5:-0.356167 6:-0.695681 
16384 1:-0.934502 2:-0.836117 3:-0.798668 4:-0.801822 5:-0.546085 6:-0.76426 
16384 1:-0.733709 2:-0.640644 3:-0.720802 4:-0.457105 5:-0.167579 6:-0.462456 
16384 1:-0.807461 2:-0.633552 3:-0.73587 4:-0.698592 5:-0.470435 6:-0.646385 
598.8923885191422 1:-0.644361 2:-0.105018 3:-0.644361 4:-0.768986 5:-0.56526 6:-0.768986 
8904.358547850323 1:-0.811825 2:-0.921129 3:-0.822481 4:-0.779248 5:-0.57362 6:-0.698335 
16384 1:-0.919114 2:-0.712165 3:-0.924196 4:-0.481209 5:-0.226419 6:-0.471379 
16384 1:-0.930878 2:-0.848206 3:-0.857216 4:-0.869688 5:-0.696464 6:-0.824347 
11287.67740270326 1:-0.853346 2:-0.745976 3:-0.726021 4:-0.73997 5:-0.458364 6:-0.78951 
16384 1:-0.799674 2:-0.684038 3:-0.733893 4:-0.706025 5:-0.488068 6:-0.669985 
16384 1:-0.826638 2:-0.726668 3:-0.80872 4:-0.670961 5:-0.451647 6:-0.714697 
802.001183114361 1:-0.0346539 2:-0.146009 3:-0.0958593 4:-0.322151 5:-0.0831238 6:-0.247501 
1009.43702399731 1:-0.898778 2:-0.823569 3:-0.854086 4:-0.603781 5:-0.345603 6:-0.739472 
16384 1:-0.912124 2:-0.868304 3:-0.957494 4:-0.862232 5:-0.743203 6:-0.871336 
16384 1:-0.805924 2:-0.791056 3:-0.781449 4:-0.796377 5:-0.616271 6:-0.712892 
16384 1:-0.727344 2:-0.368543 3:-0.692996 4:-0.643851 5:-0.352788 6:-0.653 
16384 1:-0.838775 2:-0.834697 3:-0.739736 4:-0.682442 5:-0.37143 6:-0.616529 
16384 1:-0.715465 2:-0.491886 3:-0.710348 4:-0.601006 5:-0.315155 6:-0.60466 
11287.6700648591 1:-0.64371 2:-0.198767 3:-0.610003 4:-0.78107 5:-0.588447 6:-0.783107 
16384 1:-0.943073 2:-0.91783 3:-0.960872 4:-0.873872 5:-0.767397 6:-0.871412 
13861.93757089763 1:-0.699243 2:-0.374497 3:-0.703125 4:-0.694539 5:-0.433396 6:-0.706074 
16384 1:-0.623363 2:-0.237125 3:-0.601474 4:-0.685437 5:-0.41899 6:-0.717457 
16384 1:-0.636113 2:-0.51842 3:-0.510575 4:-0.67495 5:-0.340635 6:-0.601383 
16384 1:-0.905239 2:-0.838761 3:-0.959247 4:-0.865639 5:-0.753704 6:-0.876339 
16384 1:-0.848506 2:-0.702739 3:-0.810233 4:-0.745426 5:-0.460294 6:-0.679627 
16384 1:-0.740677 2:-0.544923 3:-0.69022 4:-0.661548 5:-0.333545 6:-0.633827 
11.22450226222766 1:-0.375419 2:-0.330385 3:-0.716029 4:-0.70901 5:-0.459996 6:-0.71894 
16384 1:-0.94286 2:-0.900107 3:-0.867001 4:-0.819968 5:-0.579381 6:-0.716936 
1758.561913038139 1:-0.580257 2:-0.343035 3:-0.556531 4:-0.490017 5:-0.259635 6:-0.464518 
16384 1:-0.843565 2:-0.703607 3:-0.767319 4:-0.760967 5:-0.481889 6:-0.729654 
16384 1:-0.982414 2:-0.974234 3:-0.949539 4:-0.872332 5:-0.778633 6:-0.871961 
2959.226934742271 1:-0.574851 2:-0.535873 3:-0.612628 4:-0.574695 5:-0.179985 6:-0.624824 
128.6020429408586 1:-0.272693 2:-0.172891 3:-0.589455 4:-0.378213 5:-0.0421031 6:-0.635928 
16384 1:-0.821314 2:-0.902811 3:-0.822499 4:-0.759715 5:-0.580307 6:-0.698342 
16384 1:-0.882834 2:-0.804632 3:-0.75199 4:-0.787191 5:-0.586848 6:-0.746599 
4969.384486899358 1:-0.719357 2:-0.594334 3:-0.693562 4:-0.737325 5:-0.480485 6:-0.748031 
16384 1:-0.968104 2:-0.953624 3:-0.965568 4:-0.86907 5:-0.772435 6:-0.874938 
16384 1:-0.954238 2:-0.874343 3:-0.920454 4:-0.751624 5:-0.503579 6:-0.722427 
16384 1:-0.693046 2:-0.361448 3:-0.693046 4:-0.708357 5:-0.465789 6:-0.698867 
16384 1:-0.986527 2:-0.97329 3:-0.966918 4:-0.878612 5:-0.779938 6:-0.876468 
16384 1:-0.88614 2:-0.783119 3:-0.774622 4:-0.824164 5:-0.558362 6:-0.763524 
16384 1:-0.928638 2:-0.89658 3:-0.958711 4:-0.87595 5:-0.764102 6:-0.870149 
16384 1:-0.933102 2:-0.880138 3:-0.849196 4:-0.852976 5:-0.473632 6:-0.737817 
16384 1:-0.943009 2:-0.900018 3:-0.865237 4:-0.821004 5:-0.584565 6:-0.71541 
939.3469331369257 1:-0.366974 2:-0.280275 3:-0.346773 4:-0.516289 5:-0.260259 6:-0.434352 
16384 1:-0.82306 2:-0.834208 3:-0.566935 4:-0.823005 5:-0.42621 6:-0.719288 
16384 1:-0.821032 2:-0.664818 3:-0.783797 4:-0.719627 5:-0.41554 6:-0.7409 
16384 1:-0.686796 2:-0.47277 3:-0.669979 4:-0.653135 5:-0.345217 6:-0.641532 
2990.72935009098 1:-0.67443 2:-0.598304 3:-0.600537 4:-0.798166 5:-0.591965 6:-0.745136 
221.8843292485489 1:-0.713477 2:-0.493683 3:-0.633055 4:-0.578832 5:-0.231798 6:-0.499118 
16384 1:-0.763464 2:-0.664208 3:-0.791144 4:-0.697478 5:-0.384268 6:-0.712198 
12145.45046376338 1:-0.726373 2:-0.471335 3:-0.716733 4:-0.704141 5:-0.443318 6:-0.700819 
1114.70112875896 1:-0.832548 2:-0.737024 3:-0.756072 4:-0.570689 5:-0.312032 6:-0.598343 
16384 1:-0.197161 2:-0.0332208 3:-0.107135 4:-0.0797289 5:0.172405 6:-0.0976171 
16384 1:-0.768975 2:-0.732064 3:-0.803358 4:-0.742507 5:-0.561642 6:-0.724148 
11411.88641007128 1:-0.71614 2:-0.640635 3:-0.915485 4:-0.774967 5:-0.540734 6:-0.759457 
16384 1:-0.958186 2:-0.895098 3:-0.911564 4:-0.70041 5:-0.444451 6:-0.630124 
16384 1:-0.884992 2:-0.788514 3:-0.833024 4:-0.829466 5:-0.625041 6:-0.776575 
16384 1:-0.92471 2:-0.749789 3:-0.924453 4:-0.479468 5:-0.221312 6:-0.463077 
16384 1:-0.813764 2:-0.753859 3:-0.800439 4:-0.768014 5:-0.523032 6:-0.694331 
5119.102918342468 1:-0.517051 2:-0.0818924 3:-0.533125 4:-0.681409 5:-0.395923 6:-0.722962 
2666.483183969988 1:-0.301667 2:-0.145272 3:-0.364254 4:-0.417972 5:-0.129442 6:-0.40186 
16384 1:-0.879841 2:-0.787194 3:-0.845856 4:-0.694595 5:-0.531961 6:-0.710238 
16384 1:-0.842756 2:-0.754934 3:-0.756072 4:-0.594789 5:-0.337436 6:-0.598353 
10924.5119673378 1:-0.580257 2:-0.343035 3:-0.556531 4:-0.490017 5:-0.259635 6:-0.464518 
16384 1:-0.918175 2:-0.879468 3:-0.957308 4:-0.871759 5:-0.759909 6:-0.872425 
16384 1:-0.745806 2:-0.667544 3:-0.718108 4:-0.673534 5:-0.285785 6:-0.681661 
16384 1:-0.931084 2:-0.896101 3:-0.875581 4:-0.872806 5:-0.713697 6:-0.824819 
16384 1:-0.976417 2:-0.937053 3:-0.91784 4:-0.844712 5:-0.72767 6:-0.845199 
16384 1:-0.786841 2:-0.606312 3:-0.738119 4:-0.726184 5:-0.45058 6:-0.720678 
16384 1:-0.862564 2:-0.804412 3:-0.794562 4:-0.709557 5:-0.503455 6:-0.697504 
15211.59995231736 1:-0.606552 2:-0.255993 3:-0.562484 4:-0.667629 5:-0.35707 6:-0.68046 
28.76146314331227 1:-0.83107 2:-0.73282 3:-0.768342 4:-0.709347 5:-0.447471 6:-0.721537 
16384 1:-0.870157 2:-0.873194 3:-0.689751 4:-0.826244 5:-0.508292 6:-0.770649 
2513.192693252068 1:-0.84427 2:-0.802168 3:-0.67311 4:-0.293981 5:-0.0603345 6:-0.286686 
5814.274974037913 1:-0.576984 2:0.00609871 3:-0.527192 4:-0.653743 5:-0.375396 6:-0.628844 
16384 1:-0.937639 2:-0.894016 3:-0.863595 4:-0.818037 5:-0.578129 6:-0.712523 
16384 1:-0.934078 2:-0.846965 3:-0.867365 4:-0.812445 5:-0.635113 6:-0.803971 
841.3939927651874 1:-0.596757 2:-0.584131 3:-0.355616 4:-0.543159 5:-0.146325 6:-0.409938 
7949.767313404038 1:-0.584253 2:-0.29235 3:-0.590869 4:-0.661103 5:-0.397779 6:-0.699964 
16384 1:-0.877666 2:-0.819568 3:-0.781253 4:-0.846736 5:-0.538602 6:-0.761838 
145.0621973274547 1:-0.637727 2:-0.546924 3:-0.392205 4:-0.717895 5:-0.450433 6:-0.558454 
16384 1:-0.938853 2:-0.909602 3:-0.959873 4:-0.875084 5:-0.769098 6:-0.8702 
5250.46750046444 1:-0.586321 2:-0.0492034 3:-0.553093 4:-0.658494 5:-0.37581 6:-0.654664 
16384 1:-0.761777 2:-0.711609 3:-0.77372 4:-0.736595 5:-0.440418 6:-0.667625 
16384 1:-0.931292 2:-0.837384 3:-0.864771 4:-0.807757 5:-0.615403 6:-0.798398 
16384 1:-0.956821 2:-0.937227 3:-0.96174 4:-0.874986 5:-0.774756 6:-0.870994 
16384 1:-0.794615 2:-0.693819 3:-0.717808 4:-0.668493 5:-0.379151 6:-0.758985 
16384 1:-0.946695 2:-0.936651 3:-0.959247 4:-0.880672 5:-0.763612 6:-0.872626 
16384 1:-0.754942 2:-0.539348 3:-0.739569 4:-0.633352 5:-0.398422 6:-0.631869 
16355.32744191188 1:0.136279 2:0.205917 3:0.169925 4:-0.257008 5:0.0197811 6:-0.162197 
16384 1:-0.908191 2:-0.868543 3:-0.882113 4:-0.826717 5:-0.701617 6:-0.838548 
16384 1:-0.725063 2:-0.366006 3:-0.690082 4:-0.649834 5:-0.363815 6:-0.653093 
2053.344696216147 1:-0.662517 2:-0.127236 3:-0.590801 4:-0.672715 5:-0.376129 6:-0.677981 
16384 1:-0.700171 2:-0.530774 3:-0.677353 4:-0.607439 5:-0.372259 6:-0.650779 
0.2657792313898705 1:0.242103 2:0.0707265 3:0.223623 4:-0.0615194 5:0.197401 6:-0.0316353 
2565.750044936308 1:-0.496092 2:-0.452241 3:-0.45395 4:-0.365107 5:-0.0303593 6:-0.324441 
12897.65606808804 1:-0.491328 2:-0.107102 3:-0.512764 4:-0.687652 5:-0.44699 6:-0.703014 
4443.987011668364 1:-0.632825 2:-0.467572 3:-0.581957 4:-0.748175 5:-0.508285 6:-0.695363 
16384 1:-0.840268 2:-0.785631 3:-0.824894 4:-0.645161 5:-0.368007 6:-0.718874 
16384 1:-0.903254 2:-0.847867 3:-0.958522 4:-0.863702 5:-0.739531 6:-0.874066 
16384 1:-0.954951 2:-0.925616 3:-0.958713 4:-0.874479 5:-0.749711 6:-0.870149 
4196.213567565012 1:-0.738034 2:-0.821391 3:-0.732245 4:-0.610344 5:-0.427944 6:-0.615357 
16384 1:-0.789337 2:-0.676137 3:-0.828412 4:-0.562225 5:-0.299045 6:-0.63243 
16384 1:-0.942806 2:-0.9199 3:-0.845579 4:-0.82814 5:-0.577832 6:-0.790667 
5959.254996663418 1:-0.761933 2:-0.444644 3:-0.74126 4:-0.741023 5:-0.526483 6:-0.69925 
15754.5262518736 1:-0.713756 2:-0.591937 3:-0.710476 4:-0.652948 5:-0.364502 6:-0.58879 
16384 1:-0.811936 2:-0.791354 3:-0.825251 4:-0.766766 5:-0.554207 6:-0.729633 
16384 1:-0.59159 2:-0.10135 3:-0.586536 4:-0.668571 5:-0.382297 6:-0.668376 
16384 1:-0.830854 2:-0.722067 3:-0.799069 4:-0.668051 5:-0.448621 6:-0.709168 
16384 1:-0.623265 2:-0.50895 3:-0.498654 4:-0.64554 5:-0.313306 6:-0.576437 
16384 1:-0.877998 2:-0.808223 3:-0.858033 4:-0.777743 5:-0.521564 6:-0.74247 
16384 1:-0.885727 2:-0.848045 3:-0.876982 4:-0.842494 5:-0.615686 6:-0.807223 
16384 1:-0.957303 2:-0.936792 3:-0.963837 4:-0.872412 5:-0.774011 6:-0.87477 
16384 1:-0.852868 2:-0.766944 3:-0.756071 4:-0.599066 5:-0.340642 6:-0.59835 
16384 1:-0.68522 2:-0.394268 3:-0.656359 4:-0.709839 5:-0.452847 6:-0.707775 
16384 1:-0.681552 2:-0.681412 3:-0.711972 4:-0.695473 5:-0.452911 6:-0.763221 
16384 1:-0.9447 2:-0.921378 3:-0.963437 4:-0.871926 5:-0.758269 6:-0.871744 
7113.21888653987 1:-0.856148 2:-0.761327 3:-0.767538 4:-0.752976 5:-0.565008 6:-0.778009 
1619.297278330303 1:-0.871089 2:-0.866329 3:-0.762332 4:-0.564948 5:-0.141853 6:-0.477936 
10323.90897047339 1:-0.638209 2:-0.23162 3:-0.601529 4:-0.71429 5:-0.420481 6:-0.716804 
16384 1:-0.88674 2:-0.868866 3:-0.787423 4:-0.72129 5:-0.417947 6:-0.54819 
1340.470868315491 1:-0.650395 2:-0.655883 3:-0.524639 4:-0.606392 5:-0.361488 6:-0.4542 
6225.184041279509 1:-0.555414 2:-0.561084 3:-0.720736 4:-0.667134 5:-0.328086 6:-0.676511 
16384 1:-0.767465 2:-0.625528 3:-0.80831 4:-0.667458 5:-0.445329 6:-0.716497 
7411.19935058552 1:-0.873917 2:-0.858843 3:-0.784468 4:-0.777253 5:-0.504224 6:-0.707208 
14195.09559955925 1:-0.638209 2:-0.23162 3:-0.601529 4:-0.71429 5:-0.420481 6:-0.716804 
3774.98100366471 1:-0.618739 2:-0.479642 3:-0.54151 4:-0.667566 5:-0.329805 6:-0.568464 
16384 1:-0.800667 2:-0.671243 3:-0.74251 4:-0.723461 5:-0.514358 6:-0.687237 
16384 1:-0.88674 2:-0.868866 3:-0.787423 4:-0.721291 5:-0.417947 6:-0.548191 
16384 1:-0.797358 2:-0.722221 3:-0.743469 4:-0.495063 5:-0.225935 6:-0.500228 
16384 1:-0.88169 2:-0.82557 3:-0.787932 4:-0.849366 5:-0.542676 6:-0.765478 
575.5674931522768 1:-0.722819 2:-0.493032 3:-0.725902 4:-0.706965 5:-0.454283 6:-0.759671 
14191.55102179084 1:-0.798112 2:-0.726965 3:-0.742178 4:-0.525773 5:-0.255178 6:-0.496218 
16384 1:-0.896213 2:-0.838736 3:-0.777892 4:-0.784639 5:-0.421619 6:-0.65643 
16384 1:-0.774161 2:-0.63435 3:-0.755777 4:-0.665037 5:-0.445882 6:-0.705402 
16384 1:-0.913074 2:-0.849497 3:-0.958891 4:-0.86736 5:-0.752319 6:-0.874966 
16384 1:-0.926692 2:-0.873429 3:-0.959067 4:-0.832301 5:-0.71969 6:-0.873164 
2766.164493482799 1:-0.737022 2:-0.319008 3:-0.776437 4:-0.71998 5:-0.424379 6:-0.741835 
16384 1:-0.719505 2:-0.545035 3:-0.708913 4:-0.698717 5:-0.409237 6:-0.727552 
12319.36449003719 1:-0.931007 2:-0.704382 3:-0.929347 4:-0.483092 5:-0.229432 6:-0.483748 
6105.594366061138 1:-0.917923 2:-0.724191 3:-0.923425 4:-0.447488 5:-0.187657 6:-0.468892 
10492.33878927362 1:-0.710796 2:-0.33907 3:-0.707356 4:-0.650798 5:-0.353883 6:-0.656548 
1737.601294016808 1:-0.776083 2:-0.758136 3:-0.626048 4:-0.719714 5:-0.448619 6:-0.626821 
14834.38134942577 1:-0.719184 2:-0.70772 3:-0.769878 4:-0.696992 5:-0.27632 6:-0.579912 
866.7728788514952 1:-0.519247 2:0.0598104 3:-0.513373 4:-0.641858 5:-0.325035 6:-0.644112 
16384 1:-0.917921 2:-0.878491 3:-0.956951 4:-0.87451 5:-0.760211 6:-0.870798 
1293.491593831653 1:-0.0918442 2:-0.163385 3:-0.21447 4:-0.311553 5:-0.057726 6:-0.307609 
10118.00081950534 1:-0.635048 2:-0.529517 3:-0.514354 4:-0.68625 5:-0.351502 6:-0.589565 
6066.914206647725 1:-0.698498 2:-0.523424 3:-0.769731 4:-0.796947 5:-0.472237 6:-0.741017 
16384 1:-0.959692 2:-0.940429 3:-0.961454 4:-0.876982 5:-0.749433 6:-0.870721 
16384 1:-0.916884 2:-0.85508 3:-0.949766 4:-0.876686 5:-0.758391 6:-0.872675 
16384 1:-0.921924 2:-0.875196 3:-0.957012 4:-0.85983 5:-0.744674 6:-0.873596 
16384 1:-0.809923 2:-0.714562 3:-0.848044 4:-0.745445 5:-0.554819 6:-0.706017 
16384 1:-0.516218 2:-0.00167965 3:-0.629198 4:-0.631272 5:-0.306107 6:-0.658646 
16384 1:-0.903898 2:-0.877398 3:-0.790535 4:-0.790642 5:-0.491752 6:-0.71811 
16384 1:-0.620297 2:-0.107202 3:-0.588604 4:-0.721825 5:-0.49935 6:-0.70704 
16384 1:-0.843734 2:-0.757512 3:-0.727387 4:-0.72264 5:-0.435005 6:-0.621514 
16384 1:-0.932087 2:-0.839422 3:-0.872434 4:-0.814785 5:-0.632933 6:-0.805126 
16002.4406877246 1:-0.496305 2:-0.277936 3:-0.501794 4:-0.643673 5:-0.321524 6:-0.667639 
16384 1:-0.746468 2:-0.669225 3:-0.652147 4:-0.170837 5:0.0213464 6:-0.19796 
16384 1:-0.928148 2:-0.894165 3:-0.961234 4:-0.876519 5:-0.762382 6:-0.873052 
16384 1:-0.980314 2:-0.969553 3:-0.949279 4:-0.880153 5:-0.785107 6:-0.872943 
3039.69138171236 1:-0.544216 2:-0.152542 3:-0.559196 4:-0.778637 5:-0.522401 6:-0.758292 
16384 1:-0.943852 2:-0.884233 3:-0.937506 4:-0.774653 5:-0.586863 6:-0.798778 
2012.11322832155 1:-0.717897 2:-0.615629 3:-0.578952 4:-0.648663 5:-0.342411 6:-0.538964 
16384 1:-0.900021 2:-0.890261 3:-0.875054 4:-0.766265 5:-0.558227 6:-0.712048 
16384 1:-0.922528 2:-0.707266 3:-0.926604 4:-0.479048 5:-0.220653 6:-0.484581 
16384 1:-0.659229 2:-0.532403 3:-0.5626 4:-0.711015 5:-0.416307 6:-0.63188 
16384 1:-0.785203 2:-0.688478 3:-0.842631 4:-0.75599 5:-0.542694 6:-0.725374 
16384 1:-0.933431 2:-0.844869 3:-0.86884 4:-0.80982 5:-0.628593 6:-0.802815 
412.0621265487179 1:-0.417261 2:-0.142549 3:-0.390394 4:-0.464746 5:-0.182515 6:-0.403168 
16378.58561787496 1:0.381597 2:0.176385 3:0.381597 4:0.382143 5:0.768058 6:0.382143 
16384 1:-0.640541 2:-0.514861 3:-0.513118 4:-0.744321 5:-0.456551 6:-0.588614 
16384 1:-0.924496 2:-0.742539 3:-0.923468 4:-0.480204 5:-0.223253 6:-0.468846 
16384 1:-0.902522 2:-0.885966 3:-0.803858 4:-0.7545 5:-0.434771 6:-0.583568 
59.23799241328675 1:-0.666646 2:0.0125681 3:-0.733081 4:-0.686156 5:-0.312307 6:-0.694606 
16384 1:-0.817705 2:-0.892515 3:-0.822483 4:-0.759713 5:-0.580294 6:-0.698339 
16384 1:-0.935855 2:-0.885825 3:-0.957605 4:-0.865691 5:-0.743784 6:-0.87538 
16384 1:-0.807477 2:-0.633571 3:-0.735886 4:-0.698595 5:-0.470435 6:-0.646388 
16384 1:-0.932984 2:-0.838683 3:-0.8593 4:-0.817011 5:-0.608393 6:-0.814055 
16384 1:-0.923474 2:-0.824951 3:-0.859 4:-0.811229 5:-0.61196 6:-0.813769 
16384 1:-0.932928 2:-0.842807 3:-0.872438 4:-0.820041 5:-0.636622 6:-0.805215 
6290.28067855776 1:-0.474061 2:-0.282921 3:-0.42014 4:-0.454207 5:-0.168648 6:-0.404109 
16384 1:-0.511852 2:0.0639232 3:-0.506175 4:-0.628974 5:-0.30992 6:-0.642252 
16384 1:-0.940941 2:-0.967471 3:-0.847978 4:-0.849961 5:-0.46126 6:-0.745917 
16384 1:-0.669675 2:-0.353736 3:-0.672236 4:-0.734471 5:-0.519349 6:-0.725571 
16384 1:-0.932322 2:-0.845125 3:-0.868249 4:-0.810392 5:-0.629266 6:-0.802218 
1418.678318333793 1:-0.924502 2:-0.746742 3:-0.923607 4:-0.498019 5:-0.239043 6:-0.508955 
16384 1:-0.539742 2:-0.321594 3:-0.561381 4:-0.50041 5:-0.187255 6:-0.549799 
16384 1:-0.966016 2:-0.969919 3:-0.951242 4:-0.85204 5:-0.705222 6:-0.825627 
16384 1:-0.896081 2:-0.892951 3:-0.824605 4:-0.715741 5:-0.418482 6:-0.605646 
16384 1:-0.848506 2:-0.702739 3:-0.810233 4:-0.745425 5:-0.460292 6:-0.679627 
16384 1:-0.614456 2:-0.479606 3:-0.611194 4:-0.679254 5:-0.427047 6:-0.639094 
5267.287888019558 1:-0.710265 2:-0.397212 3:-0.679917 4:-0.769818 5:-0.57734 6:-0.733847 
16384 1:-0.928721 2:-0.896716 3:-0.958712 4:-0.874954 5:-0.760927 6:-0.870149 
16384 1:-0.842756 2:-0.754934 3:-0.756072 4:-0.59479 5:-0.337438 6:-0.598355 
16384 1:-0.874638 2:-0.857056 3:-0.673229 4:-0.866855 5:-0.495788 6:-0.740993 
16384 1:-0.970295 2:-0.96073 3:-0.935948 4:-0.858829 5:-0.71923 6:-0.839228 
3766.09702121375 1:-0.437011 2:-0.308284 3:-0.333839 4:-0.516125 5:-0.24315 6:-0.447823 
16384 1:-0.693046 2:-0.361448 3:-0.693046 4:-0.708357 5:-0.465789 6:-0.698867 
16384 1:-0.722557 2:-0.528725 3:-0.694802 4:-0.670337 5:-0.35796 6:-0.62102 
16384 1:-0.646131 2:-0.525063 3:-0.551531 4:-0.717628 5:-0.43577 6:-0.615531 
16384 1:-0.924724 2:-0.730245 3:-0.924746 4:-0.479048 5:-0.220653 6:-0.479048 
7484.909822448355 1:-0.886293 2:-0.883005 3:-0.804555 4:-0.777571 5:-0.547671 6:-0.68857 
27.72993798993476 1:-0.641352 2:-0.622265 3:-0.641352 4:-0.382506 5:0.0478591 6:-0.382506 
16384 1:-0.898546 2:-0.855662 3:-0.883552 4:-0.800959 5:-0.587276 6:-0.74977 
16384 1:-0.922085 2:-0.850591 3:-0.92362 4:-0.869263 5:-0.76917 6:-0.869438 
16384 1:-0.836956 2:-0.712692 3:-0.756442 4:-0.737157 5:-0.450019 6:-0.704385 
16384 1:-0.643568 2:-0.198479 3:-0.613563 4:-0.781061 5:-0.588423 6:-0.783989 
16384 1:-0.952253 2:-0.9396 3:-0.960847 4:-0.870788 5:-0.771821 6:-0.874791 
16384 1:-0.982135 2:-0.973278 3:-0.966732 4:-0.878664 5:-0.779116 6:-0.877292 
16384 1:-0.604388 2:-0.0720529 3:-0.578498 4:-0.689383 5:-0.421268 6:-0.67265 
16384 1:-0.857624 2:-0.684397 3:-0.883303 4:-0.815227 5:-0.657719 6:-0.804346 
16384 1:-0.858842 2:-0.685233 3:-0.884583 4:-0.815369 5:-0.658237 6:-0.806244 
4606.852362863107 1:-0.793102 2:-0.671755 3:-0.822037 4:-0.742692 5:-0.535155 6:-0.750847 
16384 1:-0.877764 2:-0.776777 3:-0.762202 4:-0.765698 5:-0.558693 6:-0.742506 
16384 1:-0.918833 2:-0.88181 3:-0.95695 4:-0.870004 5:-0.752253 6:-0.870798 
117.004199839807 1:-0.713477 2:-0.493683 3:-0.633055 4:-0.578832 5:-0.231798 6:-0.499118 
2723.117712120259 1:-0.46646 2:0.0924251 3:-0.471402 4:-0.703492 5:-0.479711 6:-0.702267 
