svm_type c_svc
kernel_type rbf
gamma 8
nr_class 2
total_sv 2558
rho -7.8203
label 1 0
probA -0.498011
probB 0.00745083
nr_sv 1294 1264
SV
16384 1:-0.690569 2:-0.642131 3:-0.528433 4:-0.634087 5:-0.309094 6:-0.531372 
16384 1:-0.982661 2:-0.97705 3:-0.968129 4:-0.878342 5:-0.781839 6:-0.868101 
2731.881722464427 1:-0.55619 2:-0.458182 3:-0.402624 4:-0.332029 5:-0.0566151 6:-0.264716 
3182.707229813135 1:-0.45941 2:0.18025 3:-0.673527 4:-0.631052 5:-0.323415 6:-0.64778 
16384 1:-0.931342 2:-0.705988 3:-0.929542 4:-0.481713 5:-0.225126 6:-0.480948 
9040.890895377523 1:-0.536487 2:-0.450246 3:-0.380937 4:-0.408384 5:-0.120573 6:-0.360535 
16384 1:-0.757591 2:-0.607259 3:-0.601883 4:-0.701156 5:-0.464465 6:-0.6665 
16384 1:-0.83107 2:-0.73282 3:-0.768342 4:-0.709347 5:-0.447471 6:-0.721537 
16384 1:-0.873917 2:-0.858843 3:-0.784468 4:-0.777253 5:-0.504224 6:-0.707208 
16384 1:-0.666031 2:-0.26127 3:-0.630703 4:-0.774734 5:-0.577922 6:-0.774796 
234.8301762517947 1:-0.291588 2:-0.127224 3:-0.171586 4:-0.226212 5:0.0709205 6:-0.29442 
16384 1:-0.986101 2:-0.969009 3:-0.943201 4:-0.877234 5:-0.776973 6:-0.872559 
16384 1:-0.90634 2:-0.819108 3:-0.895728 4:-0.719977 5:-0.422634 6:-0.771478 
5425.74351714853 1:-0.516218 2:-0.00167965 3:-0.629198 4:-0.631272 5:-0.306107 6:-0.658646 
8415.378436775662 1:-0.581494 2:-0.541878 3:-0.418691 4:-0.5384 5:-0.290782 6:-0.432122 
15258.30073065665 1:-0.790617 2:-0.691295 3:-0.796657 4:-0.668154 5:-0.335814 6:-0.714363 
4413.513984949096 1:-0.614107 2:-0.492351 3:-0.745625 4:-0.596578 5:-0.351899 6:-0.459821 
16384 1:-0.956821 2:-0.937227 3:-0.96174 4:-0.874986 5:-0.774756 6:-0.870994 
503.6947204638681 1:-0.50871 2:-0.317634 3:-0.501815 4:-0.568277 5:-0.115737 6:-0.57776 
16384 1:-0.572399 2:-0.0429005 3:-0.626394 4:-0.682526 5:-0.408188 6:-0.695064 
16384 1:-0.75174 2:-0.663148 3:-0.709482 4:-0.472557 5:-0.205311 6:-0.461768 
884.5435444934512 1:-0.858431 2:-0.742659 3:-0.900778 4:-0.738788 5:-0.537334 6:-0.709153 
16384 1:-0.925453 2:-0.888675 3:-0.957626 4:-0.873836 5:-0.763315 6:-0.872593 
16384 1:-0.779947 2:-0.697069 3:-0.740074 4:-0.499338 5:-0.230181 6:-0.478831 
16384 1:-0.640541 2:-0.514861 3:-0.513118 4:-0.744321 5:-0.456551 6:-0.588614 
16384 1:-0.969358 2:-0.958817 3:-0.966034 4:-0.877302 5:-0.784551 6:-0.875186 
16384 1:-0.887398 2:-0.832334 3:-0.821024 4:-0.672708 5:-0.463142 6:-0.699 
4976.753041314455 1:-0.53069 2:-0.129174 3:-0.521679 4:-0.671384 5:-0.363583 6:-0.663332 
16384 1:-0.686281 2:-0.637202 3:-0.722299 4:-0.607299 5:-0.323799 6:-0.631444 
4672.156832083286 1:-0.658992 2:-0.343765 3:-0.68381 4:-0.591312 5:-0.35868 6:-0.570902 
16384 1:-0.820171 2:-0.756681 3:-0.749782 4:-0.516408 5:-0.253712 6:-0.527562 
16334.12229919314 1:0.0844944 2:0.473418 3:0.0844944 4:-0.143798 5:0.116918 6:-0.143798 
7644.025669053075 1:-0.635048 2:-0.529517 3:-0.514354 4:-0.68625 5:-0.351502 6:-0.589565 
16384 1:-0.675798 2:-0.494145 3:-0.619345 4:-0.58357 5:-0.334634 6:-0.547687 
359.868633842822 1:-0.498985 2:0.00259282 3:-0.47201 4:-0.604917 5:-0.263464 6:-0.602122 
16384 1:-0.925113 2:-0.738285 3:-0.92508 4:-0.481975 5:-0.224193 6:-0.469912 
16384 1:-0.775555 2:-0.684028 3:-0.693816 4:-0.691092 5:-0.425292 6:-0.601579 
16384 1:-0.688433 2:-0.694925 3:-0.544823 4:-0.591014 5:-0.313915 6:-0.483294 
16384 1:-0.901782 2:-0.81803 3:-0.847066 4:-0.690717 5:-0.473768 6:-0.731043 
6656.436885656779 1:-0.676444 2:-0.599508 3:-0.670597 4:-0.585762 5:-0.340035 6:-0.57316 
13.58065310825553 1:-0.308364 2:-0.148094 3:-0.216178 4:-0.441741 5:-0.154923 6:-0.308351 
16384 1:-0.957664 2:-0.932868 3:-0.958715 4:-0.872039 5:-0.760007 6:-0.870149 
16384 1:-0.902526 2:-0.885971 3:-0.803865 4:-0.7545 5:-0.434779 6:-0.583572 
16384 1:0.00140297 2:0.130303 3:0.0293174 4:-0.269863 5:0.0699985 6:-0.238581 
2252.828490782368 1:-0.585992 2:-0.462884 3:-0.619133 4:-0.574965 5:-0.263303 6:-0.503722 
16384 1:-0.762478 2:-0.630478 3:-0.7594 4:-0.745303 5:-0.454676 6:-0.774004 
16384 1:-0.897901 2:-0.910776 3:-0.818842 4:-0.720005 5:-0.392655 6:-0.60407 
5698.499134848151 1:-0.699907 2:-0.375895 3:-0.704318 4:-0.694806 5:-0.433835 6:-0.706417 
16384 1:-0.929518 2:-0.884784 3:-0.863138 4:-0.798958 5:-0.596723 6:-0.713032 
16384 1:-0.94374 2:-0.901209 3:-0.866015 4:-0.819713 5:-0.584274 6:-0.715266 
6607.29672018437 1:-0.458955 2:-0.397217 3:-0.329985 4:-0.517637 5:-0.164078 6:-0.374376 
16384 1:-0.760948 2:-0.554537 3:-0.714586 4:-0.68368 5:-0.400287 6:-0.690746 
16384 1:-0.883383 2:-0.783095 3:-0.768699 4:-0.829248 5:-0.561881 6:-0.76589 
16384 1:-0.578181 2:-0.426749 3:-0.562981 4:-0.58623 5:-0.278182 6:-0.611451 
16384 1:-0.812181 2:-0.690836 3:-0.803231 4:-0.640684 5:-0.414763 6:-0.709958 
12826.68035421288 1:-0.892588 2:-0.815755 3:-0.751998 4:-0.787079 5:-0.578714 6:-0.746602 
16384 1:-0.773701 2:-0.672933 3:-0.828362 4:-0.692318 5:-0.399877 6:-0.699898 
16384 1:-0.746453 2:-0.640751 3:-0.742361 4:-0.673007 5:-0.421578 6:-0.702076 
13890.28229039413 1:-0.660584 2:-0.606489 3:-0.596806 4:-0.660211 5:-0.328886 6:-0.596754 
16384 1:-0.883896 2:-0.772458 3:-0.889771 4:-0.796846 5:-0.657734 6:-0.790999 
16384 1:-0.848749 2:-0.64257 3:-0.835267 4:-0.599538 5:-0.254346 6:-0.757293 
14011.25543800239 1:-0.545092 2:-0.45297 3:-0.515466 4:-0.559434 5:-0.272063 6:-0.479422 
16384 1:-0.826638 2:-0.726668 3:-0.80872 4:-0.670961 5:-0.451647 6:-0.714697 
16384 1:-0.693046 2:-0.361448 3:-0.692511 4:-0.708351 5:-0.465774 6:-0.701778 
14352.35966485339 1:-0.585742 2:-0.0396054 3:-0.512183 4:-0.63375 5:-0.315499 6:-0.612333 
1621.333942656319 1:-0.429734 2:-0.236834 3:-0.837079 4:-0.627897 5:-0.338155 6:-0.734549 
16384 1:-0.902086 2:-0.856037 3:-0.936642 4:-0.857476 5:-0.734917 6:-0.878204 
0.09441521319207911 1:-0.709734 2:-0.636741 3:-0.739987 4:-0.367902 5:-0.0392991 6:-0.511905 
3102.191324173524 1:-0.711421 2:-0.301167 3:-0.696167 4:-0.66783 5:-0.413425 6:-0.666318 
8090.068082644165 1:-0.71708 2:-0.349382 3:-0.684948 4:-0.643551 5:-0.355277 6:-0.647035 
1197.757173938026 1:-0.531729 2:-0.220166 3:-0.479311 4:-0.700295 5:-0.425913 6:-0.703333 
0.03546629873702591 1:-0.031753 2:-0.0379221 3:0.184508 4:-0.164652 5:0.0511987 6:-0.0209565 
4388.751190338236 1:-0.600402 2:-0.161829 3:-0.547341 4:-0.650255 5:-0.332939 6:-0.726251 
16384 1:-0.875579 2:-0.808395 3:-0.751975 4:-0.778345 5:-0.581818 6:-0.746598 
16384 1:-0.923861 2:-0.890857 3:-0.956951 4:-0.86698 5:-0.751337 6:-0.870799 
505.0791808974438 1:-0.591626 2:-0.438815 3:-0.594391 4:-0.564143 5:-0.293345 6:-0.482891 
16384 1:-0.883896 2:-0.772458 3:-0.889771 4:-0.796846 5:-0.657734 6:-0.790999 
6665.531954050871 1:-0.768141 2:-0.640156 3:-0.81207 4:-0.759838 5:-0.55314 6:-0.727943 
16384 1:-0.517474 2:0.0348385 3:-0.50788 4:-0.626351 5:-0.299612 6:-0.633178 
16384 1:-0.935535 2:-0.891563 3:-0.861789 4:-0.818625 5:-0.581731 6:-0.710992 
469.2866662512053 1:-0.585669 2:-0.479652 3:-0.443554 4:-0.376286 5:-0.0990805 6:-0.314145 
16384 1:-0.903362 2:-0.915991 3:-0.819574 4:-0.734937 5:-0.426359 6:-0.61251 
16384 1:-0.898961 2:-0.841807 3:-0.802716 4:-0.813456 5:-0.582289 6:-0.690987 
16384 1:-0.761777 2:-0.711609 3:-0.77372 4:-0.736595 5:-0.440418 6:-0.667625 
16384 1:-0.834711 2:-0.805236 3:-0.797253 4:-0.742427 5:-0.489712 6:-0.695884 
16384 1:-0.602485 2:-0.122692 3:-0.570188 4:-0.678365 5:-0.407335 6:-0.674499 
16384 1:-0.603167 2:-0.477909 3:-0.545854 4:-0.717008 5:-0.440188 6:-0.600237 
9785.285427662826 1:-0.554892 2:-0.241073 3:-0.555493 4:-0.517533 5:-0.193327 6:-0.62648 
16384 1:-0.882834 2:-0.804632 3:-0.75199 4:-0.787191 5:-0.586848 6:-0.746599 
16384 1:-0.886745 2:-0.837945 3:-0.772063 4:-0.73912 5:-0.409339 6:-0.669048 
16384 1:-0.927688 2:-0.883667 3:-0.958082 4:-0.835897 5:-0.729698 6:-0.873069 
16384 1:-0.976249 2:-0.962157 3:-0.960921 4:-0.878782 5:-0.757874 6:-0.872888 
16384 1:-0.9184 2:-0.722118 3:-0.927 4:-0.489733 5:-0.236219 6:-0.478913 
16384 1:-0.706712 2:-0.359347 3:-0.664215 4:-0.645892 5:-0.357095 6:-0.646848 
16384 1:-0.79542 2:-0.668744 3:-0.8206 4:-0.741622 5:-0.530018 6:-0.750664 
16384 1:-0.902527 2:-0.88597 3:-0.803866 4:-0.754499 5:-0.43477 6:-0.583566 
16050.35458473021 1:-0.635048 2:-0.529517 3:-0.514354 4:-0.68625 5:-0.351502 6:-0.589565 
1568.459901042527 1:-0.450107 2:-0.338192 3:-0.350098 4:-0.455751 5:-0.213686 6:-0.393686 
16384 1:-0.807461 2:-0.633552 3:-0.73587 4:-0.698592 5:-0.470435 6:-0.646385 
16384 1:-0.919312 2:-0.711496 3:-0.924932 4:-0.480628 5:-0.225186 6:-0.469543 
16384 1:-0.789337 2:-0.676137 3:-0.828412 4:-0.562225 5:-0.299045 6:-0.63243 
2902.346046640291 1:-0.622411 2:-0.26332 3:-0.602846 4:-0.766184 5:-0.579398 6:-0.774187 
878.558210127003 1:-0.634195 2:-0.454177 3:-0.528983 4:-0.692366 5:-0.479662 6:-0.68242 
16384 1:-0.602485 2:-0.122692 3:-0.570188 4:-0.678366 5:-0.407337 6:-0.6745 
16384 1:-0.842672 2:-0.790993 3:-0.75441 4:-0.659219 5:-0.34651 6:-0.553378 
16384 1:-0.404298 2:-0.00213929 3:-0.409359 4:-0.413211 5:-0.170978 6:-0.417958 
16384 1:-0.84918 2:-0.809905 3:-0.706369 4:-0.741495 5:-0.449223 6:-0.639433 
16384 1:-0.933716 2:-0.889815 3:-0.860624 4:-0.818857 5:-0.582306 6:-0.711139 
16384 1:-0.620297 2:-0.107202 3:-0.588604 4:-0.721825 5:-0.49935 6:-0.70704 
220.6123644804712 1:-0.346025 2:-0.0228384 3:-0.428915 4:-0.425688 5:-0.0297758 6:-0.417568 
16352.82101551387 1:-0.863585 2:-0.894885 3:-0.854697 4:-0.771382 5:-0.480357 6:-0.711423 
209.9155354769949 1:-0.73195 2:-0.324724 3:-0.723247 4:-0.704611 5:-0.453136 6:-0.658294 
101.0738659450818 1:-0.326231 2:-0.0551212 3:-0.402464 4:-0.344614 5:-0.0755858 6:-0.354345 
16384 1:-0.496305 2:-0.277936 3:-0.501794 4:-0.643672 5:-0.321522 6:-0.667641 
16384 1:0.136237 2:0.205892 3:0.169883 4:-0.25702 5:0.0197685 6:-0.162209 
16384 1:-0.965598 2:-0.959587 3:-0.954405 4:-0.875829 5:-0.781124 6:-0.876479 
16384 1:-0.924489 2:-0.738301 3:-0.923841 4:-0.478939 5:-0.22067 6:-0.468653 
65.28006920171612 1:-0.618286 2:-0.553645 3:-0.739987 4:-0.196973 5:0.111398 6:-0.511905 
1506.799746813503 1:-0.82531 2:-0.766997 3:-0.781285 4:-0.554549 5:-0.0314175 6:-0.55767 
16384 1:-0.9184 2:-0.722118 3:-0.927 4:-0.489733 5:-0.236219 6:-0.478913 
16384 1:-0.893216 2:-0.786866 3:-0.82756 4:-0.810031 5:-0.608871 6:-0.786556 
14712.17353947536 1:-0.840526 2:-0.614479 3:-0.800261 4:-0.728157 5:-0.505437 6:-0.755668 
11256.91927986677 1:-0.736157 2:-0.545812 3:-0.703262 4:-0.678185 5:-0.390409 6:-0.635381 
16384 1:-0.567821 2:-0.124713 3:-0.555735 4:-0.681727 5:-0.412457 6:-0.69184 
16384 1:-0.724826 2:-0.365578 3:-0.718331 4:-0.658374 5:-0.375647 6:-0.653401 
441.849950013904 1:-0.678102 2:-0.552635 3:-0.542929 4:-0.604202 5:-0.312116 6:-0.485168 
16224.89303718233 1:-0.699907 2:-0.375895 3:-0.704318 4:-0.694806 5:-0.433835 6:-0.706417 
16384 1:-0.577165 2:-0.00710471 3:-0.509765 4:-0.627136 5:-0.304911 6:-0.632556 
16384 1:-0.641184 2:-0.512031 3:-0.58976 4:-0.486807 5:-0.201763 6:-0.390831 
1902.562644140318 1:-0.563336 2:-0.429229 3:-0.554454 4:-0.523173 5:-0.224846 6:-0.363283 
2.485542323965815 1:0.43391 2:0.541555 3:0.578572 4:0.186373 5:0.413227 6:0.233421 
16384 1:-0.931501 2:-0.739361 3:-0.924242 4:-0.487372 5:-0.232687 6:-0.485892 
1145.676683793507 1:-0.568281 2:-0.575289 3:-0.55429 4:-0.508977 5:-0.259236 6:-0.382273 
16384 1:-0.793102 2:-0.671755 3:-0.822037 4:-0.742692 5:-0.535155 6:-0.750847 
16384 1:-0.429965 2:-0.31776 3:-0.323257 4:-0.447792 5:-0.197232 6:-0.389334 
5122.851777774045 1:-0.414448 2:-0.30197 3:-0.497291 4:-0.457882 5:-0.135828 6:-0.485596 
5708.53648911001 1:-0.612722 2:-0.40986 3:-0.528983 4:-0.665879 5:-0.431567 6:-0.68242 
16384 1:-0.693046 2:-0.361448 3:-0.693046 4:-0.708357 5:-0.465789 6:-0.698867 
16384 1:-0.710796 2:-0.33907 3:-0.707356 4:-0.650798 5:-0.353883 6:-0.656548 
4640.819674797677 1:-0.798442 2:-0.812429 3:-0.545166 4:-0.788559 5:-0.399485 6:-0.667078 
16384 1:-0.652475 2:-0.504371 3:-0.584674 4:-0.64365 5:-0.335907 6:-0.612896 
13878.07984320406 1:-0.56887 2:-0.455626 3:-0.553052 4:-0.648161 5:-0.410797 6:-0.579844 
16384 1:-0.727344 2:-0.368543 3:-0.692996 4:-0.643851 5:-0.352788 6:-0.653 
16384 1:-0.845294 2:-0.856919 3:-0.844791 4:-0.787876 5:-0.408708 6:-0.753291 
16384 1:-0.83107 2:-0.73282 3:-0.768342 4:-0.709347 5:-0.447471 6:-0.721537 
16384 1:-0.902519 2:-0.885965 3:-0.803854 4:-0.754499 5:-0.434783 6:-0.583573 
16384 1:-0.858679 2:-0.849492 3:-0.678922 4:-0.847793 5:-0.488609 6:-0.734732 
9257.021515190636 1:-0.629123 2:-0.311308 3:-0.543644 4:-0.663391 5:-0.326123 6:-0.66871 
16384 1:-0.748828 2:-0.593601 3:-0.760695 4:-0.66098 5:-0.443391 6:-0.70256 
16384 1:-0.88674 2:-0.868866 3:-0.787423 4:-0.721291 5:-0.417947 6:-0.548191 
16384 1:-0.800036 2:-0.693387 3:-0.812005 4:-0.772947 5:-0.530034 6:-0.713199 
16384 1:-0.197161 2:-0.0332208 3:-0.107135 4:-0.0797289 5:0.172405 6:-0.0976171 
7337.808947920801 1:-0.886392 2:-0.974999 3:-0.837032 4:-0.830054 5:-0.453556 6:-0.742209 
16384 1:-0.610161 2:-0.396876 3:-0.562885 4:-0.683793 5:-0.413913 6:-0.710408 
16384 1:-0.686796 2:-0.47277 3:-0.669979 4:-0.653135 5:-0.345217 6:-0.641532 
16384 1:-0.819973 2:-0.717079 3:-0.829144 4:-0.703502 5:-0.422045 6:-0.70963 
16384 1:-0.86344 2:-0.812097 3:-0.782491 4:-0.734678 5:-0.383738 6:-0.661136 
16384 1:-0.619839 2:-0.467594 3:-0.686922 4:-0.576294 5:-0.307318 6:-0.498217 
16384 1:0.396864 2:0.722127 3:0.396864 4:0.0641788 5:0.424882 6:0.0641788 
16384 1:-0.577491 2:0.0164366 3:-0.510728 4:-0.663584 5:-0.362827 6:-0.639861 
3211.477831940695 1:-0.39311 2:-0.0914839 3:-0.370653 4:-0.287066 5:0.00943964 6:-0.416215 
16384 1:-0.71945 2:-0.631425 3:-0.674806 4:-0.661455 5:-0.347108 6:-0.598923 
4976.884955676929 1:-0.737022 2:-0.319008 3:-0.776437 4:-0.71998 5:-0.424379 6:-0.741835 
16384 1:-0.197161 2:-0.0332208 3:-0.107135 4:-0.0797289 5:0.172405 6:-0.0976171 
1306.907509166333 1:-0.71037 2:-0.804401 3:-0.431421 4:-0.633269 5:-0.309314 6:-0.475113 
16384 1:-0.728677 2:-0.635104 3:-0.720802 4:-0.482909 5:-0.215656 6:-0.462459 
47.48519769505263 1:0.0699723 2:0.0978611 3:0.202744 4:-0.155713 5:0.159776 6:-0.0697381 
4915.595581255185 1:-0.730643 2:-0.731288 3:-0.594314 4:-0.611597 5:-0.303537 6:-0.456078 
16384 1:-0.881408 2:-0.82636 3:-0.801532 4:-0.665275 5:-0.453422 6:-0.695611 
16384 1:-0.797361 2:-0.722223 3:-0.743467 4:-0.528024 5:-0.266318 6:-0.500225 
6424.981854114356 1:-0.740743 2:-0.594217 3:-0.694346 4:-0.703336 5:-0.381342 6:-0.619876 
13325.97735911262 1:-0.434126 2:-0.00814894 3:-0.434126 4:-0.428104 5:-0.149266 6:-0.428104 
1855.869371533688 1:-0.71945 2:-0.631425 3:-0.674806 4:-0.661456 5:-0.347109 6:-0.598923 
16384 1:0.30455 2:0.728057 3:0.30455 4:-0.232942 5:0.379972 6:-0.232942 
4086.396231768343 1:-0.437011 2:-0.308284 3:-0.333839 4:-0.516125 5:-0.24315 6:-0.447823 
261.622856901694 1:-0.722673 2:-0.364191 3:-0.69925 4:-0.643694 5:-0.357623 6:-0.641816 
16384 1:-0.404298 2:-0.00213929 3:-0.409359 4:-0.413211 5:-0.170978 6:-0.417958 
9910.391242007234 1:-0.793669 2:-0.786603 3:-0.822642 4:-0.810854 5:-0.70845 6:-0.792387 
16384 1:-0.524051 2:-0.544698 3:-0.242874 4:-0.563183 5:-0.232097 6:-0.441174 
16384 1:-0.739266 2:-0.655876 3:-0.746364 4:-0.674924 5:-0.42604 6:-0.657482 
16384 1:-0.733709 2:-0.640644 3:-0.720802 4:-0.457105 5:-0.167579 6:-0.462456 
16384 1:-0.795106 2:-0.671046 3:-0.832108 4:-0.80391 5:-0.638762 6:-0.725712 
5345.729002175733 1:-0.693402 2:-0.628807 3:-0.449287 4:-0.558081 5:-0.231513 6:-0.410883 
16384 1:-0.800667 2:-0.671243 3:-0.74251 4:-0.723461 5:-0.514358 6:-0.687237 
16384 1:-0.74044 2:-0.591916 3:-0.722309 4:-0.687272 5:-0.382023 6:-0.635877 
16384 1:-0.728677 2:-0.635104 3:-0.720802 4:-0.482909 5:-0.215656 6:-0.462459 
1227.330823236626 1:-0.607932 2:-0.16692 3:-0.57119 4:-0.697807 5:-0.397949 6:-0.69415 
269.0614777768559 1:-0.44598 2:-0.186712 3:-0.375255 4:-0.382521 5:0.0675898 6:-0.33797 
15127.22508627798 1:-0.319776 2:-0.0576673 3:-0.313535 4:-0.44319 5:-0.179081 6:-0.387057 
16384 1:-0.875537 2:-0.864354 3:-0.659766 4:-0.835995 5:-0.456597 6:-0.74527 
16384 1:-0.340299 2:-0.249079 3:-0.249806 4:-0.264222 5:0.0902711 6:-0.255543 
6305.888572450922 1:-0.761933 2:-0.444644 3:-0.74126 4:-0.741023 5:-0.526483 6:-0.69925 
16384 1:-0.724994 2:-0.664204 3:-0.713398 4:-0.499329 5:-0.204493 6:-0.440425 
16384 1:-0.665799 2:-0.260789 3:-0.630457 4:-0.774727 5:-0.577902 6:-0.774791 
16384 1:-0.652091 2:-0.652522 3:-0.733811 4:-0.695105 5:-0.260283 6:-0.563372 
16384 1:-0.930227 2:-0.886842 3:-0.859107 4:-0.815352 5:-0.579211 6:-0.709449 
13904.84805288687 1:-0.712341 2:-0.534699 3:-0.712517 4:-0.738439 5:-0.464739 6:-0.75061 
16384 1:-0.613729 2:-0.530376 3:-0.551134 4:-0.648409 5:-0.281964 6:-0.640157 
16384 1:-0.720518 2:-0.372104 3:-0.70708 4:-0.654677 5:-0.36463 6:-0.663247 
16384 1:-0.669327 2:-0.310153 3:-0.666196 4:-0.64503 5:-0.342399 6:-0.637399 
3626.057722297839 1:-0.745806 2:-0.667544 3:-0.718108 4:-0.673534 5:-0.285785 6:-0.681661 
16384 1:-0.80267 2:-0.692191 3:-0.803827 4:-0.62072 5:-0.290082 6:-0.746047 
16384 1:-0.946695 2:-0.936651 3:-0.959247 4:-0.880672 5:-0.763612 6:-0.872626 
16384 1:-0.719381 2:-0.506288 3:-0.711958 4:-0.601112 5:-0.304892 6:-0.6012 
16384 1:-0.668234 2:-0.585425 3:-0.669011 4:-0.620901 5:-0.272453 6:-0.607337 
16384 1:-0.672993 2:-0.244888 3:-0.663359 4:-0.720267 5:-0.480197 6:-0.708951 
16384 1:-0.874499 2:-0.854586 3:-0.782637 4:-0.764724 5:-0.46528 6:-0.707035 
16384 1:-0.64199 2:-0.527571 3:-0.514246 4:-0.729636 5:-0.443907 6:-0.603022 
7069.547435101957 1:-0.595349 2:-0.262088 3:-0.527442 4:-0.663511 5:-0.372923 6:-0.725204 
16384 1:-0.891647 2:-0.897717 3:-0.758032 4:-0.790752 5:-0.50153 6:-0.718134 
16384 1:-0.942806 2:-0.9199 3:-0.845579 4:-0.82814 5:-0.577832 6:-0.790667 
249.9475133178013 1:-0.552236 2:-0.410498 3:-0.433956 4:-0.367512 5:-0.0385344 6:-0.404348 
16384 1:-0.624483 2:-0.245434 3:-0.672223 4:-0.667423 5:-0.365583 6:-0.688783 
16384 1:-0.461732 2:-0.225979 3:-0.444062 4:-0.502759 5:-0.250311 6:-0.479444 
16384 1:-0.568701 2:0.0181114 3:-0.516814 4:-0.62748 5:-0.308982 6:-0.631901 
6098.697084566048 1:-0.49443 2:0.0796694 3:-0.552576 4:-0.641494 5:-0.328915 6:-0.667943 
4207.84959526223 1:-0.761401 2:-0.772052 3:-0.733095 4:-0.660582 5:-0.236495 6:-0.619205 
16384 1:-0.932632 2:-0.885078 3:-0.939542 4:-0.86877 5:-0.750014 6:-0.866268 
435.565703415753 1:-0.522806 2:0.118151 3:-0.493238 4:-0.631055 5:-0.323423 6:-0.631055 
1118.328170794537 1:-0.403769 2:-0.00156282 3:-0.408838 4:-0.413153 5:-0.170912 6:-0.417902 
16384 1:-0.923861 2:-0.890857 3:-0.956951 4:-0.86698 5:-0.751337 6:-0.870799 
16384 1:-0.553414 2:-0.0468896 3:-0.553414 4:-0.679171 5:-0.425033 6:-0.679171 
16384 1:-0.575412 2:-0.00566871 3:-0.520841 4:-0.660448 5:-0.351761 6:-0.638095 
16384 1:-0.812547 2:-0.68184 3:-0.815266 4:-0.746177 5:-0.533696 6:-0.748067 
94.47426217804134 1:-0.446421 2:-0.422338 3:-0.431441 4:-0.302334 5:0.0327329 6:-0.281019 
16384 1:-0.54213 2:-0.049864 3:-0.561582 4:-0.634242 5:-0.311275 6:-0.642602 
8530.590496324365 1:-0.900673 2:-0.956274 3:-0.842806 4:-0.783135 5:-0.336036 6:-0.660878 
16384 1:-0.54213 2:-0.049864 3:-0.573185 4:-0.634242 5:-0.311275 6:-0.653458 
16384 1:-0.933165 2:-0.889678 3:-0.860097 4:-0.814661 5:-0.575937 6:-0.70974 
83.10126767573081 1:-0.495856 2:-0.416221 3:-0.354437 4:-0.391438 5:-0.205894 6:-0.285803 
16384 1:-0.881693 2:-0.825571 3:-0.787934 4:-0.849365 5:-0.542673 6:-0.765478 
4943.670415152711 1:-0.716321 2:-0.606651 3:-0.729153 4:-0.813097 5:-0.583653 6:-0.767124 
16384 1:-0.90252 2:-0.885967 3:-0.803856 4:-0.754502 5:-0.434792 6:-0.583581 
16384 1:-0.807477 2:-0.633571 3:-0.735886 4:-0.698595 5:-0.470435 6:-0.646388 
16384 1:-0.956743 2:-0.922636 3:-0.937819 4:-0.872457 5:-0.76576 6:-0.873543 
5095.79732128183 1:-0.587204 2:-0.0561999 3:-0.53989 4:-0.650049 5:-0.357281 6:-0.637063 
12617.93359877871 1:-0.47916 2:0.0968842 3:-0.47916 4:-0.658539 5:-0.372161 6:-0.658539 
16384 1:-0.461732 2:-0.225979 3:-0.444062 4:-0.502761 5:-0.250314 6:-0.479445 
11518.08085140539 1:-0.604287 2:-0.418518 3:-0.595077 4:-0.629986 5:-0.361419 6:-0.685459 
11938.21175642243 1:-0.620297 2:-0.107202 3:-0.588604 4:-0.721829 5:-0.499359 6:-0.707043 
16384 1:-0.80162 2:-0.610298 3:-0.805604 4:-0.765727 5:-0.586261 6:-0.766379 
12197.73774859659 1:-0.817781 2:-0.793299 3:-0.723957 4:-0.671578 5:-0.414904 6:-0.654767 
16384 1:-0.710796 2:-0.33907 3:-0.707356 4:-0.650796 5:-0.35388 6:-0.656547 
16384 1:-0.59159 2:-0.10135 3:-0.586536 4:-0.668571 5:-0.382297 6:-0.668376 
16384 1:-0.618739 2:-0.479642 3:-0.54151 4:-0.667566 5:-0.329805 6:-0.568464 
375.7437826276658 1:-0.517051 2:-0.0818924 3:-0.533125 4:-0.681409 5:-0.395923 6:-0.722962 
3900.265041478784 1:-0.580787 2:-0.391381 3:-0.483184 4:-0.551001 5:-0.204283 6:-0.434251 
2519.066305534034 1:-0.578344 2:-0.590419 3:-0.469655 4:-0.589822 5:-0.324891 6:-0.439032 
16384 1:-0.711421 2:-0.301167 3:-0.696167 4:-0.667831 5:-0.413426 6:-0.666319 
16384 1:-0.523716 2:0.0664894 3:-0.508516 4:-0.629001 5:-0.318216 6:-0.636664 
11698.88062793829 1:-0.724966 2:-0.40637 3:-0.705399 4:-0.678474 5:-0.372193 6:-0.676383 
12050.26597957239 1:-0.0248828 2:-0.116064 3:-0.216862 4:-0.248033 5:0.040226 6:-0.313792 
16384 1:-0.915099 2:-0.838457 3:-0.874936 4:-0.816611 5:-0.538542 6:-0.793221 
69.57332819639849 1:-0.820352 2:-0.296365 3:-0.912348 4:-0.754515 5:-0.527034 6:-0.759074 
16384 1:-0.925167 2:-0.82869 3:-0.860006 4:-0.805237 5:-0.603204 6:-0.808192 
1588.567169651944 1:-0.75312 2:-0.73896 3:-0.639944 4:-0.542676 5:-0.353035 6:-0.507319 
6540.466138279178 1:-0.576984 2:0.00609871 3:-0.527192 4:-0.653743 5:-0.375396 6:-0.628844 
4544.650505192657 1:-0.748194 2:-0.742934 3:-0.603349 4:-0.512033 5:-0.263702 6:-0.405899 
11459.20868442248 1:-0.569415 2:-0.450022 3:-0.489457 4:-0.568306 5:-0.260359 6:-0.506445 
15168.14322757369 1:-0.55956 2:-0.270886 3:-0.588518 4:-0.559004 5:-0.322634 6:-0.543729 
16384 1:-0.764429 2:-0.619584 3:-0.811215 4:-0.675079 5:-0.471919 6:-0.714155 
16384 1:-0.511852 2:0.0639232 3:-0.506175 4:-0.628974 5:-0.30992 6:-0.642252 
16384 1:-0.943009 2:-0.900018 3:-0.865237 4:-0.821004 5:-0.584565 6:-0.71541 
1147.564947746065 1:-0.924502 2:-0.746742 3:-0.923607 4:-0.498019 5:-0.239043 6:-0.508955 
16384 1:-0.556329 2:-0.437855 3:-0.535157 4:-0.647806 5:-0.366974 6:-0.594272 
6267.728566027983 1:-0.704656 2:-0.577979 3:-0.571341 4:-0.458193 5:-0.18284 6:-0.430922 
16384 1:-0.766426 2:-0.647111 3:-0.666259 4:-0.76867 5:-0.617905 6:-0.710502 
16384 1:-0.928721 2:-0.896716 3:-0.958712 4:-0.874954 5:-0.760927 6:-0.870149 
16384 1:-0.71926 2:-0.370663 3:-0.688807 4:-0.645314 5:-0.358678 6:-0.645512 
16384 1:-0.810768 2:-0.737356 3:-0.750178 4:-0.548417 5:-0.283557 6:-0.520069 
16384 1:-0.5283 2:-0.542861 3:-0.259259 4:-0.548083 5:-0.265599 6:-0.429346 
3.257232821913859 1:-0.673256 2:-0.647553 3:-0.634782 4:-0.708888 5:-0.477629 6:-0.776637 
9319.197387674498 1:-0.611414 2:-0.551182 3:-0.726922 4:-0.74103 5:-0.533372 6:-0.737343 
14695.14643881173 1:-0.714255 2:-0.429487 3:-0.762114 4:-0.731434 5:-0.518053 6:-0.781902 
16384 1:-0.840656 2:-0.730883 3:-0.729275 4:-0.621191 5:-0.226019 6:-0.540119 
16384 1:-0.684099 2:-0.542902 3:-0.623559 4:-0.606743 5:-0.371604 6:-0.568735 
16384 1:-0.807271 2:-0.739024 3:-0.766011 4:-0.783498 5:-0.539078 6:-0.739569 
16384 1:-0.972716 2:-0.968392 3:-0.940908 4:-0.880756 5:-0.770971 6:-0.876353 
16384 1:-0.737208 2:-0.560207 3:-0.713772 4:-0.675182 5:-0.394408 6:-0.684025 
11472.08673172324 1:-0.586354 2:-0.350188 3:-0.518872 4:-0.56147 5:-0.212106 6:-0.457924 
16384 1:-0.696223 2:-0.452081 3:-0.632893 4:-0.68904 5:-0.397461 6:-0.654124 
16384 1:-0.417792 2:-0.174955 3:-0.438221 4:-0.39989 5:-0.0677116 6:-0.432752 
16384 1:-0.744544 2:-0.759158 3:-0.632306 4:-0.674004 5:-0.429836 6:-0.569349 
16384 1:-0.778591 2:-0.65749 3:-0.690983 4:-0.685953 5:-0.418339 6:-0.604075 
16384 1:-0.684099 2:-0.542902 3:-0.623559 4:-0.606741 5:-0.371601 6:-0.568733 
6779.260604258425 1:-0.591303 2:-0.509066 3:-0.558468 4:-0.707702 5:-0.487076 6:-0.682814 
16384 1:-0.826569 2:-0.688208 3:-0.8074 4:-0.74974 5:-0.545908 6:-0.693262 
2402.709665226437 1:-0.783635 2:-0.537729 3:-0.794517 4:-0.75901 5:-0.575468 6:-0.760227 
170.0168761221675 1:-0.649616 2:-0.671751 3:-0.286114 4:-0.340849 5:-0.0633418 6:-0.351542 
16384 1:-0.624395 2:-0.312948 3:-0.545129 4:-0.667256 5:-0.379837 6:-0.630392 
16384 1:-0.820171 2:-0.756681 3:-0.749782 4:-0.516408 5:-0.253712 6:-0.527562 
16384 1:-0.953521 2:-0.944285 3:-0.959031 4:-0.881793 5:-0.765031 6:-0.866972 
16384 1:-0.873917 2:-0.858843 3:-0.784468 4:-0.777253 5:-0.504224 6:-0.707208 
3333.528546180746 1:-0.392601 2:-0.342876 3:-0.272679 4:-0.337736 5:-0.0103462 6:-0.314914 
8145.804008822915 1:-0.62713 2:-0.36327 3:-0.625404 4:-0.687574 5:-0.364678 6:-0.716418 
16384 1:-0.848506 2:-0.702739 3:-0.810233 4:-0.745425 5:-0.460292 6:-0.679627 
16384 1:-0.729224 2:-0.527453 3:-0.695893 4:-0.664204 5:-0.346589 6:-0.620901 
16384 1:-0.82306 2:-0.834208 3:-0.566935 4:-0.823005 5:-0.42621 6:-0.719288 
16384 1:-0.711421 2:-0.301167 3:-0.696167 4:-0.667831 5:-0.413426 6:-0.666319 
16384 1:-0.946501 2:-0.894958 3:-0.89683 4:-0.877826 5:-0.733847 6:-0.871606 
16384 1:-0.892201 2:-0.850309 3:-0.886726 4:-0.738441 5:-0.554416 6:-0.774564 
5927.433524459547 1:-0.79012 2:-0.672156 3:-0.832253 4:-0.562959 5:-0.30144 6:-0.63912 
6691.461024164778 1:-0.512652 2:0.0102989 3:-0.578005 4:-0.63206 5:-0.308756 6:-0.662147 
16384 1:-0.576984 2:0.00609871 3:-0.527192 4:-0.653741 5:-0.375393 6:-0.628842 
16384 1:-0.783889 2:-0.642239 3:-0.819001 4:-0.719805 5:-0.468396 6:-0.743144 
1263.733612415787 1:0.0737671 2:-0.00383835 3:-0.239243 4:-0.201636 5:0.0926309 6:-0.324572 
3330.618462460619 1:-0.252956 2:-0.0995461 3:-0.122361 4:-0.289454 5:-0.02486 6:-0.23703 
16384 1:-0.812795 2:-0.57727 3:-0.783135 4:-0.704091 5:-0.395073 6:-0.734623 
16384 1:-0.906197 2:-0.87774 3:-0.801525 4:-0.760626 5:-0.444476 6:-0.597123 
16384 1:-0.877223 2:-0.819776 3:-0.801678 4:-0.667728 5:-0.457731 6:-0.698506 
16384 1:-0.730613 2:-0.624088 3:-0.709012 4:-0.67211 5:-0.506125 6:-0.649389 
16384 1:-0.94286 2:-0.900107 3:-0.867001 4:-0.819968 5:-0.579381 6:-0.716936 
16384 1:-0.926251 2:-0.751884 3:-0.929713 4:-0.488103 5:-0.236732 6:-0.467142 
0.2438700677322657 1:-0.282925 2:-0.175782 3:-0.307574 4:-0.370965 5:0.0230518 6:-0.343405 
16384 1:-0.00486535 2:0.171281 3:0.0154959 4:-0.215948 5:0.139475 6:-0.19428 
28.91047115636916 1:0.00190551 2:0.250312 3:0.0671528 4:-0.187457 5:0.110805 6:-0.162035 
16384 1:-0.733709 2:-0.640644 3:-0.720802 4:-0.457105 5:-0.167579 6:-0.462456 
2913.974837943744 1:-0.917923 2:-0.724191 3:-0.923425 4:-0.447488 5:-0.187657 6:-0.468892 
16384 1:-0.956342 2:-0.93245 3:-0.956952 4:-0.874369 5:-0.747478 6:-0.8708 
16384 1:-0.58823 2:-0.0831484 3:-0.57518 4:-0.704357 5:-0.454873 6:-0.69227 
16384 1:-0.761124 2:-0.734141 3:-0.709429 4:-0.705478 5:-0.322653 6:-0.641952 
16384 1:-0.693046 2:-0.361448 3:-0.693046 4:-0.708351 5:-0.465774 6:-0.708351 
16384 1:-0.961338 2:-0.938944 3:-0.959576 4:-0.879907 5:-0.764113 6:-0.873535 
16384 1:-0.91371 2:-0.8031 3:-0.886043 4:-0.823755 5:-0.625757 6:-0.813615 
16384 1:-0.745991 2:-0.714079 3:-0.629246 4:-0.721636 5:-0.433538 6:-0.6427 
16384 1:-0.544197 2:-0.15252 3:-0.559175 4:-0.77863 5:-0.522382 6:-0.758282 
10376.85208014018 1:-0.802755 2:-0.729512 3:-0.761053 4:-0.518727 5:-0.249695 6:-0.506274 
16384 1:-0.884061 2:-0.775401 3:-0.808812 4:-0.835383 5:-0.613858 6:-0.802665 
8850.318553172539 1:-0.610228 2:-0.494654 3:-0.491812 4:-0.636466 5:-0.311057 6:-0.569247 
16384 1:-0.924724 2:-0.730245 3:-0.924746 4:-0.479048 5:-0.220653 6:-0.479048 
16384 1:-0.517256 2:0.0321722 3:-0.554613 4:-0.735121 5:-0.498221 6:-0.733523 
8.22963141062602 1:-0.208526 2:-0.352292 3:-0.239939 4:-0.198163 5:0.22279 6:-0.0689105 
16384 1:-0.496305 2:-0.277936 3:-0.501794 4:-0.643673 5:-0.321524 6:-0.667639 
4285.432985423558 1:-0.628036 2:-0.178806 3:-0.637226 4:-0.761242 5:-0.562959 6:-0.804424 
16384 1:-0.851096 2:-0.767968 3:-0.813711 4:-0.658982 5:-0.445521 6:-0.70006 
16384 1:-0.865967 2:-0.867837 3:-0.829487 4:-0.738045 5:-0.525375 6:-0.701814 
16384 1:-0.669675 2:-0.353736 3:-0.672236 4:-0.734471 5:-0.519349 6:-0.725571 
4738.29588497838 1:-0.596757 2:-0.584131 3:-0.355616 4:-0.543159 5:-0.146325 6:-0.409938 
16384 1:-0.954951 2:-0.925616 3:-0.958713 4:-0.874479 5:-0.749711 6:-0.870149 
16384 1:-0.496305 2:-0.277936 3:-0.501794 4:-0.643673 5:-0.321524 6:-0.667639 
50.63830809371296 1:-0.340495 2:-0.24917 3:-0.250022 4:-0.264281 5:0.0902005 6:-0.255624 
16384 1:-0.946882 2:-0.898964 3:-0.941479 4:-0.86886 5:-0.759257 6:-0.871468 
16384 1:-0.954238 2:-0.874343 3:-0.920454 4:-0.751624 5:-0.503579 6:-0.722427 
16384 1:-0.861176 2:-0.866945 3:-0.821566 4:-0.681344 5:-0.274966 6:-0.582768 
16022.772179314 1:-0.559422 2:-0.462789 3:-0.451004 4:-0.618639 5:-0.26285 6:-0.486641 
16384 1:-0.718142 2:-0.589286 3:-0.670864 4:-0.491468 5:-0.168133 6:-0.446561 
16384 1:-0.937943 2:-0.895666 3:-0.860042 4:-0.81757 5:-0.577587 6:-0.704915 
9965.230508402823 1:-0.599659 2:-0.166596 3:-0.547687 4:-0.715486 5:-0.422246 6:-0.721002 
16384 1:-0.197161 2:-0.0332208 3:-0.107135 4:-0.0797289 5:0.172405 6:-0.0976171 
16384 1:-0.821314 2:-0.902811 3:-0.822499 4:-0.759715 5:-0.580307 6:-0.698342 
16384 1:-0.727596 2:-0.370446 3:-0.702537 4:-0.648319 5:-0.358969 6:-0.660693 
16384 1:-0.718612 2:-0.680366 3:-0.626337 4:-0.696704 5:-0.368546 6:-0.599287 
9232.715352613479 1:-0.570163 2:-0.404524 3:-0.48749 4:-0.492801 5:-0.179386 6:-0.433538 
15398.39646785427 1:-0.651114 2:-0.642104 3:-0.613816 4:-0.631498 5:-0.366378 6:-0.560584 
16384 1:-0.530111 2:-0.32669 3:-0.536802 4:-0.511007 5:-0.208172 6:-0.491909 
16384 1:-0.848506 2:-0.702739 3:-0.810233 4:-0.745426 5:-0.460294 6:-0.679627 
16384 1:-0.687963 2:-0.632256 3:-0.685362 4:-0.691365 5:-0.426571 6:-0.717525 
263.0830323851075 1:-0.27674 2:-0.150146 3:-0.226476 4:-0.260207 5:0.11571 6:-0.257169 
16384 1:0.136052 2:0.205796 3:0.16979 4:-0.257028 5:0.0197478 6:-0.162212 
16384 1:-0.738938 2:-0.550274 3:-0.69799 4:-0.665855 5:-0.392963 6:-0.630352 
16384 1:-0.93774 2:-0.895293 3:-0.858225 4:-0.812982 5:-0.578641 6:-0.708787 
16384 1:-0.911932 2:-0.83602 3:-0.859255 4:-0.802408 5:-0.531339 6:-0.805179 
16384 1:-0.787111 2:-0.708509 3:-0.719263 4:-0.656619 5:-0.380735 6:-0.650332 
16384 1:-0.923968 2:-0.699953 3:-0.930925 4:-0.490167 5:-0.235179 6:-0.475502 
16384 1:-0.630183 2:-0.514128 3:-0.505077 4:-0.686429 5:-0.354183 6:-0.588724 
538.3150956624702 1:0.00190551 2:0.250312 3:0.0671528 4:-0.187457 5:0.110805 6:-0.162035 
16384 1:-0.47916 2:0.0968842 3:-0.47916 4:-0.658538 5:-0.372158 6:-0.658538 
16384 1:-0.7142 2:-0.314975 3:-0.703501 4:-0.658476 5:-0.380471 6:-0.65795 
16384 1:-0.848796 2:-0.840084 3:-0.806638 4:-0.735751 5:-0.451129 6:-0.645835 
16384 1:-0.88674 2:-0.868866 3:-0.787423 4:-0.721291 5:-0.417947 6:-0.548191 
16384 1:-0.935539 2:-0.891614 3:-0.860602 4:-0.818276 5:-0.581384 6:-0.711161 
7167.778516260364 1:-0.513015 2:-0.141559 3:-0.63243 4:-0.674316 5:-0.362399 6:-0.704554 
16384 1:-0.902519 2:-0.885965 3:-0.803854 4:-0.754499 5:-0.434783 6:-0.583573 
16384 1:-0.843734 2:-0.757512 3:-0.727387 4:-0.72264 5:-0.435005 6:-0.621514 
16384 1:-0.642116 2:-0.532333 3:-0.50417 4:-0.727749 5:-0.444894 6:-0.598374 
3370.018854769945 1:-0.408842 2:-0.248009 3:-0.273664 4:-0.340568 5:0.00217327 6:-0.271572 
16384 1:-0.92759 2:-0.72931 3:-0.931735 4:-0.48627 5:-0.236359 6:-0.474266 
16384 1:-0.932956 2:-0.854159 3:-0.863464 4:-0.8784 5:-0.693257 6:-0.828271 
16384 1:-0.830942 2:-0.722808 3:-0.813092 4:-0.667731 5:-0.451281 6:-0.714811 
16384 1:-0.686796 2:-0.47277 3:-0.669979 4:-0.653134 5:-0.345215 6:-0.641532 
16384 1:-0.825341 2:-0.774485 3:-0.807469 4:-0.772055 5:-0.495051 6:-0.701488 
16384 1:-0.800667 2:-0.671243 3:-0.74251 4:-0.723461 5:-0.514358 6:-0.687237 
3965.017370096758 1:-0.728306 2:-0.728396 3:-0.763289 4:-0.807575 5:-0.607736 6:-0.710485 
16384 1:-0.918175 2:-0.879468 3:-0.957308 4:-0.871759 5:-0.759909 6:-0.872425 
4474.050371493106 1:-0.541488 2:0.0538659 3:-0.483331 4:-0.664042 5:-0.368567 6:-0.62911 
16384 1:-0.976417 2:-0.937053 3:-0.91784 4:-0.844712 5:-0.72767 6:-0.845199 
5891.062432719248 1:-0.88674 2:-0.868866 3:-0.787423 4:-0.72129 5:-0.417947 6:-0.54819 
16384 1:-0.951719 2:-0.94034 3:-0.957446 4:-0.881448 5:-0.761676 6:-0.870925 
16384 1:-0.934848 2:-0.890845 3:-0.86183 4:-0.81691 5:-0.582077 6:-0.71099 
16384 1:-0.572399 2:-0.0429005 3:-0.626394 4:-0.682526 5:-0.408188 6:-0.695064 
16384 1:-0.880516 2:-0.808138 3:-0.837153 4:-0.838781 5:-0.46225 6:-0.742545 
11197.43369041302 1:-0.633973 2:-0.329132 3:-0.533411 4:-0.498615 5:-0.219787 6:-0.457938 
16384 1:-0.821037 2:-0.747937 3:-0.798776 4:-0.732715 5:-0.524223 6:-0.752199 
16384 1:-0.782935 2:-0.71742 3:-0.716819 4:-0.488608 5:-0.222102 6:-0.441756 
16384 1:-0.785203 2:-0.688478 3:-0.842631 4:-0.75599 5:-0.542694 6:-0.725374 
0.02465110428367981 1:0.282196 2:0.456813 3:0.339602 4:-0.0748194 5:0.200109 6:-0.0162287 
16384 1:-0.969954 2:-0.966603 3:-0.967534 4:-0.869766 5:-0.773019 6:-0.876085 
446.1163919058262 1:-0.522806 2:0.118151 3:-0.493238 4:-0.631055 5:-0.323423 6:-0.631055 
57.95912656095049 1:0.133309 2:0.369134 3:0.172286 4:-0.297918 5:0.308947 6:-0.27429 
16384 1:-0.933431 2:-0.844869 3:-0.86884 4:-0.80982 5:-0.628593 6:-0.802815 
4299.617417899071 1:-0.521085 2:0.0294096 3:-0.489908 4:-0.67777 5:-0.419737 6:-0.715053 
16384 1:-0.939469 2:-0.896048 3:-0.865835 4:-0.817861 5:-0.583099 6:-0.718567 
16384 1:-0.822108 2:-0.720136 3:-0.8242 4:-0.708063 5:-0.440933 6:-0.713052 
2225.018942815309 1:-0.931978 2:-0.734795 3:-0.927295 4:-0.49035 5:-0.238205 6:-0.481114 
3309.092189637923 1:-0.596642 2:-0.468723 3:-0.79883 4:-0.699954 5:-0.432298 6:-0.669007 
16384 1:-0.955627 2:-0.918251 3:-0.896416 4:-0.840285 5:-0.6426 6:-0.775085 
16384 1:-0.982058 2:-0.977463 3:-0.968419 4:-0.874928 5:-0.777151 6:-0.868007 
16384 1:-0.76817 2:-0.729109 3:-0.691206 4:-0.737429 5:-0.394673 6:-0.646059 
16384 1:-0.77876 2:-0.644775 3:-0.76079 4:-0.662693 5:-0.439774 6:-0.706724 
16384 1:-0.883885 2:-0.772437 3:-0.888016 4:-0.796846 5:-0.657734 6:-0.790904 
205.0181417394341 1:-0.7357 2:-0.542394 3:-0.816408 4:-0.698183 5:-0.49409 6:-0.704398 
16384 1:-0.848506 2:-0.702739 3:-0.810233 4:-0.745425 5:-0.460292 6:-0.679627 
16384 1:-0.902522 2:-0.885966 3:-0.803858 4:-0.7545 5:-0.434771 6:-0.583568 
16384 1:-0.784042 2:-0.66821 3:-0.719954 4:-0.701992 5:-0.412432 6:-0.676776 
168.6663900772836 1:-0.285047 2:-0.148628 3:-0.24879 4:-0.29915 5:-0.0321031 6:-0.308229 
16384 1:-0.909539 2:-0.847765 3:-0.788631 4:-0.768748 5:-0.388044 6:-0.648137 
16384 1:0.381597 2:0.176385 3:0.381597 4:0.382143 5:0.768058 6:0.382143 
16384 1:-0.94449 2:-0.90307 3:-0.864977 4:-0.821786 5:-0.589168 6:-0.715896 
16384 1:-0.898419 2:-0.846131 3:-0.771899 4:-0.736164 5:-0.391791 6:-0.664688 
16384 1:-0.696302 2:-0.525471 3:-0.780054 4:-0.707399 5:-0.449825 6:-0.739387 
16384 1:-0.832612 2:-0.814594 3:-0.735691 4:-0.769754 5:-0.554639 6:-0.777743 
10446.93626091226 1:-0.631064 2:-0.443548 3:-0.562258 4:-0.558567 5:-0.268103 6:-0.556525 
16384 1:-0.807477 2:-0.633571 3:-0.735886 4:-0.698595 5:-0.470435 6:-0.646388 
577.6770656183246 1:-0.747095 2:-0.636034 3:-0.6554 4:-0.693014 5:-0.366407 6:-0.737452 
7387.152361429376 1:-0.722369 2:-0.679162 3:-0.586925 4:-0.794145 5:-0.382092 6:-0.68902 
16384 1:-0.986968 2:-0.980251 3:-0.933735 4:-0.871106 5:-0.764204 6:-0.873687 
16384 1:-0.941001 2:-0.897771 3:-0.867676 4:-0.818378 5:-0.580874 6:-0.715651 
16384 1:-0.634075 2:-0.323146 3:-0.559967 4:-0.670824 5:-0.381835 6:-0.635784 
16384 1:-0.93153 2:-0.894038 3:-0.958925 4:-0.834367 5:-0.726939 6:-0.873725 
10121.56386964845 1:-0.59883 2:-0.506803 3:-0.50869 4:-0.559359 5:-0.195594 6:-0.476641 
16384 1:-0.84776 2:-0.862066 3:-0.846381 4:-0.791267 5:-0.411271 6:-0.758725 
16384 1:-0.51981 2:-0.185113 3:-0.647839 4:-0.640703 5:-0.281552 6:-0.652782 
16384 1:-0.968104 2:-0.953624 3:-0.965568 4:-0.86907 5:-0.772435 6:-0.874938 
15051.21648780082 1:-0.507085 2:-0.237153 3:-0.468638 4:-0.667111 5:-0.377808 6:-0.69274 
16384 1:-0.884539 2:-0.831204 3:-0.807735 4:-0.661934 5:-0.447337 6:-0.698358 
16384 1:-0.835679 2:-0.832166 3:-0.790735 4:-0.756972 5:-0.386624 6:-0.676908 
16384 1:-0.691892 2:-0.282262 3:-0.703526 4:-0.651225 5:-0.353965 6:-0.657256 
18.13770467383897 1:0.614053 2:0.44309 3:0.614053 4:0.382049 5:0.767955 6:0.298121 
8.569770062917922 1:-0.797866 2:-0.452506 3:-0.797866 4:-0.624406 5:-0.283133 6:-0.624406 
5419.102298723635 1:-0.466019 2:-0.490061 3:-0.257852 4:-0.466141 5:-0.177227 6:-0.429984 
7070.489431613964 1:-0.710265 2:-0.397212 3:-0.679917 4:-0.769818 5:-0.57734 6:-0.733847 
16384 1:-0.90252 2:-0.885967 3:-0.803856 4:-0.754502 5:-0.434792 6:-0.583581 
3818.09616973632 1:-0.837899 2:-0.674943 3:-0.755462 4:-0.553082 5:-0.229333 6:-0.541768 
16384 1:-0.83264 2:-0.832644 3:-0.815757 4:-0.739149 5:-0.478889 6:-0.703841 
16384 1:-0.609113 2:-0.442097 3:-0.674098 4:-0.577209 5:-0.311432 6:-0.465537 
16384 1:-0.841052 2:-0.819419 3:-0.652162 4:-0.853334 5:-0.494149 6:-0.729499 
16384 1:-0.80448 2:-0.688048 3:-0.843995 4:-0.779827 5:-0.511975 6:-0.730648 
16384 1:-0.908191 2:-0.868543 3:-0.882113 4:-0.826717 5:-0.701617 6:-0.838548 
16384 1:-0.693046 2:-0.361448 3:-0.693046 4:-0.708357 5:-0.465789 6:-0.698867 
16384 1:-0.544216 2:-0.152542 3:-0.559196 4:-0.778637 5:-0.522401 6:-0.758292 
16384 1:-0.97046 2:-0.951104 3:-0.867277 4:-0.796322 5:-0.556395 6:-0.749014 
16384 1:-0.902524 2:-0.88597 3:-0.803863 4:-0.7545 5:-0.434779 6:-0.583572 
16384 1:-0.902526 2:-0.885971 3:-0.803865 4:-0.7545 5:-0.434779 6:-0.583572 
232.3740269602834 1:-0.0346539 2:-0.146009 3:-0.0958593 4:-0.322151 5:-0.0831238 6:-0.247501 
16384 1:-0.986527 2:-0.97329 3:-0.966918 4:-0.878612 5:-0.779938 6:-0.876468 
16384 1:-0.704074 2:-0.606689 3:-0.598854 4:-0.576055 5:-0.258231 6:-0.455812 
16384 1:-0.786188 2:-0.686141 3:-0.842631 4:-0.757018 5:-0.542807 6:-0.725374 
16384 1:0.396864 2:0.722127 3:0.396864 4:0.0641758 5:0.424878 6:0.0641758 
14240.91787395204 1:-0.68675 2:-0.728718 3:-0.679149 4:-0.73908 5:-0.504822 6:-0.68306 
16384 1:-0.820304 2:-0.701126 3:-0.790081 4:-0.666555 5:-0.359254 6:-0.703709 
16384 1:-0.969605 2:-0.960664 3:-0.964021 4:-0.874263 5:-0.778481 6:-0.8753 
3488.483800911848 1:-0.570136 2:-0.431747 3:-0.655227 4:-0.45773 5:-0.191812 6:-0.511909 
16384 1:-0.753402 2:-0.674717 3:-0.72752 4:-0.761779 5:-0.473691 6:-0.68597 
16384 1:-0.74689 2:-0.57042 3:-0.695106 4:-0.671683 5:-0.350576 6:-0.621005 
2401.94214468338 1:-0.662808 2:-0.594014 3:-0.464929 4:-0.545721 5:-0.195094 6:-0.430806 
260.6633345526914 1:-0.216624 2:0.103531 3:-0.167046 4:-0.340855 5:-0.0898144 6:-0.247584 
16384 1:-0.877764 2:-0.776777 3:-0.762202 4:-0.765698 5:-0.558693 6:-0.742506 
16384 1:-0.719357 2:-0.594334 3:-0.693562 4:-0.737325 5:-0.480485 6:-0.748031 
16384 1:-0.807461 2:-0.633552 3:-0.73587 4:-0.698592 5:-0.470435 6:-0.646385 
223.3848500892949 1:-0.929292 2:-0.730657 3:-0.923949 4:-0.480475 5:-0.224205 6:-0.47154 
5567.268405508591 1:-0.865242 2:-0.807707 3:-0.797663 4:-0.77882 5:-0.643803 6:-0.696266 
16384 1:-0.891367 2:-0.795805 3:-0.846981 4:-0.68284 5:-0.45997 6:-0.732541 
16384 1:-0.907039 2:-0.887342 3:-0.805743 4:-0.741944 5:-0.402648 6:-0.582847 
15716.74442150098 1:-0.618096 2:-0.414892 3:-0.656741 4:-0.6607 5:-0.349192 6:-0.733368 
10100.02215382608 1:-0.562986 2:-0.38872 3:-0.566427 4:-0.528508 5:-0.301872 6:-0.459361 
16384 1:-0.309862 2:-0.0785911 3:-0.260067 4:-0.293325 5:-0.0349809 6:-0.252417 
4802.671746829728 1:-0.410709 2:-0.111505 3:-0.381332 4:-0.292029 5:0.00341745 6:-0.415071 
16037.38708640858 1:-0.751278 2:-0.721016 3:-0.739809 4:-0.630458 5:-0.257899 6:-0.652392 
3260.299052233807 1:-0.502388 2:-0.485244 3:-0.725635 4:-0.501544 5:-0.211791 6:-0.587958 
16354.53402104771 1:-0.92599 2:-0.75241 3:-0.922266 4:-0.479043 5:-0.220646 6:-0.482144 
16384 1:-0.895079 2:-0.849152 3:-0.806698 4:-0.806807 5:-0.587895 6:-0.708299 
16384 1:-0.936201 2:-0.892382 3:-0.86178 4:-0.817518 5:-0.580343 6:-0.710983 
16384 1:-0.872295 2:-0.886384 3:-0.797165 4:-0.768491 5:-0.477659 6:-0.718315 
16384 1:-0.876433 2:-0.777085 3:-0.846898 4:-0.69471 5:-0.506847 6:-0.705653 
16384 1:-0.786472 2:-0.698733 3:-0.8229 4:-0.758644 5:-0.546549 6:-0.731842 
16384 1:-0.861512 2:-0.902983 3:-0.718509 4:-0.823097 5:-0.472097 6:-0.753432 
8677.239100950859 1:-0.797473 2:-0.714081 3:-0.729685 4:-0.526556 5:-0.264358 6:-0.496085 
13152.09919091561 1:-0.92599 2:-0.75241 3:-0.922266 4:-0.479043 5:-0.220646 6:-0.482144 
239.386758804437 1:-0.86738 2:-0.695763 3:-0.86738 4:-0.648855 5:-0.425351 6:-0.648855 
16384 1:-0.634348 2:-0.503807 3:-0.514326 4:-0.651006 5:-0.333284 6:-0.604849 
55.49417169665884 1:-0.495856 2:-0.416221 3:-0.354437 4:-0.391438 5:-0.205894 6:-0.285803 
16384 1:-0.517086 2:0.0325315 3:-0.554533 4:-0.735114 5:-0.498205 6:-0.733517 
1241.860977171682 1:-0.430516 2:0.171896 3:-0.428251 4:-0.739385 5:-0.534812 6:-0.761688 
16384 1:-0.926012 2:-0.862887 3:-0.896148 4:-0.844417 5:-0.67966 6:-0.821354 
11028.38524601877 1:-0.541432 2:-0.321336 3:-0.519731 4:-0.441694 5:-0.183586 6:-0.435353 
16384 1:-0.867837 2:-0.888319 3:-0.853799 4:-0.769933 5:-0.46657 6:-0.717157 
16384 1:-0.404298 2:-0.00213929 3:-0.409359 4:-0.413211 5:-0.170978 6:-0.417958 
6279.660900895466 1:-0.812226 2:-0.543636 3:-0.789248 4:-0.734597 5:-0.494723 6:-0.736314 
16384 1:-0.930876 2:-0.848198 3:-0.857206 4:-0.86969 5:-0.696465 6:-0.824348 
16384 1:-0.822511 2:-0.752728 3:-0.749784 4:-0.526468 5:-0.261732 6:-0.527572 
16384 1:-0.720476 2:-0.364745 3:-0.703539 4:-0.647667 5:-0.351631 6:-0.660778 
1262.104046879336 1:-0.471103 2:-0.347917 3:-0.442066 4:-0.386549 5:-0.0637353 6:-0.380483 
1.409956478017447 1:-0.417108 2:-0.350591 3:-0.512068 4:-0.67087 5:-0.259863 6:-0.608336 
2489.562043337782 1:-0.479902 2:0.151044 3:-0.633709 4:-0.657676 5:-0.383376 6:-0.662968 
16384 1:-0.908191 2:-0.868543 3:-0.882113 4:-0.826717 5:-0.701617 6:-0.838548 
5362.011651408327 1:-0.517357 2:-0.39058 3:-0.457848 4:-0.530075 5:-0.17234 6:-0.443925 
16384 1:-0.858767 2:-0.737714 3:-0.772213 4:-0.799904 5:-0.508281 6:-0.767313 
696.5895153894603 1:-0.763544 2:-0.383046 3:-0.767131 4:-0.61921 5:-0.379198 6:-0.620678 
16384 1:-0.699243 2:-0.374497 3:-0.703125 4:-0.694539 5:-0.433396 6:-0.706074 
16384 1:-0.951759 2:-0.921005 3:-0.957138 4:-0.8726 5:-0.758041 6:-0.87031 
16384 1:-0.682532 2:-0.500376 3:-0.691291 4:-0.714739 5:-0.47508 6:-0.717709 
16384 1:-0.808443 2:-0.719624 3:-0.801102 4:-0.722879 5:-0.512561 6:-0.729657 
16384 1:-0.88827 2:-0.886186 3:-0.791962 4:-0.771786 5:-0.471187 6:-0.715655 
16384 1:-0.607068 2:-0.1268 3:-0.58647 4:-0.766085 5:-0.54036 6:-0.758813 
16384 1:-0.802726 2:-0.729337 3:-0.761075 4:-0.516568 5:-0.242172 6:-0.506264 
16384 1:-0.724766 2:-0.36543 3:-0.707229 4:-0.644916 5:-0.353302 6:-0.662951 
16384 1:-0.809514 2:-0.814017 3:-0.68432 4:-0.672078 5:-0.423793 6:-0.598613 
211.8172945226931 1:-0.340495 2:-0.24917 3:-0.250022 4:-0.264281 5:0.0902005 6:-0.255624 
11681.51032013748 1:-0.508829 2:0.0788147 3:-0.508829 4:-0.628999 5:-0.318211 6:-0.628999 
373.9122683367569 1:-0.612993 2:-0.597567 3:-0.74549 4:-0.403759 5:-0.119039 6:-0.332478 
16384 1:-0.9176 2:-0.713829 3:-0.925507 4:-0.486813 5:-0.231702 6:-0.477092 
16384 1:-0.724668 2:-0.365568 3:-0.707229 4:-0.644901 5:-0.353124 6:-0.662952 
16384 1:-0.594449 2:0.0435634 3:-0.548567 4:-0.663017 5:-0.372235 6:-0.653516 
16384 1:-0.743154 2:-0.629554 3:-0.718807 4:-0.623922 5:-0.335173 6:-0.590404 
16384 1:-0.817705 2:-0.892515 3:-0.822483 4:-0.759713 5:-0.580294 6:-0.698339 
429.4620245868048 1:-0.331525 2:-0.243048 3:-0.193602 4:-0.415413 5:-0.121432 6:-0.275314 
16384 1:-0.821314 2:-0.902811 3:-0.822499 4:-0.759715 5:-0.580307 6:-0.698342 
5962.909777398202 1:-0.516861 2:0.070978 3:-0.516125 4:-0.631792 5:-0.316257 6:-0.642345 
16384 1:-0.930619 2:-0.892292 3:-0.959124 4:-0.835774 5:-0.727648 6:-0.873554 
16384 1:-0.894453 2:-0.817883 3:-0.846614 4:-0.671689 5:-0.448309 6:-0.730175 
3.709304698765612 1:0.393971 2:0.720726 3:0.393971 4:0.0638927 5:0.424611 6:0.0638927 
6705.927227988266 1:-0.701094 2:-0.373255 3:-0.701983 4:-0.695356 5:-0.459623 6:-0.714255 
163.1819966690742 1:-0.204692 2:-0.322287 3:-0.105914 4:-0.39268 5:-0.128961 6:-0.252715 
16384 1:-0.582678 2:0.0494713 3:-0.524977 4:-0.663014 5:-0.372227 6:-0.64697 
16384 1:-0.740677 2:-0.544923 3:-0.69022 4:-0.661548 5:-0.333545 6:-0.633827 
16384 1:-0.567253 2:-0.264124 3:-0.58926 4:-0.658615 5:-0.387507 6:-0.692081 
16384 1:-0.578488 2:-0.45677 3:-0.569731 4:-0.635503 5:-0.325376 6:-0.628666 
254.9007124169581 1:-0.272693 2:-0.172891 3:-0.589455 4:-0.378213 5:-0.0421031 6:-0.635928 
16384 1:-0.662517 2:-0.127236 3:-0.590801 4:-0.672715 5:-0.376129 6:-0.677981 
15866.52223644988 1:-0.770997 2:-0.51352 3:-0.755531 4:-0.71314 5:-0.461823 6:-0.746555 
16384 1:-0.640978 2:-0.25189 3:-0.635209 4:-0.662045 5:-0.366833 6:-0.654117 
16384 1:-0.782935 2:-0.71742 3:-0.716819 4:-0.488607 5:-0.222101 6:-0.441755 
8918.933956057852 1:-0.550888 2:-0.217588 3:-0.541175 4:-0.690196 5:-0.417115 6:-0.723592 
16384 1:-0.614456 2:-0.479606 3:-0.611194 4:-0.679254 5:-0.427047 6:-0.639094 
5751.738356562533 1:-0.470662 2:-0.104374 3:-0.465846 4:-0.44076 5:-0.121482 6:-0.436062 
16384 1:-0.925133 2:-0.863905 3:-0.894792 4:-0.842711 5:-0.678309 6:-0.818433 
47.87969578328677 1:-0.715038 2:-0.744816 3:-0.224822 4:-0.576582 5:-0.208003 6:-0.389017 
16384 1:-0.607045 2:-0.126755 3:-0.586446 4:-0.766078 5:-0.540342 6:-0.758804 
607.0189768155582 1:-0.417108 2:-0.350591 3:-0.512068 4:-0.67087 5:-0.259863 6:-0.608336 
9438.873845241425 1:-0.898778 2:-0.823569 3:-0.854086 4:-0.603781 5:-0.345603 6:-0.739472 
924.1974219013 1:-0.606129 2:-0.202601 3:-0.762005 4:-0.672191 5:-0.393744 6:-0.683964 
16384 1:-0.816038 2:-0.739894 3:-0.805288 4:-0.728763 5:-0.5178 6:-0.719946 
5.771837760381565 1:-0.71165 2:-0.311684 3:-0.569414 4:-0.620566 5:-0.390078 6:-0.237546 
16384 1:-0.309862 2:-0.0785911 3:-0.260067 4:-0.293325 5:-0.0349809 6:-0.252417 
16384 1:-0.777721 2:-0.591751 3:-0.695973 4:-0.705189 5:-0.417786 6:-0.64131 
16384 1:-0.95838 2:-0.953739 3:-0.938877 4:-0.872377 5:-0.775723 6:-0.876192 
13845.79079672066 1:-0.613628 2:-0.474887 3:-0.498619 4:-0.536654 5:-0.269474 6:-0.444961 
16384 1:-0.638209 2:-0.23162 3:-0.601529 4:-0.71429 5:-0.420481 6:-0.716804 
16384 1:-0.548587 2:-0.406922 3:-0.576497 4:-0.536026 5:-0.212354 6:-0.521811 
16384 1:-0.808739 2:-0.57992 3:-0.795687 4:-0.694624 5:-0.429366 6:-0.719919 
16384 1:-0.756655 2:-0.68126 3:-0.773043 4:-0.649865 5:-0.300685 6:-0.737298 
16384 1:-0.899227 2:-0.906024 3:-0.873858 4:-0.775145 5:-0.543311 6:-0.711402 
16384 1:-0.781914 2:-0.694759 3:-0.822882 4:-0.75878 5:-0.545382 6:-0.725968 
7269.747887991288 1:-0.637004 2:-0.643492 3:-0.637604 4:-0.755939 5:-0.438427 6:-0.731138 
12096.13265909174 1:-0.746785 2:-0.719606 3:-0.693166 4:-0.671659 5:-0.281611 6:-0.614292 
16384 1:-0.719193 2:-0.707722 3:-0.769882 4:-0.696992 5:-0.27632 6:-0.579913 
4516.004710860624 1:-0.482575 2:0.0792531 3:-0.62876 4:-0.618358 5:-0.287061 6:-0.631855 
16384 1:-0.919572 2:-0.711901 3:-0.923585 4:-0.480646 5:-0.224125 6:-0.469515 
3576.770435699706 1:-0.628162 2:-0.509722 3:-0.620026 4:-0.558151 5:-0.1913 6:-0.574629 
16384 1:-0.724876 2:-0.368284 3:-0.702537 4:-0.6492 5:-0.359263 6:-0.660695 
234.1023206389931 1:-0.465191 2:0.18734 3:-0.701239 4:-0.63358 5:-0.321761 6:-0.650193 
16384 1:-0.921397 2:-0.88578 3:-0.95695 4:-0.870234 5:-0.757931 6:-0.870799 
16384 1:-0.810768 2:-0.737356 3:-0.750178 4:-0.548417 5:-0.283557 6:-0.520069 
3997.665362814569 1:-0.632532 2:-0.589638 3:-0.785728 4:-0.585922 5:-0.34103 6:-0.538968 
3899.840437045231 1:-0.741334 2:-0.717994 3:-0.535959 4:-0.568747 5:-0.362281 6:-0.434505 
10324.96881658965 1:-0.575593 2:-0.437935 3:-0.6399 4:-0.537046 5:-0.272736 6:-0.517222 
16384 1:-0.903163 2:-0.729985 3:-0.799764 4:-0.70438 5:-0.454688 6:-0.718172 
16384 1:-0.821108 2:-0.713116 3:-0.803246 4:-0.662222 5:-0.439573 6:-0.714552 
16384 1:-0.895855 2:-0.814691 3:-0.856807 4:-0.685222 5:-0.470983 6:-0.758674 
16384 1:-0.919225 2:-0.707713 3:-0.929016 4:-0.480572 5:-0.223923 6:-0.467916 
16384 1:-0.768431 2:-0.714721 3:-0.815352 4:-0.750399 5:-0.571415 6:-0.712716 
16384 1:-0.58823 2:-0.0831484 3:-0.57518 4:-0.704357 5:-0.454873 6:-0.69227 
16384 1:-0.867426 2:-0.825424 3:-0.760981 4:-0.714582 5:-0.341632 6:-0.640638 
16384 1:-0.840268 2:-0.785631 3:-0.824894 4:-0.645161 5:-0.368007 6:-0.718874 
16384 1:-0.765439 2:-0.573356 3:-0.730857 4:-0.713108 5:-0.487544 6:-0.709629 
16384 1:-0.824668 2:-0.697486 3:-0.808691 4:-0.759208 5:-0.559934 6:-0.704202 
16384 1:-0.794615 2:-0.693819 3:-0.717808 4:-0.668493 5:-0.379151 6:-0.758985 
16384 1:-0.8739 2:-0.819964 3:-0.75199 4:-0.79021 5:-0.58556 6:-0.746599 
2466.721205121969 1:-0.934703 2:-0.897505 3:-0.780039 4:-0.765678 5:-0.447952 6:-0.817198 
16384 1:-0.848297 2:-0.770579 3:-0.766246 4:-0.737495 5:-0.386807 6:-0.654567 
16384 1:-0.87684 2:-0.791429 3:-0.883143 4:-0.726441 5:-0.549635 6:-0.774365 
16384 1:-0.958382 2:-0.953565 3:-0.854032 4:-0.820308 5:-0.604403 6:-0.763857 
16384 1:-0.804253 2:-0.726458 3:-0.666445 4:-0.700506 5:-0.444447 6:-0.597882 
420.0046712647156 1:-0.256057 2:-0.112227 3:-0.121594 4:-0.302715 5:-0.0381896 6:-0.236307 
5745.215431955867 1:-0.756619 2:-0.695567 3:-0.754973 4:-0.604534 5:-0.20548 6:-0.700379 
5475.387926330017 1:-0.793378 2:-0.679464 3:-0.799583 4:-0.62551 5:-0.273588 6:-0.690768 
16384 1:-0.798112 2:-0.726965 3:-0.742178 4:-0.525773 5:-0.255178 6:-0.496218 
16384 1:-0.78382 2:-0.671282 3:-0.776694 4:-0.708474 5:-0.438563 6:-0.740246 
416.8220782719876 1:-0.54783 2:-0.450508 3:-0.473806 4:-0.323829 5:0.0155067 6:-0.363357 
16384 1:-0.933626 2:-0.843104 3:-0.872227 4:-0.816431 5:-0.632181 6:-0.806532 
16384 1:-0.958846 2:-0.95187 3:-0.93573 4:-0.869381 5:-0.769512 6:-0.876419 
16384 1:0.136237 2:0.205892 3:0.169883 4:-0.257017 5:0.0197716 6:-0.162206 
16384 1:-0.829563 2:-0.720354 3:-0.807808 4:-0.659604 5:-0.43332 6:-0.712129 
16384 1:-0.857124 2:-0.735075 3:-0.829238 4:-0.805255 5:-0.646266 6:-0.715029 
16384 1:-0.928638 2:-0.89658 3:-0.958711 4:-0.87595 5:-0.764102 6:-0.870149 
18.69087335843572 1:0.0310237 2:-0.179731 3:0.00879892 4:-0.256525 5:0.0239498 6:0.0787536 
2165.291043756964 1:-0.920414 2:-0.925186 3:-0.727751 4:-0.841449 5:-0.461067 6:-0.735809 
43.24884226523115 1:-0.335886 2:-0.232175 3:-0.307574 4:-0.392097 5:-0.00140655 6:-0.343407 
16384 1:-0.824202 2:-0.69671 3:-0.755952 4:-0.585056 5:-0.230707 6:-0.541734 
16384 1:-0.859037 2:-0.829483 3:-0.78488 4:-0.603538 5:-0.425206 6:-0.64383 
16384 1:-0.943117 2:-0.922887 3:-0.962085 4:-0.877831 5:-0.764581 6:-0.871597 
326.512572956706 1:-0.0918442 2:-0.163385 3:-0.21447 4:-0.311553 5:-0.057726 6:-0.307609 
16384 1:-0.641352 2:-0.622265 3:-0.641352 4:-0.382506 5:0.0478591 6:-0.382506 
16384 1:-0.658992 2:-0.343765 3:-0.68381 4:-0.591312 5:-0.35868 6:-0.570902 
16384 1:-0.948489 2:-0.901531 3:-0.882565 4:-0.807801 5:-0.615404 6:-0.748589 
19.61598380926899 1:0.282196 2:0.456813 3:0.339602 4:-0.0748194 5:0.200109 6:-0.0162287 
16384 1:-0.848749 2:-0.64257 3:-0.835267 4:-0.599538 5:-0.254346 6:-0.757293 
16384 1:-0.932675 2:-0.845596 3:-0.867437 4:-0.810383 5:-0.631393 6:-0.803428 
16384 1:-0.815675 2:-0.717346 3:-0.818254 4:-0.758232 5:-0.488041 6:-0.712489 
16384 1:-0.719505 2:-0.545035 3:-0.708913 4:-0.698717 5:-0.409237 6:-0.727552 
16384 1:-0.728556 2:-0.533535 3:-0.742285 4:-0.614358 5:-0.310562 6:-0.633577 
16384 1:-0.950724 2:-0.918992 3:-0.956953 4:-0.872324 5:-0.755966 6:-0.870799 
12627.86429477711 1:-0.185351 2:-0.315058 3:-0.723631 4:-0.313486 5:-0.0403869 6:-0.594567 
3017.101728028081 1:-0.71945 2:-0.631425 3:-0.674806 4:-0.661456 5:-0.347109 6:-0.598923 
16384 1:-0.902527 2:-0.88597 3:-0.803866 4:-0.754499 5:-0.43477 6:-0.583566 
16384 1:-0.770306 2:-0.666538 3:-0.737917 4:-0.608415 5:-0.221908 6:-0.705955 
16384 1:-0.831432 2:-0.734837 3:-0.824503 4:-0.78029 5:-0.522679 6:-0.724344 
16384 1:-0.806894 2:-0.71614 3:-0.801325 4:-0.725694 5:-0.518122 6:-0.734802 
16384 1:-0.874205 2:-0.815513 3:-0.781255 4:-0.845904 5:-0.538019 6:-0.761835 
16384 1:-0.955627 2:-0.918251 3:-0.896416 4:-0.840285 5:-0.6426 6:-0.775085 
9439.81575112782 1:-0.774024 2:-0.742937 3:-0.688045 4:-0.650291 5:-0.275005 6:-0.622336 
50.24857497085965 1:-0.39056 2:-0.23665 3:-0.35052 4:-0.396031 5:0.0548775 6:-0.419571 
4094.684179133949 1:-0.667117 2:-0.595085 3:-0.604124 4:-0.669708 5:-0.311995 6:-0.552063 
16384 1:-0.924496 2:-0.742539 3:-0.923468 4:-0.480204 5:-0.223253 6:-0.468846 
16384 1:-0.334073 2:-0.0951659 3:-0.312638 4:-0.455211 5:-0.186156 6:-0.395437 
0.01328946098929502 1:-0.84878 2:-0.642617 3:-0.835292 4:-0.59954 5:-0.254347 6:-0.757292 
16384 1:-0.817094 2:-0.771146 3:-0.720139 4:-0.690325 5:-0.340446 6:-0.649106 
16384 1:-0.64299 2:-0.34982 3:-0.649614 4:-0.664026 5:-0.380811 6:-0.653244 
16384 1:-0.512699 2:0.0613613 3:-0.524954 4:-0.644763 5:-0.336229 6:-0.642285 
16384 1:-0.809866 2:-0.625154 3:-0.809018 4:-0.707158 5:-0.473101 6:-0.718495 
16384 1:-0.631541 2:-0.334793 3:-0.653396 4:-0.663832 5:-0.381084 6:-0.655531 
11276.24481312399 1:-0.39221 2:-0.0802984 3:-0.376624 4:-0.272493 5:0.0163595 6:-0.411065 
3448.724588027453 1:-0.420073 2:-0.143316 3:-0.391503 4:-0.463307 5:-0.181855 6:-0.403292 
16384 1:-0.793553 2:-0.680194 3:-0.833783 4:-0.798496 5:-0.631406 6:-0.729647 
16384 1:-0.843306 2:-0.851778 3:-0.772555 4:-0.760569 5:-0.393229 6:-0.672717 
16384 1:-0.820197 2:-0.77197 3:-0.691876 4:-0.728966 5:-0.438365 6:-0.651223 
1370.240331064421 1:-0.92983 2:-0.721319 3:-0.92906 4:-0.468202 5:-0.11538 6:-0.477427 
0.3253360060999787 1:-0.516613 2:-0.551648 3:-0.229845 4:0.00737424 5:0.251908 6:0.00677388 
16384 1:-0.640978 2:-0.25189 3:-0.635209 4:-0.662046 5:-0.366836 6:-0.654119 
16384 1:-0.942668 2:-0.922263 3:-0.962129 4:-0.877447 5:-0.761163 6:-0.870222 
16384 1:-0.933643 2:-0.905461 3:-0.953217 4:-0.874705 5:-0.766724 6:-0.880965 
16384 1:-0.699146 2:-0.286338 3:-0.675339 4:-0.662405 5:-0.385738 6:-0.660702 
16384 1:-0.709778 2:-0.335743 3:-0.693508 4:-0.65183 5:-0.369104 6:-0.664352 
2689.64564716247 1:-0.46646 2:0.0924251 3:-0.471402 4:-0.703492 5:-0.479711 6:-0.702267 
16384 1:-0.804163 2:-0.696822 3:-0.804478 4:-0.616035 5:-0.294078 6:-0.740673 
5525.933153021747 1:-0.6366 2:-0.00133188 3:-0.558195 4:-0.663019 5:-0.372239 6:-0.655372 
712.5241296998245 1:-0.495856 2:-0.416221 3:-0.354437 4:-0.391438 5:-0.205894 6:-0.285803 
16384 1:-0.893088 2:-0.814656 3:-0.845646 4:-0.697812 5:-0.491729 6:-0.72894 
16384 1:-0.905249 2:-0.878237 3:-0.70778 4:-0.852613 5:-0.508273 6:-0.724356 
16384 1:-0.873367 2:-0.756558 3:-0.799181 4:-0.760403 5:-0.478263 6:-0.679254 
441.267367975491 1:-0.769006 2:-0.704884 3:-0.684907 4:-0.342681 5:-0.0708107 6:-0.270297 
16384 1:-0.942806 2:-0.9199 3:-0.845579 4:-0.82814 5:-0.577832 6:-0.790667 
14500.43661509837 1:-0.61738 2:-0.327679 3:-0.517031 4:-0.685884 5:-0.371919 6:-0.649241 
51.7435744673185 1:-0.230391 2:-0.198024 3:-0.365963 4:-0.456448 5:-0.0648869 6:-0.449058 
16384 1:-0.81148 2:-0.67011 3:-0.768607 4:-0.717411 5:-0.459561 6:-0.717004 
16384 1:-0.496181 2:-0.277839 3:-0.501749 4:-0.643658 5:-0.321488 6:-0.667632 
16384 1:-0.647833 2:-0.656564 3:-0.557468 4:-0.538833 5:-0.289313 6:-0.464462 
16384 1:-0.926012 2:-0.862887 3:-0.896148 4:-0.844417 5:-0.679661 6:-0.821354 
11255.96880097891 1:-0.789331 2:-0.676208 3:-0.828197 4:-0.562225 5:-0.299045 6:-0.63243 
16384 1:-0.883885 2:-0.772437 3:-0.888016 4:-0.796846 5:-0.657734 6:-0.790904 
970.4611379087885 1:-0.515433 2:-0.358654 3:-0.530387 4:-0.625778 5:-0.330434 6:-0.599221 
16384 1:-0.777987 2:-0.595941 3:-0.695973 4:-0.702645 5:-0.413602 6:-0.64131 
15898.67482359307 1:-0.514028 2:-0.0367008 3:-0.563289 4:-0.631473 5:-0.294837 6:-0.659788 
16384 1:-0.886293 2:-0.883005 3:-0.804555 4:-0.777571 5:-0.547671 6:-0.68857 
16384 1:-0.811395 2:-0.725629 3:-0.720795 4:-0.737444 5:-0.499281 6:-0.606251 
16384 1:-0.609685 2:-0.308601 3:-0.603439 4:-0.705513 5:-0.473643 6:-0.710554 
610.6194214488478 1:-0.660583 2:-0.650239 3:-0.584966 4:-0.673091 5:-0.389973 6:-0.516642 
16384 1:-0.79688 2:-0.755141 3:-0.730613 4:-0.687524 5:-0.325133 6:-0.675347 
16384 1:-0.612546 2:-0.124689 3:-0.612546 4:-0.672338 5:-0.40222 6:-0.672338 
16384 1:-0.657387 2:-0.343395 3:-0.688043 4:-0.724506 5:-0.465284 6:-0.709415 
16384 1:-0.923328 2:-0.88452 3:-0.959817 4:-0.866656 5:-0.74573 6:-0.873384 
16384 1:-0.875591 2:-0.808404 3:-0.75199 4:-0.778348 5:-0.581826 6:-0.746599 
16384 1:-0.932721 2:-0.840358 3:-0.872261 4:-0.81684 5:-0.633734 6:-0.803716 
16384 1:-0.88614 2:-0.783119 3:-0.774622 4:-0.824164 5:-0.558362 6:-0.763524 
16384 1:-0.92759 2:-0.72931 3:-0.931735 4:-0.48627 5:-0.236359 6:-0.474266 
260.2838343872052 1:-0.529985 2:-0.55627 3:-0.245783 4:-0.566596 5:-0.229094 6:-0.393977 
16384 1:-0.903163 2:-0.729985 3:-0.799764 4:-0.704381 5:-0.45469 6:-0.718172 
16384 1:-0.434938 2:-0.196649 3:-0.407107 4:-0.431104 5:-0.220443 6:-0.381971 
2351.850112939454 1:-0.722533 2:-0.620532 3:-0.755646 4:-0.585764 5:-0.164961 6:-0.62468 
16384 1:-0.827362 2:-0.907053 3:-0.822499 4:-0.755573 5:-0.572715 6:-0.698342 
16384 1:-0.641352 2:-0.622265 3:-0.641352 4:-0.382506 5:0.0478591 6:-0.382506 
16384 1:-0.790932 2:-0.681012 3:-0.724776 4:-0.729667 5:-0.445786 6:-0.685845 
2378.032765625832 1:-0.508829 2:0.0788147 3:-0.508829 4:-0.628999 5:-0.318211 6:-0.628999 
16384 1:-0.644 2:-0.359769 3:-0.610855 4:-0.714757 5:-0.443453 6:-0.69629 
3287.331035598752 1:-0.70809 2:-0.616444 3:-0.702076 4:-0.663525 5:-0.410877 6:-0.56293 
2203.004143884994 1:-0.871089 2:-0.866329 3:-0.762332 4:-0.564948 5:-0.141853 6:-0.477936 
16384 1:-0.846863 2:-0.850618 3:-0.604481 4:-0.853066 5:-0.487269 6:-0.746135 
5172.392396142813 1:-0.519713 2:0.00420729 3:-0.505346 4:-0.636832 5:-0.311073 6:-0.630659 
267.0310004161271 1:-0.206589 2:0.0913253 3:-0.201824 4:-0.284299 5:0.0217624 6:-0.297893 
16384 1:-0.728219 2:-0.511136 3:-0.812143 4:-0.746739 5:-0.535497 6:-0.744921 
682.351038967409 1:-0.767349 2:-0.762824 3:-0.61716 4:-0.646957 5:-0.413879 6:-0.527307 
16384 1:-0.934843 2:-0.843019 3:-0.865962 4:-0.809786 5:-0.621046 6:-0.808913 
0.00681541565761068 1:-0.959404 2:-0.825215 3:-0.953674 4:-0.623362 5:-0.320728 6:-0.647386 
16384 1:-0.793815 2:-0.716812 3:-0.665325 4:-0.705648 5:-0.400608 6:-0.596585 
15478.93511114097 1:-0.740588 2:-0.672927 3:-0.698816 4:-0.619519 5:-0.286029 6:-0.551275 
12624.39534286124 1:-0.592572 2:-0.0771688 3:-0.592147 4:-0.666358 5:-0.381505 6:-0.669856 
1154.171943534296 1:-0.624554 2:-0.095628 3:-0.624554 4:-0.766652 5:-0.568913 6:-0.766652 
16384 1:-0.75258 2:-0.546931 3:-0.698394 4:-0.657223 5:-0.326459 6:-0.647433 
16384 1:-0.91339 2:-0.843521 3:-0.885057 4:-0.798212 5:-0.545189 6:-0.79866 
16384 1:-0.741168 2:-0.55002 3:-0.69799 4:-0.665881 5:-0.392819 6:-0.630352 
3064.474518272295 1:-0.450098 2:0.101028 3:-0.511588 4:-0.710496 5:-0.463885 6:-0.733118 
16384 1:-0.822858 2:-0.772064 3:-0.693745 4:-0.6828 5:-0.403245 6:-0.61002 
16384 1:-0.44862 2:-0.0320931 3:-0.44862 4:-0.428154 5:-0.149329 6:-0.428154 
16384 1:-0.763464 2:-0.664208 3:-0.791144 4:-0.697478 5:-0.384268 6:-0.712198 
16384 1:-0.921117 2:-0.702988 3:-0.925057 4:-0.480541 5:-0.223421 6:-0.483015 
16384 1:-0.505762 2:-0.0559307 3:-0.569337 4:-0.613006 5:-0.329744 6:-0.660945 
1514.306725335081 1:-0.853346 2:-0.745976 3:-0.726021 4:-0.73997 5:-0.458364 6:-0.78951 
16384 1:-0.725016 2:-0.371536 3:-0.707418 4:-0.646348 5:-0.344249 6:-0.656528 
16384 1:-0.78874 2:-0.499478 3:-0.757078 4:-0.739578 5:-0.518569 6:-0.694386 
16384 1:-0.915171 2:-0.886664 3:-0.952697 4:-0.862528 5:-0.743251 6:-0.871203 
16384 1:-0.645922 2:-0.593776 3:-0.623965 4:-0.736498 5:-0.495162 6:-0.638282 
803.4601653725149 1:-0.679732 2:-0.27767 3:-0.659796 4:-0.631323 5:-0.311631 6:-0.706559 
16384 1:-0.766773 2:-0.50601 3:-0.711114 4:-0.771068 5:-0.574177 6:-0.790835 
979.3372114285413 1:-0.852995 2:-0.81941 3:-0.782828 4:-0.593012 5:-0.261879 6:-0.695271 
16384 1:-0.798412 2:-0.699492 3:-0.837424 4:-0.778691 5:-0.52007 6:-0.728123 
16384 1:-0.894755 2:-0.831191 3:-0.871179 4:-0.703904 5:-0.526744 6:-0.781754 
866.2980766477627 1:-0.924502 2:-0.746742 3:-0.923607 4:-0.498019 5:-0.239043 6:-0.508955 
10246.15278105432 1:-0.918874 2:-0.725972 3:-0.925584 4:-0.488675 5:-0.234537 6:-0.486351 
9027.302894926554 1:-0.885913 2:-0.822285 3:-0.884309 4:-0.709884 5:-0.539455 6:-0.785106 
16384 1:-0.522806 2:0.118151 3:-0.493238 4:-0.631053 5:-0.323418 6:-0.631053 
8533.730666875941 1:-0.643568 2:-0.198479 3:-0.613563 4:-0.781061 5:-0.588424 6:-0.78399 
16384 1:-0.861826 2:-0.665635 3:-0.813735 4:-0.735392 5:-0.521872 6:-0.760166 
16384 1:-0.90634 2:-0.819108 3:-0.895728 4:-0.719977 5:-0.422633 6:-0.771478 
13890.49327104721 1:-0.403769 2:-0.00156282 3:-0.408838 4:-0.413153 5:-0.170912 6:-0.417902 
16384 1:-0.924052 2:-0.75476 3:-0.923208 4:-0.48397 5:-0.225156 6:-0.489053 
16384 1:-0.827067 2:-0.706297 3:-0.808232 4:-0.671357 5:-0.456983 6:-0.710508 
16384 1:-0.951779 2:-0.939755 3:-0.957789 4:-0.882107 5:-0.761168 6:-0.870583 
1486.341358233255 1:-0.876585 2:-0.925376 3:-0.740453 4:-0.817167 5:-0.460865 6:-0.73083 
16384 1:-0.90007 2:-0.829362 3:-0.863283 4:-0.736456 5:-0.544127 6:-0.753122 
15183.04469002583 1:-0.563799 2:-0.103955 3:-0.677111 4:-0.648999 5:-0.323061 6:-0.677168 
16384 1:-0.582678 2:0.0494713 3:-0.524977 4:-0.663016 5:-0.372231 6:-0.646972 
14829.94185842604 1:-0.676377 2:-0.544597 3:-0.798139 4:-0.733933 5:-0.402142 6:-0.669714 
8885.542866119893 1:-0.567676 2:-0.432868 3:-0.530843 4:-0.563862 5:-0.246406 6:-0.479012 
16384 1:-0.679053 2:-0.665189 3:-0.606502 4:-0.654115 5:-0.381148 6:-0.506837 
863.638792106707 1:-0.787173 2:-0.679305 3:-0.83473 4:-0.866627 5:-0.653367 6:-0.809455 
16384 1:-0.628067 2:-0.487421 3:-0.718861 4:-0.61371 5:-0.352016 6:-0.590527 
16384 1:-0.64299 2:-0.34982 3:-0.649614 4:-0.664026 5:-0.380811 6:-0.653244 
16384 1:-0.817705 2:-0.892515 3:-0.822483 4:-0.759713 5:-0.580294 6:-0.698339 
16384 1:-0.843565 2:-0.703607 3:-0.767319 4:-0.760967 5:-0.481889 6:-0.729654 
16384 1:-0.862564 2:-0.804412 3:-0.794562 4:-0.709557 5:-0.503455 6:-0.697504 
12214.68944923828 1:-0.92599 2:-0.75241 3:-0.922266 4:-0.479043 5:-0.220646 6:-0.482144 
16384 1:-0.956506 2:-0.959439 3:-0.938416 4:-0.873646 5:-0.773965 6:-0.876934 
16384 1:-0.666388 2:-0.555559 3:-0.515672 4:-0.568188 5:-0.251302 6:-0.45861 
16384 1:-0.953664 2:-0.925132 3:-0.957136 4:-0.874386 5:-0.748007 6:-0.870311 
16384 1:-0.602485 2:-0.122692 3:-0.570188 4:-0.678366 5:-0.407337 6:-0.6745 
16384 1:-0.774161 2:-0.63435 3:-0.755777 4:-0.665037 5:-0.445882 6:-0.705402 
6106.873849620651 1:-0.661428 2:-0.631803 3:-0.579427 4:-0.572148 5:-0.200421 6:-0.572944 
8763.011956913202 1:-0.52434 2:0.0306914 3:-0.457808 4:-0.642388 5:-0.327052 6:-0.605078 
16384 1:-0.568701 2:0.0181114 3:-0.516814 4:-0.62748 5:-0.308982 6:-0.631901 
10041.95791323928 1:-0.773668 2:-0.716895 3:-0.702903 4:-0.685255 5:-0.337441 6:-0.663858 
16384 1:-0.642529 2:-0.269366 3:-0.665589 4:-0.702085 5:-0.436832 6:-0.715088 
16384 1:-0.921246 2:-0.855974 3:-0.90027 4:-0.789833 5:-0.555048 6:-0.710147 
16384 1:-0.832399 2:-0.7735 3:-0.811212 4:-0.772003 5:-0.489268 6:-0.700084 
16384 1:-0.942521 2:-0.914184 3:-0.960091 4:-0.872754 5:-0.777172 6:-0.869686 
16384 1:-0.671956 2:-0.48393 3:-0.575118 4:-0.713302 5:-0.445622 6:-0.666392 
16384 1:-0.848749 2:-0.64257 3:-0.835267 4:-0.599538 5:-0.254346 6:-0.757293 
16384 1:-0.399567 2:-0.140325 3:-0.417476 4:-0.370587 5:-0.0483789 6:-0.41091 
1983.175514132027 1:-0.929292 2:-0.730657 3:-0.923949 4:-0.480475 5:-0.224205 6:-0.47154 
16384 1:-0.935303 2:-0.843433 3:-0.866374 4:-0.814064 5:-0.633145 6:-0.801086 
16384 1:-0.733709 2:-0.640644 3:-0.720802 4:-0.457105 5:-0.167579 6:-0.462456 
1219.631323451038 1:-0.960623 2:-0.851426 3:-0.944961 4:-0.617142 5:-0.346295 6:-0.546621 
11192.98897731261 1:-0.574764 2:-0.524606 3:-0.53727 4:-0.534141 5:-0.179214 6:-0.515327 
16384 1:0.396864 2:0.722127 3:0.396864 4:0.0641788 5:0.424882 6:0.0641788 
16384 1:-0.795438 2:-0.669336 3:-0.820926 4:-0.743236 5:-0.534219 6:-0.754488 
53.85742268272935 1:0.0304486 2:0.26845 3:0.0124076 4:-0.0334345 5:0.221387 6:-0.170585 
16384 1:-0.90634 2:-0.819108 3:-0.895728 4:-0.719977 5:-0.422633 6:-0.771478 
16384 1:-0.877223 2:-0.819776 3:-0.801678 4:-0.667728 5:-0.457731 6:-0.698506 
16384 1:-0.521422 2:-0.269356 3:-0.633669 4:-0.647273 5:-0.289007 6:-0.653006 
16384 1:-0.667117 2:-0.595085 3:-0.604124 4:-0.669708 5:-0.311995 6:-0.552063 
16384 1:-0.83086 2:-0.686805 3:-0.77758 4:-0.594248 5:-0.260014 6:-0.666375 
16384 1:-0.725534 2:-0.366862 3:-0.703891 4:-0.647423 5:-0.357907 6:-0.658711 
16384 1:-0.818682 2:-0.79713 3:-0.722148 4:-0.673717 5:-0.414195 6:-0.650303 
1321.551566938608 1:-0.629858 2:-0.503051 3:-0.519236 4:-0.552012 5:-0.239879 6:-0.441899 
16384 1:-0.911304 2:-0.861298 3:-0.959223 4:-0.863435 5:-0.738483 6:-0.873586 
16384 1:-0.739139 2:-0.57455 3:-0.691365 4:-0.638453 5:-0.33212 6:-0.605816 
16384 1:-0.727766 2:-0.386851 3:-0.70741 4:-0.649713 5:-0.360079 6:-0.654327 
14786.16563570932 1:-0.764134 2:-0.720944 3:-0.760841 4:-0.622497 5:-0.242733 6:-0.645191 
16384 1:-0.942806 2:-0.9199 3:-0.845579 4:-0.82814 5:-0.577831 6:-0.790667 
16384 1:-0.902522 2:-0.885966 3:-0.803858 4:-0.7545 5:-0.434771 6:-0.583568 
16384 1:-0.829604 2:-0.661796 3:-0.801 4:-0.795473 5:-0.641071 6:-0.79162 
16384 1:-0.872763 2:-0.854893 3:-0.817427 4:-0.802705 5:-0.593609 6:-0.703626 
1796.899776029142 1:-0.709734 2:-0.636741 3:-0.739987 4:-0.367902 5:-0.0392991 6:-0.511905 
16384 1:-0.754942 2:-0.539348 3:-0.739569 4:-0.633352 5:-0.398422 6:-0.631869 
16384 1:-0.645793 2:-0.30989 3:-0.663947 4:-0.700218 5:-0.430542 6:-0.710853 
16384 1:-0.898894 2:-0.826839 3:-0.86522 4:-0.734756 5:-0.540514 6:-0.754266 
16384 1:-0.826733 2:-0.788211 3:-0.772132 4:-0.6508 5:-0.322271 6:-0.716851 
16384 1:-0.891647 2:-0.897717 3:-0.758032 4:-0.790752 5:-0.50153 6:-0.718134 
1082.034217914803 1:-0.474007 2:-0.0494046 3:-0.472355 4:-0.618203 5:-0.287227 6:-0.58908 
16384 1:-0.825523 2:-0.805949 3:-0.824899 4:-0.77544 5:-0.57104 6:-0.723533 
12432.91506840619 1:-0.726152 2:-0.365849 3:-0.703539 4:-0.647689 5:-0.347642 6:-0.660778 
16384 1:-0.809919 2:-0.731693 3:-0.729416 4:-0.515275 5:-0.254948 6:-0.50221 
16384 1:-0.883896 2:-0.772458 3:-0.889771 4:-0.796846 5:-0.657734 6:-0.790999 
5129.470040370566 1:-0.687715 2:-0.328275 3:-0.676041 4:-0.645822 5:-0.338129 6:-0.645469 
0.6821521151747295 1:-0.688714 2:-0.413652 3:-0.688714 4:-0.47492 5:-0.00516218 6:-0.47492 
16384 1:-0.879841 2:-0.787194 3:-0.845856 4:-0.694595 5:-0.531961 6:-0.710238 
16384 1:-0.906197 2:-0.87774 3:-0.801525 4:-0.760626 5:-0.444474 6:-0.597121 
5970.466342034196 1:-0.675465 2:-0.668764 3:-0.569963 4:-0.650986 5:-0.255224 6:-0.524814 
16384 1:-0.821142 2:-0.701181 3:-0.829692 4:-0.604515 5:-0.350293 6:-0.627642 
16384 1:-0.900159 2:-0.952736 3:-0.840955 4:-0.820319 5:-0.438138 6:-0.740239 
16384 1:-0.309862 2:-0.0785911 3:-0.260067 4:-0.293325 5:-0.0349809 6:-0.252417 
16384 1:-0.638655 2:-0.186745 3:-0.602408 4:-0.782093 5:-0.57973 6:-0.781003 
4764.619065066041 1:-0.555414 2:-0.561084 3:-0.720736 4:-0.667134 5:-0.328086 6:-0.676511 
16384 1:-0.794329 2:-0.730664 3:-0.803954 4:-0.744466 5:-0.606823 6:-0.749583 
16384 1:-0.84094 2:-0.791769 3:-0.792409 4:-0.735811 5:-0.513535 6:-0.748563 
16384 1:-0.902527 2:-0.88597 3:-0.803866 4:-0.754499 5:-0.434771 6:-0.583566 
897.7037165053729 1:-0.761042 2:-0.640143 3:-0.833001 4:-0.667394 5:-0.425457 6:-0.594842 
16384 1:-0.973986 2:-0.935954 3:-0.920106 4:-0.842622 5:-0.726227 6:-0.843992 
4827.324537741136 1:-0.691607 2:-0.599654 3:-0.593551 4:-0.58123 5:-0.261658 6:-0.460819 
85.41904842130235 1:-0.416384 2:-0.377717 3:-0.414938 4:-0.581427 5:-0.302119 6:-0.496661 
16384 1:-0.813764 2:-0.753859 3:-0.800439 4:-0.768014 5:-0.523032 6:-0.694331 
16384 1:-0.66145 2:-0.387946 3:-0.559545 4:-0.672066 5:-0.389748 6:-0.678351 
7763.408220872792 1:-0.744694 2:-0.567246 3:-0.694193 4:-0.668436 5:-0.348068 6:-0.620364 
58.0037737273736 1:-0.623265 2:-0.50895 3:-0.498654 4:-0.64554 5:-0.313306 6:-0.576437 
16384 1:-0.722809 2:-0.36037 3:-0.703286 4:-0.656153 5:-0.362716 6:-0.659148 
16384 1:-0.517086 2:0.0325315 3:-0.554533 4:-0.735114 5:-0.498205 6:-0.733517 
16384 1:-0.929074 2:-0.841779 3:-0.871256 4:-0.818654 5:-0.63665 6:-0.807161 
16384 1:-0.68522 2:-0.394268 3:-0.656359 4:-0.709839 5:-0.452847 6:-0.707775 
598.2010657078139 1:-0.86738 2:-0.695763 3:-0.86738 4:-0.648855 5:-0.425351 6:-0.648855 
16384 1:-0.541648 2:-0.244007 3:-0.540968 4:-0.644132 5:-0.280801 6:-0.648912 
16384 1:-0.900021 2:-0.890261 3:-0.875054 4:-0.766265 5:-0.558227 6:-0.712048 
16384 1:-0.816398 2:-0.714437 3:-0.742478 4:-0.733975 5:-0.500767 6:-0.68723 
2067.293766892393 1:-0.496092 2:-0.452241 3:-0.45395 4:-0.365107 5:-0.0303593 6:-0.324441 
15980.3947844007 1:-0.658992 2:-0.343765 3:-0.68381 4:-0.591312 5:-0.35868 6:-0.570902 
16384 1:-0.720504 2:-0.342957 3:-0.701398 4:-0.658323 5:-0.376367 6:-0.657253 
16384 1:-0.861512 2:-0.902983 3:-0.718509 4:-0.823097 5:-0.472097 6:-0.753432 
16384 1:-0.693046 2:-0.361448 3:-0.693046 4:-0.708351 5:-0.465774 6:-0.708351 
16384 1:-0.925211 2:-0.829664 3:-0.862596 4:-0.818061 5:-0.628083 6:-0.800789 
16384 1:-0.815442 2:-0.711314 3:-0.733938 4:-0.705404 5:-0.48312 6:-0.669998 
63.50912995869469 1:-0.0668666 2:0.131142 3:0.0764455 4:-0.230243 5:0.0724982 6:-0.203675 
566.8262602650665 1:-0.416384 2:-0.377717 3:-0.414938 4:-0.581427 5:-0.302119 6:-0.496661 
16384 1:-0.924724 2:-0.730245 3:-0.924746 4:-0.479048 5:-0.220653 6:-0.479048 
16384 1:-0.805154 2:-0.7334 3:-0.761075 4:-0.523902 5:-0.251195 6:-0.506264 
477.5571039307792 1:-0.64144 2:-0.524489 3:-0.473728 4:-0.582215 5:-0.107601 6:-0.475244 
16384 1:-0.627089 2:-0.135087 3:-0.604979 4:-0.70073 5:-0.442773 6:-0.684574 
16384 1:-0.638209 2:-0.23162 3:-0.601529 4:-0.714293 5:-0.420488 6:-0.716806 
16384 1:-0.86404 2:-0.86943 3:-0.782499 4:-0.759649 5:-0.430717 6:-0.700412 
2742.7795566467 1:-0.771932 2:-0.721181 3:-0.609333 4:-0.83363 5:-0.482622 6:-0.704488 
16384 1:-0.936924 2:-0.892826 3:-0.863096 4:-0.81748 5:-0.576928 6:-0.712105 
4318.554092826995 1:-0.735282 2:-0.645679 3:-0.696468 4:-0.332082 5:-0.0973242 6:-0.42161 
16384 1:-0.982661 2:-0.97705 3:-0.968129 4:-0.878342 5:-0.781839 6:-0.868101 
16384 1:-0.44862 2:-0.0320931 3:-0.44862 4:-0.428162 5:-0.149339 6:-0.428162 
16384 1:-0.64199 2:-0.527571 3:-0.514246 4:-0.729636 5:-0.443907 6:-0.603022 
16384 1:-0.95897 2:-0.954925 3:-0.856392 4:-0.8172 5:-0.60582 6:-0.761575 
16384 1:-0.780479 2:-0.709688 3:-0.70803 4:-0.686112 5:-0.348062 6:-0.58897 
16384 1:-0.76323 2:-0.70836 3:-0.629232 4:-0.724451 5:-0.404705 6:-0.600824 
12812.95716033595 1:-0.541531 2:-0.358104 3:-0.529707 4:-0.476026 5:-0.220653 6:-0.407734 
16384 1:-0.641208 2:-0.50016 3:-0.52892 4:-0.658104 5:-0.345314 6:-0.61796 
61.11452225696454 1:-0.0480193 2:-0.0663193 3:-0.0358972 4:-0.122938 5:0.140994 6:-0.0636425 
16384 1:-0.60468 2:-0.0329615 3:-0.504923 4:-0.658106 5:-0.347102 6:-0.695193 
16384 1:-0.42525 2:-0.163471 3:-0.404981 4:-0.336603 5:-0.041018 6:-0.407754 
16384 1:-0.748078 2:-0.641685 3:-0.729153 4:-0.820768 5:-0.593779 6:-0.767125 
5658.134081767076 1:-0.840501 2:-0.84896 3:-0.556448 4:-0.828289 5:-0.414505 6:-0.705619 
16384 1:0.136052 2:0.205796 3:0.16979 4:-0.257028 5:0.0197478 6:-0.162212 
16384 1:-0.792297 2:-0.656448 3:-0.765184 4:-0.731831 5:-0.508432 6:-0.767163 
16384 1:-0.906197 2:-0.87774 3:-0.801525 4:-0.760626 5:-0.444474 6:-0.597121 
16384 1:-0.584253 2:-0.29235 3:-0.590869 4:-0.661103 5:-0.397779 6:-0.699964 
16384 1:-0.803052 2:-0.705239 3:-0.792494 4:-0.726025 5:-0.521511 6:-0.742287 
1182.626444467533 1:-0.394519 2:-0.244633 3:-0.354841 4:-0.461678 5:-0.00772855 6:-0.454563 
16384 1:-0.922369 2:-0.712567 3:-0.927328 4:-0.488604 5:-0.235384 6:-0.480125 
16384 1:-0.978218 2:-0.941353 3:-0.920132 4:-0.845937 5:-0.726254 6:-0.844283 
7469.383983123963 1:-0.415833 2:-0.337015 3:-0.35131 4:-0.305101 5:-0.0672944 6:-0.310058 
16384 1:-0.723595 2:-0.368362 3:-0.693359 4:-0.64542 5:-0.355566 6:-0.658864 
7072.748068315788 1:-0.855286 2:-0.769776 3:-0.847128 4:-0.675551 5:-0.462317 6:-0.715526 
9154.973627139258 1:-0.919781 2:-0.715313 3:-0.924247 4:-0.483514 5:-0.228441 6:-0.47315 
16384 1:-0.938447 2:-0.89645 3:-0.859655 4:-0.815211 5:-0.578407 6:-0.710167 
16384 1:-0.604901 2:-0.344933 3:-0.679033 4:-0.699705 5:-0.402851 6:-0.751797 
16384 1:-0.91442 2:-0.866393 3:-0.959223 4:-0.863712 5:-0.739141 6:-0.873586 
16384 1:-0.830854 2:-0.722067 3:-0.799069 4:-0.668051 5:-0.448621 6:-0.709168 
9840.432108121315 1:-0.652633 2:-0.641118 3:-0.771627 4:-0.776712 5:-0.559269 6:-0.782368 
16384 1:-0.923418 2:-0.736539 3:-0.924352 4:-0.485306 5:-0.229558 6:-0.484663 
16384 1:-0.661306 2:-0.577351 3:-0.693297 4:-0.684723 5:-0.34339 6:-0.633133 
16384 1:-0.517256 2:0.0321722 3:-0.554613 4:-0.735121 5:-0.498221 6:-0.733523 
7566.322999795342 1:-0.523708 2:-0.00963906 3:-0.525851 4:-0.708902 5:-0.468108 6:-0.67769 
16384 1:-0.636113 2:-0.51842 3:-0.510575 4:-0.67495 5:-0.340635 6:-0.601383 
2687.834656609267 1:-0.427038 2:0.186126 3:-0.421777 4:-0.71634 5:-0.510739 6:-0.713211 
5672.983831743587 1:-0.713477 2:-0.493683 3:-0.633055 4:-0.578832 5:-0.231798 6:-0.499118 
8971.15818044954 1:-0.726373 2:-0.471335 3:-0.716733 4:-0.704141 5:-0.443318 6:-0.700819 
16384 1:-0.789396 2:-0.667574 3:-0.805741 4:-0.71632 5:-0.469468 6:-0.706018 
16384 1:-0.890229 2:-0.82129 3:-0.836532 4:-0.840291 5:-0.464221 6:-0.74489 
16384 1:0.136237 2:0.205892 3:0.169883 4:-0.25702 5:0.0197685 6:-0.162209 
16384 1:-0.89685 2:-0.947242 3:-0.842806 4:-0.774564 5:-0.337908 6:-0.660881 
6474.016470259709 1:-0.661538 2:-0.612291 3:-0.621847 4:-0.59222 5:-0.269011 6:-0.578604 
13.47370052327832 1:-0.7357 2:-0.542394 3:-0.816408 4:-0.698183 5:-0.49409 6:-0.704398 
16384 1:-0.621282 2:-0.305696 3:-0.60468 4:-0.644561 5:-0.324741 6:-0.619713 
16384 1:-0.903163 2:-0.729985 3:-0.799764 4:-0.704381 5:-0.45469 6:-0.718172 
16384 1:-0.562892 2:-0.263961 3:-0.541113 4:-0.695636 5:-0.432 6:-0.722711 
9291.606759561002 1:-0.638825 2:-0.503203 3:-0.627517 4:-0.720821 5:-0.435865 6:-0.678927 
16384 1:-0.669327 2:-0.310153 3:-0.666196 4:-0.64503 5:-0.342399 6:-0.637399 
16384 1:-0.822511 2:-0.752728 3:-0.749784 4:-0.526468 5:-0.261732 6:-0.527572 
13554.41059670867 1:-0.740433 2:-0.594842 3:-0.759665 4:-0.599276 5:-0.230343 6:-0.717899 
16384 1:-0.963089 2:-0.9481 3:-0.959775 4:-0.878674 5:-0.764358 6:-0.874259 
3876.543550800523 1:-0.735141 2:-0.635001 3:-0.628554 4:-0.600553 5:-0.23555 6:-0.452484 
16384 1:-0.687184 2:-0.569594 3:-0.62045 4:-0.684758 5:-0.433844 6:-0.631903 
16384 1:-0.928659 2:-0.884295 3:-0.882151 4:-0.826661 5:-0.701924 6:-0.838059 
16384 1:-0.743566 2:-0.477394 3:-0.7183 4:-0.67698 5:-0.400816 6:-0.678136 
16384 1:-0.744963 2:-0.64837 3:-0.674829 4:-0.704918 5:-0.474936 6:-0.712129 
16384 1:-0.715465 2:-0.491886 3:-0.710348 4:-0.601006 5:-0.315155 6:-0.60466 
11808.61818184746 1:-0.657079 2:-0.660654 3:-0.619913 4:-0.544561 5:-0.292087 6:-0.427959 
16384 1:-0.641352 2:-0.622265 3:-0.641352 4:-0.382514 5:0.0478467 6:-0.382514 
16384 1:-0.778909 2:-0.596652 3:-0.695774 4:-0.703207 5:-0.412175 6:-0.639994 
11914.86007719327 1:-0.86738 2:-0.695763 3:-0.86738 4:-0.648855 5:-0.425351 6:-0.648855 
5313.727481919773 1:-0.731805 2:-0.665402 3:-0.525875 4:-0.65058 5:-0.261905 6:-0.54244 
14173.74042430308 1:-0.678493 2:-0.55301 3:-0.673523 4:-0.596063 5:-0.250944 6:-0.502974 
16384 1:-0.821576 2:-0.747934 3:-0.795527 4:-0.73278 5:-0.523488 6:-0.750777 
16384 1:-0.54444 2:-0.336294 3:-0.525759 4:-0.444383 5:-0.186155 6:-0.43538 
16384 1:-0.92471 2:-0.749789 3:-0.924453 4:-0.479468 5:-0.221312 6:-0.463077 
6216.995276463696 1:-0.778542 2:-0.643934 3:-0.808434 4:-0.742749 5:-0.5866 6:-0.737477 
16384 1:-0.928347 2:-0.883285 3:-0.863053 4:-0.799561 5:-0.591335 6:-0.713916 
2891.669579792302 1:-0.268402 2:-0.164675 3:-0.246679 4:-0.320415 5:0.0268282 6:-0.23756 
3523.80628376814 1:-0.649623 2:-0.618689 3:-0.445774 4:-0.642625 5:-0.348904 6:-0.508141 
16384 1:0.136052 2:0.205796 3:0.16979 4:-0.257028 5:0.0197478 6:-0.162212 
16384 1:-0.69425 2:-0.266171 3:-0.675983 4:-0.658473 5:-0.380465 6:-0.666513 
29.50096416967845 1:-0.0309521 2:0.111771 3:0.0954365 4:-0.0967222 5:0.267561 6:-0.0153598 
16384 1:-0.606552 2:-0.255993 3:-0.562484 4:-0.667629 5:-0.35707 6:-0.68046 
16384 1:-0.921117 2:-0.702988 3:-0.925057 4:-0.480541 5:-0.223421 6:-0.483015 
16384 1:-0.715465 2:-0.491886 3:-0.710348 4:-0.601006 5:-0.315155 6:-0.60466 
2548.819565290594 1:-0.603633 2:-0.221944 3:-0.54946 4:-0.591425 5:-0.249559 6:-0.592933 
16384 1:-0.887942 2:-0.973084 3:-0.836531 4:-0.832126 5:-0.455125 6:-0.744895 
16384 1:-0.816398 2:-0.714437 3:-0.742478 4:-0.733976 5:-0.500767 6:-0.687231 
16384 1:-0.701094 2:-0.373255 3:-0.701983 4:-0.695356 5:-0.459623 6:-0.714255 
16384 1:-0.887398 2:-0.832334 3:-0.821024 4:-0.672708 5:-0.463142 6:-0.699 
16384 1:-0.60468 2:-0.0329615 3:-0.504923 4:-0.658107 5:-0.347104 6:-0.695194 
9896.693624180814 1:-0.65639 2:-0.480134 3:-0.592724 4:-0.765449 5:-0.548159 6:-0.752628 
16384 1:-0.641944 2:-0.516077 3:-0.544394 4:-0.694778 5:-0.392664 6:-0.621476 
16384 1:-0.660906 2:-0.387997 3:-0.606214 4:-0.699772 5:-0.389058 6:-0.692615 
16384 1:-0.872581 2:-0.771591 3:-0.849195 4:-0.69836 5:-0.488407 6:-0.76224 
16384 1:-0.650132 2:-0.499695 3:-0.584674 4:-0.660777 5:-0.378167 6:-0.612896 
4.170697576173903 1:-0.532388 2:-0.390795 3:-0.472398 4:-0.5075 5:-0.170639 6:-0.464518 
16384 1:-0.74238 2:-0.557083 3:-0.696369 4:-0.64247 5:-0.334552 6:-0.61724 
16384 1:-0.661083 2:-0.55267 3:-0.583726 4:-0.586203 5:-0.260895 6:-0.488467 
16384 1:-0.820171 2:-0.756681 3:-0.749782 4:-0.516406 5:-0.25371 6:-0.527561 
16384 1:-0.88026 2:-0.788763 3:-0.846047 4:-0.696963 5:-0.500175 6:-0.714787 
16384 1:-0.816398 2:-0.714437 3:-0.742478 4:-0.733976 5:-0.500767 6:-0.687231 
1661.674756351555 1:-0.320941 2:-0.256098 3:-0.362089 4:-0.505497 5:-0.192765 6:-0.407038 
445.9350939357175 1:-0.634195 2:-0.454177 3:-0.528983 4:-0.692366 5:-0.479662 6:-0.68242 
1667.640882092549 1:-0.484039 2:-0.238253 3:-0.410908 4:-0.398724 5:-0.150201 6:-0.380443 
16384 1:-0.809923 2:-0.714562 3:-0.848044 4:-0.745445 5:-0.554819 6:-0.706017 
16384 1:-0.834676 2:-0.6773 3:-0.755462 4:-0.563159 5:-0.234619 6:-0.541768 
16384 1:-0.524108 2:0.0349232 3:-0.499485 4:-0.625233 5:-0.304358 6:-0.630256 
16384 1:-0.902524 2:-0.88597 3:-0.803863 4:-0.7545 5:-0.434779 6:-0.583572 
16384 1:-0.754318 2:-0.474242 3:-0.690842 4:-0.721206 5:-0.493804 6:-0.711143 
16384 1:-0.742773 2:-0.644222 3:-0.707704 4:-0.762912 5:-0.514676 6:-0.638191 
16384 1:-0.798112 2:-0.726965 3:-0.742178 4:-0.525773 5:-0.255178 6:-0.496218 
16384 1:-0.64301 2:-0.276714 3:-0.670667 4:-0.700883 5:-0.433419 6:-0.716384 
16384 1:-0.930876 2:-0.848198 3:-0.857206 4:-0.86969 5:-0.696465 6:-0.824348 
16384 1:-0.517256 2:0.0321722 3:-0.554613 4:-0.735121 5:-0.498221 6:-0.733523 
16384 1:-0.840809 2:-0.851268 3:-0.779426 4:-0.793234 5:-0.516091 6:-0.672732 
14756.54482339532 1:-0.00486535 2:0.171281 3:0.0154959 4:-0.21595 5:0.139475 6:-0.19427 
16384 1:-0.787654 2:-0.688753 3:-0.842441 4:-0.755527 5:-0.540399 6:-0.72546 
3062.653382171885 1:-0.839246 2:-0.777554 3:-0.803063 4:-0.618644 5:-0.253951 6:-0.735472 
154.4018177813826 1:-0.661683 2:-0.45957 3:-0.830872 4:-0.559381 5:-0.297031 6:-0.647206 
3858.119134820441 1:-0.869022 2:-0.853429 3:-0.708273 4:-0.625218 5:-0.301679 6:-0.51769 
7178.015541534827 1:-0.675167 2:-0.685794 3:-0.523467 4:-0.528131 5:-0.269439 6:-0.434732 
16384 1:-0.821032 2:-0.664818 3:-0.783797 4:-0.719627 5:-0.41554 6:-0.7409 
11712.8045640883 1:-0.428714 2:0.137363 3:-0.428714 4:-0.676625 5:-0.41562 6:-0.676625 
16384 1:-0.77027 2:-0.699735 3:-0.814135 4:-0.7426 5:-0.544368 6:-0.735024 
16384 1:-0.797763 2:-0.754512 3:-0.743249 4:-0.752327 5:-0.522711 6:-0.737774 
6687.947454703075 1:-0.84878 2:-0.642617 3:-0.835292 4:-0.59954 5:-0.254347 6:-0.757292 
16384 1:-0.649389 2:-0.530948 3:-0.551512 4:-0.564429 5:-0.256676 6:-0.459496 
2.580556157849112 1:-0.0309521 2:0.111771 3:0.0954365 4:-0.0967222 5:0.267561 6:-0.0153598 
6158.909660634647 1:-0.483159 2:0.0995169 3:-0.634587 4:-0.617437 5:-0.289615 6:-0.63124 
15129.53781473878 1:-0.705187 2:-0.325982 3:-0.639938 4:-0.733146 5:-0.497568 6:-0.670336 
16384 1:-0.931923 2:-0.888133 3:-0.859065 4:-0.814935 5:-0.576515 6:-0.709451 
16384 1:-0.71035 2:-0.623784 3:-0.706934 4:-0.736642 5:-0.330955 6:-0.7041 
16384 1:-0.839168 2:-0.847467 3:-0.766679 4:-0.756722 5:-0.397217 6:-0.704852 
16384 1:-0.936204 2:-0.892384 3:-0.861783 4:-0.817518 5:-0.580336 6:-0.710982 
16384 1:-0.779745 2:-0.728643 3:-0.810414 4:-0.746502 5:-0.614509 6:-0.746107 
4960.037493541464 1:-0.801191 2:-0.677508 3:-0.806806 4:-0.610873 5:-0.275246 6:-0.743681 
5679.63253791874 1:-0.516086 2:-0.127148 3:-0.567899 4:-0.550194 5:-0.262797 6:-0.670759 
16384 1:-0.554936 2:0.0462285 3:-0.522265 4:-0.628985 5:-0.318179 6:-0.62925 
16384 1:-0.798112 2:-0.726965 3:-0.742178 4:-0.525773 5:-0.255178 6:-0.496218 
16384 1:-0.834388 2:-0.803769 3:-0.78896 4:-0.70603 5:-0.533425 6:-0.70653 
16384 1:-0.691378 2:-0.571193 3:-0.678058 4:-0.66656 5:-0.376616 6:-0.717377 
16384 1:-0.782704 2:-0.699018 3:-0.784149 4:-0.741442 5:-0.510092 6:-0.749522 
16384 1:-0.805307 2:-0.701235 3:-0.804286 4:-0.622284 5:-0.298834 6:-0.743583 
16384 1:-0.902526 2:-0.885971 3:-0.803865 4:-0.7545 5:-0.434779 6:-0.583572 
238.2519032058302 1:-0.44598 2:-0.186712 3:-0.375255 4:-0.382521 5:0.0675898 6:-0.33797 
16384 1:-0.931501 2:-0.739361 3:-0.924242 4:-0.487372 5:-0.232687 6:-0.485892 
16384 1:-0.700754 2:-0.289147 3:-0.677645 4:-0.662059 5:-0.385264 6:-0.658672 
16384 1:-0.928721 2:-0.896716 3:-0.958712 4:-0.874954 5:-0.760927 6:-0.870149 
16384 1:-0.612546 2:-0.124689 3:-0.612546 4:-0.672338 5:-0.40222 6:-0.672338 
2781.624190851544 1:-0.738564 2:-0.499402 3:-0.66432 4:-0.715476 5:-0.321252 6:-0.689682 
16384 1:-0.783495 2:-0.703721 3:-0.822294 4:-0.757504 5:-0.545654 6:-0.725729 
16384 1:-0.768975 2:-0.732064 3:-0.803358 4:-0.742507 5:-0.561642 6:-0.724148 
16384 1:-0.866418 2:-0.775702 3:-0.847826 4:-0.683471 5:-0.414205 6:-0.591597 
1281.034267246687 1:-0.0114416 2:-0.0938535 3:-0.342455 4:-0.242891 5:0.0351505 6:-0.413654 
16384 1:-0.660228 2:-0.617051 3:-0.720736 4:-0.736262 5:-0.4514 6:-0.676511 
11336.51346793366 1:-0.823411 2:-0.675519 3:-0.735843 4:-0.575942 5:-0.223619 6:-0.539735 
2832.678013786522 1:-0.68615 2:-0.363276 3:-0.570509 4:-0.725003 5:-0.46235 6:-0.705054 
15551.04743962675 1:-0.491328 2:-0.107102 3:-0.512764 4:-0.687651 5:-0.446987 6:-0.701807 
16384 1:-0.88169 2:-0.82557 3:-0.787932 4:-0.849366 5:-0.542676 6:-0.765478 
16384 1:-0.930804 2:-0.887186 3:-0.882151 4:-0.826661 5:-0.701924 6:-0.838059 
16384 1:-0.877998 2:-0.808223 3:-0.858033 4:-0.777743 5:-0.521564 6:-0.74247 
13144.08682825322 1:-0.73195 2:-0.324724 3:-0.723247 4:-0.704611 5:-0.453136 6:-0.658294 
16384 1:-0.86404 2:-0.86943 3:-0.782499 4:-0.759649 5:-0.430717 6:-0.700412 
16384 1:-0.533544 2:-0.516688 3:-0.347136 4:-0.583108 5:-0.276686 6:-0.484084 
12428.53826374493 1:-0.673657 2:-0.535373 3:-0.686346 4:-0.73869 5:-0.461631 6:-0.754951 
243.5830157741063 1:-0.0417943 2:-0.136746 3:-0.124092 4:-0.286213 5:-0.0446253 6:-0.229419 
16384 1:-0.763953 2:-0.591186 3:-0.698268 4:-0.686633 5:-0.396775 6:-0.63133 
16384 1:-0.736751 2:-0.552916 3:-0.702595 4:-0.673388 5:-0.374714 6:-0.631587 
7458.358427580867 1:-0.608264 2:-0.108932 3:-0.573852 4:-0.775713 5:-0.543667 6:-0.710153 
16384 1:-0.657404 2:-0.369854 3:-0.607897 4:-0.69512 5:-0.385213 6:-0.69258 
16384 1:-0.5283 2:-0.542861 3:-0.259259 4:-0.548083 5:-0.265599 6:-0.429346 
16384 1:-0.802726 2:-0.729337 3:-0.761075 4:-0.516568 5:-0.242172 6:-0.506264 
16384 1:-0.920168 2:-0.699796 3:-0.927423 4:-0.481746 5:-0.225891 6:-0.476975 
738.7802754601848 1:-0.679432 2:-0.537139 3:-0.649982 4:-0.777564 5:-0.610154 6:-0.791115 
16384 1:-0.943257 2:-0.901161 3:-0.862912 4:-0.824138 5:-0.581575 6:-0.714355 
9927.548607723647 1:-0.776213 2:-0.729026 3:-0.696249 4:-0.67963 5:-0.332914 6:-0.656903 
16384 1:-0.928619 2:-0.835203 3:-0.862958 4:-0.807192 5:-0.614721 6:-0.802293 
16384 1:0.108984 2:0.0257724 3:-0.163281 4:-0.180102 5:0.111834 6:-0.257477 
9066.986654388522 1:-0.498985 2:0.00259282 3:-0.47201 4:-0.604917 5:-0.263464 6:-0.602122 
16384 1:-0.902526 2:-0.885971 3:-0.803865 4:-0.7545 5:-0.434785 6:-0.583576 
16384 1:-0.93583 2:-0.843874 3:-0.867161 4:-0.815118 5:-0.632421 6:-0.802696 
2327.285535193989 1:-0.671859 2:-0.345805 3:-0.764443 4:-0.744902 5:-0.559437 6:-0.764142 
16384 1:-0.718766 2:-0.356555 3:-0.692871 4:-0.648734 5:-0.364998 6:-0.647051 
16384 1:-0.919114 2:-0.712165 3:-0.924196 4:-0.481209 5:-0.226419 6:-0.471379 
15608.05968013405 1:-0.681552 2:-0.681412 3:-0.711972 4:-0.695473 5:-0.452911 6:-0.763221 
16384 1:-0.941 2:-0.89777 3:-0.867675 4:-0.818374 5:-0.580865 6:-0.715645 
16384 1:-0.770083 2:-0.662464 3:-0.82814 4:-0.695433 5:-0.407377 6:-0.70043 
16384 1:-0.743154 2:-0.629554 3:-0.718807 4:-0.623922 5:-0.335173 6:-0.590404 
7117.992409900658 1:-0.763544 2:-0.383046 3:-0.767131 4:-0.61921 5:-0.379198 6:-0.620678 
388.3949008759649 1:-0.807242 2:-0.756705 3:-0.673817 4:-0.302537 5:-0.0652749 6:-0.26767 
16384 1:-0.937715 2:-0.899074 3:-0.80169 4:-0.859425 5:-0.558587 6:-0.7785 
0.3365170345734398 1:-0.516613 2:-0.551648 3:-0.229845 4:0.00737424 5:0.251908 6:0.00677388 
16384 1:-0.730771 2:-0.525247 3:-0.699312 4:-0.663942 5:-0.346876 6:-0.630045 
13029.02986164937 1:-0.411588 2:-0.165362 3:-0.38727 4:-0.361811 5:-0.0899836 6:-0.376126 
16384 1:-0.875541 2:-0.860191 3:-0.784468 4:-0.769539 5:-0.497965 6:-0.707208 
16384 1:-0.932928 2:-0.842807 3:-0.872438 4:-0.820041 5:-0.636622 6:-0.805215 
7194.437745678629 1:-0.682237 2:-0.656287 3:-0.652129 4:-0.729789 5:-0.407477 6:-0.700235 
7817.609792164962 1:-0.18334 2:-0.310762 3:-0.71526 4:-0.305425 5:-0.0343404 6:-0.587129 
16384 1:-0.686281 2:-0.637195 3:-0.722294 4:-0.607288 5:-0.323779 6:-0.631436 
16384 1:-0.721683 2:-0.367103 3:-0.694673 4:-0.652699 5:-0.365035 6:-0.656612 
13394.83114573106 1:-0.482799 2:-0.139939 3:-0.481078 4:-0.452711 5:-0.114729 6:-0.449828 
16384 1:-0.748617 2:-0.602948 3:-0.800184 4:-0.728683 5:-0.514068 6:-0.743992 
616.4917676123398 1:-0.621743 2:-0.455854 3:-0.559444 4:-0.502148 5:-0.184879 6:-0.461588 
16384 1:-0.957303 2:-0.936792 3:-0.963837 4:-0.872412 5:-0.774011 6:-0.87477 
15816.4379496161 1:-0.632825 2:-0.467572 3:-0.581957 4:-0.748175 5:-0.508285 6:-0.695363 
16384 1:-0.524051 2:-0.544698 3:-0.242874 4:-0.563184 5:-0.232098 6:-0.441174 
628.5302840325357 1:-0.742268 2:-0.549505 3:-0.607804 4:-0.689022 5:-0.436083 6:-0.666332 
16384 1:-0.635141 2:-0.520776 3:-0.596938 4:-0.575424 5:-0.231569 6:-0.465091 
16384 1:-0.728999 2:-0.392031 3:-0.709561 4:-0.648898 5:-0.360258 6:-0.653395 
16384 1:-0.629442 2:-0.537991 3:-0.535007 4:-0.721069 5:-0.434739 6:-0.607614 
1471.777556216412 1:-0.797866 2:-0.452506 3:-0.797866 4:-0.624406 5:-0.283133 6:-0.624406 
16384 1:-0.646254 2:-0.533733 3:-0.524846 4:-0.750898 5:-0.45276 6:-0.610746 
16384 1:-0.838902 2:-0.770419 3:-0.81025 4:-0.749242 5:-0.542627 6:-0.767622 
16384 1:-0.941983 2:-0.897888 3:-0.881853 4:-0.806429 5:-0.615912 6:-0.741465 
16384 1:-0.677315 2:-0.362578 3:-0.738444 4:-0.717777 5:-0.497947 6:-0.706756 
16384 1:-0.917942 2:-0.753219 3:-0.927654 4:-0.479048 5:-0.220653 6:-0.479048 
8540.561118890741 1:-0.813214 2:-0.755685 3:-0.846564 4:-0.841572 5:-0.460894 6:-0.74329 
16384 1:-0.504297 2:-0.0927476 3:-0.54332 4:-0.672136 5:-0.36415 6:-0.665165 
16384 1:-0.538683 2:0.0571675 3:-0.487947 4:-0.665987 5:-0.373604 6:-0.693091 
16384 1:-0.514182 2:0.0362999 3:-0.505929 4:-0.624528 5:-0.297265 6:-0.632506 
16384 1:-0.930091 2:-0.834034 3:-0.868213 4:-0.824792 5:-0.637788 6:-0.809915 
316.2420133670915 1:-0.116557 2:0.187892 3:-0.252963 4:-0.359556 5:-0.10896 6:-0.414555 
16384 1:-0.805924 2:-0.791056 3:-0.781449 4:-0.796377 5:-0.616271 6:-0.712892 
10283.84544265491 1:-0.526767 2:-0.0481388 3:-0.531747 4:-0.773243 5:-0.515149 6:-0.768036 
16384 1:-0.922528 2:-0.707266 3:-0.926604 4:-0.479048 5:-0.220653 6:-0.484581 
7195.46114864188 1:-0.922369 2:-0.712567 3:-0.927328 4:-0.488604 5:-0.235384 6:-0.480125 
16384 1:-0.941006 2:-0.89778 3:-0.867689 4:-0.818377 5:-0.580877 6:-0.715652 
9867.662571397383 1:-0.730289 2:-0.367522 3:-0.689511 4:-0.64731 5:-0.360174 6:-0.657159 
592.7257018473738 1:-0.610665 2:-0.533607 3:-0.520977 4:-0.713925 5:-0.402339 6:-0.595743 
2932.799962151968 1:-0.673654 2:-0.523957 3:-0.612139 4:-0.792228 5:-0.624754 6:-0.75781 
16142.78883732783 1:-0.740713 2:-0.476685 3:-0.668554 4:-0.667352 5:-0.348637 6:-0.708478 
16384 1:-0.960146 2:-0.939078 3:-0.843093 4:-0.839952 5:-0.638455 6:-0.746006 
14715.26836510357 1:-0.623363 2:-0.237125 3:-0.601474 4:-0.685437 5:-0.41899 6:-0.717457 
13271.24314024886 1:-0.934834 2:-0.940464 3:-0.757625 4:-0.858304 5:-0.508759 6:-0.745733 
3702.988019503012 1:-0.576984 2:0.00609871 3:-0.527192 4:-0.653743 5:-0.375396 6:-0.628844 
16384 1:-0.642019 2:-0.524892 3:-0.512093 4:-0.678549 5:-0.347489 6:-0.601383 
16384 1:-0.604388 2:-0.0720529 3:-0.578498 4:-0.689383 5:-0.421268 6:-0.67265 
16384 1:-0.846984 2:-0.649927 3:-0.770982 4:-0.55335 5:-0.33357 6:-0.500186 
16384 1:-0.740398 2:-0.549438 3:-0.69519 4:-0.663363 5:-0.391595 6:-0.623501 
16384 1:-0.93701 2:-0.894369 3:-0.945472 4:-0.873853 5:-0.74881 6:-0.867236 
16384 1:-0.72208 2:-0.491317 3:-0.717092 4:-0.675336 5:-0.381293 6:-0.709765 
2625.973943113995 1:-0.484805 2:-0.434648 3:-0.8155 4:-0.72347 5:-0.414753 6:-0.728903 
6439.318940454576 1:-0.0248828 2:-0.116064 3:-0.216862 4:-0.248033 5:0.040226 6:-0.313792 
16384 1:-0.817705 2:-0.892515 3:-0.822483 4:-0.759713 5:-0.580295 6:-0.69834 
16384 1:-0.759158 2:-0.58314 3:-0.712484 4:-0.689416 5:-0.399775 6:-0.657849 
26.11417282062784 1:-0.031753 2:-0.0379221 3:0.184508 4:-0.164652 5:0.0511987 6:-0.0209565 
16384 1:-0.970554 2:-0.940373 3:-0.847955 4:-0.829116 5:-0.634846 6:-0.75227 
16384 1:-0.923045 2:-0.8908 3:-0.947184 4:-0.872956 5:-0.763783 6:-0.870557 
4007.239693647314 1:-0.673256 2:-0.647553 3:-0.634782 4:-0.708888 5:-0.477629 6:-0.776637 
16384 1:-0.649224 2:-0.244117 3:-0.610003 4:-0.783186 5:-0.584388 6:-0.783107 
16384 1:-0.722557 2:-0.528725 3:-0.694802 4:-0.670337 5:-0.35796 6:-0.62102 
16384 1:-0.93026 2:-0.889647 3:-0.882686 4:-0.826412 5:-0.704562 6:-0.837548 
16384 1:-0.705979 2:-0.581801 3:-0.788262 4:-0.6656 5:-0.318908 6:-0.726189 
15496.8829326531 1:-0.594609 2:-0.569476 3:-0.666277 4:-0.68768 5:-0.372602 6:-0.640179 
16384 1:-0.804393 2:-0.725081 3:-0.780674 4:-0.705329 5:-0.450851 6:-0.714994 
16384 1:-0.902526 2:-0.885971 3:-0.803865 4:-0.7545 5:-0.434785 6:-0.583576 
16384 1:-0.7997 2:-0.684075 3:-0.733938 4:-0.692595 5:-0.465997 6:-0.669998 
16384 1:-0.767465 2:-0.625528 3:-0.80831 4:-0.667458 5:-0.445329 6:-0.716497 
16384 1:-0.705527 2:-0.539372 3:-0.676389 4:-0.605576 5:-0.388598 6:-0.647866 
16384 1:-0.982819 2:-0.972065 3:-0.941992 4:-0.880883 5:-0.774974 6:-0.875513 
16384 1:-0.822942 2:-0.754474 3:-0.796427 4:-0.73298 5:-0.524679 6:-0.751004 
191.1513418182449 1:-0.308364 2:-0.148094 3:-0.216178 4:-0.441741 5:-0.154923 6:-0.308351 
16384 1:-0.607221 2:-0.0352306 3:-0.504923 4:-0.658198 5:-0.347781 6:-0.695194 
16384 1:-0.884993 2:-0.820146 3:-0.848812 4:-0.783761 5:-0.598856 6:-0.732998 
455.531953824677 1:-0.959404 2:-0.825215 3:-0.953674 4:-0.623362 5:-0.320728 6:-0.647386 
7788.282519665183 1:-0.738034 2:-0.821391 3:-0.732245 4:-0.610344 5:-0.427944 6:-0.615357 
16384 1:-0.693046 2:-0.361448 3:-0.693046 4:-0.708351 5:-0.465774 6:-0.708351 
16384 1:-0.750923 2:-0.557969 3:-0.695674 4:-0.653237 5:-0.331043 6:-0.641371 
16384 1:-0.693046 2:-0.361448 3:-0.693046 4:-0.708357 5:-0.465789 6:-0.698867 
16384 1:-0.461732 2:-0.225979 3:-0.444062 4:-0.502755 5:-0.250305 6:-0.479439 
16384 1:-0.71243 2:-0.575628 3:-0.717988 4:-0.800032 5:-0.563063 6:-0.764075 
16384 1:-0.896722 2:-0.852208 3:-0.874916 4:-0.821834 5:-0.686556 6:-0.8322 
3680.820931309021 1:-0.386243 2:-0.223706 3:-0.278382 4:-0.410845 5:-0.136033 6:-0.384888 
16384 1:-0.586321 2:-0.0492034 3:-0.553093 4:-0.658494 5:-0.37581 6:-0.654664 
16384 1:-0.594449 2:0.0435634 3:-0.548567 4:-0.663019 5:-0.372239 6:-0.653518 
16384 1:-0.512699 2:0.0613613 3:-0.524954 4:-0.644763 5:-0.336229 6:-0.642285 
7168.069531742184 1:-0.645822 2:-0.53519 3:-0.50417 4:-0.727432 5:-0.446083 6:-0.598374 
3901.61619632415 1:-0.620352 2:-0.467911 3:-0.698494 4:-0.609123 5:-0.33784 6:-0.512511 
1228.399561176251 1:-0.221205 2:-0.343163 3:-0.723589 4:-0.338833 5:-0.0774424 6:-0.594552 
1490.328081773021 1:0.00114476 2:-0.10483 3:-0.233918 4:-0.241328 5:0.0420365 6:-0.307481 
711.6157270457159 1:-0.640674 2:-0.514944 3:-0.513289 4:-0.744322 5:-0.456553 6:-0.588619 
16384 1:-0.830289 2:-0.732344 3:-0.810476 4:-0.721935 5:-0.472032 6:-0.736274 
15.18597450302511 1:-0.0145535 2:0.32516 3:-0.0145535 4:-0.352253 5:-0.0443378 6:-0.352253 
16384 1:-0.896081 2:-0.892951 3:-0.824605 4:-0.715741 5:-0.418482 6:-0.605646 
16384 1:-0.843565 2:-0.703607 3:-0.767319 4:-0.760968 5:-0.481891 6:-0.729655 
16384 1:-0.699243 2:-0.374497 3:-0.703125 4:-0.694539 5:-0.433396 6:-0.706074 
3079.122467360092 1:-0.536295 2:-0.220846 3:-0.515904 4:-0.711544 5:-0.449094 6:-0.694748 
16384 1:-0.571366 2:0.0231621 3:-0.531663 4:-0.658966 5:-0.357117 6:-0.642888 
16384 1:-0.887775 2:-0.797886 3:-0.861925 4:-0.785236 5:-0.535684 6:-0.753266 
16384 1:-0.805241 2:-0.70652 3:-0.848984 4:-0.743764 5:-0.554056 6:-0.706392 
16384 1:-0.811128 2:-0.65752 3:-0.71266 4:-0.602502 5:-0.345932 6:-0.56393 
1060.81642534216 1:-0.926251 2:-0.751884 3:-0.929713 4:-0.488103 5:-0.236732 6:-0.467142 
16384 1:-0.745475 2:-0.608532 3:-0.693793 4:-0.69424 5:-0.389627 6:-0.618266 
16384 1:-0.710835 2:-0.302714 3:-0.695681 4:-0.658474 5:-0.380468 6:-0.661267 
16384 1:-0.863645 2:-0.794414 3:-0.81818 4:-0.777338 5:-0.558375 6:-0.698051 
8292.213711053928 1:-0.610665 2:-0.533607 3:-0.520977 4:-0.713925 5:-0.402339 6:-0.595743 
16384 1:-0.97504 2:-0.961721 3:-0.960533 4:-0.879566 5:-0.758267 6:-0.872914 
16384 1:-0.547527 2:-0.422957 3:-0.586574 4:-0.567335 5:-0.230918 6:-0.523022 
16384 1:-0.893851 2:-0.823454 3:-0.751998 4:-0.792111 5:-0.581448 6:-0.746601 
16384 1:-0.698903 2:-0.688947 3:-0.618951 4:-0.580592 5:-0.318236 6:-0.48383 
13782.54577659322 1:-0.70809 2:-0.616444 3:-0.702076 4:-0.663525 5:-0.410877 6:-0.56293 
16384 1:-0.528279 2:-0.0533629 3:-0.623708 4:-0.637401 5:-0.30001 6:-0.664187 
12818.27557792009 1:-0.722285 2:-0.597825 3:-0.606487 4:-0.485262 5:-0.21131 6:-0.471621 
1802.867809657009 1:-0.491328 2:-0.107102 3:-0.512764 4:-0.687651 5:-0.446987 6:-0.701807 
16384 1:-0.517086 2:0.0325315 3:-0.554533 4:-0.735114 5:-0.498205 6:-0.733517 
16384 1:-0.893376 2:-0.834978 3:-0.849727 4:-0.70931 5:-0.537758 6:-0.713767 
1751.354937780729 1:-0.637687 2:-0.17728 3:-0.602408 4:-0.780927 5:-0.578056 6:-0.781004 
16384 1:-0.638209 2:-0.23162 3:-0.601529 4:-0.71429 5:-0.420481 6:-0.716804 
16384 1:-0.675769 2:-0.562641 3:-0.585658 4:-0.606559 5:-0.28094 6:-0.460209 
16384 1:-0.879155 2:-0.82387 3:-0.801532 4:-0.666684 5:-0.456306 6:-0.695611 
16384 1:-0.798007 2:-0.5518 3:-0.741156 4:-0.71425 5:-0.491832 6:-0.70906 
1717.601068896465 1:0.051567 2:-0.0283976 3:-0.154681 4:-0.202905 5:0.0909971 6:-0.251006 
10220.15051157803 1:-0.913637 2:-0.869688 3:-0.758007 4:-0.703744 5:-0.321325 6:-0.651602 
5683.23678568866 1:-0.714781 2:-0.310804 3:-0.699006 4:-0.657474 5:-0.373759 6:-0.651471 
857.6268001991185 1:-0.323092 2:-0.205969 3:-0.123697 4:-0.274253 5:-0.0176653 6:-0.152858 
16384 1:-0.652091 2:-0.652522 3:-0.733811 4:-0.695105 5:-0.260281 6:-0.563371 
16384 1:-0.881693 2:-0.825571 3:-0.787934 4:-0.849365 5:-0.542673 6:-0.765478 
16384 1:-0.866011 2:-0.759709 3:-0.840074 4:-0.694255 5:-0.486419 6:-0.733847 
16384 1:-0.937354 2:-0.89417 3:-0.943782 4:-0.871616 5:-0.75313 6:-0.86652 
48.26049953551554 1:-0.328489 2:-0.137915 3:-0.115563 4:-0.137732 5:0.155327 6:-0.2661 
12837.3143996633 1:-0.342372 2:-0.366454 3:-0.730628 4:-0.311274 5:-0.0658542 6:-0.597131 
16384 1:-0.923499 2:-0.704098 3:-0.929561 4:-0.4892 5:-0.235415 6:-0.476409 
16384 1:-0.795973 2:-0.701643 3:-0.72476 4:-0.721949 5:-0.440937 6:-0.685846 
16384 1:-0.976294 2:-0.978767 3:-0.935369 4:-0.890815 5:-0.775999 6:-0.876271 
16384 1:-0.414513 2:-0.155287 3:-0.441398 4:-0.393231 5:-0.0732385 6:-0.43343 
90.61725578202761 1:-0.0572839 2:-0.334231 3:-0.0572839 4:-0.236318 5:0.162721 6:-0.236318 
16384 1:-0.930848 2:-0.836409 3:-0.862273 4:-0.822799 5:-0.644163 6:-0.807323 
16384 1:-0.512699 2:0.0613613 3:-0.524954 4:-0.644761 5:-0.336225 6:-0.642284 
126.2236078473655 1:-0.0309521 2:0.111771 3:0.0954365 4:-0.0967222 5:0.267561 6:-0.0153598 
16384 1:-0.496181 2:-0.277839 3:-0.501749 4:-0.643658 5:-0.321485 6:-0.667629 
15011.25890575514 1:-0.769409 2:-0.651831 3:-0.742769 4:-0.607517 5:-0.220584 6:-0.706506 
16384 1:-0.823133 2:-0.720895 3:-0.822607 4:-0.67404 5:-0.370009 6:-0.713141 
6729.655560377635 1:-0.75027 2:-0.548557 3:-0.729269 4:-0.723823 5:-0.52069 6:-0.722657 
16384 1:-0.838939 2:-0.798205 3:-0.858736 4:-0.775054 5:-0.611564 6:-0.760235 
16384 1:-0.937639 2:-0.894016 3:-0.863595 4:-0.818037 5:-0.578129 6:-0.712523 
16384 1:-0.815816 2:-0.686258 3:-0.847128 4:-0.671522 5:-0.459367 6:-0.715526 
16384 1:-0.517924 2:-0.401894 3:-0.455435 4:-0.52752 5:-0.22082 6:-0.510604 
16384 1:-0.643568 2:-0.198479 3:-0.613563 4:-0.781061 5:-0.588423 6:-0.783989 
16384 1:-0.705135 2:-0.348054 3:-0.697345 4:-0.639887 5:-0.338513 6:-0.66002 
16384 1:-0.496181 2:-0.277839 3:-0.501749 4:-0.643658 5:-0.321488 6:-0.667632 
16384 1:-0.620297 2:-0.107202 3:-0.588604 4:-0.721825 5:-0.49935 6:-0.70704 
13086.67945514165 1:-0.182926 2:-0.310653 3:-0.718306 4:-0.305414 5:-0.0343155 6:-0.582571 
5914.904435868826 1:-0.781353 2:-0.706642 3:-0.783808 4:-0.664462 5:-0.364791 6:-0.508234 
16384 1:-0.806162 2:-0.671724 3:-0.761951 4:-0.659344 5:-0.356167 6:-0.695681 
8867.221500411642 1:-0.640674 2:-0.514944 3:-0.513289 4:-0.744322 5:-0.456553 6:-0.588619 
16384 1:-0.880516 2:-0.808138 3:-0.837153 4:-0.838781 5:-0.462249 6:-0.742544 
5468.27974549962 1:-0.453163 2:-0.222699 3:-0.416146 4:-0.355917 5:-0.0563736 6:-0.4006 
16384 1:-0.98218 2:-0.973474 3:-0.966544 4:-0.878069 5:-0.781069 6:-0.877351 
11017.31264242843 1:-0.579436 2:-0.434672 3:-0.749073 4:-0.569836 5:-0.219374 6:-0.667998 
16384 1:-0.917721 2:-0.715776 3:-0.925017 4:-0.48649 5:-0.232166 6:-0.478059 
8361.739742745111 1:-0.747098 2:-0.741465 3:-0.620365 4:-0.647547 5:-0.390851 6:-0.524207 
16384 1:-0.883885 2:-0.772437 3:-0.888016 4:-0.796846 5:-0.657734 6:-0.790904 
16384 1:-0.807461 2:-0.633552 3:-0.73587 4:-0.698592 5:-0.470435 6:-0.646385 
5656.582042739411 1:-0.385831 2:-0.0854471 3:-0.372322 4:-0.432299 5:-0.173442 6:-0.423179 
16384 1:-0.699818 2:-0.550468 3:-0.605985 4:-0.525161 5:-0.232483 6:-0.454503 
16384 1:-0.512294 2:0.0381887 3:-0.506024 4:-0.620021 5:-0.291213 6:-0.629899 
13129.75969632349 1:-0.706333 2:-0.702432 3:-0.578301 4:-0.602702 5:-0.343773 6:-0.482312 
16384 1:-0.939474 2:-0.896054 3:-0.865844 4:-0.817867 5:-0.583107 6:-0.718575 
16384 1:-0.92072 2:-0.716738 3:-0.924418 4:-0.479043 5:-0.220646 6:-0.489215 
16384 1:-0.66079 2:-0.559101 3:-0.667749 4:-0.673476 5:-0.406553 6:-0.633119 
16384 1:-0.582246 2:-0.0975994 3:-0.577415 4:-0.660186 5:-0.370885 6:-0.66198 
8677.76394523033 1:-0.918874 2:-0.725972 3:-0.925584 4:-0.488675 5:-0.234537 6:-0.486351 
16384 1:-0.725063 2:-0.366006 3:-0.690082 4:-0.649834 5:-0.363815 6:-0.653093 
16384 1:-0.782935 2:-0.71742 3:-0.716819 4:-0.488607 5:-0.222101 6:-0.441755 
16384 1:-0.635158 2:-0.611994 3:-0.538776 4:-0.593337 5:-0.298765 6:-0.557616 
16384 1:-0.846193 2:-0.784043 3:-0.82278 4:-0.787056 5:-0.554806 6:-0.739966 
217.28469400255 1:-0.282925 2:-0.175782 3:-0.307574 4:-0.370965 5:0.0230518 6:-0.343405 
3846.676751663112 1:-0.619389 2:-0.465316 3:-0.604755 4:-0.720633 5:-0.427893 6:-0.666469 
