svm_type c_svc
kernel_type rbf
gamma 2
nr_class 2
total_sv 8097
rho 0.511386
label 1 0
probA -2.82354
probB 0.873166
nr_sv 3786 4311
SV
2 1:-0.4736 2:-0.00142258 3:-0.6725 4:-0.42155 5:0.319529 6:-0.422857 7:-0.696035 
2 1:-0.5942 2:0.110735 3:0.426667 4:-0.155504 5:0.151293 6:-0.342643 7:0.99999 
2 1:-0.708 2:0.229626 3:-0.84275 4:-0.419157 5:0.151293 6:-0.0876429 7:-0.994932 
2 1:0 2:0.122432 3:-0.415287 4:-0.133783 5:0.354025 6:-0.313048 7:-0.167338 
1.98053219204527 1:0.1142 2:0.221187 3:-0.373796 4:-0.0663689 5:-0.10412 6:-0.14619 7:-0.955382 
2 1:-0.9518 2:-0.402747 3:0.187778 4:-0.363607 5:0.0397208 6:-0.452054 7:0.674887 
1.208406805088677 1:-0.5762 2:0.420893 3:-0.0294203 4:-0.421061 5:0.151293 6:-0.0597857 7:-0.208853 
2 1:-0.5016 2:0.464816 3:-0.605144 4:-0.0395689 5:-0.10412 6:0.0196429 7:-0.952664 
2 1:-0.52 2:-0.402747 3:-0.939444 4:-0.270042 5:0.567747 6:-0.461957 7:-0.983149 
2 1:-0.1754 2:0.283383 3:0.167521 4:-0.583551 5:-0.10412 6:-0.346071 7:0.659295 
2 1:-0.5738 2:0.317081 3:-0.128889 4:-0.440411 5:-0.0270449 6:-0.197959 7:-0.63381 
2 1:-0.8516 2:0.0148408 3:-0.302353 4:-0.201576 5:0.0986123 6:-0.370952 7:-0.950059 
2 1:-0.7058 2:-0.232472 3:-0.895667 4:-0.0266711 5:-0.10412 6:-0.44 7:-0.980824 
0.927340077197822 1:-0.37 2:0.229626 3:0.404234 4:-0.0872778 5:0.242453 6:-0.222679 7:0.736709 
2 1:0.2168 2:0.488636 3:-0.330667 4:-0.292776 5:0.151293 6:-0.361929 7:0.999956 
2 1:-0.5518 2:0.401564 3:-0.229949 4:-0.0767581 5:0.319529 6:-0.544592 7:-0.974911 
2 1:-0.2648 2:0.304008 3:-0.288681 4:-0.02465 5:0.386294 6:-0.468125 7:0.418332 
2 1:-0.6596 2:0.2904 3:-0.650435 4:-0.425135 5:0.386294 6:-0.442232 7:0.991507 
2 1:-0.885 2:-0.232472 3:-0.165333 4:-0.401547 5:0.282475 6:-0.450824 7:-0.0193256 
2 1:-0.9702 2:-0.537902 3:0.465 4:-0.389008 5:-0.195281 6:-0.352143 7:0.968217 
2 1:-0.6974 2:0.237857 3:0.0418333 4:-0.344331 5:0.416607 6:-0.212059 7:0.853854 
2 1:-0.3684 2:-0.171698 3:-0.197879 4:-0.703285 5:-0.195281 6:-0.445714 7:-0.533585 
2 1:-0.8328 2:0.155245 3:0.38125 4:-0.225179 5:0.0986123 6:-0.474603 7:0.940061 
2 1:0.5922 2:0.468906 3:-0.112593 4:-0.03596 5:-0.10412 6:-0.491548 7:-0.850778 
2 1:-0.5714 2:0.24589 3:-0.641382 4:-0.20743 5:0.0397208 6:-0.172321 7:-0.685127 
2 1:-0.8614 2:-0.351363 3:0.0666667 4:-0.119246 5:-0.0270449 6:-0.532755 7:1 
2 1:-0.6864 2:0.203639 3:-0.792941 4:-0.422669 5:0.198948 6:-0.414481 7:-0.869407 
2 1:-0.5784 2:0.283383 3:-0.799787 4:-0.150798 5:0.282475 6:-0.593846 7:-0.956841 
2 1:-0.3636 2:-0.351363 3:-0.70619 4:-0.720223 5:0.198948 6:-0.382013 7:-0.709581 
2 1:-0.8344 2:0.0986123 3:-0.360617 4:-0.341925 5:0.151293 6:-0.333714 7:-0.919641 
2 1:-0.546 2:0.155245 3:0.0790625 4:-0.359314 5:0.319529 6:-0.390204 7:0.999996 
2 1:-0.931 2:-1 3:0.346667 4:-0.295413 5:-0.450694 6:-0.445952 7:-0.999582 
2 1:-0.5406 2:0.310609 3:-0.467267 4:-0.71531 5:-0.0270449 6:-0.421633 7:-0.00292472 
2 1:-0.2558 2:0.386294 3:-0.653065 4:-0.252533 5:0.319529 6:-0.57352 7:-0.577122 
2 1:-0.9038 2:-0.0973166 3:-0.601778 4:-0.0141633 5:0.0397208 6:-0.280714 7:-0.70135 
2 1:0.156 2:0.381045 3:0.00896175 4:-0.153853 5:0.0397208 6:-0.251518 7:0.998009 
2 1:-0.8806 2:-0.00142258 3:-0.91193 4:-0.830222 5:-0.450694 6:-0.572619 7:-0.945425 
2 1:0.2364 2:0.175454 3:-0.151569 4:0.0945648 5:0.545521 6:-0.510097 7:-0.273323 
2 1:0 2:-0.537902 3:0.37 4:-0.319427 5:0.151293 6:-0.451143 7:0.988515 
2 1:-0.7464 2:-0.0365427 3:-0.663889 4:-0.714187 5:-0.0270449 6:-0.383673 7:-0.263677 
2 1:-0.7372 2:0.0451647 3:-0.777971 4:-0.249612 5:0.0986123 6:-0.46619 7:-0.573855 
2 1:-0.6778 2:0.2904 3:-0.745069 4:-0.572984 5:0.151293 6:-0.295714 7:-0.900567 
2 1:-0.7508 2:0.212529 3:-0.674737 4:-0.066936 5:0.151293 6:-0.527143 7:-0.0153815 
2 1:-0.3956 2:0.335778 3:-0.545556 4:-0.400693 5:-0.0270449 6:-0.578469 7:-0.237633 
0.4350877500903707 1:0.9592 2:0.2904 3:0.654894 4:-0.396696 5:0.242453 6:0.00190476 7:1 
1.961588599768467 1:-0.277 2:0.283383 3:-0.265758 4:-0.294665 5:0.282475 6:-0.431319 7:0.954557 
2 1:-0.6592 2:0.323431 3:-0.505064 4:-0.593247 5:0.282475 6:-0.496648 7:-0.953253 
2 1:-0.8596 2:-0.00142258 3:-0.482333 4:-0.217465 5:0.319529 6:-0.417857 7:-0.698419 
2 1:-0.6992 2:-0.00142258 3:-0.313667 4:0.12592 5:0.282475 6:-0.490495 7:0.603792 
2 1:-0.3846 2:-0.537902 3:-0.429167 4:-0.216323 5:0.0397208 6:-0.479375 7:0.000105 
2 1:-0.4286 2:-0.768951 3:0.33 4:-0.348821 5:0.0986123 6:-0.326587 7:1 
2 1:0.1558 2:0.705998 3:-0.645429 4:0.0907365 5:0.522261 6:-0.264422 7:-0.737649 
1.900631891276312 1:0.2 2:0.452236 3:-0.392667 4:-0.752227 5:-0.653426 6:-0.1725 7:-0.205379 
2 1:-0.5906 2:0.452236 3:0.204035 4:-0.609861 5:0.0986123 6:-0.282937 7:-0.421407 
1.75172735625293 1:0.0154 2:0.165503 3:-0.678556 4:-0.400465 5:0.198948 6:-0.180974 7:-0.852008 
2 1:-0.6894 2:0.304008 3:-0.605333 4:-0.304548 5:0.282475 6:-0.397802 7:-0.960279 
2 1:-0.9428 2:-1 3:-0.936667 4:-0.177378 5:-0.10412 6:-0.576429 7:-0.94577 
2 1:-0.142 2:0.658911 3:-0.885563 4:-0.229686 5:0.445186 6:-0.582738 7:-0.942768 
2 1:-0.976 2:-0.537902 3:-0.5925 4:-0.249284 5:-0.0270449 6:-0.403571 7:-0.771633 
2 1:-0.7728 2:0.194506 3:-0.345686 4:-0.878553 5:-0.306853 6:-0.287143 7:-0.889952 
2 1:0.2872 2:0.741916 3:0.120703 4:-0.325845 5:0.497866 6:-0.362464 7:0.864451 
2 1:-0.8416 2:-0.0185203 3:-0.313333 4:-0.259093 5:0.0397208 6:-0.168125 7:0.636059 
2 1:-0.6122 2:0.386294 3:-0.575789 4:-0.711781 5:0.354025 6:-0.244381 7:-0.94836 
2 1:-0.6066 2:0.2904 3:-0.722889 4:-0.749029 5:-0.195281 6:-0.529286 7:-0.952533 
2 1:-0.7598 2:0.253733 3:-0.688374 4:0.0427418 5:0.198948 6:-0.278052 7:-0.669362 
2 1:-0.7958 2:0.0593513 3:-0.832639 4:-0.477929 5:0.0986123 6:-0.300714 7:-0.768734 
2 1:-0.4884 2:-0.200702 3:-0.433636 4:-0.00859048 5:0.522261 6:-0.552517 7:-0.935555 
1.58942297277363 1:0.1396 2:0.297273 3:0.0121986 4:-0.0313274 5:0.0986123 6:-0.42754 7:0.938404 
2 1:-0.6154 2:-0.463521 3:0.159333 4:-0.146619 5:0.282475 6:-0.468956 7:0.605892 
2 1:0 2:-1 3:-0.363333 4:-0.49408 5:-0.306853 6:-0.375893 7:1 
1.467792570844681 1:0.1724 2:0.480884 3:-0.238153 4:-0.335923 5:0.386294 6:-0.300179 7:-0.603442 
2 1:-0.7344 2:0.297273 3:-0.257619 4:-0.167371 5:-0.0270449 6:-0.499286 7:0.825215 
2 1:-0.359 2:0.304008 3:0.345486 4:-0.00393569 5:0.416607 6:-0.431975 7:0.505259 
2 1:-0.779 2:-0.0185203 3:-0.147544 4:-0.569735 5:0.354025 6:-0.275667 7:-0.223445 
2 1:-0.45 2:-0.200702 3:-0.0993333 4:-0.420284 5:0.242453 6:-0.335298 7:-0.324212 
2 1:-0.3194 2:0.297273 3:0.171773 4:-0.415389 5:0.198948 6:-0.286039 7:0.30056 
2 1:0.03 2:0.484782 3:-0.367326 4:-0.0718191 5:0.567747 6:-0.475932 7:0.436915 
2 1:-0.781 2:0.203639 3:-0.523333 4:-0.562424 5:0.0986123 6:-0.407619 7:-0.79138 
2 1:0 2:0.0451647 3:0.172174 4:-0.108187 5:0.386294 6:-0.398616 7:0.591399 
0.9368730136109666 1:0.3334 2:-0.171698 3:-0.265455 4:-0.409403 5:0.151293 6:-0.504714 7:-0.540343 
2 1:-0.2666 2:0.335778 3:-0.704444 4:-0.326964 5:0.522261 6:-0.521565 7:-0.886428 
2 1:-0.4908 2:0.472947 3:-0.746138 4:-0.587992 5:-0.0270449 6:-0.405204 7:-0.948431 
2 1:-0.55 2:0.425555 3:-0.0361836 4:-0.596187 5:0.242453 6:-0.494226 7:-0.791368 
1.65627028649891 1:-0.4492 2:-0.0185203 3:0.0485965 4:-0.472947 5:0.0397208 6:-0.0263393 7:-0.15646 
2 1:-0.1206 2:0.375711 3:-0.728172 4:-0.370345 5:0.354025 6:-0.37 7:-0.933615 
2 1:0.1314 2:0.341784 3:-0.191636 4:-0.352255 5:0.0986123 6:-0.498254 7:-0.671693 
2 1:-0.675 2:0.276214 3:-0.36471 4:-0.233366 5:0.319529 6:-0.369286 7:-0.969559 
2 1:0.018 2:0.480884 3:0.0838034 4:-0.173271 5:0.0986123 6:-0.316587 7:0.846195 
2 1:-0.6138 2:0.268887 3:-0.151185 4:-0.406704 5:-0.195281 6:-0.303286 7:-0.291565 
2 1:-0.7236 2:0.212529 3:-0.255253 4:-0.367741 5:0.319529 6:-0.475969 7:-0.510128 
2 1:-0.4506 2:0.0729586 3:0.1468 4:0.054832 5:0.354025 6:-0.356952 7:-0.855456 
2 1:-0.1304 2:-0.232472 3:0.488667 4:-0.493879 5:0.0986123 6:-0.470476 7:0.361887 
1.410094692918955 1:0.423 2:0.203639 3:0.111071 4:-0.55185 5:0.0397208 6:-0.319732 7:-0.934996 
2 1:-0.9334 2:-1 3:0.313333 4:-0.411556 5:-0.450694 6:-0.445952 7:-0.999582 
2 1:0.1398 2:0.797876 3:0.235921 4:-0.0324095 5:0.666102 6:-0.484388 7:-0.588255 
2 1:0.2788 2:0.783953 3:-0.798766 4:0.304178 5:0.354025 6:-0.528857 7:-0.863694 
2 1:-0.923 2:-1 3:-0.366667 4:-0.23508 5:-0.653426 6:-0.438929 7:-0.972226 
2 1:-0.2326 2:0.165503 3:0.0328283 4:0.3494 5:-0.10412 6:-0.675476 7:0.990524 
2 1:-0.559 2:0.110735 3:-0.587024 4:-0.60203 5:0.0986123 6:-0.217063 7:-0.53339 
2 1:-0.6496 2:0.2904 3:0.286944 4:-0.185175 5:0.319529 6:-0.40852 7:0.918229 
2 1:-0.306 2:0.510866 3:-0.545861 4:-0.170975 5:0.386294 6:-0.447366 7:0.238618 
2 1:-0.7096 2:0.261397 3:-0.377132 4:-0.453524 5:-0.0270449 6:-0.333265 7:-0.995322 
2 1:-0.35 2:-0.145017 3:0.198462 4:-0.157973 5:-0.306853 6:-0.448036 7:-0.070002 
2 1:-0.4138 2:0.524904 3:-0.659381 4:0.265314 5:0.198948 6:-0.577987 7:-0.859185 
2 1:-0.4772 2:0.0451647 3:0.393333 4:-0.201166 5:-0.0270449 6:-0.592245 7:0.812837 
2 1:-0.674 2:0.0303475 3:-0.847895 4:-0.200107 5:0.198948 6:-0.532987 7:-0.979951 
2 1:-0.4286 2:-0.768951 3:0.388333 4:-0.370741 5:0.0986123 6:-0.326587 7:1 
2 1:-0.987 2:-0.768951 3:-0.0966667 4:-0.354702 5:-0.450694 6:-0.654048 7:-0.951585 
2 1:-0.2298 2:0.347684 3:-0.838772 4:-0.319744 5:0.242453 6:-0.600714 7:-0.963807 
2 1:-0.3334 2:-1 3:-0.8 4:-0.0662867 5:0.0397208 6:-0.500089 7:-0.979972 
2 1:-0.3478 2:-0.0973166 3:0.645333 4:-0.244227 5:0.151293 6:-0.254643 7:0.869528 
2 1:-0.9798 2:-0.768951 3:0.281667 4:-0.518384 5:-0.195281 6:-0.272571 7:0.3881 
2 1:-0.4 2:-0.633796 3:-0.0611111 4:-0.511144 5:0.198948 6:-0.20013 7:1 
2 1:-0.5516 2:0.434688 3:-0.526126 4:-0.27624 5:0.319529 6:-0.445816 7:-0.516059 
2 1:-0.6666 2:-1 3:-0.326667 4:-0.690635 5:-0.195281 6:-0.290429 7:0.999998 
2 1:-0.7214 2:-0.0555956 3:-0.445294 4:0.0929091 5:0.198948 6:-0.49461 7:0.55025 
2 1:0.1362 2:0.793299 3:-0.355926 4:-0.0998023 5:0.683648 6:-0.347291 7:-0.271547 
2 1:-0.4884 2:-0.200702 3:-0.0203333 4:-0.474963 5:0.0397208 6:-0.330268 7:0.647628 
2 1:-0.962 2:-0.633796 3:-0.717778 4:-0.252207 5:-0.306853 6:-0.677321 7:-0.325613 
2 1:-0.9656 2:-0.537902 3:-0.111667 4:-0.466574 5:0.282475 6:-0.384396 7:0.0031 
2 1:-0.4876 2:0.375711 3:-0.792295 4:-0.634315 5:-0.195281 6:-0.335143 7:-0.726939 
2 1:-0.619 2:-0.00142258 3:-0.894167 4:-0.577957 5:0.151293 6:-0.488143 7:-0.86857 
2 1:-0.4468 2:0.0860322 3:-0.291026 4:-0.448242 5:0.242453 6:-0.561012 7:0.0795447 
2 1:-0.6666 2:-0.633796 3:0.166667 4:-0.57801 5:0.0397208 6:-0.302321 7:0.752013 
2 1:-0.4318 2:0.304008 3:-0.612993 4:-0.514775 5:0.354025 6:-0.458762 7:-0.748341 
2 1:-0.804 2:-0.463521 3:-0.584 4:-0.318811 5:-0.0270449 6:-0.420714 7:-0.570584 
2 1:-0.5736 2:0.122432 3:-0.488851 4:-0.42963 5:-0.0270449 6:-0.262959 7:-0.364277 
2 1:-0.97 2:-0.537902 3:0.0683333 4:-0.358107 5:0.0397208 6:-0.371161 7:1 
1.653918508181268 1:0.5874 2:0.304008 3:-0.861933 4:-0.237813 5:0.151293 6:-0.00885714 7:-0.236839 
2 1:-0.2 2:-0.306853 3:0.696667 4:-0.582124 5:0.319529 6:-0.334235 7:1 
2 1:-0.7884 2:0.165503 3:-0.670101 4:-0.806304 5:-0.195281 6:-0.314714 7:-0.957932 
2 1:0.1764 2:-0.00142258 3:-0.964815 4:0.0757067 5:0.282475 6:-0.394835 7:-0.894766 
1.118825086423643 1:-0.4202 2:0.460676 3:0.354135 4:-0.191269 5:0.319529 6:-0.453571 7:0.579423 
2 1:-0.9044 2:-0.200702 3:-0.268667 4:-0.394264 5:0.0986123 6:-0.297698 7:0.96943 
0.5910140381345068 1:0.1724 2:-0.0555956 3:-0.310392 4:-0.483112 5:0.151293 6:-0.101929 7:-0.981947 
2 1:-0.2146 2:0.670212 3:0.317222 4:-0.16677 5:0.700599 6:-0.451095 7:0.474799 
2 1:0.0406 2:0.386294 3:0.404918 4:-0.227259 5:0.0986123 6:-0.546587 7:0.999998 
1.041594948962638 1:-0.25 2:0.347684 3:-0.33 4:-0.766128 5:-0.195281 6:-0.293714 7:-0.123775 
2 1:-0.1428 2:0.0593513 3:-0.369074 4:-0.733324 5:-0.10412 6:-0.316786 7:-0.266571 
2 1:0.0286 2:-0.0365427 3:-0.889608 4:-0.255324 5:0.198948 6:-0.613636 7:-0.633287 
2 1:-0.6876 2:-0.463521 3:-0.734 4:-0.0705029 5:-0.0270449 6:-0.246837 7:-0.494222 
2 1:-0.6498 2:0.396552 3:-0.306615 4:-0.372889 5:0.0986123 6:-0.130079 7:-0.547479 
2 1:-0.3962 2:-0.0758038 3:-0.435 4:-0.44084 5:0.151293 6:-0.460071 7:-0.0441525 
2 1:-0.131 2:0.430153 3:-0.916941 4:-0.0614456 5:0.472219 6:-0.565714 7:-0.972149 
2 1:-0.205 2:0.617343 3:-0.501207 4:-0.104057 5:0.354025 6:-0.434762 7:-0.769255 
2 1:0.7894 2:0.175454 3:0.349896 4:-0.215989 5:0.354025 6:-0.417857 7:0.483981 
2 1:-0.1586 2:0.661202 3:-0.885781 4:-0.056765 5:0.386294 6:-0.544062 7:-0.830742 
2 1:-0.3334 2:-0.768951 3:0.746667 4:-0.496725 5:0.151293 6:-0.308429 7:1 
2 1:0.0496 2:0.689635 3:-0.330021 4:-0.691313 5:-0.306853 6:-0.531429 7:-0.953026 
1.57325485091458 1:-0.109 2:0.297273 3:0.0176596 4:-0.781344 5:0.151293 6:-0.338 7:0.468995 
2 1:-0.6424 2:0.386294 3:-0.382542 4:-0.596283 5:0.282475 6:-0.515934 7:-0.282429 
1.551208900617838 1:-0.1422 2:0.697917 3:0.525735 4:-0.2478 5:0.683648 6:-0.537734 7:0.999991 
2 1:-0.6056 2:0.110735 3:-0.578395 4:-0.568083 5:0.0986123 6:-0.490714 7:-0.545108 
0.9847987542796549 1:-0.091 2:-0.232472 3:0.445333 4:-0.308127 5:0.386294 6:-0.473795 7:0.711121 
2 1:-0.091 2:-0.463521 3:-0.0246667 4:-0.345061 5:0.151293 6:-0.471357 7:1 
2 1:-0.4666 2:-0.171698 3:-0.0854545 4:-0.251187 5:-0.10412 6:-0.519405 7:-0.131612 
2 1:-0.678 2:0.212529 3:-0.663535 4:-0.851957 5:-0.195281 6:-0.551714 7:-0.71853 
2 1:-0.2164 2:0.401564 3:-0.755323 4:-0.222799 5:0.545521 6:-0.529221 7:-0.967996 
2 1:-0.1842 2:0.510866 3:-0.704819 4:0.0788933 5:0.319529 6:-0.51352 7:-0.985952 
2 1:0.062 2:0.761068 3:0.293439 4:-0.184584 5:0.589027 6:-0.510625 7:0.971654 
2 1:-0.8626 2:-0.267592 3:-0.703333 4:-0.192554 5:0.282475 6:-0.546264 7:-0.966864 
2 1:-0.226 2:0.538374 3:-0.4112 4:-0.00841111 5:0.242453 6:-0.402619 7:-0.985934 
2 1:-0.9768 2:-1 3:0.313333 4:-0.586485 5:0.151293 6:-0.266429 7:1 
2 1:-0.241 2:0.381045 3:0.44119 4:-0.48935 5:0.282475 6:-0.514231 7:0.999989 
2 1:-0.5 2:-0.768951 3:0.14 4:-0.444579 5:0.151293 6:-0.366286 7:0.01941 
2 1:-0.25 2:-0.171698 3:-0.172727 4:-0.238752 5:0.151293 6:-0.292 7:-0.368746 
2 1:-0.5384 2:0.165503 3:0.149394 4:-0.0279467 5:0.0397208 6:-0.556964 7:-0.329168 
2 1:-0.029 2:0.401564 3:-0.609502 4:0.155555 5:0.472219 6:-0.45015 7:0.0594928 
2 1:-0.44 2:0.50362 3:-0.276479 4:-0.30725 5:0.0397208 6:-0.235804 7:-0.304616 
2 1:0.0476 2:-0.200702 3:-0.175152 4:-0.346427 5:0.0397208 6:-0.509107 7:0.789395 
2 1:0.4516 2:0.805367 3:-0.852898 4:0.102084 5:0.282475 6:-0.48511 7:-0.910831 
2 1:0.1914 2:0.799388 3:-0.4265 4:-0.168633 5:0.683648 6:-0.460369 7:-0.460756 
2 1:-0.3044 2:0.54813 3:-0.498053 4:-0.79342 5:0.0397208 6:-0.495804 7:-0.893482 
1.026906340423619 1:-0.4 2:-0.633796 3:-0.0155556 4:-0.591515 5:0.198948 6:-0.20013 7:1 
2 1:-0.7142 2:-1 3:-0.66 4:-0.40218 5:-0.306853 6:0.401964 7:0.999994 
2 1:-0.572 2:0.353481 3:-0.867485 4:-0.199301 5:0.319529 6:-0.445357 7:0.996273 
1.53506783047363 1:0.492 2:0.283383 3:-0.193617 4:-0.281091 5:0.242453 6:-0.280417 7:-0.396125 
2 1:-0.1666 2:0.681142 3:0.362903 4:-0.107278 5:0.647918 6:-0.43918 7:0.438542 
2 1:-0.5556 2:-0.768951 3:0.593333 4:-0.29832 5:0.282475 6:-0.348352 7:1 
2 1:-0.4758 2:0.212529 3:0.0417593 4:-0.3547 5:0.242453 6:-0.338988 7:0.238065 
2 1:-0.3714 2:0.0303475 3:-0.329394 4:-0.578204 5:0.0986123 6:-0.220476 7:-0.904731 
2 1:-0.3354 2:0.572833 3:-0.718452 4:-0.0545553 5:0.416607 6:-0.536891 7:-0.857387 
2 1:0.1486 2:0.761068 3:-0.3461 4:0.214316 5:0.319529 6:-0.632347 7:-0.86754 
2 1:-0.0952 2:-0.0185203 3:-0.811852 4:-0.128816 5:-0.195281 6:-0.214143 7:-0.994708 
2 1:0.3558 2:0.769423 3:0.377682 4:-0.135242 5:0.416607 6:-0.447605 7:0.88025 
2 1:-0.5646 2:0.386294 3:-0.775926 4:-0.839852 5:0.0986123 6:-0.355 7:-0.98732 
2 1:-0.9914 2:-1 3:-0.873333 4:0.179887 5:-0.306853 6:-0.428393 7:-0.9998 
2 1:-0.1706 2:0.499937 3:-0.76682 4:0.00930133 5:0.151293 6:-0.607929 7:-0.856655 
1.619012076522988 1:-0.1428 2:-0.633796 3:-0.704444 4:-0.247647 5:0.242453 6:-0.514583 7:1 
2 1:-0.291 2:0.55448 3:-0.498127 4:-0.0123356 5:0.242453 6:-0.38619 7:-0.953269 
2 1:0.6 2:-0.537902 3:-0.929167 4:0.0532533 5:0.151293 6:-0.386143 7:-0.994834 
1.705948594794921 1:0.115 2:0.794832 3:-0.0106452 4:-0.0386114 5:0.666102 6:-0.478776 7:-0.271042 
2 1:-0.0186 2:0.740119 3:0.433839 4:-0.192484 5:0.647918 6:-0.498095 7:0.999917 
2 1:-0.496 2:0.155245 3:-0.490833 4:-0.617916 5:-0.10412 6:-0.223571 7:-0.147114 
2 1:-0.3334 2:-1 3:0.49 4:-0.599653 5:0.198948 6:-0.357857 7:1 
1.585648963215487 1:0.3148 2:0.420893 3:0.047343 4:-0.138669 5:0.545521 6:-0.223766 7:0.999999 
2 1:-0.3044 2:-0.306853 3:-0.180417 4:-0.164691 5:0.282475 6:-0.517527 7:0.99998 
2 1:-0.4286 2:0.0860322 3:0.3 4:-0.153528 5:0.386294 6:-0.398884 7:0.689759 
2 1:-0.53 2:0.253733 3:-0.303413 4:-0.276583 5:0.0397208 6:-0.337857 7:0.169329 
2 1:-0.7172 2:0.0986123 3:-0.728765 4:-0.353013 5:0.0397208 6:0.0459821 7:-0.848478 
2 1:-0.1026 2:0.590228 3:0.0946724 4:-0.707909 5:-0.0270449 6:-0.142857 7:-0.913627 
2 1:-0.7392 2:-0.633796 3:-0.188889 4:-0.00895333 5:-0.306853 6:-0.11875 7:1 
2 1:-0.5332 2:0.401564 3:-0.442388 4:-0.71267 5:0.0986123 6:-0.382778 7:-0.908579 
2 1:0.2802 2:0.767768 3:-0.480842 4:-0.151852 5:0.545521 6:-0.484578 7:-0.917641 
2 1:-0.347 2:0.386294 3:0.302419 4:0.0216083 5:0.386294 6:-0.449375 7:0.54971 
2 1:0.2 2:-0.171698 3:0.471667 4:-0.372937 5:-0.0270449 6:-0.186939 7:1 
0.04156543266660626 1:0.3618 2:0.721595 3:-0.390517 4:0.0863333 5:0.386294 6:-0.250045 7:0.943822 
2 1:-0.8452 2:-0.171698 3:-0.611515 4:-0.320664 5:0.242453 6:-0.486488 7:-0.816104 
1.226818848735411 1:0.5686 2:0.229626 3:-0.100088 4:-0.214914 5:-0.0270449 6:-0.467449 7:0.747416 
2 1:-0.5268 2:0.439163 3:-0.638 4:-0.589608 5:0.319529 6:-0.171633 7:-0.760153 
2 1:-0.0526 2:-0.267592 3:-0.3 4:-0.630822 5:-0.10412 6:-0.603095 7:-0.88269 
0.8230498598082845 1:0.2654 2:0.144662 3:-0.643778 4:-0.291799 5:0.445186 6:-0.432778 7:-0.593098 
2 1:0.421 2:0.0986123 3:-0.415507 4:-0.373522 5:0.354025 6:-0.483286 7:-0.372588 
2 1:-0.3274 2:0.572833 3:-0.638889 4:-0.569624 5:0.0986123 6:-0.380238 7:-0.939912 
2 1:-0.422 2:0.488636 3:-0.81977 4:-0.364109 5:0.319529 6:-0.442143 7:-0.542102 
1.772851050661079 1:-0.4286 2:0.492446 3:-0.0814943 4:-0.29325 5:0.0397208 6:0.0275893 7:-0.748391 
2 1:0.0538 2:0.759372 3:0.0928042 4:-0.244723 5:0.609438 6:-0.551686 7:0.974321 
2 1:-0.376 2:0.221187 3:-0.368056 4:-0.248305 5:0.0986123 6:-0.340794 7:-0.75729 
0.5021534485250269 1:0.149 2:0.56071 3:-0.212749 4:-0.439965 5:0.386294 6:-0.25067 7:0.999927 
2 1:-0.6474 2:0.353481 3:-0.678742 4:-0.292688 5:0.354025 6:-0.37819 7:-0.95734 
2 1:-0.7142 2:-1 3:-0.9 4:-0.120967 5:-0.306853 6:0.454464 7:0.999994 
2 1:-0.402 2:0.499937 3:-0.113815 4:-0.44451 5:-0.0270449 6:-0.25102 7:-0.8747 
2 1:-0.5 2:-1 3:0.603333 4:-0.359253 5:-0.195281 6:0.116 7:1 
2 1:0.625 2:0.221187 3:0.0856481 4:-0.659667 5:-0.306853 6:-0.431607 7:-0.553798 
0.6111535292867496 1:0.9278 2:0.460676 3:-0.352374 4:-0.755456 5:0.242453 6:-0.222321 7:-0.837651 
2 1:-0.4194 2:-0.267592 3:-0.823333 4:-0.62556 5:0.319529 6:-0.437398 7:-0.994899 
2 1:-0.6762 2:0.310609 3:-0.373333 4:-0.905493 5:-0.10412 6:-0.424524 7:-0.910178 
2 1:-0.6048 2:0.391462 3:-0.671094 4:-0.624391 5:-0.10412 6:-0.288452 7:-0.956501 
2 1:-0.627 2:0.194506 3:-0.499907 4:-0.764389 5:-0.195281 6:0.115571 7:-0.884838 
2 1:0.1142 2:0.693801 3:0.275362 4:-0.063131 5:0.416607 6:-0.337101 7:0.965871 
2 1:-0.4056 2:0.521449 3:0.216915 4:-0.0547267 5:0.0397208 6:-0.273661 7:-0.767628 
2 1:-0.3954 2:-0.145017 3:-0.154103 4:-0.265791 5:-0.10412 6:-0.334524 7:-0.684825 
1.987924414056625 1:0.4546 2:-0.0758038 3:0.00641026 4:-0.118217 5:0.386294 6:-0.377946 7:1 
2 1:0.1934 2:0.791759 3:-0.854423 4:0.286655 5:0.386294 6:-0.520491 7:-0.655047 
2 1:-0.4018 2:0.521449 3:-0.33491 4:-0.577479 5:0.198948 6:-0.590065 7:-0.401919 
2 1:-0.8182 2:-0.306853 3:-0.245833 4:-0.890747 5:-0.0270449 6:-0.520102 7:-0.993038 
2 1:-0.377 2:-0.0185203 3:-0.0166667 4:-0.617556 5:-0.10412 6:0.0270238 7:-0.15646 
1.636477162731098 1:-0.1416 2:0.524904 3:-0.567708 4:-0.136417 5:0.683648 6:-0.513695 7:-0.342685 
2 1:0.3334 2:0.0860322 3:0.550133 4:-0.542468 5:0.0986123 6:-0.286032 7:0.761048 
2 1:-0.605 2:0.155245 3:-0.436129 4:-0.7462 5:-0.306853 6:0.2725 7:-0.931587 
1.697885345710927 1:0 2:-1 3:-0.66 4:-0.16199 5:0.198948 6:-0.483571 7:-0.944658 
2 1:-0.5648 2:0.434688 3:-0.264896 4:-0.330375 5:0.416607 6:-0.36916 7:-0.464176 
2 1:-0.1698 2:0.0303475 3:-0.431212 4:-0.325536 5:0.242453 6:-0.43381 7:-0.0769026 
2 1:-0.9402 2:-0.768951 3:-0.495 4:-0.561507 5:-0.306853 6:-0.582143 7:0.046439 
2 1:-0.1398 2:0.691725 3:0.306253 4:-0.290641 5:0.666102 6:-0.495357 7:0.823891 
2 1:0.04 2:0.221187 3:-0.911197 4:-0.60548 5:0.0397208 6:-0.54 7:-0.994704 
2 1:-0.4118 2:-0.0973166 3:0.189556 4:-0.478246 5:0.0986123 6:-0.489365 7:0.624318 
2 1:-0.661 2:0.133732 3:0.0164368 4:-0.439387 5:-0.195281 6:-0.405857 7:0.544389 
2 1:-0.3334 2:-0.768951 3:-0.945 4:-0.4556 5:0.151293 6:-0.0926429 7:-0.991334 
0.6181748636055483 1:0 2:-0.768951 3:-0.185 4:-0.53943 5:0.0397208 6:-0.463036 7:0.001325 
1.966520779237228 1:-0.4706 2:-0.267592 3:0.0596296 4:-0.194038 5:0.629048 6:-0.481593 7:0.999912 
2 1:-0.4956 2:0.480884 3:-0.393786 4:-0.110723 5:0.151293 6:-0.536 7:-0.0342025 
2 1:-0.8462 2:-0.633796 3:-0.281111 4:-0.181933 5:-0.10412 6:-0.521429 7:-0.264571 
2 1:-0.4736 2:0.0729586 3:-0.536133 4:-0.412467 5:-0.306853 6:-0.0835714 7:0.999861 
2 1:-0.8644 2:-0.537902 3:-0.41 4:-0.522236 5:-0.10412 6:-0.405595 7:-0.476414 
2 1:-0.1034 2:-0.145017 3:-0.51641 4:-0.25 5:0.151293 6:-0.385357 7:-0.265772 
2 1:-0.027 2:-0.0365427 3:-0.593922 4:-0.08242 5:0.0397208 6:-0.16125 7:0.0125121 
2 1:-0.5734 2:0.370291 3:-0.785792 4:-0.637356 5:-0.10412 6:0.0714286 7:-0.807778 
2 1:-0.5238 2:-0.232472 3:-0.128333 4:-0.3819 5:-0.306853 6:-0.244286 7:-0.481867 
2 1:-0.5724 2:0.375711 3:-0.886022 4:-0.331757 5:0.0986123 6:-0.0278571 7:-0.995392 
2 1:0.798 2:0.496212 3:0.169216 4:0.063672 5:0.151293 6:-0.488714 7:-0.740122 
2 1:-0.7142 2:-1 3:-0.66 4:-0.577991 5:-0.450694 6:0.0119048 7:0.999994 
2 1:-0.4514 2:0.2904 3:-0.507917 4:-0.44007 5:0.198948 6:-0.421753 7:-0.755106 
2 1:-0.5918 2:-0.00142258 3:-0.191053 4:0.246587 5:-0.306853 6:-0.338393 7:0.896206 
0.7818381312476715 1:0.8492 2:0.817013 3:0.501328 4:0.0730635 5:0.416607 6:-0.246471 7:-0.864022 
2 1:-0.68 2:-0.306853 3:-0.70875 4:-0.0947133 5:0.497866 6:-0.379 7:-0.461186 
2 1:-0.6868 2:0.144662 3:-0.466092 4:-0.803101 5:-0.0270449 6:-0.324388 7:-0.308506 
2 1:-0.9056 2:-0.463521 3:-0.679333 4:-0.228956 5:-0.0270449 6:-0.420714 7:-0.570685 
2 1:-0.9318 2:-0.633796 3:-0.835556 4:-0.86488 5:-0.450694 6:-0.58 7:-0.96299 
2 1:-0.2372 2:0.268887 3:-0.562296 4:-0.132009 5:0.242453 6:-0.514821 7:0.431764 
2 1:-0.4166 2:-0.120314 3:-0.761667 4:-0.353898 5:0.445186 6:-0.361706 7:-0.505643 
2 1:-0.3478 2:0.133732 3:0.332976 4:-0.223134 5:0.354025 6:-0.414381 7:0.719028 
2 1:-0.3448 2:-0.0185203 3:-0.51193 4:-0.745905 5:-0.0270449 6:-0.385714 7:-0.856977 
1.880497378279257 1:0.0232 2:0.678984 3:-0.472522 4:-0.736926 5:0.198948 6:-0.477143 7:-0.669034 
2 1:-0.4482 2:-0.306853 3:-0.319048 4:-0.29594 5:0.0397208 6:-0.556964 7:-0.140704 
2 1:-0.5238 2:-0.463521 3:0.448667 4:-0.24281 5:0.0397208 6:-0.343393 7:1 
2 1:-0.3666 2:0.56071 3:-0.876537 4:-0.412747 5:-0.306853 6:0.195714 7:-0.924501 
2 1:-0.5856 2:0.411369 3:0.0952941 4:-0.0288242 5:0.198948 6:-0.582597 7:0.171291 
2 1:-0.5208 2:0.439163 3:-0.8484 4:0.111461 5:0.151293 6:-0.409 7:-0.946829 
2 1:-0.3182 2:0.499937 3:-0.535019 4:-0.357192 5:0.151293 6:-0.471357 7:-0.791095 
2 1:-0.3914 2:-0.351363 3:0.351905 4:-0.239182 5:0.242453 6:-0.404643 7:1 
2 1:-0.7152 2:0.253733 3:-0.647984 4:-0.44805 5:0.0986123 6:-0.416587 7:-0.73681 
2 1:-0.4062 2:0.212529 3:-0.345405 4:-0.154393 5:0.354025 6:-0.258429 7:-0.74655 
2 1:-0.3384 2:0.253733 3:-0.555447 4:-0.165624 5:0.242453 6:-0.447143 7:0.952598 
2 1:-0.3266 2:0.165503 3:0.180202 4:-0.504237 5:0.0986123 6:-0.541825 7:-0.635401 
2 1:-0.45 2:-0.200702 3:0.299697 4:-0.291978 5:-0.10412 6:-0.399881 7:-0.190653 
1.342576193763801 1:0.6842 2:-0.0758038 3:0.556458 4:-0.241614 5:0.609438 6:-0.428486 7:1 
2 1:0 2:-0.463521 3:-0.588667 4:-0.361539 5:-0.0270449 6:-0.257959 7:0.998696 
2 1:-0.9754 2:-0.633796 3:-0.975556 4:-0.0216205 5:0.282475 6:-0.378956 7:1 
2 1:-0.9166 2:-1 3:-0.356667 4:-0.61768 5:0.0986123 6:-0.234683 7:-0.865454 
2 1:-0.546 2:0.155245 3:0.299375 4:-0.263305 5:0.282475 6:-0.386374 7:0.999996 
2 1:-0.5652 2:-0.232472 3:-2.22045e-16 4:-0.827797 5:0.0397208 6:-0.304821 7:0.595993 
2 1:-0.8538 2:0.0303475 3:0.171364 4:-0.289 5:-0.306853 6:0.09125 7:0.365668 
2 1:0.1538 2:0.268887 3:-0.158527 4:0.07097 5:0.0397208 6:-0.441696 7:0.9557 
2 1:-0.0368 2:0.685415 3:-0.743935 4:-0.0157638 5:0.319529 6:-0.592296 7:-0.926778 
2 1:-0.972 2:-0.463521 3:-0.824 4:0.163124 5:-0.0270449 6:-0.281429 7:-0.966122 
2 1:-0.9204 2:-0.0973166 3:-0.526444 4:-0.0693928 5:0.282475 6:-0.528901 7:-0.582558 
2 1:-0.4652 2:0.521449 3:-0.654931 4:-0.0268656 5:0.282475 6:-0.540824 7:0.922389 
2 1:-0.5964 2:0.261397 3:-0.228712 4:-0.537267 5:-0.306853 6:-0.401071 7:0.0722234 
2 1:0.0168 2:0.598597 3:-0.412966 4:-0.265725 5:0.748254 6:-0.421537 7:-0.520703 
2 1:-0.887 2:-0.351363 3:0.271905 4:-0.461264 5:0.151293 6:-0.462857 7:1 
2 1:-0.49 2:0.499937 3:-0.249004 4:-0.363585 5:0.0986123 6:-0.282937 7:-0.0573464 
0.3988143563724729 1:-0.307 2:0.185116 3:-0.35098 4:-0.170836 5:0.319529 6:-0.29551 7:-0.765036 
2 1:-0.4068 2:0.416165 3:-0.339055 4:-0.0763467 5:-0.306853 6:0.175714 7:-0.24369 
2 1:-0.5142 2:0.253733 3:-0.430244 4:-0.46572 5:-0.653426 6:-0.0107143 7:-0.898217 
0.01003301894115099 1:0.7142 2:-0.0365427 3:0.0758333 4:-0.531584 5:0.354025 6:-0.611333 7:0.620035 
2 1:-0.3214 2:0.578733 3:-0.778289 4:0.233429 5:0.151293 6:-0.572 7:-0.963516 
0.31669508170024 1:0.9558 2:0.630116 3:0.0246237 4:0.0862756 5:0.242453 6:-0.548155 7:-0.43874 
2 1:0.0574 2:0.472947 3:-0.101406 4:0.00601651 5:0.522261 6:-0.555782 7:0.369032 
1.485042603549557 1:-0.3544 2:0.310609 3:-0.554286 4:-0.603939 5:0.198948 6:-0.438831 7:-0.845264 
2 1:0.0242 2:0.750758 3:0.718116 4:-0.194783 5:0.609438 6:-0.519543 7:0.99999 
2 1:-0.8706 2:-0.0973166 3:0.0915556 4:-0.289633 5:0.282475 6:-0.225 7:0.998951 
2 1:-0.2046 2:0.185116 3:-0.365588 4:0.280787 5:-0.10412 6:-0.553214 7:0.991134 
2 1:0.2344 2:0.729129 3:-0.556835 4:-0.0806 5:0.497866 6:-0.293786 7:-0.936805 
2 1:-0.813 2:-0.145017 3:-0.412564 4:-0.154782 5:0.0986123 6:-0.484048 7:-0.0512203 
2 1:-0.7786 2:0.144662 3:-0.78172 4:-0.639125 5:-0.195281 6:-0.282 7:-0.738107 
1.43598337759307 1:0.1012 2:0.297273 3:0.297943 4:-0.0102726 5:0.0986123 6:-0.474524 7:0.985436 
2 1:-0.7524 2:0.229626 3:-0.914188 4:-0.09764 5:-0.10412 6:0.0934524 7:-0.828551 
2 1:-0.6866 2:0.0148408 3:-0.158519 4:-0.872493 5:-0.10412 6:-0.17881 7:-0.622897 
2 1:0.0858 2:-0.0185203 3:-0.575263 4:-0.167111 5:0.242453 6:-0.5225 7:0.12751 
2 1:-0.6644 2:0.297273 3:-0.758125 4:-0.789253 5:-0.195281 6:-0.562571 7:-0.982397 
2 1:0.0308 2:0.767768 3:0.195075 4:-0.15413 5:0.629048 6:-0.472225 7:-0.0476213 
2 1:-0.5194 2:0.144662 3:-0.444301 4:-0.657889 5:-0.10412 6:-0.223571 7:-0.0610429 
2 1:-0.8824 2:-1 3:0.1 4:-0.238273 5:-0.306853 6:0.447857 7:1 
2 1:-0.4704 2:0.480884 3:-0.920627 4:-0.228303 5:0.567747 6:-0.423727 7:-0.950883 
2 1:-0.6506 2:0.283383 3:-0.425035 4:-0.00895704 5:0.0986123 6:-0.552619 7:-0.959447 
2 1:-0.3136 2:0.614729 3:0.577046 4:-0.333491 5:0.151293 6:-0.289 7:0.999745 
2 1:-0.0786 2:0.619937 3:0.150698 4:-0.185703 5:0.282475 6:-0.431538 7:0.999078 
2 1:-0.5014 2:0.514432 3:-0.264409 4:-0.217017 5:0.354025 6:-0.535619 7:0.405836 
2 1:-0.2174 2:-0.267592 3:0.567778 4:-0.330041 5:0.0986123 6:-0.559127 7:0.778309 
2 1:-0.7976 2:-0.0555956 3:-0.612157 4:-0.689131 5:-0.0270449 6:-0.458673 7:-0.226365 
2 1:-0.7598 2:0.175454 3:-0.225632 4:-0.648057 5:0.0397208 6:-0.417143 7:-0.882341 
2 1:-0.9354 2:-0.171698 3:-0.445417 4:-0.438891 5:0.319529 6:-0.216939 7:0.999842 
2 1:-0.5588 2:0.133732 3:-0.532414 4:-0.545581 5:-0.0270449 6:-0.240714 7:0.897912 
2 1:-0.4712 2:0.0451647 3:-0.0721739 4:-0.12853 5:-0.0270449 6:-0.478367 7:0.973262 
2 1:-0.4634 2:-0.200702 3:-0.0436667 4:-0.520453 5:0.0986123 6:-0.481746 7:0.645298 
2 1:-0.5378 2:0.335778 3:0.176788 4:-0.597563 5:-0.195281 6:-0.388429 7:0.0433387 
2 1:-0.308 2:0.614729 3:0.479892 4:-0.606919 5:0.0986123 6:-0.236984 7:0.999286 
2 1:-0.3334 2:-1 3:-0.78 4:-0.108383 5:0.198948 6:-0.437987 7:-0.979972 
0.8407591215950098 1:0.1132 2:0.715831 3:-0.517655 4:0.311356 5:0.319529 6:-0.189847 7:-0.938276 
2 1:-0.5636 2:0.401564 3:-0.724876 4:-0.396451 5:0.151293 6:-0.351571 7:-0.965905 
2 1:-0.75 2:-1 3:-0.986667 4:-0.186498 5:0.0986123 6:-0.177143 7:-0.674994 
2 1:-0.579 2:-0.537902 3:0.188333 4:-0.547035 5:0.198948 6:-0.288442 7:0.500048 
2 1:-0.7142 2:-1 3:0.556667 4:-0.612661 5:0.0986123 6:-0.390794 7:1 
2 1:-0.1302 2:0.685415 3:-0.469892 4:0.233339 5:0.354025 6:-0.570762 7:-0.869315 
2 1:-0.7812 2:0.185116 3:-0.806176 4:0.143686 5:0.0986123 6:-0.316905 7:-0.957826 
2 1:-0.7304 2:0.212529 3:-0.589561 4:-0.410857 5:-0.0270449 6:-0.197551 7:-0.977593 
2 1:-0.75 2:-0.768951 3:0.168333 4:-0.0304667 5:-0.306853 6:-0.227857 7:1 
2 1:0.4182 2:0.757667 3:0.487571 4:0.12542 5:0.0397208 6:-0.570089 7:0.578883 
2 1:0.0274 2:0.514432 3:-0.0262766 4:-0.0726982 5:0.545521 6:-0.508734 7:0.195033 
2 1:-0.5656 2:0.323431 3:-0.332436 4:-0.052325 5:0.386294 6:-0.295312 7:0.775644 
2 1:-0.8696 2:-0.633796 3:0.325556 4:-0.383347 5:-0.306853 6:-0.649643 7:0.122458 
2 1:-0.36 2:0.2904 3:-0.356449 4:0.109064 5:0.151293 6:-0.398286 7:-0.851864 
1.672971639538631 1:0 2:0.456483 3:-0.711646 4:-0.0435152 5:0.748254 6:-0.456818 7:-0.38911 
1.176691805316014 1:0.594 2:0.791759 3:0.276991 4:0.344885 5:0.354025 6:-0.58119 7:-0.61486 
1.335922298036468 1:0.098 2:0.647214 3:-0.1207 4:-0.585731 5:0.198948 6:-0.194416 7:-0.928662 
2 1:-0.2638 2:0.323431 3:-0.694717 4:-0.200642 5:0.282475 6:-0.348626 7:-0.959248 
2 1:-0.3334 2:-0.402747 3:0.0155556 4:-0.0677493 5:0.354025 6:-0.453571 7:0.999966 
2 1:-0.9788 2:-0.633796 3:-0.603333 4:-0.161605 5:0.151293 6:-0.525286 7:-0.993529 
2 1:-0.0796 2:0.54813 3:-0.528416 4:-0.285227 5:0.777674 6:-0.395776 7:-0.42484 
2 1:-0.6326 2:0.0986123 3:-0.414938 4:-0.621787 5:-0.195281 6:0.43 7:-0.921395 
2 1:-0.8006 2:0.165503 3:-0.637273 4:-0.569829 5:0.151293 6:-0.248071 7:-0.855647 
2 1:0.4858 2:0.683285 3:-0.777987 4:0.124748 5:0.386294 6:-0.306161 7:-0.829023 
2 1:-0.904 2:-0.171698 3:-0.785455 4:-0.258649 5:-0.450694 6:-0.603095 7:-0.965377 
2 1:-0.4206 2:0.510866 3:-0.573047 4:0.206887 5:0.198948 6:-0.550455 7:-0.846675 
2 1:-0.7986 2:0.133732 3:-0.201034 4:-0.495573 5:-0.195281 6:-0.498429 7:-0.88752 
2 1:-0.5 2:0.0729586 3:0.325606 4:-0.354683 5:0.0397208 6:-0.279732 7:0.644188 
0.05195483427475437 1:0.8718 2:0.430153 3:-0.503989 4:-0.767731 5:0.242453 6:-0.400357 7:-0.101022 
2 1:-0.3136 2:0.614729 3:0.476125 4:-0.590987 5:0.151293 6:-0.209714 7:0.999748 
2 1:-0.6408 2:0.353481 3:-0.476078 4:-0.793471 5:-0.10412 6:-0.351667 7:-0.643204 
2 1:-0.6554 2:0.370291 3:-0.251148 4:-0.314293 5:0.282475 6:-0.342802 7:-0.888567 
2 1:-0.1474 2:0.464816 3:-0.898333 4:-0.16147 5:0.748254 6:-0.539091 7:-0.839324 
2 1:-0.3558 2:0.2904 3:-0.322536 4:-0.0173794 5:0.198948 6:-0.418571 7:-0.851864 
2 1:-0.3972 2:0.480884 3:-0.200476 4:0.0851111 5:0.0986123 6:-0.55746 7:-0.399574 
2 1:-0.699 2:0.268887 3:-0.337259 4:-0.351648 5:0.151293 6:-0.380071 7:-0.994875 
2 1:0.2234 2:0.381045 3:-0.0982222 4:-0.764789 5:-0.0270449 6:-0.315 7:-0.895197 
2 1:-0.9286 2:-0.633796 3:0.324444 4:-0.567047 5:0.0397208 6:-0.277946 7:1 
2 1:-0.5172 2:-0.351363 3:-0.840476 4:-0.722009 5:-0.450694 6:-0.171429 7:-0.416655 
2 1:-0.5882 2:-0.351363 3:-0.409048 4:-0.401155 5:0.282475 6:-0.39511 7:0.538082 
2 1:-0.7302 2:0.237857 3:-0.300244 4:-0.543693 5:-0.653426 6:-0.453214 7:-0.992631 
2 1:-0.0512 2:0.203639 3:-0.381176 4:-0.0377644 5:-0.10412 6:-0.14619 7:-0.952782 
0.9486505116989205 1:0.097 2:0.575796 3:0.598661 4:-0.0364741 5:0.445186 6:-0.380754 7:0.878507 
1.899062076737011 1:-0.2156 2:-0.00142258 3:-0.657833 4:-0.260878 5:0.319529 6:-0.240663 7:-0.339153 
1.707949426707774 1:0.0732 2:0.261397 3:-0.547984 4:-0.152779 5:0.282475 6:-0.475934 7:-0.302617 
2 1:-0.628 2:0.268887 3:-0.487407 4:-0.0479733 5:0.0986123 6:-0.256984 7:-0.372833 
2 1:-0.901 2:-0.463521 3:0.331333 4:-0.4783 5:0.0397208 6:-0.544643 7:0.200502 
2 1:-0.4646 2:0.488636 3:-0.668667 4:-0.52181 5:0.319529 6:-0.367143 7:-0.967859 
2 1:-0.159 2:0.665737 3:-0.614369 4:-0.129277 5:0.732868 6:-0.474263 7:-0.613911 
2 1:-0.488 2:0.155245 3:-0.368125 4:-0.738329 5:0.242453 6:-0.46869 7:-0.914047 
2 1:-0.76 2:-0.633796 3:0.45 4:0.0404 5:0.151293 6:-0.552714 7:1 
2 1:-0.8014 2:-0.120314 3:-0.37119 4:0.11593 5:0.198948 6:-0.486234 7:0.162845 
2 1:-0.0196 2:0.0729586 3:0.209861 4:-0.217783 5:0.0397208 6:-0.393661 7:0.752169 
0.03666309757931383 1:0.1698 2:0.741916 3:-0.55478 4:0.0392617 5:0.386294 6:-0.489464 7:-0.562572 
2 1:0.0322 2:0.752498 3:0.543315 4:-0.243702 5:0.647918 6:-0.485026 7:0.999431 
2 1:-0.718 2:0.261397 3:-0.612326 4:-0.37113 5:0.0397208 6:-0.410893 7:-0.890582 
1.481993157480233 1:0.4232 2:0.749008 3:0.401087 4:0.0896667 5:0.0397208 6:-0.379286 7:0.923382 
2 1:-0.6884 2:0.2904 3:-0.695764 4:-0.334649 5:-0.10412 6:-0.374881 7:-0.957293 
2 1:-0.4706 2:-0.267592 3:-0.592222 4:0.145184 5:0.416607 6:-0.558571 7:0.34732 
0.07266340447431761 1:-0.2308 2:-0.463521 3:-0.853333 4:0.0351973 5:0.151293 6:-0.242643 7:0.20158 
2 1:-0.985 2:-0.768951 3:0.261667 4:-0.264953 5:-0.306853 6:-0.459464 7:0.170978 
2 1:-0.6074 2:0.439163 3:0.255067 4:-0.265675 5:0.151293 6:-0.332786 7:0.993184 
2 1:-0.1594 2:0.122432 3:-0.669012 4:0.0296 5:-0.0270449 6:-0.426122 7:1 
2 1:-0.1272 2:0.0593513 3:0.635714 4:-0.0655182 5:0.354025 6:-0.411667 7:0.903514 
2 1:-0.2048 2:0.622511 3:-0.871068 4:-0.130885 5:0.151293 6:-0.180357 7:-0.935 
2 1:-0.6456 2:0.268887 3:-0.483636 4:-0.25196 5:0.151293 6:-0.2725 7:-0.99191 
2 1:-0.682 2:0.144662 3:-0.378172 4:-0.292592 5:0.198948 6:-0.394351 7:-0.911527 
2 1:-0.8082 2:0.110735 3:-0.243333 4:-0.406167 5:0.198948 6:-0.53539 7:-0.711427 
2 1:-0.25 2:0.452236 3:0.6268 4:0.124868 5:0.354025 6:-0.38219 7:0.765303 
2 1:-0.2622 2:0.212529 3:0.307745 4:-0.27502 5:0.354025 6:-0.498286 7:0.653075 
2 1:0.0714 2:-0.0973166 3:-0.190238 4:-0.03904 5:-0.306853 6:-0.174107 7:-0.364186 
2 1:-0.4058 2:0.317081 3:-0.355467 4:-0.118883 5:0.497866 6:-0.485643 7:0.921391 
2 1:-0.1304 2:-0.232472 3:0.383 4:-0.255385 5:0.416607 6:-0.510672 7:0.711121 
2 1:-0.6888 2:-0.351363 3:-0.470476 4:-0.409109 5:0.242453 6:-0.452083 7:-0.698045 
2 1:0.1376 2:0.796357 3:-0.0633639 4:-0.0673048 5:0.666102 6:-0.414158 7:-0.283606 
2 1:-0.6918 2:0.283383 3:-0.547391 4:-0.324059 5:0.151293 6:-0.500286 7:-0.611659 
0.5240985245148762 1:0.6428 2:0.812693 3:-0.506858 4:0.0677432 5:0.472219 6:-0.421955 7:0.222664 
2 1:-0.3334 2:0.0986123 3:-0.628272 4:-0.274096 5:-0.195281 6:-0.168714 7:0.99996 
2 1:-0.9252 2:-0.306853 3:-0.727917 4:-0.225617 5:0.589027 6:-0.33247 7:-0.909612 
2 1:-0.8442 2:-0.402747 3:-0.664444 4:-0.531353 5:0.0397208 6:-0.469196 7:-0.641214 
2 1:-0.858 2:0.0451647 3:-0.252899 4:-0.286587 5:-0.195281 6:-0.362286 7:-0.654178 
2 1:-0.5098 2:0.0729586 3:-0.603194 4:-0.47949 5:0.0986123 6:-0.232857 7:0.12987 
2 1:0.091 2:0.2904 3:0.155942 4:0.00659333 5:0.0397208 6:-0.212857 7:0.97477 
2 1:0.2032 2:0.805367 3:-0.350505 4:-0.212427 5:0.647918 6:-0.432063 7:-0.552692 
0.9345581353697375 1:0 2:0.468906 3:0.595689 4:-0.318331 5:0.242453 6:-0.37 7:0.999956 
2 1:0 2:-0.633796 3:-0.965556 4:-0.540053 5:-0.10412 6:-0.463214 7:-0.995462 
1.176909880590432 1:0.4894 2:0.185116 3:-0.206095 4:0.0456142 5:0.354025 6:-0.503381 7:-0.36876 
2 1:-0.8368 2:-0.537902 3:0.319167 4:-0.457893 5:-0.10412 6:-0.355 7:1 
2 1:-0.054 2:0.578733 3:-0.767924 4:0.001208 5:0.700599 6:-0.507714 7:0.171217 
2 1:0.2728 2:0.0148408 3:0.159825 4:-0.210784 5:-0.195281 6:-0.547429 7:-0.221125 
2 1:-0.646 2:0.253733 3:-0.309845 4:-0.384415 5:0.198948 6:-0.166883 7:0.779571 
2 1:-0.077 2:-0.171698 3:-0.885833 4:-0.680037 5:-0.195281 6:-0.0735714 7:-0.653493 
2 1:-0.923 2:-0.351363 3:-0.836667 4:-0.0806 5:-0.306853 6:-0.53375 7:-0.738573 
2 1:-0.68 2:-0.537902 3:0.155 4:-0.572276 5:-0.450694 6:-0.453333 7:1 
2 1:-0.3582 2:0.484782 3:-0.644392 4:-0.324259 5:0.151293 6:-0.248857 7:-0.970281 
2 1:-0.7898 2:0.144662 3:0.0651613 4:-0.270902 5:0.416607 6:-0.489874 7:0.666862 
2 1:0.1948 2:0.817013 3:-0.882094 4:-0.133893 5:0.666102 6:-0.375281 7:-0.456427 
2 1:-0.3418 2:0.0860322 3:-0.552308 4:-0.172951 5:-0.10412 6:-0.327976 7:0.999996 
2 1:-0.1876 2:-0.145017 3:-0.450513 4:-0.277314 5:0.198948 6:-0.197078 7:-0.0741454 
2 1:-0.6906 2:0.353481 3:-0.745741 4:-0.428433 5:0.282475 6:-0.646703 7:-0.949822 
2 1:0.6238 2:0.468906 3:-0.0479747 4:-0.222171 5:-0.0270449 6:-0.495 7:-0.872283 
2 1:-0.5 2:-0.351363 3:-0.889444 4:-0.49285 5:0.0986123 6:-0.129444 7:-0.981936 
2 1:0.1204 2:0.55761 3:-0.178646 4:-0.443145 5:0.319529 6:-0.238112 7:0.958182 
1.446392306727793 1:-0.3124 2:0.165503 3:0.475222 4:-0.31389 5:0.386294 6:-0.364687 7:0.803464 
2 1:-0.9948 2:-1 3:0.37 4:-0.368978 5:-0.10412 6:-0.345833 7:0.999926 
2 1:-0.4616 2:-0.351363 3:0.388571 4:-0.113891 5:0.198948 6:-0.489935 7:1 
2 1:-0.1582 2:0.630116 3:-0.446794 4:0.130839 5:0.198948 6:-0.622078 7:-0.808389 
2 1:-0.8572 2:-1 3:0.536667 4:-0.186282 5:-0.0270449 6:-0.43102 7:1 
2 1:-0.5294 2:0.425555 3:-0.665429 4:-0.416958 5:0.282475 6:-0.443956 7:-0.95967 
2 1:-0.7222 2:0.0729586 3:-0.417826 4:-0.0505018 5:0.198948 6:-0.385065 7:0.674785 
2 1:-0.661 2:-0.00142258 3:0.0896667 4:-0.26146 5:0.0397208 6:-0.457946 7:-0.487957 
2 1:-0.0724 2:0.155245 3:-0.856778 4:-0.107685 5:-0.195281 6:-0.531 7:-0.892059 
2 1:-0.8694 2:0.0451647 3:-0.256377 4:-0.401973 5:-0.195281 6:-0.179429 7:-0.626146 
2 1:-0.8148 2:0.175454 3:-0.10451 4:-0.563887 5:0.242453 6:-0.528929 7:-0.0783538 
2 1:0.0514 2:0.507263 3:0.173451 4:-0.254234 5:0.0986123 6:-0.484841 7:-0.768096 
2 1:-0.4286 2:-0.537902 3:-0.846667 4:-0.0508533 5:-0.195281 6:-0.461857 7:-0.99165 
1.455664076708878 1:0.5466 2:0.353481 3:-0.667931 4:-0.204606 5:0.472219 6:-0.494286 7:-0.725362 
2 1:-0.5656 2:0.2904 3:-0.701064 4:-0.378948 5:0.0986123 6:-0.446746 7:-0.66265 
2 1:-0.7564 2:0.0593513 3:-0.84746 4:-0.298275 5:0.151293 6:-0.322571 7:-0.900176 
1.050876620840077 1:0.3514 2:0.304008 3:-0.817569 4:0.539313 5:0.0397208 6:-0.445536 7:-0.89131 
2 1:-0.5576 2:0.0451647 3:-0.394638 4:-0.152427 5:0.319529 6:-0.42051 7:0.58639 
2 1:-0.198 2:0.678984 3:0.460515 4:-0.280438 5:0.666102 6:-0.507219 7:0.598107 
2 1:-0.0756 2:0.335778 3:-0.279936 4:-0.42321 5:0.198948 6:-0.417208 7:0.730945 
2 1:-0.8788 2:-0.537902 3:0.273333 4:-0.787333 5:-0.10412 6:-0.282857 7:0.999966 
2 1:-0.25 2:-0.267592 3:0.259259 4:-0.361752 5:0.319529 6:-0.441939 7:1 
2 1:-0.225 2:0.144662 3:-0.241778 4:0.354978 5:-0.10412 6:-0.420714 7:0.865961 
2 1:-0.9084 2:-0.0758038 3:-0.848958 4:-0.361387 5:0.198948 6:-0.407143 7:-0.637974 
2 1:-0.6 2:0.323431 3:0.610577 4:-0.281954 5:0.354025 6:-0.278429 7:0.775685 
0.849016234541327 1:-0.091 2:-0.463521 3:-0.254667 4:-0.175549 5:0.198948 6:-0.199091 7:-0.194214 
2 1:-0.8572 2:-0.633796 3:0.225556 4:-0.357114 5:0.0986123 6:-0.256746 7:0.239396 
2 1:-0.2106 2:-0.0973166 3:0.349333 4:-0.220347 5:-0.10412 6:-0.280476 7:-0.439094 
0.3045647179537421 1:0.909 2:0.0148408 3:-0.728833 4:-0.86528 5:-0.195281 6:-0.371857 7:-0.197267 
2 1:-0.2212 2:0.609438 3:-0.832903 4:0.0162038 5:0.319529 6:-0.564082 7:-0.929326 
1.073470423605038 1:-0.0096 2:0.678984 3:-0.132036 4:-0.500259 5:0.319529 6:-0.552347 7:-0.476693 
0.5946581271221766 1:0.2258 2:-0.0185203 3:-0.264737 4:0.138722 5:0.282475 6:-0.292088 7:-0.122297 
2 1:-0.92 2:-0.537902 3:0.386667 4:-0.482627 5:-0.653426 6:-0.751429 7:0.000339 
2 1:-0.5214 2:0.476939 3:-0.783211 4:-0.354803 5:0.151293 6:-0.160429 7:-0.977278 
2 1:0.423 2:0.203639 3:-0.365357 4:-0.63867 5:-0.0270449 6:-0.439082 7:-0.936416 
2 1:-0.6476 2:0.420893 3:0.221095 4:-0.500033 5:0.0397208 6:-0.354732 7:0.263765 
2 1:-0.1734 2:0.144662 3:-0.802184 4:-0.29871 5:0.0397208 6:-0.362857 7:-0.967092 
0.669549813344304 1:-0.1864 2:0.521449 3:-0.457305 4:-0.294212 5:0.732868 6:-0.473438 7:-0.539714 
2 1:-0.4136 2:0.452236 3:-0.676325 4:-0.0549267 5:0.242453 6:-0.307083 7:-0.902775 
2 1:-0.8588 2:-0.402747 3:-0.827778 4:-0.595724 5:0.0986123 6:-0.344762 7:0.666732 
2 1:0 2:-0.768951 3:0.553333 4:-0.181237 5:0.0397208 6:-0.239643 7:1 
2 1:-0.612 2:-0.145017 3:0.403846 4:0.202983 5:-0.0270449 6:-0.618265 7:0.989002 
2 1:-0.091 2:-0.463521 3:-0.182 4:-0.248575 5:0.198948 6:-0.20474 7:-0.192528 
2 1:-0.75 2:-0.768951 3:0.238333 4:-0.20416 5:-0.10412 6:-0.467619 7:1 
2 1:-0.2604 2:0.420893 3:-0.735714 4:-0.307186 5:0.522261 6:-0.54966 7:-0.643609 
2 1:0.3334 2:-0.537902 3:-0.8375 4:-0.766107 5:-0.450694 6:0.155952 7:-0.98924 
0.8582704955198975 1:-0.1082 2:0.531707 3:0.266803 4:-0.0605573 5:0.151293 6:-0.232857 7:0.550691 
2 1:-0.1112 2:-0.306853 3:-0.0720833 4:-0.79978 5:-0.306853 6:-0.363571 7:0.0280865 
2 1:-0.7306 2:0.268887 3:-0.11053 4:-0.545656 5:0.0986123 6:-0.0795238 7:-0.423048 
2 1:-0.3334 2:-0.537902 3:0.01 4:-0.427835 5:0.151293 6:-0.410643 7:1 
2 1:-0.0476 2:0.364782 3:-0.380357 4:-0.372715 5:0.198948 6:-0.417208 7:0.607637 
2 1:-0.1978 2:0.670212 3:0.315711 4:-0.137945 5:0.700599 6:-0.456476 7:0.474799 
2 1:-0.7634 2:0.229626 3:-0.888167 4:-0.475669 5:-0.195281 6:-0.343714 7:-0.987158 
2 1:-0.2476 2:0.212529 3:-0.15 4:-0.115013 5:-0.306853 6:-0.516071 7:-0.841035 
1.249740875967142 1:0.5738 2:0.2904 3:0.534653 4:-0.000696667 5:0.386294 6:-0.262232 7:0.472955 
0.2393615348318382 1:0.4266 2:0.764435 3:-0.569374 4:-0.114878 5:0.198948 6:-0.494091 7:0.773599 
2 1:-0.9016 2:-0.633796 3:-0.265556 4:-0.5644 5:-0.195281 6:-0.392857 7:1 
2 1:-0.6806 2:0.370291 3:-0.678852 4:-0.0681467 5:-0.10412 6:-0.427143 7:0.99833 
2 1:-0.5098 2:0.0729586 3:-0.0101389 4:-0.1765 5:0.0397208 6:-0.488036 7:-0.249232 
2 1:-0.4066 2:0.0986123 3:-0.885652 4:-0.253354 5:0.319529 6:-0.570357 7:-0.925218 
2 1:-0.634 2:0.110735 3:0.472857 4:-0.178335 5:-0.0270449 6:-0.459796 7:0.473169 
2 1:0.125 2:-0.0365427 3:-0.85963 4:-0.202296 5:0.151293 6:-0.482214 7:-0.749417 
2 1:-0.849 2:0.0593513 3:-0.739861 4:-0.358907 5:-0.0270449 6:-0.361633 7:-0.956893 
2 1:-0.658 2:0.165503 3:-0.380575 4:-0.537698 5:-0.450694 6:0.34619 7:-0.859939 
2 1:-0.5652 2:-0.0973166 3:-0.210889 4:0.24272 5:-0.0270449 6:-0.569286 7:0.961388 
2 1:-0.5154 2:0.283383 3:-0.508519 4:-0.182493 5:0.151293 6:-0.521071 7:-0.774563 
2 1:-0.5742 2:0.323431 3:-0.3325 4:-0.0522917 5:0.386294 6:-0.295312 7:0.775675 
2 1:-0.4474 2:0.0148408 3:-0.340625 4:-0.80107 5:-0.0270449 6:-0.264184 7:-0.167915 
0.2365127983793257 1:0.4518 2:0.745481 3:-0.837441 4:0.0560237 5:0.0986123 6:-0.579206 7:0.699181 
2 1:-0.4312 2:0.50362 3:-0.577556 4:-0.142478 5:0.198948 6:-0.572208 7:-0.485813 
2 1:0.164 2:0.797876 3:-0.458737 4:-0.0493114 5:0.666102 6:-0.445714 7:-0.2589 
2 1:-0.3334 2:-0.402747 3:-0.343333 4:-0.319874 5:0.198948 6:-0.241429 7:0.000896333 
2 1:-0.5194 2:0.434688 3:-0.0294595 4:-0.113229 5:0.472219 6:-0.353158 7:0.407687 
2 1:-0.743 2:0.0451647 3:-0.757971 4:-0.428858 5:0.242453 6:-0.428274 7:-0.566659 
2 1:-0.1846 2:0.517959 3:-0.498333 4:-0.237116 5:0.791759 6:-0.487401 7:-0.29983 
2 1:-0.3524 2:0.541658 3:-0.022862 4:-0.668762 5:-0.0270449 6:-0.372449 7:-0.535407 
2 1:-0.5686 2:-0.200702 3:-0.783333 4:-0.388371 5:0.151293 6:-0.3105 7:0.922151 
2 1:-0.3914 2:0.297273 3:-0.712585 4:-0.210396 5:0.354025 6:-0.369429 7:0.224783 
2 1:-0.9148 2:-0.537902 3:0.5175 4:-0.36784 5:-0.0270449 6:-0.0308163 7:1 
2 1:-0.9708 2:-0.463521 3:-0.574667 4:-0.853427 5:-0.653426 6:-0.264286 7:-0.196861 
2 1:0 2:0.761068 3:0.108883 4:-0.178442 5:0.647918 6:-0.511852 7:-0.192387 
2 1:-0.7298 2:-0.463521 3:-0.943333 4:-0.262949 5:-0.195281 6:-0.390714 7:0.202006 
2 1:-0.8334 2:-0.633796 3:-0.967778 4:-0.3564 5:0.319529 6:-0.393163 7:0.583045 
2 1:-0.8278 2:0.0148408 3:-0.704 4:0.175742 5:0.0986123 6:-0.249921 7:0.5708 
2 1:-0.6066 2:0.283383 3:0.0482979 4:-0.139435 5:-0.195281 6:-0.448286 7:-0.335051 
2 1:-0.9148 2:-0.768951 3:-0.645 4:-0.257364 5:-0.0270449 6:-0.53949 7:0.045796 
2 1:-0.8626 2:0.0451647 3:-0.242754 4:-0.477533 5:-0.10412 6:-0.24619 7:-0.627017 
2 1:0.208 2:0.736495 3:-0.532652 4:-0.0705488 5:0.472219 6:-0.313571 7:-0.941358 
2 1:0.2084 2:0.122432 3:-0.500805 4:-0.0988983 5:0.386294 6:-0.354286 7:0.200576 
2 1:-0.5954 2:0.411369 3:-0.122786 4:-0.545562 5:0.242453 6:-0.499464 7:-0.202115 
1.065206657513506 1:0.6666 2:-0.463521 3:-0.604 4:-0.448576 5:-0.195281 6:0.297 7:-0.95991 
2 1:-0.874 2:-0.0555956 3:0.276471 4:-0.31546 5:0.242453 6:-0.504405 7:0.637394 
1.821183804214272 1:0.5 2:-0.267592 3:0.124074 4:-0.19984 5:0.386294 6:-0.241429 7:1 
2 1:-0.5768 2:0.375711 3:-0.341129 4:-0.489458 5:0.242453 6:-0.449286 7:-0.881592 
2 1:-0.657 2:0.391462 3:0.212448 4:-0.0164385 5:0.0986123 6:-0.348095 7:-0.595993 
2 1:-0.9154 2:-0.633796 3:-0.252222 4:-0.234027 5:0.0986123 6:-0.500079 7:-0.946851 
2 1:-0.4696 2:0.488636 3:-0.815 4:0.0248133 5:0.151293 6:-0.568714 7:-0.868164 
2 1:-0.3878 2:-0.0973166 3:0.786 4:-0.100629 5:0.151293 6:-0.277071 7:0.869528 
2 1:0.36 2:0.175454 3:-0.548 4:-0.554034 5:-0.0270449 6:-0.262449 7:-0.97918 
2 1:-0.3334 2:-0.0973166 3:-0.282444 4:-0.391627 5:0.198948 6:-0.432338 7:0.334904 
2 1:-0.6318 2:0.310609 3:-0.865882 4:-0.296437 5:0.445186 6:-0.356786 7:0.922328 
2 1:-0.7638 2:0.253733 3:-0.629922 4:0.244253 5:-0.306853 6:-0.212857 7:0.998193 
2 1:-0.7308 2:-0.351363 3:-0.399048 4:-0.330853 5:-0.0270449 6:-0.586633 7:-0.974849 
2 1:-0.6772 2:0.310609 3:-0.606259 4:-0.70018 5:0.0397208 6:-0.117054 7:-0.951834 
2 1:-0.5914 2:0.396552 3:-0.851094 4:-0.530869 5:-0.195281 6:-0.100429 7:-0.935327 
2 1:-0.3994 2:0.492446 3:-0.418276 4:-0.462415 5:0.198948 6:-0.395779 7:-0.78698 
2 1:-0.9406 2:-0.633796 3:0.162222 4:-0.437916 5:-0.0270449 6:-0.539592 7:1 
2 1:-0.8338 2:0.144662 3:0.140968 4:-0.414669 5:0.282475 6:-0.42033 7:0.834199 
2 1:-0.68 2:-0.537902 3:-0.01 4:-0.473107 5:0.0397208 6:-0.339464 7:0.999982 
2 1:-0.4894 2:0.480884 3:-0.139685 4:-0.199013 5:0.0986123 6:-0.419365 7:-0.535063 
2 1:-0.091 2:-0.232472 3:0.0613333 4:-0.482603 5:0.0397208 6:-0.455536 7:0.361887 
2 1:-0.7038 2:0.2904 3:-0.568403 4:-0.508093 5:0.242453 6:-0.348571 7:-0.959333 
2 1:-0.5604 2:0.420893 3:0.0902857 4:-0.42755 5:0.0397208 6:-0.476071 7:-0.810361 
2 1:-0.5892 2:0.411369 3:-0.131841 4:-0.100907 5:-0.0270449 6:-0.172143 7:0.165144 
2 1:-0.0666 2:-0.351363 3:-0.743333 4:-0.586616 5:0.0986123 6:-0.188095 7:-0.97575 
2 1:-0.7466 2:-0.0185203 3:-0.280417 4:-0.629304 5:0.0986123 6:-0.277063 7:0.126995 
2 1:-0.8654 2:-0.0973166 3:0.0968889 4:-0.451499 5:0.282475 6:-0.0807692 7:0.998951 
2 1:-0.8984 2:-0.402747 3:-0.540667 4:-0.303692 5:0.282475 6:-0.438956 7:-0.596005 
2 1:-0.899 2:-0.0973166 3:-0.777576 4:0.103029 5:-0.195281 6:-0.543571 7:-0.945473 
2 1:-0.9934 2:-1 3:-0.756667 4:-0.388823 5:0.0397208 6:-0.618571 7:-0.940938 
2 1:-0.6666 2:-0.200702 3:-0.0869697 4:0.0738286 5:-0.0270449 6:-0.507143 7:0.961253 
2 1:-0.8388 2:-0.463521 3:0.281333 4:-0.780113 5:-0.306853 6:-0.11875 7:0.999812 
2 1:-0.5158 2:0.411369 3:-0.691884 4:-0.221511 5:0.354025 6:-0.397524 7:0.999964 
2 1:-0.3846 2:-0.537902 3:-0.0383333 4:-0.609564 5:-0.450694 6:-0.53381 7:1 
2 1:-0.2196 2:0.635092 3:-0.457637 4:0.134938 5:0.386294 6:-0.479598 7:-0.865347 
2 1:-0.7858 2:0.133732 3:-0.0381609 4:-0.189368 5:0.319529 6:-0.365867 7:0.998673 
2 1:-0.1 2:-0.267592 3:-0.204444 4:0.102583 5:-0.0270449 6:-0.438469 7:0.142132 
2 1:-0.0028 2:0.721595 3:-0.443725 4:-0.0488362 5:0.666102 6:-0.493673 7:-0.764523 
2 1:-0.3948 2:0.276214 3:-0.742101 4:-0.580571 5:0.242453 6:-0.45256 7:-0.811836 
2 1:-0.8222 2:-0.537902 3:-0.31 4:-0.466541 5:-0.0270449 6:-0.393061 7:1 
2 1:0.25 2:0.133732 3:-0.65869 4:-0.159899 5:0.151293 6:-0.428429 7:-0.877574 
2 1:0.3334 2:0.155245 3:0.152151 4:-0.53545 5:0.545521 6:-0.334188 7:1 
1.232827454218076 1:-0.4464 2:0.439163 3:-0.54912 4:-0.330733 5:0.319529 6:-0.463724 7:0.985512 
2 1:-0.4 2:0.133732 3:0.461548 4:-0.28998 5:0.386294 6:-0.46433 7:0.789229 
2 1:0.0182 2:0.110735 3:-0.764231 4:0.0589436 5:0.282475 6:-0.378297 7:1 
2 1:-0.6 2:-0.537902 3:0.303333 4:-0.376137 5:0.282475 6:-0.111044 7:1 
2 1:0.147 2:0.452236 3:-0.605812 4:-0.0128227 5:0.497866 6:-0.486821 7:0.606295 
1.527831332170321 1:0.6538 2:0.253733 3:-0.383178 4:0.419547 5:0.0397208 6:-0.591518 7:-0.245698 
2 1:-0.2272 2:0.175454 3:0.236869 4:0.410147 5:-0.10412 6:-0.503571 7:0.97984 
2 1:-0.7648 2:-0.768951 3:-0.131667 4:-0.259853 5:-0.306853 6:-0.278929 7:0.002117 
2 1:0.0632 2:0.538374 3:-0.48017 4:-0.115944 5:0.242453 6:-0.609643 7:-0.179862 
2 1:-0.387 2:-0.0185203 3:-0.614561 4:-0.557188 5:0.198948 6:-0.338766 7:-0.507573 
2 1:-0.9926 2:-1 3:0.603333 4:-0.484602 5:-0.0270449 6:-0.125102 7:1 
2 1:-0.8182 2:-1 3:0.176667 4:-0.382333 5:-0.653426 6:-0.546071 7:0.999568 
0.3940402924684133 1:0.875 2:-0.0973166 3:-0.736889 4:0.0187259 5:0.0986123 6:-0.433968 7:0.151065 
2 1:0.164 2:0.797876 3:-0.211324 4:-0.0707404 5:0.700599 6:-0.458238 7:-0.2589 
2 1:-0.7858 2:-0.633796 3:-0.165556 4:-0.0868919 5:0.0986123 6:-0.491587 7:0.333403 
0.8793354037051484 1:-0.4828 2:0.439163 3:-0.641778 4:-0.0985741 5:0.416607 6:-0.418067 7:0.99855 
2 1:-0.6334 2:-0.200702 3:-0.0118182 4:-0.492333 5:-0.653426 6:0.555714 7:-0.422358 
2 1:-0.6948 2:0.297273 3:0.0553741 4:-0.112874 5:0.629048 6:-0.414313 7:1 
2 1:-0.7916 2:-0.463521 3:-0.405333 4:-0.0928923 5:0.282475 6:-0.474176 7:0.605892 
0.6879891182371523 1:0.2238 2:0.237857 3:0.651532 4:-0.330085 5:0.545521 6:-0.440519 7:0.89544 
2 1:-0.2818 2:0.622511 3:0.622751 4:-0.51231 5:0.198948 6:-0.259481 7:0.999898 
2 1:-0.4782 2:0.2904 3:-0.62529 4:0.0756038 5:-0.0270449 6:-0.568878 7:0.564573 
2 1:-0.9812 2:-0.633796 3:-0.174444 4:-0.436724 5:-0.0270449 6:-0.460306 7:-0.925807 
2 1:-0.5092 2:0.229626 3:-0.401111 4:-0.639836 5:-0.10412 6:-0.434762 7:0.25686 
2 1:-0.8984 2:-0.402747 3:0.103889 4:-0.406111 5:0.242453 6:-0.404345 7:1 
2 1:-0.71 2:-0.0185203 3:-0.350351 4:-0.388496 5:0.151293 6:-0.508929 7:-0.287814 
1.311713862341217 1:0.6 2:-0.171698 3:-0.18 4:0.00390286 5:0.319529 6:-0.194541 7:0.0946629 
2 1:-0.8888 2:-0.768951 3:0.326667 4:-0.42524 5:0.0397208 6:-0.05875 7:1 
2 1:-0.7372 2:0.237857 3:-0.370813 4:-0.712264 5:0.0986123 6:-0.340476 7:-0.854477 
2 1:-0.0666 2:0.0148408 3:0.0987302 4:-0.146133 5:0.716994 6:-0.435346 7:0.826757 
0.3932959782815159 1:0.5122 2:0.144662 3:-0.791183 4:-0.498803 5:0.0986123 6:-0.425159 7:-0.975333 
2 1:-0.2858 2:-0.463521 3:-0.774667 4:-0.162521 5:0.445186 6:-0.431429 7:-0.96836 
2 1:-0.2222 2:-0.351363 3:-0.0338095 4:-0.401409 5:0.282475 6:-0.380604 7:0.999954 
2 1:-0.7142 2:-0.633796 3:-0.246667 4:-0.431007 5:0.445186 6:-0.56131 7:0.780746 
2 1:-0.75 2:-0.633796 3:-0.0944444 4:-0.168645 5:0.151293 6:-0.453786 7:0.400028 
2 1:-0.6334 2:0.335778 3:-0.394383 4:-0.0568022 5:0.242453 6:-0.482262 7:-0.919466 
2 1:-0.5944 2:0.353481 3:-0.291724 4:-0.212557 5:0.497866 6:-0.397286 7:-0.725516 
0.6332891164229019 1:0.5714 2:0.335778 3:-0.193827 4:0.0474607 5:0.0986123 6:0.261746 7:0.355593 
2 1:-0.1112 2:0.2904 3:-0.767986 4:0.0105387 5:0.354025 6:-0.397429 7:-0.852184 
2 1:-0.908 2:-0.537902 3:-0.195 4:-0.47138 5:0.0397208 6:-0.0699107 7:-0.0089185 
2 1:-0.5112 2:0.391462 3:-0.624531 4:-0.10382 5:0.0397208 6:-0.261786 7:-0.99416 
2 1:-0.4316 2:0.317081 3:-0.0577778 4:-0.0832347 5:0.497866 6:-0.375143 7:0.803978 
2 1:0.3334 2:-0.171698 3:0.181667 4:-0.160957 5:0.386294 6:-0.499464 7:0.913992 
0.8130695710263675 1:-0.0256 2:0.749008 3:0.202544 4:-0.113723 5:0.647918 6:-0.510688 7:-0.0393589 
0.1947761353796027 1:0.8064 2:0.110735 3:0.357083 4:-0.207025 5:0.0986123 6:-0.515159 7:0.0838021 
2 1:-0.7294 2:0.237857 3:-0.56065 4:-0.423912 5:0.151293 6:-0.454 7:-0.571346 
2 1:-0.3478 2:0.133732 3:0.643 4:-0.01345 5:0.0397208 6:-0.479464 7:0.870711 
2 1:-0.7354 2:0.237857 3:-0.485854 4:-0.0315105 5:0.319529 6:-0.283571 7:-0.951864 
1.765611214889778 1:-0.4952 2:0.452236 3:-0.2588 4:-0.283117 5:0.0397208 6:-0.200179 7:0.0920286 
2 1:-0.4874 2:0.507263 3:-0.708828 4:0.291898 5:0.386294 6:-0.451161 7:-0.49102 
2 1:-0.597 2:0.0986123 3:0.404321 4:-0.409224 5:0.198948 6:-0.226429 7:0.999994 
2 1:-0.4412 2:0.347684 3:-0.804561 4:-0.193475 5:0.416607 6:-0.540714 7:0.0166783 
2 1:-0.7278 2:0.317081 3:0.0712821 4:-0.447377 5:0.319529 6:-0.407857 7:0.851724 
2 1:0.0104 2:0.661202 3:-0.506408 4:0.0461467 5:0.700599 6:-0.478595 7:-0.009141 
2 1:0.387 2:0.253733 3:-0.906579 4:-0.419222 5:0.242453 6:-0.450417 7:-0.992816 
2 1:-0.8434 2:-0.0365427 3:-0.316667 4:-0.347832 5:-0.0270449 6:-0.438776 7:-0.536145 
2 1:-0.2416 2:0.541658 3:-0.851749 4:-0.237808 5:0.76318 6:-0.522563 7:-0.774916 
2 1:-0.6238 2:0.430153 3:0.304491 4:-0.249955 5:0.151293 6:-0.239714 7:0.994021 
2 1:0 2:0.761068 3:0.174924 4:-0.185261 5:0.666102 6:-0.540842 7:-0.155521 
2 1:-0.5 2:-0.768951 3:-0.733333 4:-0.59656 5:0.0397208 6:-0.412232 7:-0.970872 
2 1:-0.8936 2:-0.120314 3:0.144762 4:-0.27528 5:0.198948 6:-0.420584 7:0.999998 
2 1:-0.2106 2:0.670212 3:0.451477 4:-0.217288 5:0.700599 6:-0.490214 7:0.647655 
2 1:-0.3442 2:0.460676 3:-0.25026 4:-0.545217 5:0.0397208 6:-0.544286 7:-0.926825 
1.269965843352872 1:0.425 2:0.802391 3:-0.0941628 4:-0.47197 5:0.0397208 6:-0.536964 7:-0.408582 
2 1:-0.9048 2:-0.463521 3:-0.678 4:-0.203608 5:-0.0270449 6:-0.420714 7:-0.570733 
2 1:-0.2164 2:0.674627 3:-0.224167 4:-0.00648099 5:0.647918 6:-0.455979 7:0.461091 
2 1:-0.7142 2:-1 3:0.366667 4:-0.75665 5:0.0397208 6:-0.332857 7:1 
2 1:-0.8776 2:-0.402747 3:-0.409444 4:-0.575642 5:-0.0270449 6:0.0165306 7:-0.691498 
2 1:-0.8814 2:-0.0973166 3:-0.719333 4:-0.538516 5:0.198948 6:-0.278636 7:-0.996422 
2 1:-0.92 2:-0.537902 3:0.398333 4:-0.562853 5:-0.653426 6:-0.751429 7:0.000576 
2 1:-0.3878 2:-0.0973166 3:-0.712381 4:-0.518413 5:-0.10412 6:-0.197143 7:-0.667198 
2 1:0.0714 2:0.133732 3:-0.437738 4:-0.273017 5:0.386294 6:-0.563438 7:0.660262 
0.5785649480403595 1:0.2728 2:0.782369 3:-0.0422169 4:-0.00502603 5:0.522261 6:-0.452449 7:-0.924067 
1.67193848044687 1:0 2:-0.402747 3:-0.380556 4:-0.270832 5:0.151293 6:-0.322643 7:-0.971305 
2 1:-0.4366 2:-0.00142258 3:-0.00883333 4:-0.155374 5:0.472219 6:-0.526654 7:-0.0650402 
2 1:-0.7796 2:0.24589 3:0.328571 4:-0.304369 5:0.416607 6:-0.459202 7:0.788318 
2 1:-0.7804 2:-0.0365427 3:-0.933333 4:-0.430621 5:0.198948 6:-0.487532 7:-0.851165 
2 1:-0.5958 2:0.353481 3:-0.787644 4:-0.609675 5:0.151293 6:-0.0833571 7:-0.958134 
2 1:-0.228 2:0.614729 3:-0.772593 4:-0.187653 5:0.0986123 6:-0.404048 7:-0.973217 
2 1:-0.9572 2:-0.402747 3:-0.807222 4:-0.219161 5:0.0986123 6:-0.238492 7:0.00492433 
2 1:0.0852 2:0.310609 3:-0.920496 4:-0.398664 5:0.472219 6:-0.317932 7:-0.85812 
2 1:0.4286 2:-0.463521 3:-0.982667 4:-0.440851 5:0.282475 6:-0.331978 7:-0.962127 
2 1:-0.226 2:0.538374 3:-0.7283 4:-0.241237 5:0.647918 6:-0.494815 7:-0.668533 
2 1:-0.046 2:0.635092 3:0.0258897 4:-0.58133 5:-0.0270449 6:-0.192653 7:-0.728229 
2 1:-0.582 2:0.391462 3:-0.456931 4:-0.371079 5:0.0986123 6:-0.310397 7:-0.994789 
2 1:-0.2972 2:0.622511 3:0.326667 4:0.311736 5:0.0986123 6:-0.40881 7:0.998472 
2 1:0.0948 2:0.54813 3:-0.223369 4:-0.126024 5:0.0986123 6:-0.225238 7:0.999901 
2 1:-0.4488 2:0.185116 3:-0.45598 4:-0.690928 5:-0.195281 6:-0.0318571 7:-0.206872 
2 1:-0.7682 2:-0.0185203 3:-0.484035 4:-0.666007 5:0.0397208 6:-0.0944643 7:-0.238822 
2 1:-0.3742 2:0.276214 3:-0.121232 4:0.332916 5:0.242453 6:-0.517738 7:0.262856 
2 1:-0.5524 2:0.447935 3:-0.0805333 4:-0.67099 5:0.0397208 6:-0.00964286 7:-0.224786 
2 1:-0.6104 2:0.317081 3:-0.362549 4:-0.310949 5:0.354025 6:-0.335048 7:0.77124 
2 1:-0.238 2:0.2904 3:-0.614722 4:-0.354323 5:0.151293 6:-0.4415 7:-0.884717 
2 1:-0.5238 2:-0.232472 3:-0.679333 4:-0.351029 5:-0.195281 6:-0.177429 7:-0.859193 
2 1:-0.7994 2:0.175454 3:0.108039 4:-0.428579 5:0.151293 6:-0.112143 7:0.891667 
2 1:-0.8368 2:-0.537902 3:0.348333 4:-0.492178 5:-0.10412 6:-0.355 7:1 
2 1:-0.1384 2:0.572833 3:-0.530833 4:-0.232232 5:-0.0270449 6:-0.62 7:0.790682 
2 1:0.5758 2:0.0860322 3:-0.344133 4:-0.0847947 5:-0.195281 6:-0.460714 7:-0.510418 
2 1:-0.6666 2:-0.633796 3:0.357778 4:-0.631369 5:0.0986123 6:-0.233413 7:0.999631 
2 1:0.0356 2:0.541658 3:-0.153464 4:0.00542933 5:0.497866 6:-0.54125 7:0.268659 
2 1:-0.3124 2:0.566827 3:-0.614495 4:0.128538 5:0.198948 6:-0.62474 7:-0.828946 
2 1:-0.1576 2:0.663478 3:-0.795931 4:0.0583042 5:0.545521 6:-0.457273 7:-0.935459 
2 1:-0.5728 2:0.0303475 3:-0.4665 4:-0.462975 5:-0.0270449 6:-0.418265 7:-0.770173 
0.1898841261924431 1:0.5556 2:0.110735 3:-0.762857 4:0.416095 5:0.0986123 6:-0.494603 7:-0.946098 
1.998952811784331 1:0.375 2:-0.200702 3:0.295926 4:-0.273631 5:-0.10412 6:-0.0604762 7:0.998576 
2 1:-0.6234 2:0.353481 3:-0.35381 4:-0.423976 5:0.0986123 6:-0.392381 7:-0.069039 
2 1:-0.3968 2:0.443578 3:0.308684 4:0.0519404 5:0.416607 6:-0.536975 7:0.344907 
2 1:-0.546 2:0.155245 3:0.211771 4:-0.371941 5:0.354025 6:-0.402714 7:0.999996 
2 1:-0.804 2:-0.232472 3:0.178889 4:0.0884567 5:0.0397208 6:-0.508304 7:0.555812 
2 1:-0.2862 2:0.58453 3:-0.67655 4:-0.189227 5:0.151293 6:-0.358929 7:-0.961622 
2 1:-0.1876 2:-0.145017 3:-0.354872 4:0.237293 5:-0.10412 6:-0.469405 7:-0.224867 
1.395953318440747 1:0.0846 2:0.447935 3:-0.220303 4:-0.269876 5:0.589027 6:-0.534048 7:0.435459 
2 1:-0.7342 2:0.261397 3:-0.682033 4:-0.241755 5:0.198948 6:-0.565779 7:-0.977579 
2 1:-0.7116 2:-0.0973166 3:0.372667 4:-0.319047 5:0.198948 6:-0.397273 7:0.999122 
2 1:-0.4 2:-0.402747 3:-0.0255556 4:-0.0681547 5:0.354025 6:-0.313714 7:1 
2 1:0.2272 2:0.0986123 3:-0.237681 4:-0.365853 5:0.242453 6:-0.56006 7:-0.338709 
2 1:-0.149 2:0.460676 3:-0.892996 4:-0.177046 5:0.777674 6:-0.510857 7:-0.837185 
2 1:-0.5422 2:-0.0185203 3:0.339298 4:0.3698 5:-0.10412 6:-0.617857 7:0.995516 
2 1:-0.25 2:-0.267592 3:-0.752963 4:-0.564805 5:-0.195281 6:-0.423571 7:-0.741677 
2 1:-0.884 2:-0.0758038 3:0.345625 4:-0.463031 5:0.0986123 6:-0.322143 7:0.330526 
2 1:-0.703 2:-0.0973166 3:-0.186905 4:-0.580704 5:-0.195281 6:-0.515286 7:0.257455 
2 1:-0.6666 2:-0.768951 3:0.146667 4:-0.329867 5:-0.306853 6:-0.219107 7:1 
2 1:-0.8836 2:-0.0758038 3:0.384375 4:-0.5484 5:0.198948 6:-0.494286 7:0.330526 
1.700470434346517 1:-0.34 2:0.401564 3:-0.623682 4:-0.30455 5:0.198948 6:-0.315974 7:-0.122556 
2 1:-0.3334 2:-0.768951 3:0.663333 4:-0.0919176 5:0.198948 6:-0.468701 7:1 
2 1:-0.4062 2:0.517959 3:-0.258772 4:-0.261965 5:0.282475 6:-0.093022 7:-0.523855 
2 1:-0.9346 2:-0.232472 3:-0.797667 4:-0.614893 5:-0.306853 6:-0.289107 7:-0.954909 
2 1:0.1296 2:0.794832 3:-0.443765 4:-0.0656967 5:0.589027 6:-0.469375 7:-0.382019 
2 1:-0.735 2:-0.00142258 3:-0.936333 4:0.107741 5:-0.0270449 6:-0.599082 7:-0.985093 
2 1:-0.68 2:-0.537902 3:-0.316667 4:-0.575376 5:0.151293 6:-0.120786 7:-0.282215 
2 1:0.2728 2:0.793299 3:-0.603146 4:0.306008 5:0.386294 6:-0.57067 7:-0.666459 
1.630671231187587 1:0.08 2:0.0986123 3:-0.313333 4:-0.319379 5:0.151293 6:-0.471357 7:0.0396649 
2 1:-0.6232 2:0.0860322 3:-0.273205 4:-0.291498 5:0.242453 6:-0.252262 7:0.999998 
2 1:-0.897 2:-0.232472 3:-0.369667 4:-0.582283 5:-0.195281 6:-0.545571 7:0.239391 
2 1:-0.1112 2:-0.0758038 3:-0.286444 4:-0.318993 5:0.242453 6:-0.198333 7:-0.529166 
2 1:0.2438 2:0.808317 3:-0.698884 4:0.224631 5:0.445186 6:-0.540317 7:-0.761557 
2 1:0.2 2:0.642418 3:-0.657737 4:-0.132814 5:0.522261 6:-0.280136 7:-0.88643 
2 1:-0.1666 2:-0.463521 3:-0.0844444 4:-0.398007 5:0.198948 6:-0.49487 7:0.999992 
2 1:-0.8456 2:0.0593513 3:-0.0153623 4:-0.523751 5:0.0986123 6:-0.338651 7:-0.0995201 
2 1:-0.5178 2:0.406503 3:-0.60398 4:-0.0641964 5:0.198948 6:-0.450584 7:-0.735875 
2 1:-0.0058 2:0.713888 3:-0.61712 4:-0.0874151 5:0.700599 6:-0.444595 7:-0.664107 
2 1:0 2:-0.0555956 3:-0.717647 4:0.00795467 5:0.151293 6:-0.488 7:-0.691546 
2 1:-0.7844 2:0.194506 3:-0.820095 4:0.250684 5:0.0986123 6:-0.369286 7:-0.512241 
2 1:-0.248 2:0.649587 3:-0.239154 4:-0.44704 5:-0.10412 6:-0.422024 7:0.982672 
2 1:-0.44 2:-0.351363 3:0.184286 4:-0.200504 5:0.416607 6:-0.473613 7:0.996082 
0.5707002421414971 1:0.44 2:-0.0365427 3:0.0686667 4:-0.375914 5:0.282475 6:-0.542802 7:1 
2 1:0.2142 2:0.175454 3:-0.606061 4:-0.674987 5:0.0986123 6:-0.535397 7:-0.860074 
2 1:-0.9318 2:-0.633796 3:-0.255556 4:-0.774009 5:-0.450694 6:-0.598571 7:0.395035 
2 1:-0.6724 2:0.2904 3:-0.256099 4:-0.3238 5:0.151293 6:-0.656714 7:-0.827225 
0.3732955353992909 1:0.7324 2:0.817013 3:-0.890609 4:-0.191388 5:0.386294 6:-0.611205 7:-0.896844 
2 1:-0.1438 2:0.639994 3:-0.853358 4:-0.327782 5:0.242453 6:-0.19869 7:-0.985794 
2 1:-0.5266 2:0.496212 3:-0.337846 4:-0.609276 5:-0.0270449 6:-0.243673 7:0.905666 
2 1:-0.3334 2:-0.633796 3:-0.941111 4:0.0630773 5:-0.195281 6:-0.286143 7:-0.994239 
2 1:-0.2428 2:0.625066 3:-0.890313 4:0.0734667 5:0.445186 6:-0.464325 7:-0.91682 
2 1:-0.6666 2:-0.768951 3:-0.545 4:-0.311845 5:-0.195281 6:-0.371571 7:-0.715383 
2 1:-0.588 2:0.2904 3:-0.154167 4:-0.718095 5:-0.0270449 6:-0.352551 7:-0.54929 
1.39264851013511 1:-0.44 2:-0.351363 3:-0.850952 4:-0.134013 5:0.497866 6:-0.449214 7:-0.710665 
2 1:-0.6364 2:-0.402747 3:-0.326667 4:-0.183107 5:-0.10412 6:-0.284643 7:0.726358 
2 1:-0.284 2:0.122432 3:0.339136 4:-0.235844 5:0.472219 6:-0.558308 7:0.647679 
2 1:-0.8214 2:-0.463521 3:-0.650667 4:-0.531381 5:-0.195281 6:-0.426143 7:-0.213872 
1.102911028439308 1:0.003 2:0.711933 3:-0.558782 4:0.0281035 5:0.416607 6:-0.348193 7:-0.933868 
0.2547737692832224 1:0.9852 2:0.632613 3:0.0442133 4:0.333416 5:0.0986123 6:-0.493651 7:0.322671 
2 1:0.146 2:0.310609 3:-0.291064 4:-0.01033 5:0.0397208 6:-0.579821 7:0.958978 
2 1:-0.7536 2:0.261397 3:0.110775 4:-0.264003 5:0.386294 6:-0.35567 7:-0.2092 
2 1:-0.235 2:0.614729 3:-0.935253 4:-0.0110877 5:0.472219 6:-0.435301 7:-0.908908 
2 1:-0.9838 2:-1 3:-0.243333 4:-0.00753067 5:-0.195281 6:-0.357571 7:-0.895172 
2 1:-0.3846 2:0.229626 3:-0.209091 4:-0.697244 5:-0.10412 6:-0.494881 7:-0.12403 
2 1:-0.4444 2:-0.463521 3:0.586 4:-0.512798 5:0.282475 6:-0.521813 7:1 
2 1:0.2558 2:0.0986123 3:-0.416232 4:-0.508662 5:0.198948 6:-0.506753 7:-0.338709 
0.278950029909351 1:0.033 2:0.514432 3:-0.0160638 4:0.116142 5:0.386294 6:-0.471116 7:0.343864 
2 1:-0.6828 2:0.297273 3:-0.518542 4:-0.781716 5:-0.10412 6:-0.13869 7:-0.948487 
2 1:-0.5232 2:0.488636 3:0.569655 4:-0.515052 5:0.198948 6:-0.314935 7:0.893982 
1.451072837039546 1:-0.2858 2:-0.463521 3:-0.802 4:-0.254334 5:0.472219 6:-0.480489 7:-0.96836 
2 1:-0.4892 2:0.472947 3:-0.235528 4:-0.303702 5:0.198948 6:-0.199481 7:-0.76385 
2 1:-0.3254 2:0.484782 3:-0.687333 4:-0.436689 5:0.472219 6:-0.406692 7:-0.689987 
2 1:-0.637 2:0.359179 3:-0.423503 4:-0.47753 5:0.386294 6:-0.277366 7:-0.94017 
2 1:-0.6754 2:0.297273 3:-0.470278 4:-0.189325 5:0.151293 6:-0.577643 7:-0.995292 
2 1:-0.1578 2:0.0593513 3:-0.917273 4:-0.518323 5:0.151293 6:-0.433214 7:-0.980388 
2 1:-0.9344 2:-0.768951 3:0.243333 4:-0.0853219 5:-0.0270449 6:-0.59551 7:1 
2 1:-0.6018 2:0.276214 3:-0.0948551 4:-0.699849 5:-0.450694 6:-0.178095 7:-0.281946 
0.8921111840914224 1:0.8462 2:0.194506 3:-0.727963 4:0.06096 5:0.151293 6:-0.534357 7:-0.26444 
1.470088881194566 1:-0.0502 2:0.480884 3:-0.22254 4:-0.425081 5:0.282475 6:-0.369945 7:0.502317 
2 1:-0.9528 2:-0.402747 3:0.239444 4:-0.00673455 5:0.198948 6:-0.337922 7:0.998106 
2 1:-0.7362 2:0.212529 3:-0.491481 4:-0.452601 5:0.0986123 6:-0.480238 7:-0.981972 
2 1:0.6 2:0.110735 3:-0.348765 4:0.0605458 5:0.354025 6:-0.484762 7:-0.773066 
2 1:-0.7586 2:0.221187 3:-0.584188 4:-0.476888 5:0.319529 6:-0.308929 7:-0.936435 
2 1:-0.2416 2:0.606761 3:-0.638211 4:0.198091 5:0.151293 6:-0.573286 7:-0.921188 
2 1:-0.3414 2:0.329661 3:-0.178366 4:-0.208754 5:-0.0270449 6:-0.415714 7:0.738587 
2 1:-0.5664 2:0.297273 3:-0.131565 4:-0.10992 5:-0.450694 6:-0.324048 7:-0.423513 
2 1:-0.9754 2:-0.768951 3:0.13 4:-0.397707 5:0.0397208 6:-0.487946 7:1 
2 1:-0.3406 2:0.133732 3:0.299881 4:-0.171451 5:0.354025 6:-0.41719 7:0.716369 
2 1:-0.9286 2:-1 3:-0.0966667 4:0.0166333 5:0.0397208 6:-0.495536 7:0.99993 
1.032684824641427 1:0.0878 2:0.681142 3:-0.898401 4:-0.291169 5:0.282475 6:-0.435495 7:0.987726 
2 1:-0.8338 2:0.122432 3:-0.400256 4:-0.408822 5:-0.10412 6:-0.310357 7:0.174288 
2 1:0.2056 2:0.480884 3:-0.220675 4:-0.142393 5:0.76318 6:-0.481576 7:0.416051 
2 1:-0.74 2:0.122432 3:-0.0489655 4:-0.310733 5:-0.10412 6:-0.224167 7:-0.00656124 
2 1:-0.6066 2:0.364782 3:-0.689556 4:-0.57816 5:0.0397208 6:-0.333661 7:-0.993402 
2 1:-0.5 2:-0.200702 3:-0.397879 4:-0.597113 5:0.198948 6:-0.286104 7:0.366155 
2 1:-0.5874 2:-0.145017 3:-0.135385 4:-0.452827 5:0.0397208 6:-0.194375 7:-0.114229 
2 1:-0.5108 2:0.460676 3:-0.79525 4:-0.226092 5:0.0986123 6:-0.545397 7:-0.504359 
2 1:-0.4258 2:0.488636 3:-0.178199 4:-0.193925 5:-0.195281 6:-0.249 7:-0.882129 
2 1:0.3334 2:0.133732 3:0.196173 4:-0.65821 5:0.0986123 6:-0.551984 7:-0.480499 
2 1:-0.6226 2:-0.232472 3:-0.531667 4:-0.53704 5:-0.653426 6:-0.530714 7:-0.627379 
2 1:-0.3618 2:0.133732 3:-0.802184 4:-0.324136 5:0.445186 6:-0.472302 7:-0.825972 
2 1:-0.9582 2:-0.537902 3:-0.434167 4:-0.0915371 5:0.319529 6:-0.307653 7:-0.995572 
0.05092579861716047 1:-0.2058 2:0.639994 3:-0.820526 4:-0.581287 5:-0.306853 6:0.4375 7:-0.775707 
2 1:-0.6458 2:0.144662 3:0.241379 4:-0.232624 5:0.416607 6:-0.463824 7:0.588069 
2 1:-0.6112 2:0.375711 3:-0.696237 4:-0.18675 5:0.386294 6:-0.560804 7:-0.925171 
2 1:-0.0722 2:0.705998 3:-0.569799 4:0.139024 5:0.282475 6:-0.562802 7:-0.894284 
2 1:-0.7242 2:-0.537902 3:0.103333 4:0.0271467 5:0.151293 6:-0.565714 7:0.500942 
2 1:-0.2 2:-0.402747 3:-0.459444 4:-0.290913 5:-0.306853 6:-0.552321 7:-0.330731 
2 1:-0.569 2:0.386294 3:-0.570582 4:-0.414568 5:0.282475 6:-0.28989 7:-0.950389 
2 1:0.1882 2:0.799388 3:-0.203833 4:-0.0762575 5:0.683648 6:-0.425493 7:-0.460092 
2 1:-0.9274 2:-0.200702 3:-0.644545 4:-0.311139 5:-0.0270449 6:-0.237449 7:-0.447727 
2 1:-0.5718 2:0.401564 3:-0.886617 4:-0.0320078 5:0.416607 6:-0.423445 7:-0.989255 
2 1:-0.7 2:-0.633796 3:0.0655556 4:0.134289 5:-0.10412 6:-0.434643 7:0.998657 
2 1:0.0366 2:0.762756 3:0.522517 4:-0.205336 5:0.700599 6:-0.364952 7:0.996164 
2 1:-0.6394 2:0.261397 3:-0.150909 4:-0.541467 5:-0.195281 6:-0.124571 7:-0.614675 
2 1:-0.4928 2:0.416165 3:-0.479005 4:-0.32654 5:0.242453 6:-0.460179 7:-0.908577 
2 1:0.0726 2:0.521449 3:-0.0817014 4:0.201906 5:0.472219 6:-0.485564 7:0.316819 
2 1:-0.4492 2:0.517959 3:-0.391685 4:-0.820272 5:-0.195281 6:-0.407286 7:-0.517757 
2 1:0.0062 2:0.468906 3:0.710622 4:-0.24076 5:0.242453 6:-0.37 7:0.999974 
2 1:-0.5578 2:0.0148408 3:-0.675556 4:-0.138597 5:0.0397208 6:-0.322946 7:0.373854 
2 1:-0.6666 2:-1 3:0.0333333 4:-0.600499 5:0.198948 6:-0.0155195 7:1 
2 1:-0.25 2:0.381045 3:0.458155 4:-0.353896 5:0.151293 6:-0.507857 7:0.999993 
2 1:-0.3368 2:0.375711 3:-0.488925 4:-0.265452 5:0.354025 6:-0.481857 7:-0.663579 
2 1:-0.5112 2:0.165503 3:-0.612366 4:-0.15662 5:0.242453 6:-0.247321 7:-0.720168 
2 1:-0.8672 2:-0.0555956 3:-0.604314 4:-0.403936 5:0.242453 6:-0.284464 7:-0.936815 
1.76114027544491 1:0.4736 2:0.476939 3:-0.399042 4:-0.138114 5:0.319529 6:-0.567041 7:-0.608328 
2 1:0.3214 2:0.203639 3:0.124608 4:-0.7657 5:-0.306853 6:-0.120536 7:-0.410948 
2 1:-0.9534 2:-1 3:0.15 4:-0.22608 5:0.0397208 6:0.155982 7:1 
1.971399523113094 1:0.43 2:0.676813 3:0.199274 4:0.461105 5:-0.0270449 6:-0.622959 7:0.93732 
0.8658398404713192 1:0.4088 2:0.75423 3:0.0557527 4:0.0864571 5:-0.0270449 6:-0.576224 7:0.393134 
1.395710409820756 1:0.6 2:0.460676 3:0.187532 4:0.020752 5:0.151293 6:-0.490857 7:-0.713185 
2 1:-0.497 2:0.480884 3:-0.758675 4:-0.780687 5:-0.306853 6:-0.13125 7:-0.976681 
2 1:-0.3208 2:-0.0365427 3:-0.216275 4:0.0870933 5:-0.306853 6:-0.363036 7:-0.156642 
0.9333350130525002 1:0.7142 2:-0.402747 3:0.393889 4:-0.183573 5:-0.10412 6:-0.0117857 7:1 
2 1:-0.6928 2:0.335778 3:-0.651605 4:-0.724583 5:-0.0270449 6:-0.321224 7:-0.970199 
2 1:-0.5822 2:0.460676 3:-0.868889 4:-0.394356 5:0.319529 6:-0.468214 7:-0.451044 
2 1:-0.8444 2:0.0986123 3:-0.657407 4:-0.839675 5:-0.195281 6:0.0814286 7:-0.899954 
2 1:-0.0608 2:0.663478 3:-0.815972 4:-0.25701 5:0.0397208 6:-0.513036 7:-0.92863 
2 1:-0.6126 2:0.370291 3:-0.457056 4:-0.00898667 5:0.416607 6:-0.464244 7:0.369896 
2 1:-0.2 2:-0.171698 3:-0.0877778 4:-0.155538 5:0.0986123 6:-0.297222 7:0.725901 
1.645833857538103 1:-0.3456 2:0.609438 3:0.0827733 4:0.0594853 5:0.151293 6:-0.500857 7:0.723377 
2 1:-0.6842 2:-0.402747 3:-0.613889 4:-0.501271 5:0.242453 6:-0.507798 7:-0.993688 
2 1:-0.8424 2:0.0860322 3:-0.647949 4:-0.140903 5:-0.0270449 6:-0.150714 7:-0.987554 
2 1:-0.0878 2:0.0860322 3:-0.545641 4:-0.0401752 5:-0.0270449 6:-0.222755 7:0.702946 
2 1:-0.1818 2:0.531707 3:-0.523027 4:-0.14074 5:0.732868 6:-0.470513 7:-0.427306 
2 1:-0.2662 2:0.375711 3:-0.801093 4:-0.151022 5:0.242453 6:-0.564107 7:-0.678555 
2 1:-0.7484 2:0.221187 3:-0.839231 4:-0.259607 5:0.242453 6:-0.49119 7:-0.954469 
2 1:-0.4172 2:0.464816 3:-0.512208 4:-0.415539 5:0.151293 6:-0.510643 7:-0.953916 
2 1:0.1416 2:0.598597 3:0.504032 4:-0.33304 5:0.198948 6:-0.275909 7:0.790643 
2 1:-0.9058 2:-0.145017 3:-0.799231 4:-0.470453 5:0.242453 6:-0.524821 7:-0.350304 
2 1:-0.97 2:-0.537902 3:-0.595833 4:-0.0678629 5:-0.0270449 6:-0.461531 7:-0.97523 
2 1:-0.923 2:-0.402747 3:-0.314444 4:0.0181307 5:0.151293 6:-0.438286 7:0.351744 
2 1:-0.6842 2:-0.402747 3:0.280556 4:-0.81732 5:-0.306853 6:-0.11875 7:0.666085 
2 1:-0.7236 2:0.212529 3:-0.490439 4:-0.453038 5:0.416607 6:-0.59605 7:-0.575881 
2 1:-0.1472 2:0.644825 3:-0.601763 4:0.159793 5:0.242453 6:-0.571667 7:-0.854735 
2 1:-0.5628 2:0.406503 3:-0.119851 4:-0.0949889 5:0.242453 6:-0.508095 7:-0.354625 
2 1:-0.1712 2:0.439163 3:-0.971831 4:-0.503307 5:0.198948 6:-0.197338 7:-0.930613 
2 1:-0.5068 2:0.499937 3:-0.498577 4:-0.355527 5:0.354025 6:-0.350143 7:-0.677399 
2 1:-0.6634 2:0.310609 3:-0.827971 4:-0.553347 5:0.0397208 6:-0.343482 7:-0.962901 
1.207723605474021 1:0.2942 2:-0.200702 3:0.0443333 4:-0.31689 5:0.198948 6:-0.449156 7:-0.632883 
2 1:-0.6342 2:0.155245 3:-0.614271 4:-0.615617 5:0.0397208 6:0.0369643 7:0.197612 
2 1:-0.991 2:-1 3:0.533333 4:-0.576444 5:0.0986123 6:-0.115159 7:1 
2 1:-0.656 2:0.391462 3:-0.570625 4:-0.13559 5:0.0397208 6:-0.249196 7:-0.628829 
2 1:-0.1136 2:0.221187 3:0.160463 4:-0.0465274 5:0.0986123 6:-0.522698 7:0.983119 
2 1:-0.8114 2:-0.463521 3:0.157333 4:-0.81712 5:-0.306853 6:-0.11875 7:0.999812 
2 1:0 2:-0.171698 3:-0.875833 4:-0.023392 5:0.354025 6:-0.473905 7:1 
2 1:-0.485 2:0.484782 3:-0.675271 4:-0.460331 5:-0.195281 6:-0.118286 7:0.914425 
2 1:-0.7142 2:-0.351363 3:-0.0047619 4:-0.461848 5:0.151293 6:-0.546714 7:0.196635 
0.3709551269196564 1:-0.288 2:0.625066 3:-0.397855 4:0.426527 5:0.0397208 6:-0.502232 7:0.998484 
2 1:-0.759 2:0.203639 3:-0.861333 4:-0.409941 5:0.0986123 6:-0.360794 7:-0.967094 
2 1:-0.5314 2:0.468906 3:-0.843659 4:0.181132 5:0.0986123 6:-0.615635 7:-0.915324 
1.649920057339898 1:-0.2542 2:0.0303475 3:-0.601373 4:-0.677942 5:-0.10412 6:0.112143 7:-0.601793 
2 1:-0.5914 2:0.347684 3:-0.0200585 4:-0.53571 5:0.0397208 6:-0.132768 7:-0.794886 
2 1:-0.525 2:0.499937 3:0.311629 4:-0.408364 5:0.198948 6:-0.31013 7:0.526302 
2 1:-0.326 2:0.375711 3:-0.74306 4:-0.296794 5:0.0986123 6:-0.454762 7:-0.752574 
2 1:0.1012 2:0.297273 3:0.245957 4:0.209429 5:-0.0270449 6:-0.313367 7:0.857225 
2 1:-0.0728 2:0.310609 3:-0.386458 4:-0.320427 5:0.242453 6:-0.449821 7:0.874867 
2 1:-0.854 2:-0.00142258 3:-0.197667 4:-0.443093 5:-0.10412 6:-0.0935714 7:-0.210682 
2 1:-0.1644 2:0.681142 3:-0.0470707 4:-0.611547 5:0.242453 6:-0.263571 7:0.977786 
2 1:-0.265 2:0.54813 3:-0.652427 4:-0.302015 5:0.445186 6:-0.341667 7:-0.969786 
1.154357565424675 1:-0.5576 2:0.411369 3:0.0992647 4:-0.0388558 5:0.198948 6:-0.582597 7:0.0649823 
2 1:-0.0184 2:0.741916 3:-0.550412 4:-0.124159 5:0.700599 6:-0.415452 7:-0.102741 
2 1:-0.6 2:-0.633796 3:0.391111 4:-0.349443 5:0.0397208 6:-0.338571 7:0.366343 
2 1:-0.25 2:0.0148408 3:-0.417302 4:-0.39347 5:-0.0270449 6:-0.482653 7:-0.389884 
1.304669154753025 1:0.1974 2:0.729129 3:-0.7247 4:-0.0368693 5:0.609438 6:-0.494429 7:-0.907329 
2 1:-0.5624 2:0.0148408 3:-0.423889 4:-0.0837479 5:0.198948 6:-0.481169 7:0.59436 
2 1:-0.7118 2:-0.0758038 3:0.415208 4:-0.497815 5:0.386294 6:-0.28808 7:0.999993 
2 1:-0.6666 2:-0.633796 3:-0.338889 4:-0.571802 5:0.242453 6:-0.222381 7:0.999631 
0.2758099432248211 1:0.1296 2:0.794832 3:-0.358657 4:0.105057 5:0.497866 6:-0.418357 7:-0.308206 
2 1:-0.2906 2:0.55132 3:-0.743587 4:-0.259409 5:0.416607 6:-0.375966 7:-0.970312 
2 1:-0.0536 2:0.707988 3:0.386791 4:-0.26334 5:0.609438 6:-0.439429 7:0.99994 
2 1:-0.6924 2:0.2904 3:-0.565504 4:-0.332784 5:0.282475 6:-0.415714 7:-0.486056 
1.92691149700171 1:0 2:-0.0185203 3:-0.743509 4:0.0447675 5:0.567747 6:-0.421988 7:0.147432 
1.758342162946212 1:-0.1666 2:-0.463521 3:-0.498889 4:-0.763203 5:0.0397208 6:-0.379911 7:0.999992 
2 1:-0.4856 2:0.528322 3:0.224826 4:-0.60232 5:0.242453 6:-0.318155 7:0.40389 
0.4317872933625932 1:0.474 2:0.808317 3:-0.592252 4:-0.0692449 5:0.472219 6:-0.424925 7:-0.898369 
2 1:0.0406 2:0.752498 3:0.566631 4:-0.219098 5:0.647918 6:-0.49209 7:0.999754 
1.096436769062795 1:0.2986 2:0.719685 3:0.678112 4:0.233852 5:0.386294 6:-0.289509 7:0.943589 
2 1:-0.6342 2:0.364782 3:-0.665367 4:-0.871295 5:-0.0270449 6:-0.191939 7:-0.956091 
2 1:-0.3888 2:0.335778 3:-0.557531 4:-0.404818 5:-0.10412 6:-0.0527381 7:-0.962753 
2 1:0.391 2:0.767768 3:0.118985 4:-0.167114 5:0.545521 6:-0.391331 7:0.893506 
2 1:-0.7034 2:0.253733 3:-0.257442 4:-0.502041 5:0.0986123 6:-0.39254 7:-0.94349 
2 1:-0.8006 2:0.165503 3:0.136768 4:-0.327526 5:0.0986123 6:0.0322222 7:0.888384 
2 1:-0.575 2:0.406503 3:-0.175423 4:-0.571095 5:0.319529 6:-0.344541 7:-0.924225 
2 1:-0.1708 2:0.406503 3:-0.314726 4:-0.0717406 5:0.198948 6:-0.468896 7:0.714534 
2 1:0.1272 2:0.606761 3:0.461468 4:-0.304145 5:0.198948 6:-0.228247 7:0.761734 
2 1:0.1162 2:0.2904 3:-0.323406 4:-0.250784 5:0.151293 6:-0.475 7:0.944489 
2 1:-0.6666 2:-1 3:0.343333 4:-0.710487 5:0.242453 6:-0.0429762 7:1 
2 1:0.2308 2:0.803882 3:-0.54169 4:-0.175229 5:0.629048 6:-0.510824 7:-0.551296 
2 1:0.753 2:0.420893 3:0.087619 4:0.0248152 5:-0.0270449 6:-0.419694 7:0.970982 
2 1:-0.0616 2:0.691725 3:-0.666013 4:0.0947055 5:0.198948 6:-0.598571 7:-0.848439 
2 1:-0.2174 2:-0.267592 3:-0.219259 4:-0.239558 5:0.319529 6:-0.503163 7:0.368058 
2 1:-0.6148 2:0.347684 3:-0.661462 4:-0.398613 5:0.445186 6:-0.360238 7:-0.9718 
2 1:-0.5228 2:0.283383 3:-0.535652 4:-0.107512 5:0.151293 6:-0.445143 7:-0.531732 
2 1:-0.983 2:-1 3:0.54 4:-0.821276 5:-0.10412 6:-0.273929 7:1 
2 1:-0.983 2:-1 3:-0.473333 4:-0.307658 5:-0.10412 6:-0.508214 7:-0.99823 
2 1:-0.2148 2:0.517959 3:-0.517447 4:-0.230631 5:0.818793 6:-0.486372 7:-0.29983 
2 1:-0.3292 2:0.335778 3:-0.767758 4:-0.193758 5:0.666102 6:-0.404847 7:-0.470584 
2 1:0.2864 2:0.681142 3:-0.662359 4:-0.029353 5:0.472219 6:-0.342105 7:-0.829229 
2 1:-0.68 2:0.2904 3:-0.373472 4:-0.223364 5:-0.0270449 6:-0.201837 7:-0.932369 
1.355385071239328 1:-0.1428 2:-0.633796 3:-0.433333 4:-0.485473 5:0.0986123 6:-0.573095 7:0.999972 
2 1:-0.5034 2:0.430153 3:-0.215857 4:-0.720089 5:-0.10412 6:0.0121429 7:-0.963534 
2 1:-0.0476 2:-0.232472 3:-0.133333 4:0.294116 5:-0.10412 6:-0.376071 7:0.977248 
2 1:-0.5884 2:0.420893 3:-0.20169 4:-0.571595 5:0.198948 6:-0.316688 7:-0.345999 
2 1:-0.59 2:0.396552 3:-0.289538 4:-0.507149 5:0.282475 6:-0.424286 7:-0.922396 
1.23612288274172 1:0.8334 2:0.492446 3:-0.969961 4:0.0237267 5:0.589027 6:-0.530655 7:-0.974045 
2 1:-0.7844 2:-0.200702 3:0.167333 4:0.08571 5:0.0397208 6:-0.508304 7:0.60023 
2 1:-0.3334 2:-1 3:-0.15 4:-0.799342 5:-0.10412 6:-0.586071 7:1 
2 1:-0.8826 2:-0.00142258 3:-0.565556 4:-0.0271886 5:0.319529 6:-0.48801 7:-0.298364 
2 1:-0.8666 2:-1 3:0.263333 4:-0.70728 5:-0.450694 6:-0.262381 7:1 
2 1:-0.6154 2:-0.463521 3:0.138333 4:-0.459138 5:-0.450694 6:-0.21881 7:-0.059494 
2 1:-0.628 2:-0.306853 3:-0.740476 4:-0.75277 5:-0.0270449 6:-0.462245 7:0.999576 
2 1:-0.11 2:0.524904 3:-0.722222 4:-0.279994 5:0.805459 6:-0.421622 7:-0.342685 
2 1:-0.814 2:-0.537902 3:0.809167 4:-0.683904 5:0.151293 6:-0.332929 7:0.809328 
2 1:-0.2794 2:0.297273 3:-0.719259 4:0.28829 5:0.0986123 6:-0.578651 7:-0.481096 
2 1:-0.5142 2:0.175454 3:0.533529 4:-0.600097 5:0.198948 6:-0.462662 7:0.882766 
2 1:-0.5026 2:0.2904 3:-0.710952 4:-0.31372 5:0.0397208 6:-0.482946 7:-0.932749 
2 1:-0.5844 2:0.411369 3:-0.967729 4:-0.160144 5:0.445186 6:-0.407976 7:-0.957542 
2 1:-0.2942 2:-0.171698 3:0.237879 4:-0.263829 5:0.151293 6:-0.502429 7:0.254148 
0.7346533031863268 1:0.9 2:0.212529 3:-0.53963 4:-0.0895733 5:0.282475 6:-0.173571 7:-0.905253 
2 1:-0.53 2:0.283383 3:-0.465532 4:-0.457724 5:0.0986123 6:-0.0744444 7:-0.958872 
2 1:-0.6124 2:0.304008 3:-0.488639 4:-0.729269 5:0.151293 6:-0.516786 7:-0.170567 
2 1:-0.1662 2:0.630116 3:-0.90173 4:0.12978 5:0.242453 6:-0.584762 7:-0.878646 
2 1:-0.8096 2:-0.537902 3:0.645 4:-0.550897 5:0.198948 6:-0.145065 7:1 
2 1:-0.1304 2:-0.232472 3:-0.404 4:-0.277782 5:-0.10412 6:-0.543214 7:-0.409218 
2 1:-0.2728 2:-0.306853 3:-0.6125 4:-0.516432 5:-0.195281 6:-0.680571 7:-0.858048 
2 1:0 2:0.54491 3:-0.739835 4:-0.188972 5:0.282475 6:-0.421044 7:-0.91751 
1.841106726172022 1:0.2234 2:0.381045 3:-0.782116 4:-0.0887217 5:0.732868 6:-0.425246 7:-0.534769 
2 1:-0.6364 2:-0.537902 3:-0.73 4:-0.251751 5:-0.10412 6:-0.536905 7:0.044638 
2 1:-0.4568 2:0.492446 3:-0.449272 4:0.0861818 5:0.198948 6:-0.523831 7:-0.500207 
2 1:0.1418 2:0.693801 3:0.418302 4:-0.124742 5:0.472219 6:-0.460414 7:0.996791 
2 1:-0.9816 2:-0.633796 3:-0.917778 4:-0.07596 5:0.0397208 6:-0.477589 7:-0.486241 
0.04301550158341291 1:-0.45 2:0.492446 3:-0.189799 4:-0.662317 5:0.151293 6:-0.258071 7:-0.241517 
0.4104231322846632 1:0.1852 2:0.155245 3:0.330323 4:-0.611993 5:0.545521 6:-0.331851 7:1 
2 1:-0.2444 2:0.630116 3:-0.750351 4:0.172423 5:0.386294 6:-0.427366 7:-0.934219 
2 1:-0.0334 2:0.122432 3:-0.74954 4:0.153745 5:0.198948 6:-0.616948 7:-0.808287 
2 1:-0.472 2:0.531707 3:0.0940972 4:0.378074 5:0.0986123 6:-0.428175 7:0.933166 
2 1:-0.8086 2:0.0986123 3:-0.438642 4:-0.707669 5:-0.195281 6:-0.285429 7:-0.968635 
2 1:-0.3628 2:0.514432 3:-0.652967 4:-0.657076 5:0.319529 6:-0.511327 7:-0.943199 
2 1:-0.5282 2:0.420893 3:-0.607136 4:-0.342333 5:0.242453 6:-0.566905 7:-0.97868 
2 1:-0.592 2:0.310609 3:-0.603922 4:0.180343 5:0.319529 6:-0.546939 7:1 
2 1:-0.0564 2:0.651942 3:-0.514341 4:-0.238809 5:0.76318 6:-0.467416 7:-0.555761 
2 1:-0.7168 2:0.165503 3:-0.221354 4:-0.786155 5:-0.195281 6:-0.230714 7:0.37755 
2 1:-0.375 2:-0.463521 3:-0.919333 4:-0.263937 5:0.198948 6:-0.415325 7:-0.990155 
2 1:-0.6098 2:-0.306853 3:0.206667 4:-0.202339 5:-0.0270449 6:-0.340612 7:0.956457 
2 1:-0.7778 2:-0.537902 3:-0.565833 4:-0.72996 5:0.151293 6:-0.633857 7:-0.780841 
2 1:-0.4954 2:0.472947 3:-0.512967 4:0.00422788 5:0.198948 6:-0.577078 7:-0.799043 
2 1:0.0714 2:-0.0973166 3:0.403778 4:0.222777 5:-0.0270449 6:-0.557857 7:0.998934 
2 1:-0.802 2:-0.232472 3:0.160741 4:-0.0203467 5:-0.0270449 6:-0.532755 7:0.555843 
2 1:0.64 2:0.468906 3:-0.00477366 4:-0.255533 5:0.0397208 6:-0.503571 7:-0.82618 
0.6305174135008007 1:0.4902 2:0.212529 3:0.190877 4:-0.445512 5:0.472219 6:-0.471729 7:0.565829 
0.880434422133056 1:0.6492 2:0.819862 3:-0.617623 4:-0.278399 5:0.545521 6:-0.487727 7:0.207268 
2 1:-0.704 2:0.165503 3:-0.846146 4:-0.241848 5:0.497866 6:-0.463321 7:0.346374 
2 1:-0.6364 2:-0.232472 3:0.160667 4:-0.402382 5:0.0986123 6:-0.522857 7:0.995943 
2 1:-0.946 2:-1 3:-0.456667 4:0.242527 5:-0.306853 6:-0.523571 7:-0.945506 
1.312244874194539 1:-0.1112 2:-0.537902 3:-0.0908333 4:-0.120103 5:0.282475 6:-0.22522 7:-0.91941 
2 1:-0.7044 2:0.175454 3:-0.790686 4:-0.0698 5:0.151293 6:-0.421786 7:0.89167 
2 1:-0.418 2:0.488636 3:-0.265172 4:-0.217705 5:0.354025 6:-0.474571 7:-0.487558 
2 1:-0.0192 2:0.678984 3:-0.503028 4:0.0607179 5:0.282475 6:-0.637527 7:-0.846827 
0.5092534971545185 1:-0.0834 2:0.0303475 3:0.126984 4:-0.551136 5:-0.195281 6:-0.09 7:-0.130562 
2 1:-0.1364 2:-0.0185203 3:-0.803922 4:-0.426293 5:0.319529 6:-0.461786 7:-0.972232 
2 1:0.0678 2:0.381045 3:-0.724286 4:0.02482 5:0.497866 6:-0.481857 7:0.806399 
2 1:-0.3902 2:0.304008 3:-0.553056 4:-0.203445 5:-0.195281 6:-0.537571 7:-0.883617 
2 1:-0.6818 2:0.185116 3:-0.818235 4:-0.22845 5:0.0397208 6:-0.534018 7:-0.878186 
2 1:-0.3828 2:0.329661 3:-0.17732 4:-0.274857 5:0.0397208 6:-0.4375 7:0.739359 
2 1:0.277 2:0.472947 3:-0.449744 4:-0.235197 5:0.0397208 6:-0.565982 7:-0.69597 
0.7966313114682962 1:0.2176 2:0.729129 3:-0.77725 4:-0.435419 5:0.151293 6:-0.501571 7:-0.468709 
0.7051264464822203 1:0.4858 2:0.317081 3:-0.00424837 4:0.133291 5:0.319529 6:-0.289184 7:-0.981152 
2 1:0.102 2:0.329661 3:-0.731975 4:-0.572867 5:-0.306853 6:-0.254107 7:-0.721816 
2 1:-0.6162 2:-0.0185203 3:0.532105 4:-0.30015 5:0.282475 6:-0.51044 7:1 
2 1:0.6 2:-0.537902 3:-0.8875 4:-0.406089 5:-0.10412 6:-0.159524 7:-0.98924 
2 1:0.1902 2:0.796357 3:0.0715207 4:-0.0562114 5:0.666102 6:-0.541735 7:-0.122065 
1.612500620185153 1:0.2352 2:0.747249 3:-0.875681 4:-0.148332 5:0.386294 6:-0.306607 7:-0.849993 
0.4069242636940425 1:0.9434 2:0.82688 3:-0.921786 4:0.179914 5:0.0986123 6:-0.181825 7:0.95866 
2 1:-0.4922 2:0.464816 3:-0.671833 4:-0.48063 5:0.198948 6:-0.139805 7:-0.958692 
2 1:-0.7778 2:-1 3:-0.953333 4:-0.482387 5:0.151293 6:-0.340714 7:-0.911408 
2 1:-0.6626 2:-0.120314 3:0.407857 4:0.225802 5:-0.0270449 6:-0.621327 7:0.965431 
2 1:-0.9208 2:-0.537902 3:0.390833 4:-0.508133 5:-0.653426 6:-0.751429 7:0.000647 
2 1:-0.5942 2:0.110735 3:0.374048 4:-0.290473 5:0.242453 6:-0.254286 7:0.999998 
2 1:-0.5802 2:0.425555 3:-0.459437 4:-0.287158 5:0.242453 6:-0.473512 7:-0.901925 
2 1:0.0476 2:0.743703 3:0.2155 4:-0.179324 5:0.666102 6:-0.506939 7:0.999685 
2 1:-0.9934 2:-1 3:-0.446667 4:0.0839467 5:-0.306853 6:-0.558214 7:-0.985614 
1.139305195598032 1:0.8 2:0.499937 3:-0.355 4:0.00388444 5:-0.10412 6:-0.479762 7:-0.766202 
2 1:-0.4318 2:0.0729586 3:0.329565 4:-0.437803 5:-0.195281 6:-0.603714 7:0.65787 
2 1:-0.2876 2:0.563783 3:-0.595443 4:-0.373742 5:0.386294 6:-0.427366 7:-0.961497 
2 1:0.1926 2:0.521449 3:-0.931465 4:-0.299152 5:0.198948 6:-0.542273 7:-0.799193 
2 1:-0.6818 2:0.0148408 3:-0.538167 4:-0.504158 5:0.242453 6:-0.47881 7:0.131394 
2 1:-0.5652 2:-0.463521 3:-0.664667 4:0.04268 5:0.242453 6:-0.317143 7:-0.957677 
1.616237012923341 1:0.2728 2:-0.351363 3:0.377143 4:-0.651563 5:-0.195281 6:0.24 7:-0.953157 
2 1:-0.4194 2:-0.267592 3:-0.542593 4:-0.647942 5:0.198948 6:-0.520779 7:-0.551953 
2 1:-0.937 2:-0.537902 3:-0.268333 4:-0.022976 5:-0.195281 6:-0.518429 7:-0.81353 
2 1:-0.6152 2:0.341784 3:-0.684691 4:-0.661431 5:0.0986123 6:-0.276429 7:-0.962494 
2 1:-0.7018 2:0.0593513 3:-0.943194 4:-0.540298 5:0.198948 6:-0.498052 7:-0.694939 
2 1:-0.8632 2:0.0593513 3:-0.712083 4:-0.204004 5:0.242453 6:-0.483571 7:-0.982507 
2 1:-0.649 2:0.323431 3:-0.307908 4:-0.801083 5:-0.195281 6:0.107 7:-0.977179 
2 1:0 2:-1 3:-0.05 4:0.168469 5:-0.195281 6:-0.208 7:0.999998 
2 1:-0.577 2:-0.200702 3:-0.444167 4:-0.621227 5:0.151293 6:-0.534571 7:-0.483945 
2 1:-0.9336 2:-0.306853 3:-0.610833 4:-0.743207 5:-0.306853 6:-0.132857 7:-0.984149 
2 1:-0.585 2:-0.200702 3:-0.567273 4:-0.418616 5:0.0986123 6:-0.292063 7:0.958977 
2 1:-0.0492 2:0.353481 3:-0.271724 4:0.0867502 5:0.354025 6:-0.51181 7:0.134419 
0.8839737691756087 1:0.1246 2:0.723495 3:-0.253124 4:-0.0497636 5:0.545521 6:-0.385292 7:-0.741704 
2 1:-0.7372 2:0.237857 3:-0.480833 4:-0.442517 5:0.151293 6:-0.584143 7:-0.902109 
2 1:-0.7812 2:0.185116 3:-0.830952 4:-0.339988 5:0.282475 6:-0.461374 7:-0.983449 
2 1:0.1778 2:0.800892 3:-0.36 4:-0.0171486 5:0.666102 6:-0.491913 7:-0.0346587 
2 1:-0.5988 2:0.391462 3:-0.577944 4:-0.529551 5:-0.10412 6:0.230595 7:-0.982839 
2 1:-0.421 2:-0.200702 3:-0.227576 4:-0.366987 5:-0.0270449 6:-0.502551 7:-0.658701 
2 1:-0.5074 2:0.472947 3:-0.868313 4:-0.133308 5:0.386294 6:-0.537723 7:-0.900587 
2 1:-0.7812 2:0.122432 3:-0.295862 4:-0.593111 5:0.0986123 6:-0.289286 7:-0.540626 
2 1:-0.6562 2:-0.200702 3:0.191818 4:0.13376 5:-0.306853 6:-0.374821 7:-0.972755 
2 1:-0.362 2:0.317081 3:-0.561895 4:-0.50024 5:0.0397208 6:-0.615893 7:-0.157209 
2 1:0.0804 2:0.283383 3:-0.192444 4:0.114723 5:0.0397208 6:-0.464643 7:0.920818 
2 1:-0.5562 2:0.411369 3:-0.555645 4:-0.87592 5:-0.306853 6:-0.409821 7:-0.942214 
2 1:-0.004 2:0.604061 3:0.215966 4:-0.466567 5:0.242453 6:-0.489048 7:-0.352814 
2 1:-0.5218 2:-0.200702 3:0.255455 4:-0.540645 5:0.151293 6:-0.284571 7:-0.449437 
2 1:-0.2146 2:0.439163 3:-0.725251 4:-0.282432 5:0.647918 6:-0.387143 7:-0.56903 
2 1:-0.1428 2:0.165503 3:-0.660729 4:-0.499644 5:0.0986123 6:-0.370873 7:-0.772849 
2 1:-0.577 2:-0.200702 3:0.0233333 4:-0.348327 5:0.0397208 6:-0.335 7:0.958977 
2 1:-0.559 2:0.430153 3:-0.88968 4:0.179664 5:0.242453 6:-0.552262 7:-0.946866 
2 1:-0.5918 2:-0.00142258 3:-0.673667 4:-0.297611 5:0.319529 6:-0.308878 7:-0.780921 
2 1:-0.7122 2:0.237857 3:-0.494333 4:-0.495162 5:-0.0270449 6:-0.240204 7:-0.899405 
0.394404997867515 1:0.9262 2:0.819862 3:-0.177787 4:-0.135024 5:0.445186 6:-0.162381 7:-0.871375 
2 1:-0.2106 2:0.635092 3:-0.892256 4:0.052815 5:0.386294 6:-0.436473 7:-0.93706 
2 1:-0.7278 2:0.317081 3:-0.578974 4:-0.482951 5:-0.450694 6:-0.490476 7:0.861763 
2 1:-0.1724 2:-0.171698 3:0.714444 4:-0.385019 5:0.0986123 6:-0.318968 7:1 
2 1:-0.9934 2:-1 3:-0.63 4:-0.367431 5:-0.450694 6:-0.28619 7:-0.969206 
2 1:-0.619 2:0.386294 3:-0.546828 4:-0.710191 5:-0.10412 6:-0.13869 7:-0.939201 
2 1:0.3334 2:-0.402747 3:0.215 4:-0.563031 5:0.0986123 6:-0.466032 7:1 
1.486842068688513 1:0.7872 2:0.24589 3:-0.834815 4:-0.24987 5:0.777674 6:-0.40149 7:1 
2 1:-0.2596 2:0.447935 3:-0.342325 4:0.139724 5:0.319529 6:-0.427449 7:0.76849 
0.9919468831652952 1:0.3076 2:0.743703 3:-0.518459 4:-0.339867 5:-0.306853 6:-0.104464 7:0.0805199 
0.7920866833961381 1:0.037 2:0.110735 3:0.193951 4:0.00953778 5:0.354025 6:-0.550143 7:-0.0505288 
2 1:-0.3142 2:-0.171698 3:-0.540909 4:-0.242956 5:-0.10412 6:-0.411071 7:-0.365334 
2 1:-0.247 2:0.155245 3:-0.252796 4:-0.30267 5:-0.0270449 6:-0.236122 7:0.998332 
2 1:-0.4546 2:-0.402747 3:-0.223889 4:-0.298758 5:-0.0270449 6:-0.470408 7:0.279458 
2 1:-0.923 2:-0.633796 3:0.285556 4:-0.808258 5:-0.10412 6:-0.40131 7:1 
2 1:-0.561 2:-0.267592 3:0.397778 4:-0.396966 5:0.0986123 6:-0.370635 7:-0.378364 
2 1:-0.375 2:-0.463521 3:-0.318667 4:0.188993 5:-0.306853 6:-0.303571 7:-0.197658 
2 1:-0.324 2:0.2904 3:-0.594028 4:-0.419808 5:0.151293 6:-0.330714 7:-0.852551 
2 1:-0.6552 2:0.391462 3:-0.479479 4:0.00905455 5:0.198948 6:-0.559286 7:-0.752987 
0.1691724284235432 1:-0.138 2:0.0729586 3:-0.157879 4:-0.0836583 5:0.386294 6:-0.186116 7:0.655195 
2 1:-0.5578 2:0.401564 3:-0.504063 4:-0.34372 5:0.0397208 6:-0.568304 7:-0.705677 
2 1:0.2452 2:0.165503 3:-0.852929 4:-0.145347 5:0.242453 6:-0.510595 7:-0.959427 
2 1:-0.4918 2:0.144662 3:0.24931 4:-0.197805 5:0.386294 6:-0.576741 7:0.598248 
2 1:-0.7486 2:0.253733 3:-0.820079 4:-0.174684 5:0.445186 6:-0.321468 7:-0.986654 
2 1:-0.2972 2:-0.145017 3:-0.465385 4:0.00596667 5:0.497866 6:-0.590643 7:-0.934633 
2 1:-0.8058 2:-0.232472 3:-0.474444 4:-0.226819 5:-0.0270449 6:-0.651633 7:-0.70773 
2 1:-0.6666 2:-1 3:-0.406667 4:-0.746693 5:-0.195281 6:-0.290429 7:0.999998 
2 1:-0.4432 2:0.329661 3:-0.890256 4:-0.155063 5:0.319529 6:-0.409031 7:-0.528948 
2 1:-0.0356 2:0.723495 3:-0.642824 4:-0.276156 5:0.700599 6:-0.447 7:-0.72426 
2 1:-0.3846 2:-0.00142258 3:-0.910185 4:-0.66678 5:-0.306853 6:-0.553036 7:0.598741 
2 1:-0.5408 2:0.144662 3:-0.53871 4:-0.378554 5:0.319529 6:-0.212602 7:-0.903919 
1.029740904946969 1:0.2666 2:0.212529 3:0.112857 4:-0.678813 5:-0.306853 6:-0.101786 7:-0.369917 
2 1:0.292 2:0.54813 3:-0.0882971 4:-0.381078 5:0.242453 6:-0.305298 7:0.999994 
2 1:-0.9726 2:-1 3:0.246667 4:-0.125745 5:-0.0270449 6:-0.539898 7:0.998996 
2 1:-0.1516 2:-0.120314 3:0.0887179 4:-0.619849 5:-0.450694 6:-0.247619 7:0.518486 
2 1:-0.454 2:0.460676 3:-0.617208 4:-0.267639 5:0.198948 6:-0.523701 7:-0.793602 
0.2853156457234342 1:-0.027 2:-0.0365427 3:-0.730926 4:-0.40736 5:0.151293 6:-0.451143 7:-0.63411 
2 1:-0.9166 2:-0.463521 3:0.317333 4:-0.422136 5:0.242453 6:-0.429762 7:1 
2 1:-0.0624 2:0.268887 3:-0.584741 4:-0.109928 5:0.151293 6:-0.102643 7:-0.989453 
2 1:-0.7282 2:0.221187 3:-0.336228 4:-0.445655 5:0.282475 6:-0.509066 7:-0.0865036 
2 1:-0.6872 2:0.2904 3:-0.74375 4:-0.189947 5:0.416607 6:-0.349958 7:-0.945378 
2 1:0.1676 2:0.802391 3:-0.262868 4:-0.0901467 5:0.700599 6:-0.434548 7:-0.291983 
2 1:-0.7114 2:0.24589 3:-0.73381 4:-0.509853 5:0.242453 6:-0.411726 7:-0.864137 
2 1:-0.099 2:0.237857 3:-0.77547 4:-0.211339 5:0.319529 6:-0.54648 7:-0.868569 
2 1:-0.04 2:-0.171698 3:0.118519 4:-0.355896 5:0.0986123 6:-0.394286 7:1 
2 1:-0.2522 2:0.253733 3:-0.734109 4:-0.053901 5:-0.0270449 6:-0.508163 7:-0.890115 
2 1:-0.5028 2:0.496212 3:-0.765402 4:-0.715073 5:-0.306853 6:-0.157143 7:-0.977178 
1.512598765582681 1:0.6666 2:-0.463521 3:0.86 4:-0.148077 5:0.0986123 6:-0.236667 7:1 
2 1:-0.3788 2:0.304008 3:-0.938733 4:-0.289413 5:0.386294 6:-0.491339 7:0.680074 
1.274087446433365 1:-0.3696 2:0.54813 3:-0.55598 4:-0.517783 5:0.0397208 6:-0.226696 7:-0.597315 
2 1:-0.5682 2:-0.0185203 3:-0.562807 4:-0.53171 5:-0.0270449 6:-0.51102 7:0.999995 
1.982586490565856 1:-0.5428 2:0.229626 3:-0.413772 4:-0.791707 5:-0.195281 6:0.225143 7:-0.890462 
2 1:-0.7778 2:0.175454 3:-0.364804 4:-0.442576 5:0.282475 6:-0.404396 7:-0.917916 
2 1:-0.1052 2:0.703996 3:0.671363 4:-0.27827 5:0.666102 6:-0.531658 7:0.999125 
2 1:0.068 2:0.541658 3:-0.161254 4:-0.00779515 5:0.545521 6:-0.505032 7:0.179472 
2 1:-0.2838 2:0.323431 3:-0.766144 4:-0.550478 5:0.319529 6:-0.364694 7:-0.836385 
2 1:-0.25 2:0.165503 3:-0.67957 4:-0.0485105 5:0.319529 6:-0.464949 7:-0.728567 
2 1:-0.6296 2:-0.463521 3:-0.410667 4:-0.393888 5:0.198948 6:-0.545909 7:0.835894 
2 1:0.0154 2:0.531707 3:-0.528721 4:-0.112475 5:0.732868 6:-0.540022 7:0.252327 
2 1:-0.3666 2:-0.0185203 3:-0.865263 4:-0.3124 5:-0.306853 6:-0.355179 7:0.999922 
1.932708412649044 1:0.1304 2:0.54813 3:-0.0360194 4:0.0275067 5:0.497866 6:-0.425357 7:0.251749 
1.323853781331697 1:0.8062 2:0.817013 3:0.381645 4:-0.0447896 5:0.445186 6:-0.181151 7:0.691421 
2 1:-0.7338 2:0.268887 3:-0.897803 4:-0.745541 5:-0.195281 6:0.368571 7:-0.845106 
2 1:-0.619 2:-0.0758038 3:0.472917 4:0.151257 5:-0.0270449 6:-0.596939 7:0.946971 
2 1:-0.7142 2:-0.463521 3:-0.37 4:0.083072 5:-0.195281 6:-0.281286 7:-0.968723 
0.1903940365150838 1:0.923 2:0.0729586 3:-0.591905 4:0.0422036 5:0.198948 6:-0.0412987 7:0.999588 
2 1:-0.6906 2:0.353481 3:-0.122515 4:-0.3457 5:0.242453 6:-0.430833 7:0.360506 
2 1:-0.7512 2:0.0860322 3:-0.721538 4:-0.1696 5:0.242453 6:-0.474464 7:-0.735186 
2 1:-0.4644 2:0.456483 3:-0.647137 4:-0.117313 5:0.242453 6:-0.488929 7:-0.950876 
2 1:-0.7236 2:0.24589 3:-0.326504 4:-0.47374 5:0.0397208 6:-0.113214 7:-0.876324 
2 1:-0.5588 2:0.364782 3:-0.648046 4:-0.355456 5:0.589027 6:-0.508929 7:-0.88615 
2 1:-0.6526 2:0.165503 3:-0.630202 4:-0.608296 5:0.151293 6:-0.489286 7:-0.876166 
2 1:-0.3714 2:-0.200702 3:-0.00272727 4:-0.380213 5:-0.306853 6:-0.395357 7:-0.115982 
2 1:-0.5714 2:-0.402747 3:0.412778 4:0.209122 5:0.282475 6:-0.35967 7:1 
2 1:-0.517 2:0.347684 3:-0.354771 4:-0.64997 5:0.0397208 6:-0.372857 7:0.0448056 
2 1:0.3976 2:0.719685 3:-0.423663 4:0.243181 5:0.319529 6:-0.241173 7:0.943204 
2 1:-0.9848 2:-0.633796 3:0.595556 4:-0.623669 5:-0.195281 6:-0.578714 7:0.999998 
2 1:-0.2414 2:-0.200702 3:0.32375 4:-0.362726 5:0.0986123 6:-0.199365 7:1 
0.1095363694634588 1:0.92 2:0.0593513 3:0.657361 4:-0.607729 5:0.242453 6:-0.166548 7:0.918565 
2 1:-0.4832 2:0.480884 3:-0.786944 4:0.249019 5:0.0986123 6:-0.575635 7:-0.91453 
2 1:-0.6502 2:0.386294 3:-0.614635 4:-0.504436 5:0.242453 6:-0.198155 7:-0.647559 
2 1:-0.8868 2:-0.0973166 3:0.306667 4:-0.330314 5:0.0986123 6:-0.470635 7:0.870124 
2 1:-0.4562 2:0.488636 3:-0.524253 4:0.106756 5:0.242453 6:-0.566786 7:-0.848105 
2 1:-0.8948 2:-1 3:-0.913333 4:0.340924 5:-0.450694 6:-0.0314286 7:-0.944494 
2 1:0.5 2:0.772707 3:-0.542132 4:-0.278439 5:0.445186 6:-0.430159 7:0.15151 
2 1:0.1318 2:0.796357 3:-0.330872 4:-0.0280974 5:0.629048 6:-0.448132 7:-0.192458 
2 1:-0.546 2:0.155245 3:-0.917738 4:-0.428533 5:0.282475 6:-0.627308 7:-0.993513 
2 1:-0.1572 2:0.359179 3:-0.038 4:-0.289133 5:0.0397208 6:-0.484643 7:-0.740436 
2 1:-0.4134 2:0.0303475 3:-0.341818 4:-0.585037 5:0.151293 6:-0.244429 7:-0.898422 
2 1:-0.5078 2:0.456483 3:-0.527131 4:0.0760333 5:0.242453 6:-0.566786 7:-0.838136 
2 1:-0.489 2:0.353481 3:-0.274464 4:-0.411723 5:0.0397208 6:-0.343571 7:-0.58714 
2 1:-0.0502 2:0.711933 3:0.546994 4:-0.269705 5:0.647918 6:-0.526058 7:0.999975 
2 1:-0.014 2:0.185116 3:-0.59098 4:0.292652 5:0.0986123 6:-0.593254 7:-0.613493 
2 1:0.093 2:0.283383 3:-0.830074 4:0.0439067 5:-0.10412 6:-0.423333 7:0.95965 
2 1:-0.8 2:-0.537902 3:-0.356667 4:-0.388107 5:-0.195281 6:-0.312143 7:0.999999 
2 1:-0.68 2:-0.537902 3:0.174167 4:-0.0702552 5:-0.0270449 6:-0.488265 7:1 
2 1:-0.3714 2:0.261397 3:-0.402698 4:0.0235716 5:0.354025 6:-0.528381 7:0.430027 
2 1:-0.969 2:-0.463521 3:-0.771333 4:-0.406113 5:-0.306853 6:-0.479107 7:-0.987977 
2 1:-0.0344 2:0.110735 3:-0.21 4:0.0355342 5:0.354025 6:-0.488905 7:0.019442 
1.114212152108778 1:0.2 2:0.396552 3:0.045641 4:0.111033 5:0.0397208 6:-0.505625 7:-0.937228 
2 1:-0.0134 2:0.740119 3:0.615599 4:-0.228226 5:0.629048 6:-0.525247 7:0.999917 
0.679993700345897 1:0.3436 2:0.492446 3:-0.673218 4:-0.356285 5:0.416607 6:-0.231429 7:-0.165501 
2 1:-0.1622 2:0.144662 3:-0.668452 4:-0.301314 5:-0.0270449 6:-0.581939 7:-0.918071 
2 1:-0.2692 2:-0.0185203 3:-0.352456 4:-0.642098 5:0.0986123 6:-0.123016 7:-0.900135 
2 1:0.2064 2:0.805367 3:-0.393104 4:-0.22434 5:0.609438 6:-0.449229 7:-0.552692 
2 1:-0.443 2:0.472947 3:-0.465679 4:-0.580368 5:-0.195281 6:-0.310571 7:-0.968777 
2 1:-0.8508 2:-0.463521 3:-0.832 4:0.236258 5:-0.450694 6:-0.28 7:1 
2 1:0.087 2:0.0729586 3:-0.848667 4:-0.591136 5:0.151293 6:-0.204786 7:-0.953413 
2 1:-0.9246 2:-0.768951 3:-0.595 4:-0.585793 5:-0.306853 6:-0.253571 7:-0.969647 
2 1:-0.2796 2:0.632613 3:-0.246925 4:-0.191834 5:0.0986123 6:-0.521429 7:0.976891 
2 1:-0.8 2:-0.463521 3:-0.961333 4:-0.483956 5:-0.10412 6:-0.284881 7:-0.729754 
2 1:-0.8416 2:-0.306853 3:-0.231429 4:0.110048 5:-0.195281 6:-0.513857 7:1 
2 1:-0.5038 2:0.391462 3:-0.28371 4:-0.470207 5:0.0986123 6:-0.441905 7:-0.905221 
2 1:0.1666 2:0.647214 3:-0.0265707 4:-0.183407 5:0.416607 6:-0.155882 7:-0.338852 
0.2902647679697153 1:0.913 2:0.0303475 3:-0.895088 4:-0.187072 5:0.386294 6:-0.538259 7:-0.878429 
2 1:-0.4032 2:0.50362 3:-0.811839 4:-0.498813 5:0.0397208 6:-0.355446 7:-0.932177 
2 1:-0.7884 2:0.0303475 3:-0.484545 4:-0.701957 5:-0.195281 6:0.0294286 7:-0.904349 
2 1:-0.5346 2:0.434688 3:-0.898829 4:0.125272 5:0.282475 6:-0.467967 7:-0.944968 
0.01362622097475815 1:0.0392 2:0.764435 3:0.117795 4:-0.144954 5:0.609438 6:-0.563257 7:-0.194431 
2 1:-0.6194 2:0.335778 3:-0.853791 4:-0.192373 5:0.242453 6:-0.529881 7:-0.95712 
2 1:-0.7248 2:0.133732 3:-0.0148889 4:-0.373393 5:-0.306853 6:-0.131071 7:-0.0194818 
2 1:-0.0624 2:0.701982 3:0.521646 4:-0.321851 5:0.683648 6:-0.511281 7:0.999887 
2 1:-0.8766 2:-0.463521 3:-0.614667 4:-0.326089 5:-0.10412 6:-0.532738 7:-0.570298 
2 1:0.1438 2:0.705998 3:0.0941818 4:-0.13944 5:0.497866 6:-0.375893 7:0.892809 
2 1:-0.88 2:-0.633796 3:0.714444 4:0.023421 5:-0.0270449 6:-0.580306 7:1 
2 1:-0.625 2:0.310609 3:-0.552267 4:-0.416878 5:0.354025 6:-0.462095 7:-0.599827 
2 1:-0.6224 2:0.329661 3:-0.176173 4:-0.562485 5:0.198948 6:-0.240844 7:-0.327781 
2 1:-0.1878 2:0.55448 3:-0.483648 4:-0.214296 5:0.777674 6:-0.426714 7:-0.360289 
2 1:-0.9112 2:-0.402747 3:-0.243333 4:-0.0496533 5:0.242453 6:-0.490655 7:0.351744 
2 1:-0.9108 2:-0.0758038 3:0.251458 4:-0.421016 5:0.151293 6:-0.389143 7:0.994044 
2 1:-0.3334 2:-0.306853 3:0.165417 4:-0.23695 5:0.282475 6:-0.569066 7:0.882855 
1.312504329196766 1:0.1312 2:0.797876 3:-0.693012 4:0.300022 5:0.416607 6:-0.454706 7:-0.75431 
2 1:-0.5698 2:0.434688 3:-0.125205 4:-0.372427 5:-0.0270449 6:-0.560204 7:-0.428919 
2 1:-0.5286 2:0.165503 3:0.450707 4:-0.261171 5:0.282475 6:-0.440769 7:1 
2 1:-0.5644 2:0.443578 3:-0.444352 4:-0.238243 5:0.0397208 6:-0.295536 7:0.0426433 
2 1:-0.9756 2:-1 3:-0.0533333 4:-0.372117 5:-0.195281 6:-0.351714 7:-0.947562 
2 1:0.3334 2:-0.402747 3:0.462222 4:-0.0598844 5:-0.10412 6:-0.158929 7:0.722952 
2 1:0.077 2:-0.351363 3:0.106667 4:-0.457997 5:0.609438 6:-0.300314 7:1 
2 1:-0.0334 2:0.122432 3:-0.819881 4:-0.720204 5:-0.450694 6:-0.264762 7:-0.757404 
2 1:-0.24 2:-0.0185203 3:-0.32193 4:-0.149129 5:0.666102 6:-0.441403 7:0.839286 
2 1:-0.1382 2:0.689635 3:0.29102 4:-0.396063 5:0.198948 6:-0.446688 7:0.998986 
2 1:-0.7636 2:0.203639 3:-0.549714 4:-0.471169 5:-0.10412 6:-0.414286 7:-0.704125 
2 1:-0.6166 2:0.276214 3:0.0467391 4:-0.34868 5:-0.10412 6:-0.320833 7:0.170173 
2 1:-0.2062 2:0.447935 3:-0.515946 4:-0.197072 5:0.198948 6:-0.432922 7:-0.669214 
2 1:-0.355 2:0.619937 3:-0.93463 4:-0.158463 5:0.319529 6:-0.489286 7:-0.952356 
2 1:-0.0486 2:0.297273 3:-0.167971 4:-0.694671 5:-0.10412 6:-0.10619 7:-0.704885 
0.3602856278756535 1:0.3514 2:0.439163 3:-0.684089 4:0.0833129 5:0.416607 6:-0.481555 7:0.612695 
2 1:-0.5786 2:0.456483 3:-0.614912 4:-0.554158 5:0.198948 6:-0.51013 7:-0.662094 
2 1:-0.5952 2:-0.0555956 3:0.351569 4:0.238204 5:-0.10412 6:-0.625714 7:0.98971 
2 1:-0.2046 2:0.185116 3:0.408431 4:0.373884 5:-0.10412 6:-0.439524 7:0.995006 
0.9635449561875995 1:0.5128 2:0.779179 3:0.446309 4:0.302558 5:0.354025 6:-0.616714 7:0.307319 
2 1:-0.301 2:0.391462 3:0.100781 4:-0.138947 5:0.0397208 6:-0.599911 7:-0.602063 
2 1:0.2602 2:0.507263 3:-0.742784 4:-0.10955 5:0.647918 6:-0.410159 7:-0.553812 
2 1:-0.3388 2:0.593041 3:-0.959524 4:-0.292932 5:0.386294 6:-0.293482 7:-0.991956 
2 1:-0.1624 2:0.401564 3:-0.886318 4:-0.214477 5:0.0986123 6:-0.621349 7:-0.973014 
2 1:-0.2262 2:0.590228 3:-0.54755 4:0.0789933 5:0.242453 6:-0.357083 7:-0.952691 
2 1:-0.9848 2:-1 3:0.223333 4:-0.486597 5:-0.195281 6:-0.453286 7:-0.917234 
1.211150910991828 1:0 2:-0.267592 3:-0.0237037 4:-0.647991 5:0.242453 6:-0.28744 7:-0.0997516 
2 1:-0.2812 2:0.0451647 3:-0.79087 4:-0.513236 5:-0.10412 6:-0.607024 7:-0.995267 
0.3655286356073597 1:-0.5526 2:0.396552 3:-0.834308 4:-0.420637 5:0.416607 6:-0.380714 7:0.900998 
2 1:-0.3592 2:0.531707 3:0.0724912 4:-0.777689 5:-0.10412 6:0.224643 7:0.622512 
1.863006862957202 1:-0.0476 2:-0.00142258 3:-0.519804 4:-0.700013 5:-0.653426 6:0.775 7:-0.0563869 
2 1:-0.9584 2:-0.402747 3:0.337222 4:-0.377088 5:-0.195281 6:-0.356286 7:0.0676633 
2 1:-0.6104 2:0.268887 3:-0.364889 4:-0.452427 5:-0.10412 6:-0.248452 7:-0.555574 
2 1:0.1864 2:0.806845 3:0.244637 4:-0.045959 5:0.666102 6:-0.473138 7:-0.445449 
2 1:-0.6052 2:0.276214 3:-0.107609 4:-0.586413 5:-0.306853 6:-0.3925 7:-0.324411 
2 1:0.0378 2:0.521449 3:-0.179132 4:-0.133035 5:0.545521 6:-0.462078 7:0.26863 
2 1:-0.875 2:-1 3:-0.32 4:-0.523113 5:-0.306853 6:0.244107 7:1 
2 1:-0.3636 2:-0.351363 3:-0.202857 4:-0.039136 5:0.151293 6:-0.5015 7:1 
2 1:-0.606 2:0.317081 3:0.610784 4:-0.277268 5:0.354025 6:-0.278429 7:0.77124 
2 1:-0.8884 2:-0.120314 3:-0.0111905 4:-0.16533 5:0.0986123 6:-0.523889 7:0.999998 
2 1:-0.5714 2:0.381045 3:-0.809516 4:-0.0117467 5:0.0397208 6:-0.469554 7:-0.980527 
2 1:-0.6242 2:0.375711 3:-0.586831 4:-0.0425 5:0.242453 6:-0.555417 7:-0.857826 
2 1:-0.7472 2:-0.200702 3:-0.267879 4:-0.283352 5:-0.0270449 6:-0.462245 7:0.478851 
2 1:-0.0732 2:-0.0185203 3:0.337778 4:-0.294293 5:-0.0270449 6:-0.460714 7:0.773811 
2 1:0.1364 2:0.0729586 3:0.489867 4:0.544178 5:0.0986123 6:-0.535397 7:0.920132 
2 1:-0.2108 2:0.353481 3:-0.505057 4:-0.332857 5:0.282475 6:-0.323407 7:-0.929824 
2 1:0.1374 2:0.783953 3:-0.573873 4:0.335961 5:0.416607 6:-0.59542 7:-0.670101 
2 1:-0.4286 2:-0.768951 3:0.228333 4:-0.62921 5:0.198948 6:-0.193182 7:1 
2 1:-0.9834 2:-0.768951 3:0.786667 4:-0.447493 5:-0.653426 6:-0.9 7:1 
2 1:-0.36 2:0.155245 3:-0.336237 4:-0.930373 5:-0.450694 6:0.229048 7:-0.762139 
