svm_type c_svc
kernel_type rbf
gamma 2
nr_class 2
total_sv 6365
rho 0.443179
label 1 0
probA -3.23146
probB 0.719326
nr_sv 2849 3516
SV
2 1:-0.541 2:0.110735 3:-0.821667 4:-0.500752 5:-0.195281 6:-0.587429 7:-0.909468 8:-0.713 
2 1:-0.7844 2:0.194506 3:-0.820095 4:0.250684 5:0.0986123 6:-0.369286 7:-0.512241 8:-0.5898 
2 1:-0.8368 2:0.0986123 3:-0.238642 4:-0.347055 5:0.198948 6:-0.318636 7:-0.919641 8:0.673 
2 1:-0.8672 2:-0.0555956 3:-0.604314 4:-0.403936 5:0.242453 6:-0.284464 7:-0.936815 8:0.6308 
0.2691561221887335 1:0.5112 2:0.772707 3:-0.618982 4:-0.491274 5:0.472219 6:-0.454173 7:0.993344 8:0.8998 
0.7457697434232836 1:-0.0328 2:0.359179 3:0.345833 4:-0.50904 5:0.151293 6:-0.578643 7:0.999997 8:-0.5572 
0.4412465590392715 1:-0.45 2:-0.200702 3:-0.0993333 4:-0.420284 5:0.242453 6:-0.335298 7:-0.324212 8:0.8042 
2 1:-0.3334 2:-0.768951 3:0.57 4:-0.176673 5:-0.306853 6:-0.517321 7:1 8:-0.6548 
2 1:0.0892 2:0.370291 3:-0.763621 4:-0.102627 5:0.242453 6:-0.2125 7:-0.841816 8:-0.7792 
2 1:0.3266 2:0.757667 3:-0.553935 4:-0.317262 5:0.282475 6:-0.488077 7:-0.409994 8:-0.1592 
2 1:-0.7778 2:-0.768951 3:0.273333 4:-0.190272 5:-0.195281 6:-0.362857 7:1 8:-0.8094 
2 1:-0.7778 2:-1 3:-0.953333 4:-0.482387 5:0.151293 6:-0.340714 7:-0.911408 8:-0.642 
2 1:-0.247 2:0.155245 3:0.186452 4:-0.178724 5:-0.10412 6:-0.164643 7:0.998404 8:-0.7302 
0.4436471368366116 1:0.4062 2:0.268887 3:-0.793411 4:-0.678876 5:-0.10412 6:-0.437738 7:0.552939 8:0.7112 
2 1:-0.931 2:-1 3:0.346667 4:-0.295413 5:-0.450694 6:-0.445952 7:-0.999582 8:-0.806 
0.06369062594768098 1:-0.1 2:-0.267592 3:-0.204444 4:0.102583 5:-0.0270449 6:-0.438469 7:0.142132 8:-0.0688 
1.711890328647708 1:-0.5354 2:0.0451647 3:-0.289841 4:0.341771 5:-0.195281 6:-0.495143 7:-0.237136 8:0.1778 
2 1:0.087 2:0.0729586 3:0.0696 4:-0.59331 5:0.0397208 6:-0.0420536 7:-0.673666 8:-0.1192 
2 1:-0.6924 2:0.317081 3:-0.257124 4:-0.637267 5:0.0397208 6:-0.370357 7:-0.99573 8:-0.4644 
2 1:-0.9848 2:-0.633796 3:0.595556 4:-0.623669 5:-0.195281 6:-0.578714 7:0.999998 8:-0.7256 
2 1:-0.7408 2:0.276214 3:-0.725704 4:-0.563453 5:0.0397208 6:-0.344732 7:-0.967619 8:-0.6952 
0.5426700631819601 1:0.1272 2:0.606761 3:0.461468 4:-0.304145 5:0.198948 6:-0.228247 7:0.761734 8:-0.5524 
1.896707872026393 1:0.3334 2:0.766106 3:-0.16936 4:-0.0282333 5:0.242453 6:-0.621071 7:-0.849158 8:-0.4918 
1.031633156206552 1:-0.7234 2:0.221187 3:0.323514 4:-0.46821 5:0.354025 6:-0.503095 7:0.996043 8:0.4548 
0.04815140030948066 1:0.589 2:0.353481 3:-0.126884 4:-0.135719 5:0.629048 6:-0.525907 7:0.790342 8:0.7044 
2 1:-0.5 2:0.50362 3:-0.513148 4:-0.513389 5:0.151293 6:-0.324857 7:-0.662965 8:-0.7892 
2 1:-0.6796 2:0.375711 3:0.227486 4:-0.432611 5:0.198948 6:-0.359156 7:0.382746 8:-0.588 
2 1:-0.6778 2:0.2904 3:-0.745069 4:-0.572984 5:0.151293 6:-0.295714 7:-0.900567 8:-0.0322 
1.037929118458484 1:-0.7702 2:0.229626 3:-0.38175 4:-0.335427 5:0.0397208 6:-0.282143 7:-0.523565 8:-0.2822 
2 1:-0.8782 2:-0.351363 3:0.187143 4:-0.533724 5:0.198948 6:-0.359221 7:0.999991 8:-0.1246 
2 1:-0.9412 2:-0.633796 3:0.438889 4:-0.0725689 5:-0.10412 6:-0.5225 7:1 8:-0.6954 
2 1:-0.8884 2:-0.120314 3:-0.0111905 4:-0.16533 5:0.0986123 6:-0.523889 7:0.999998 8:-0.9116 
2 1:-0.6626 2:-0.120314 3:0.407857 4:0.225802 5:-0.0270449 6:-0.621327 7:0.965431 8:0.6728 
2 1:0.7624 2:0.496212 3:0.178 4:0.0458293 5:0.151293 6:-0.497429 7:-0.740045 8:-0.6978 
2 1:-0.858 2:0.0451647 3:-0.252899 4:-0.286587 5:-0.195281 6:-0.362286 7:-0.654178 8:-0.5538 
2 1:-0.873 2:-0.537902 3:-0.0175 4:-0.0827033 5:0.0397208 6:-0.453214 7:1 8:-0.85 
2 1:-0.9896 2:-0.768951 3:-0.92 4:-0.222244 5:-0.10412 6:-0.319881 7:-0.427756 8:-0.7412 
2 1:-0.36 2:0.155245 3:-0.336237 4:-0.930373 5:-0.450694 6:0.229048 7:-0.762139 8:-0.7032 
0.9843204893069423 1:0.4416 2:0.750758 3:0.0587027 4:0.06823 5:0.0397208 6:-0.367946 7:0.226804 8:0.6694 
2 1:-0.6666 2:-0.633796 3:0.194444 4:-0.646779 5:0.0986123 6:-0.182857 7:0.999631 8:-0.8374 
1.962870901411168 1:-0.5824 2:-0.0185203 3:0.338039 4:-0.52779 5:-0.0270449 6:-0.321735 7:0.654068 8:0.6732 
0.2210080668353287 1:0.4616 2:-0.0185203 3:-0.393519 4:-0.508767 5:-0.306853 6:0.255357 7:-0.773285 8:-0.5656 
2 1:0.03 2:0.484782 3:0.496878 4:-0.233648 5:0.198948 6:-0.376169 7:0.898709 8:-0.7914 
2 1:-0.7106 2:0.0451647 3:-0.936087 4:-0.113876 5:0.198948 6:-0.549675 7:-0.985379 8:-0.7094 
2 1:-0.7884 2:0.165503 3:-0.670101 4:-0.806304 5:-0.195281 6:-0.314714 7:-0.957932 8:-0.6828 
1.878061512146242 1:0.2 2:0.310609 3:-0.403617 4:-0.509781 5:0.319529 6:-0.19801 7:-0.962017 8:-0.9496 
2 1:0.6 2:-0.537902 3:-0.929167 4:0.0532533 5:0.151293 6:-0.386143 7:-0.994834 8:-0.841 
2 1:0.7624 2:0.496212 3:0.17898 4:-0.00358133 5:0.151293 6:-0.488714 7:-0.740122 8:-0.7202 
1.00199781930979 1:-0.2262 2:0.651942 3:-0.257525 4:-0.62652 5:0.0397208 6:-0.1375 7:0.69702 8:-0.5478 
0.103178370598425 1:-0.2616 2:0.2904 3:0.0621739 4:-0.281985 5:0.198948 6:-0.35974 7:-0.73486 8:0.441 
2 1:-0.7372 2:0.0451647 3:-0.777971 4:-0.249612 5:0.0986123 6:-0.46619 7:-0.573855 8:-0.6796 
0.5845222826204639 1:-0.7018 2:0.0593513 3:-0.943194 4:-0.540298 5:0.198948 6:-0.498052 7:-0.694939 8:0.6698 
2 1:-0.6112 2:0.375711 3:-0.696237 4:-0.18675 5:0.386294 6:-0.560804 7:-0.925171 8:-0.7868 
2 1:-0.9848 2:-1 3:0.05 4:-0.071888 5:-0.195281 6:-0.258571 7:-0.938192 8:-0.7646 
2 1:-0.9934 2:-1 3:-0.446667 4:0.0839467 5:-0.306853 6:-0.558214 7:-0.985614 8:-0.9282 
2 1:-0.7586 2:-0.351363 3:-0.0742857 4:-0.163724 5:-0.450694 6:-0.500238 7:-0.415348 8:-0.491 
2 1:-0.616 2:0.0593513 3:0.0621667 4:-0.715232 5:-0.195281 6:-0.417429 7:0.111909 8:-0.852 
2 1:-0.9118 2:-0.633796 3:0.344444 4:-0.301934 5:0.282475 6:-0.346374 7:0.658191 8:0.306 
0.3652159420856111 1:-0.1272 2:0.0593513 3:0.635714 4:-0.0655182 5:0.354025 6:-0.411667 7:0.903514 8:0.3692 
2 1:-0.4884 2:-0.200702 3:-0.214333 4:-0.391241 5:0.198948 6:-0.364675 7:0.647963 8:-0.6512 
0.6999404866752141 1:0.1428 2:-0.537902 3:-0.165833 4:-0.178327 5:0.198948 6:-0.273961 7:1 8:-0.6446 
2 1:-0.5206 2:0.185116 3:-0.482476 4:-0.838607 5:-0.306853 6:-0.0105357 7:-0.880726 8:-0.3024 
2 1:-0.7142 2:-0.402747 3:-0.191111 4:-0.61592 5:-0.10412 6:-0.57 7:0.0448723 8:0.567 
2 1:-0.9692 2:-1 3:-0.963333 4:-0.409051 5:-0.195281 6:-0.245286 7:-0.999812 8:-0.7642 
0.6718013025067138 1:-0.1848 2:0.386294 3:0.462097 4:0.067408 5:0.354025 6:-0.292714 7:0.74689 8:0.4482 
2 1:0.1538 2:-0.0973166 3:-0.395 4:-0.498529 5:-0.10412 6:-0.254167 7:-0.799655 8:-0.4106 
2 1:-0.7826 2:0.229626 3:-0.723 4:0.0587631 5:0.282475 6:-0.455879 7:-0.93965 8:0.7036 
2 1:-0.5152 2:-0.306853 3:-0.409583 4:-0.0305227 5:-0.195281 6:-0.384714 7:-0.974578 8:0.2022 
1.055772527279628 1:-0.4444 2:-0.463521 3:0.586 4:-0.512798 5:0.282475 6:-0.521813 7:1 8:0.673 
2 1:0 2:-1 3:-0.36 4:0.00485333 5:-0.195281 6:-0.043 7:0.971058 8:-0.7126 
2 1:-0.5152 2:0.425555 3:-0.353676 4:-0.438453 5:0.0397208 6:-0.563125 7:-0.942872 8:0.4492 
2 1:-0.6528 2:0.401564 3:0.141231 4:-0.312104 5:0.151293 6:-0.326429 7:0.326853 8:-0.6438 
2 1:-0.5556 2:-0.768951 3:0.593333 4:-0.29832 5:0.282475 6:-0.348352 7:1 8:-0.7746 
2 1:-0.1666 2:-0.463521 3:-0.498889 4:-0.763203 5:0.0397208 6:-0.379911 7:0.999992 8:-0.914 
2 1:-0.5918 2:-0.00142258 3:-0.570175 4:-0.269365 5:0.151293 6:-0.263071 7:0.317162 8:-0.5828 
2 1:-0.2638 2:0.323431 3:-0.694717 4:-0.200642 5:0.282475 6:-0.348626 7:-0.959248 8:-0.714 
2 1:-0.2586 2:0.521449 3:-0.311389 4:-0.0211564 5:0.198948 6:-0.512532 7:0.977019 8:-0.807 
2 1:-0.491 2:-0.120314 3:-0.422381 4:-0.159218 5:-0.10412 6:-0.468333 7:-0.516927 8:-0.6046 
2 1:-0.1538 2:-0.200702 3:-0.268485 4:-0.584895 5:0.319529 6:-0.318214 7:-0.585438 8:-0.7166 
2 1:-0.6818 2:0.185116 3:-0.818235 4:-0.22845 5:0.0397208 6:-0.534018 7:-0.878186 8:-0.1324 
2 1:-0.619 2:-0.00142258 3:-0.894167 4:-0.577957 5:0.151293 6:-0.488143 7:-0.86857 8:-0.6744 
2 1:-0.2444 2:0.175454 3:-0.575294 4:-0.436707 5:-0.10412 6:-0.317976 7:0.942945 8:-0.6444 
0.2290747669598515 1:0.923 2:0.0729586 3:-0.591905 4:0.0422036 5:0.198948 6:-0.0412987 7:0.999588 8:0.7246 
2 1:-0.3334 2:-0.633796 3:-0.941111 4:0.0630773 5:-0.195281 6:-0.286143 7:-0.994239 8:-0.553 
2 1:-0.7372 2:0.0451647 3:-0.517681 4:-0.339327 5:0.0397208 6:-0.534286 7:-0.736763 8:0.6728 
2 1:0.1852 2:0.386294 3:-0.244531 4:-0.222406 5:0.472219 6:-0.170414 7:1 8:-0.728 
2 1:-0.9318 2:-0.633796 3:-0.255556 4:-0.774009 5:-0.450694 6:-0.598571 7:0.395035 8:-0.0594 
2 1:-0.75 2:-0.537902 3:-0.1075 4:-0.507232 5:0.151293 6:-0.478 7:0.954068 8:0.058 
2 1:-0.9682 2:-0.463521 3:-0.417333 4:-0.565942 5:-0.10412 6:-0.634048 7:-0.958457 8:-0.6024 
2 1:-0.2816 2:0.434688 3:0.511481 4:0.09747 5:0.386294 6:-0.363304 7:0.782646 8:-0.8086 
2 1:-0.4166 2:0.110735 3:0.392533 4:-0.21943 5:0.0397208 6:-0.42125 7:0.686886 8:0.6396 
0.9172398996045685 1:0.5556 2:-0.351363 3:-0.765556 4:-0.528448 5:-0.195281 6:-0.387571 7:-0.97575 8:0.9374 
0.02042735432002052 1:0.76 2:0.0303475 3:0.19875 4:-0.325271 5:0.416607 6:-0.382983 7:1 8:0.1702 
2 1:-0.9838 2:-1 3:-0.223333 4:-0.145387 5:-0.195281 6:-0.258571 7:-0.938192 8:-0.7646 
2 1:-0.265 2:0.54813 3:-0.652427 4:-0.302015 5:0.445186 6:-0.341667 7:-0.969786 8:0.2634 
2 1:-0.909 2:-0.145017 3:-0.457949 4:-0.582702 5:0.0986123 6:-0.452143 7:-0.993715 8:-0.758 
2 1:-0.44 2:0.50362 3:-0.276479 4:-0.30725 5:0.0397208 6:-0.235804 7:-0.304616 8:-0.7012 
2 1:-0.6474 2:0.353481 3:-0.678742 4:-0.292688 5:0.354025 6:-0.37819 7:-0.95734 8:-0.4062 
2 1:-0.8452 2:-0.171698 3:-0.611515 4:-0.320664 5:0.242453 6:-0.486488 7:-0.816104 8:-0.582 
2 1:-0.2602 2:0.329661 3:-0.702284 4:-0.40473 5:0.472219 6:-0.523383 7:-0.886428 8:-0.4494 
2 1:-0.4928 2:0.416165 3:-0.479005 4:-0.32654 5:0.242453 6:-0.460179 7:-0.908577 8:-0.5874 
2 1:-0.9166 2:-0.463521 3:0.317333 4:-0.422136 5:0.242453 6:-0.429762 7:1 8:-0.0542 
2 1:-0.6154 2:-0.463521 3:0.358 4:0.104464 5:0.282475 6:-0.378571 7:1 8:-0.9504 
2 1:0.7624 2:0.496212 3:0.182902 4:-0.00358933 5:0.151293 6:-0.488714 7:-0.740108 8:-0.7456 
2 1:-0.987 2:-0.768951 3:-0.0966667 4:-0.354702 5:-0.450694 6:-0.654048 7:-0.951585 8:-0.433 
0.2828370867225831 1:0.9428 2:0.175454 3:-0.777531 4:-0.80608 5:-0.195281 6:-0.385143 7:0.346091 8:-0.3794 
2 1:0.1892 2:0.396552 3:-0.709673 4:-0.494929 5:0.282475 6:-0.465549 7:-0.781695 8:-0.7384 
2 1:-0.0158 2:0.144662 3:-0.344444 4:-0.42349 5:0.0397208 6:-0.486875 7:-0.918873 8:-0.426 
2 1:0.6224 2:0.815579 3:0.0306785 4:-0.124489 5:0.0986123 6:-0.209762 7:0.417476 8:-0.7666 
2 1:-0.5444 2:0.425555 3:-0.576667 4:-0.0918933 5:-0.450694 6:0.0890476 7:-0.572768 8:-0.6754 
2 1:-0.6866 2:0.0148408 3:-0.158519 4:-0.872493 5:-0.10412 6:-0.17881 7:-0.622897 8:-0.5932 
2 1:-0.75 2:-0.633796 3:-0.0944444 4:-0.168645 5:0.151293 6:-0.453786 7:0.400028 8:-0.8932 
2 1:0.5384 2:0.229626 3:0.196548 4:-0.609371 5:-0.0270449 6:-0.434592 7:-0.936416 8:-0.8726 
2 1:-0.9208 2:-0.537902 3:0.375833 4:-0.46944 5:-0.653426 6:-0.751429 7:0.000647 8:-0.8626 
0.1065331696860166 1:0.8456 2:0.825488 3:0.553655 4:0.112773 5:0.416607 6:-0.161765 7:0.999805 8:0.8642 
2 1:-0.5426 2:0.484782 3:0.0935 4:-0.447365 5:-0.195281 6:-0.148429 7:0.896121 8:-0.674 
2 1:-0.299 2:0.563783 3:-0.414019 4:-0.188428 5:0.609438 6:-0.4868 7:-0.849676 8:-0.647 
2 1:-0.6666 2:-0.537902 3:-0.324167 4:-0.363261 5:0.198948 6:-0.373831 7:0.705838 8:-0.7016 
2 1:-0.2808 2:0.155245 3:-0.161771 4:0.0100686 5:0.522261 6:-0.488197 7:-0.884587 8:-0.61 
2 1:0.1428 2:-0.537902 3:0.165 4:-0.257878 5:0.242453 6:-0.286488 7:1 8:-0.6538 
2 1:-0.4736 2:-0.463521 3:-0.348667 4:-0.710311 5:-0.450694 6:-0.67119 7:-0.846796 8:0.9022 
2 1:-0.785 2:0.194506 3:-0.336476 4:-0.557693 5:-0.10412 6:-0.432262 7:-0.991951 8:-0.6408 
2 1:-0.7028 2:0.0860322 3:-0.914103 4:-0.3426 5:0.319529 6:-0.55898 7:-0.991207 8:-0.4178 
2 1:-0.163 2:0.625066 3:-0.0554005 4:-0.532301 5:0.198948 6:-0.0965584 7:-0.772108 8:-0.7088 
2 1:0.0526 2:-0.00142258 3:-0.457833 4:0.153138 5:0.0986123 6:-0.204127 7:0.576292 8:-0.7762 
0.03173673486961098 1:0.3584 2:0.194506 3:0.285905 4:-0.635365 5:-0.195281 6:-0.00742857 7:0.431292 8:-0.749 
2 1:-0.9842 2:-1 3:-0.516667 4:-0.27912 5:-0.195281 6:-0.570143 7:-0.917234 8:-0.7646 
2 1:0.21 2:0.75423 3:-0.77377 4:-0.164757 5:0.386294 6:-0.360446 7:-0.943115 8:-0.8016 
0.9041460532724123 1:-0.5958 2:0.353481 3:0.118012 4:-0.377768 5:0.497866 6:-0.42325 7:0.989716 8:0.2484 
2 1:-0.4266 2:0.476939 3:-0.359405 4:-0.0706213 5:0.151293 6:-0.544071 7:-0.617704 8:-0.5484 
2 1:-0.1764 2:-0.351363 3:0.82381 4:-0.330981 5:0.282475 6:-0.285495 7:1 8:-0.6866 
1.980351910173176 1:-0.5 2:-0.768951 3:-0.535 4:-0.611196 5:0.354025 6:-0.341143 7:1 8:-0.6416 
1.720300616901035 1:-0.0334 2:0.122432 3:-0.819881 4:-0.720204 5:-0.450694 6:-0.264762 7:-0.757404 8:0.785 
0.2486075852315959 1:-0.6924 2:-0.402747 3:0.441667 4:-0.76478 5:-0.306853 6:-0.11875 7:0.665785 8:0.6728 
2 1:-0.3714 2:0.0303475 3:-0.329394 4:-0.578204 5:0.0986123 6:-0.220476 7:-0.904731 8:0.208 
0.3429089252672582 1:0.6666 2:-0.00142258 3:-0.560667 4:-0.615957 5:-0.195281 6:-0.588 7:1 8:0.9358 
2 1:-0.8796 2:-0.463521 3:-0.586 4:-0.349147 5:-0.0270449 6:-0.420714 7:-0.570808 8:0.4674 
1.895888637269386 1:0.3514 2:0.304008 3:-0.817569 4:0.539313 5:0.0397208 6:-0.445536 7:-0.89131 8:-0.572 
2 1:-0.1662 2:0.630116 3:-0.90173 4:0.12978 5:0.242453 6:-0.584762 7:-0.878646 8:0.0536 
2 1:-0.1666 2:-0.00142258 3:-0.273158 4:-0.210502 5:0.242453 6:-0.1375 7:0.911609 8:-0.6596 
2 1:-0.9768 2:-1 3:0.313333 4:-0.586485 5:0.151293 6:-0.266429 7:1 8:-0.8546 
2 1:-0.7484 2:0.221187 3:-0.839231 4:-0.259607 5:0.242453 6:-0.49119 7:-0.954469 8:0.8656 
0.4480278423005249 1:-0.4 2:0.510866 3:-0.127348 4:0.221251 5:0.151293 6:-0.588929 7:0.193637 8:0.7534 
2 1:-0.4286 2:-0.768951 3:0.471667 4:-0.431445 5:0.198948 6:-0.356429 7:1 8:-0.6758 
2 1:-0.718 2:0.155245 3:-0.462708 4:-0.72618 5:-0.306853 6:0.2725 7:-0.935767 8:-0.7702 
2 1:0.5 2:0.194506 3:-0.744762 4:-0.286613 5:0.386294 6:-0.349464 7:-0.901631 8:-0.6424 
2 1:-0.8636 2:-0.633796 3:-0.0655556 4:-0.422896 5:-0.195281 6:-0.458714 7:-0.285001 8:-0.812 
2 1:0.0588 2:0.0986123 3:-0.0860256 4:-0.504018 5:0.0986123 6:-0.237222 7:-0.813281 8:-0.617 
0.2430724928312524 1:0.6692 2:0.793299 3:0.192196 4:-0.502067 5:0.497866 6:-0.529 7:0.997728 8:0.7036 
2 1:-0.9056 2:-0.463521 3:-0.679333 4:-0.228956 5:-0.0270449 6:-0.420714 7:-0.570685 8:-0.1486 
2 1:-0.3264 2:0.155245 3:0.103958 4:-0.5128 5:-0.306853 6:-0.0896429 7:0.941145 8:-0.718 
2 1:0 2:-0.537902 3:-0.675833 4:-0.516853 5:-0.653426 6:-0.508929 7:-0.999734 8:-0.9226 
1.681421720955912 1:-0.7792 2:-0.0365427 3:-0.346667 4:-0.594118 5:0.242453 6:-0.493869 7:-0.382174 8:-0.1902 
2 1:0.0952 2:0.276214 3:0.418788 4:0.0577033 5:0.0397208 6:-0.103125 7:0.928317 8:0.6566 
2 1:-0.6762 2:0.310609 3:-0.373333 4:-0.905493 5:-0.10412 6:-0.424524 7:-0.910178 8:-0.6822 
2 1:0 2:-1 3:-0.05 4:0.168469 5:-0.195281 6:-0.208 7:0.999998 8:0.6558 
2 1:-0.041 2:0.185116 3:-0.319429 4:-0.580089 5:-0.10412 6:-0.502262 7:0.265098 8:-0.7132 
2 1:-0.3166 2:0.604061 3:-0.689807 4:0.183621 5:0.0986123 6:-0.647143 7:-0.846555 8:0.7186 
2 1:0.1724 2:-0.0555956 3:-0.554118 4:-0.500243 5:0.0986123 6:-0.118968 7:-0.984006 8:-0.6774 
1.43822564961754 1:0.2728 2:-0.120314 3:0.180238 4:-0.380317 5:0.0397208 6:-0.525268 7:0.154576 8:-0.3792 
2 1:-0.4596 2:0.488636 3:-0.524253 4:0.106756 5:0.242453 6:-0.566786 7:-0.848105 8:-0.405 
2 1:0.1428 2:-0.537902 3:0.151667 4:-0.630811 5:0.354025 6:-0.211 7:0.937354 8:-0.7322 
2 1:-0.5208 2:0.439163 3:-0.8484 4:0.111461 5:0.151293 6:-0.409 7:-0.946829 8:-0.9144 
0.4052981348288426 1:0.2 2:-0.0973166 3:-0.378333 4:-0.509118 5:0.198948 6:-0.331818 7:-0.415044 8:-0.6014 
2 1:0 2:-0.463521 3:-0.576 4:-0.432676 5:-0.450694 6:-0.550952 7:-0.567372 8:-0.6518 
0.6037164197837449 1:0.9836 2:0.829646 3:-0.791421 4:-0.048163 5:0.0986123 6:-0.361825 7:0.996342 8:-0.1728 
2 1:-0.421 2:-0.200702 3:-0.117667 4:-0.534845 5:0.282475 6:-0.478077 7:-0.319994 8:0.6728 
2 1:-0.9112 2:-0.402747 3:-0.243333 4:-0.0496533 5:0.242453 6:-0.490655 7:0.351744 8:0.6748 
2 1:-0.6508 2:0.335778 3:-0.489394 4:-0.214844 5:0.242453 6:-0.391369 7:-0.803719 8:-0.782 
2 1:-0.6134 2:0.411369 3:-0.746989 4:-0.40124 5:0.151293 6:-0.141214 7:-0.96784 8:-0.7366 
1.227142297670624 1:-0.099 2:0.237857 3:-0.77547 4:-0.211339 5:0.319529 6:-0.54648 7:-0.868569 8:0.8524 
2 1:0.0996 2:0.614729 3:-0.157937 4:0.0241111 5:0.445186 6:-0.42369 7:-0.106502 8:-0.7006 
0.09453140478365356 1:0.5294 2:0.0860322 3:-0.266377 4:-0.816676 5:0.198948 6:-0.237208 7:-0.34714 8:0.0214 
2 1:-0.7778 2:-0.537902 3:-0.565833 4:-0.72996 5:0.151293 6:-0.633857 7:-0.780841 8:-0.7602 
2 1:-0.2972 2:0.622511 3:0.477725 4:-0.608475 5:0.151293 6:-0.209714 7:0.999898 8:-0.7708 
2 1:-0.7382 2:0.194506 3:-0.827556 4:-0.358244 5:0.319529 6:-0.483163 7:-0.861172 8:-0.796 
0.4380412293088417 1:-0.3488 2:-0.120314 3:0.229286 4:-0.262975 5:0.386294 6:-0.198348 7:1 8:0.7188 
2 1:-0.7362 2:0.212529 3:-0.491481 4:-0.452601 5:0.0986123 6:-0.480238 7:-0.981972 8:0.0482 
2 1:-0.9148 2:-0.768951 3:-0.645 4:-0.257364 5:-0.0270449 6:-0.53949 7:0.045796 8:-0.6776 
2 1:0 2:0.517959 3:-0.837092 4:-0.0732433 5:0.386294 6:-0.573884 7:-0.984323 8:-0.698 
2 1:-0.51 2:0.430153 3:-0.931507 4:-0.739456 5:0.242453 6:-0.0896429 7:-0.965898 8:-0.6872 
2 1:-0.9268 2:-0.633796 3:-0.907778 4:-0.742613 5:0.0397208 6:-0.414464 7:-0.952724 8:-0.84 
1.087921281502464 1:-0.3124 2:0.566827 3:-0.614495 4:0.128538 5:0.198948 6:-0.62474 7:-0.828946 8:0.7328 
2 1:-0.991 2:-1 3:-0.363333 4:-0.588421 5:-0.195281 6:-0.384714 7:-0.940518 8:0.673 
1.34247126332555 1:-0.04 2:-0.171698 3:0.0488889 4:-0.721138 5:-0.10412 6:-0.134762 7:1 8:0.673 
0.1658899548390774 1:0.84 2:0.0451647 3:0.508571 4:-0.401191 5:0.242453 6:-0.0718452 7:1 8:0.6102 
0.3000628954389666 1:0.4666 2:-0.200702 3:-0.178485 4:-0.504183 5:-0.0270449 6:-0.504388 7:-0.633853 8:0.8028 
0.7588920448455295 1:-0.8732 2:-0.0365427 3:-0.141852 4:-0.60384 5:0.0397208 6:-0.103839 7:0.338527 8:0.0552 
2 1:-0.7728 2:-0.463521 3:0.294667 4:-0.534861 5:-0.0270449 6:-0.597551 7:0.252522 8:-0.702 
2 1:-0.5454 2:-0.463521 3:-0.586 4:-0.633275 5:-0.195281 6:-0.590857 7:-0.824415 8:0.6898 
1.67525522628555 1:0.5734 2:0.359179 3:-0.748305 4:0.120974 5:0.354025 6:-0.302714 7:-0.547166 8:-0.5448 
0.9102968254812712 1:0.25 2:-0.0973166 3:0.289111 4:-0.349991 5:-0.10412 6:-0.0515476 7:1 8:0.955 
2 1:-0.1516 2:-0.120314 3:0.132051 4:-0.714622 5:-0.10412 6:0.019881 7:0.518486 8:-0.7882 
2 1:0.159 2:0.310609 3:0.12305 4:-0.042323 5:0.0986123 6:-0.296429 7:0.918648 8:0.598 
0.8757116258925582 1:0.4894 2:0.185116 3:-0.16619 4:-0.236247 5:0.198948 6:-0.135455 7:-0.424665 8:0.6834 
2 1:-0.3558 2:0.2904 3:-0.322536 4:-0.0173794 5:0.198948 6:-0.418571 7:-0.851864 8:-0.7394 
2 1:-0.659 2:-0.0973166 3:0.183111 4:0.288366 5:-0.0270449 6:-0.611633 7:0.972558 8:0.651 
0.1227232258164165 1:0.6 2:0.386294 3:-0.727656 4:-0.00283619 5:0.319529 6:-0.291582 7:-0.579703 8:0.9662 
0.1573569535048638 1:0.68 2:0.476939 3:0.174538 4:-0.268281 5:0.0986123 6:-0.510873 7:-0.80612 8:-0.3854 
2 1:0.132 2:0.697917 3:-0.47728 4:0.0116 5:0.354025 6:-0.37581 7:-0.895658 8:-0.5444 
0.5417049572847555 1:-0.3742 2:0.276214 3:-0.121232 4:0.332916 5:0.242453 6:-0.517738 7:0.262856 8:0.6776 
2 1:-0.1352 2:-0.0758038 3:0.340208 4:-0.14625 5:0.0397208 6:-0.446875 7:0.760048 8:0.7276 
2 1:-0.6634 2:0.310609 3:-0.827971 4:-0.553347 5:0.0397208 6:-0.343482 7:-0.962901 8:-0.5062 
2 1:-0.7372 2:0.237857 3:-0.370813 4:-0.712264 5:0.0986123 6:-0.340476 7:-0.854477 8:-0.4788 
0.7583828787146396 1:0.2942 2:-0.200702 3:0.0943333 4:0.0364289 5:0.242453 6:-0.224226 7:0.003942 8:-0.91 
2 1:-0.962 2:-0.768951 3:0.216667 4:-0.775621 5:-0.195281 6:-0.594 7:1 8:0.7754 
2 1:-0.9434 2:-0.633796 3:-0.273333 4:-0.745463 5:-0.0270449 6:0.0908163 7:-0.994319 8:-0.81 
0.2171236739380978 1:0.1112 2:-0.463521 3:0.603333 4:-0.56916 5:0.0397208 6:-0.177857 7:0.999997 8:0.7428 
2 1:-0.6666 2:-0.232472 3:-0.0663333 4:0.0940419 5:-0.0270449 6:-0.382959 7:0.977248 8:0.673 
0.05549975959883933 1:0.4202 2:0.759372 3:0.527055 4:0.13506 5:0.0397208 6:-0.570268 7:0.93573 8:0.673 
2 1:-0.8334 2:-0.633796 3:-0.967778 4:-0.3564 5:0.319529 6:-0.393163 7:0.583045 8:-0.6328 
0.2691090260207883 1:-0.3334 2:-1 3:-0.436667 4:-0.250277 5:0.0397208 6:-0.575 7:1 8:0.5038 
2 1:-0.9394 2:-0.306853 3:-0.552083 4:-0.192767 5:0.0397208 6:-0.127411 7:-0.494957 8:0.0766 
2 1:-0.5834 2:0.335778 3:-0.642848 4:-0.506405 5:0.198948 6:-0.387597 7:-0.987706 8:-0.6678 
2 1:-0.5906 2:0.452236 3:0.204035 4:-0.609861 5:0.0986123 6:-0.282937 7:-0.421407 8:-0.7374 
2 1:0.2132 2:0.203639 3:-0.505 4:-0.150011 5:0.242453 6:-0.375536 7:-0.300827 8:0.6664 
2 1:-0.3288 2:0.524904 3:0.00929825 4:-0.117036 5:0.497866 6:-0.458786 7:0.803385 8:-0.6008 
2 1:-0.7812 2:0.185116 3:-0.830952 4:-0.339988 5:0.282475 6:-0.461374 7:-0.983449 8:-0.7712 
1.406888521800523 1:0 2:-1 3:-0.693333 4:-0.108744 5:0.0986123 6:-0.539921 7:-0.944658 8:-0.303 
0.479943348020114 1:-0.7056 2:0.122432 3:-0.322051 4:-0.0692948 5:0.0986123 6:-0.491349 7:0.503395 8:0.6862 
0.02301773071470396 1:0.9394 2:0.617343 3:0.256532 4:0.0296933 5:0.242453 6:-0.354583 7:0.40464 8:-0.6446 
0.9315053288369446 1:0.0938 2:0.416165 3:0.151244 4:-0.727213 5:0.151293 6:-0.405286 7:-0.35433 8:-0.6938 
1.383070267603172 1:-0.075 2:0.434688 3:-0.163694 4:-0.367594 5:0.282475 6:-0.60022 7:-0.0211924 8:-0.6428 
2 1:-0.6928 2:0.253733 3:0.38439 4:-0.385815 5:0.354025 6:-0.54 7:0.960444 8:-0.4138 
2 1:-0.9754 2:-0.537902 3:-0.438333 4:-0.364512 5:-0.195281 6:-0.275714 7:0.511057 8:-0.275 
2 1:0.093 2:0.283383 3:-0.830074 4:0.0439067 5:-0.10412 6:-0.423333 7:0.95965 8:0.6812 
2 1:-0.2094 2:-0.0555956 3:-0.407647 4:-0.349935 5:0.0986123 6:-0.254524 7:-0.933277 8:0.4182 
2 1:-0.8694 2:0.0451647 3:-0.256377 4:-0.401973 5:-0.195281 6:-0.179429 7:-0.626146 8:-0.7014 
0.07494344584510737 1:0.0514 2:0.507263 3:0.173451 4:-0.254234 5:0.0986123 6:-0.484841 7:-0.768096 8:-0.6604 
2 1:-0.6392 2:0.347684 3:-0.848655 4:0.187901 5:0.151293 6:-0.460429 7:-0.963442 8:-0.387 
2 1:-0.2106 2:-0.0973166 3:0.349333 4:-0.220347 5:-0.10412 6:-0.280476 7:-0.439094 8:-0.2638 
2 1:-0.708 2:0.283383 3:-0.859015 4:0.0670104 5:0.0986123 6:-0.561984 7:-0.970717 8:-0.4892 
2 1:-0.8416 2:-0.306853 3:-0.231429 4:0.110048 5:-0.195281 6:-0.513857 7:1 8:-0.2268 
0.2974771654432625 1:0.8884 2:0.822687 3:-0.315345 4:-0.0307153 5:0.416607 6:-0.0794958 7:-0.947437 8:0.7402 
2 1:-0.695 2:-0.0365427 3:-0.632037 4:-0.209913 5:0.0397208 6:-0.436161 7:-0.859326 8:-0.4174 
2 1:0.2266 2:0.642418 3:-0.332402 4:-0.0905162 5:0.319529 6:-0.444082 7:-0.519054 8:-0.7088 
2 1:0.303 2:0.253733 3:-0.740877 4:-0.326483 5:0.472219 6:-0.406053 7:0.00193642 8:-0.6264 
2 1:-0.5454 2:-0.463521 3:-0.584667 4:-0.304305 5:-0.0270449 6:-0.572143 7:-0.570709 8:-0.3892 
2 1:-0.5074 2:0.472947 3:-0.868313 4:-0.133308 5:0.386294 6:-0.537723 7:-0.900587 8:0.6894 
2 1:-0.8984 2:-0.402747 3:0.103889 4:-0.406111 5:0.242453 6:-0.404345 7:1 8:-0.1774 
2 1:-0.5418 2:0.237857 3:0.106585 4:-0.0259387 5:0.151293 6:-0.396786 7:0.761322 8:0.292 
0.7827107757434009 1:-0.2912 2:0.110735 3:-0.589048 4:-0.370793 5:0.242453 6:-0.171667 7:-0.853724 8:0.1478 
2 1:-0.6666 2:-0.232472 3:-0.142333 4:0.126621 5:-0.0270449 6:-0.382959 7:0.977248 8:0.673 
2 1:-0.3536 2:0.155245 3:-0.498438 4:-0.670794 5:0.0986123 6:-0.34127 7:0.602878 8:-0.5898 
2 1:0.2982 2:0.203639 3:-0.475098 4:-0.617529 5:-0.450694 6:0.0938095 7:-0.68111 8:0.4258 
2 1:-0.9252 2:-0.306853 3:-0.727917 4:-0.225617 5:0.589027 6:-0.33247 7:-0.909612 8:0.6482 
2 1:-0.8654 2:-0.0973166 3:0.0968889 4:-0.451499 5:0.282475 6:-0.0807692 7:0.998951 8:-0.713 
0.2602795929073422 1:0 2:-0.306853 3:-0.975417 4:-0.495312 5:-0.195281 6:-0.563 7:1 8:0.8496 
1.689674566012994 1:-0.6154 2:0.364782 3:0.0766082 4:-0.769627 5:0.0397208 6:-0.229911 7:-0.88498 8:-0.0114 
2 1:-0.804 2:-0.463521 3:-0.584 4:-0.318811 5:-0.0270449 6:-0.420714 7:-0.570584 8:-0.2386 
2 1:-0.9478 2:-0.633796 3:-0.85 4:-0.317853 5:-0.653426 6:-0.0110714 7:-0.995006 8:-0.6988 
0.2132550186485253 1:0.375 2:-0.200702 3:-0.523636 4:-0.532529 5:0.242453 6:-0.12256 7:-0.042102 8:0.8988 
2 1:-0.1446 2:0.406503 3:-0.562549 4:-0.308899 5:0.198948 6:-0.356169 7:-0.939397 8:-0.5088 
0.1742087239194688 1:0.5556 2:-0.120314 3:-0.937179 4:-0.519118 5:0.242453 6:-0.60875 7:-0.787498 8:-0.7712 
1.248633552471592 1:0.4848 2:0.297273 3:-0.132766 4:0.14288 5:-0.0270449 6:-0.170102 7:0.975274 8:0.7206 
2 1:-0.6696 2:0.353481 3:-0.323743 4:-0.337918 5:0.198948 6:-0.353961 7:-0.967941 8:-0.6526 
2 1:-0.5714 2:-0.633796 3:-0.768889 4:-0.647013 5:0.198948 6:-0.406688 7:-0.989773 8:-0.7804 
2 1:-0.5 2:-0.768951 3:-0.733333 4:-0.59656 5:0.0397208 6:-0.412232 7:-0.970872 8:-0.813 
2 1:-0.5844 2:0.411369 3:-0.967729 4:-0.160144 5:0.445186 6:-0.407976 7:-0.957542 8:-0.4344 
1.321318100990682 1:0.5138 2:0.75423 3:0.334724 4:0.1568 5:0.0397208 6:-0.628125 7:0.393098 8:0.7052 
2 1:-0.73 2:0.261397 3:-0.347197 4:-0.5057 5:0.0397208 6:-0.158214 7:-0.830713 8:-0.815 
0.199176124915372 1:0.6436 2:0.472947 3:0.0798095 4:-0.734768 5:0.198948 6:-0.245974 7:-0.254916 8:0.484 
1.856434483672456 1:-0.091 2:-0.232472 3:-0.148 4:0.260658 5:0.242453 6:-0.439524 7:-0.784518 8:0.9296 
2 1:-0.1986 2:0.581644 3:-0.85122 4:-0.0767806 5:0.198948 6:-0.487857 7:-0.972431 8:0.577 
2 1:-0.8182 2:-0.306853 3:-0.245833 4:-0.890747 5:-0.0270449 6:-0.520102 7:-0.993038 8:-0.6192 
2 1:-0.6364 2:-0.171698 3:-0.123333 4:-0.375686 5:0.416607 6:-0.502647 7:-0.432961 8:-0.489 
2 1:0.3334 2:-0.402747 3:0.215 4:-0.563031 5:0.0986123 6:-0.466032 7:1 8:-0.7386 
2 1:-0.8936 2:-0.120314 3:0.144762 4:-0.27528 5:0.198948 6:-0.420584 7:0.999998 8:-0.9116 
2 1:-0.9376 2:-1 3:-0.273333 4:-0.239775 5:-0.0270449 6:-0.521837 7:1 8:-0.746 
2 1:-0.2648 2:0.0729586 3:0.0150667 4:0.181105 5:-0.0270449 6:-0.667755 7:0.99172 8:0.673 
2 1:-0.4634 2:-0.200702 3:0.09 4:0.01686 5:-0.306853 6:-0.499643 7:0.923125 8:0.312 
2 1:-0.7304 2:0.212529 3:-0.589561 4:-0.410857 5:-0.0270449 6:-0.197551 7:-0.977593 8:-0.2324 
2 1:-0.4884 2:-0.200702 3:-0.0203333 4:-0.474963 5:0.0397208 6:-0.330268 7:0.647628 8:-0.6766 
2 1:-0.6888 2:-0.351363 3:-0.675238 4:-0.504933 5:-0.195281 6:-0.522571 7:0.763221 8:-0.7158 
2 1:-0.4524 2:0.276214 3:-0.936667 4:-0.0616978 5:0.445186 6:-0.579921 7:-0.985437 8:0.673 
2 1:-0.57 2:0.396552 3:-0.759798 4:-0.688387 5:0.0397208 6:-0.440893 7:-0.984829 8:-0.6642 
2 1:-0.6766 2:0.297273 3:-0.396884 4:-0.312125 5:0.282475 6:-0.345879 7:-0.993795 8:-0.2424 
2 1:-0.9504 2:-0.633796 3:0.13 4:-0.221129 5:-0.10412 6:-0.439286 7:1 8:-0.7592 
1.495174838497588 1:0.5238 2:0.155245 3:0.181563 4:-0.196773 5:-0.10412 6:-0.535833 7:-0.670063 8:0.0776 
2 1:-0.1876 2:-0.145017 3:-0.354872 4:0.237293 5:-0.10412 6:-0.469405 7:-0.224867 8:-0.1612 
2 1:-0.8006 2:0.165503 3:0.136768 4:-0.327526 5:0.0986123 6:0.0322222 7:0.888384 8:-0.6954 
2 1:-0.5166 2:0.122432 3:-0.353908 4:-0.782311 5:-0.10412 6:-0.306071 7:-0.962985 8:-0.6698 
2 1:-0.9286 2:-1 3:-0.146667 4:0.00991 5:0.0397208 6:-0.495536 7:0.99993 8:0.5038 
2 1:-0.0526 2:-0.267592 3:-0.3 4:-0.630822 5:-0.10412 6:-0.603095 7:-0.88269 8:0.5568 
2 1:0.0996 2:0.614729 3:-0.17746 4:0.110109 5:0.319529 6:-0.465204 7:-0.316214 8:-0.7198 
0.6105616665252019 1:0.4286 2:-0.463521 3:0.506667 4:-0.75436 5:-0.10412 6:-0.5425 7:0.600044 8:-0.3272 
0.07924066754102205 1:-0.3788 2:0.304008 3:-0.938733 4:-0.289413 5:0.386294 6:-0.491339 7:0.680074 8:0.685 
2 1:-0.8214 2:-0.463521 3:-0.650667 4:-0.531381 5:-0.195281 6:-0.426143 7:-0.213872 8:-0.3358 
2 1:-0.2046 2:0.185116 3:0.165882 4:0.48848 5:-0.10412 6:-0.630119 7:0.986715 8:0.6898 
2 1:0.4236 2:0.774337 3:-0.295439 4:-0.14563 5:0.445186 6:-0.355278 7:0.880807 8:-0.711 
2 1:-0.9926 2:-1 3:-0.936667 4:-0.00456444 5:-0.10412 6:-0.515357 7:-0.943564 8:-0.5252 
2 1:-0.5686 2:0.165503 3:-0.837604 4:-0.640823 5:0.0397208 6:-0.532232 7:-0.615571 8:0.3544 
2 1:-0.9656 2:-0.463521 3:-0.0946667 4:-0.178213 5:0.0986123 6:-0.57381 7:0.609338 8:-0.2208 
2 1:0.091 2:0.656604 3:-0.0635431 4:0.06404 5:0.497866 6:-0.549429 7:-0.915819 8:-0.6156 
2 1:-0.9148 2:-0.537902 3:0.5175 4:-0.36784 5:-0.0270449 6:-0.0308163 7:1 8:-0.718 
2 1:-0.8824 2:-0.00142258 3:-0.455098 4:-0.602099 5:-0.0270449 6:-0.510204 7:-0.943726 8:-0.705 
0.524555218900803 1:0.0542 2:0.721595 3:-0.533953 4:-0.245283 5:0.716994 6:-0.414654 7:-0.899074 8:0.673 
2 1:0.087 2:0.439163 3:-0.930044 4:-0.344121 5:0.472219 6:-0.48297 7:-0.989045 8:-0.8356 
2 1:-0.644 2:0.175454 3:-0.693563 4:-0.267516 5:0.319529 6:-0.475561 7:-0.51591 8:-0.644 
2 1:-0.9366 2:-0.768951 3:0.75 4:-0.142072 5:0.319529 6:-0.298112 7:1 8:0.6544 
0.04166432461501055 1:0.1428 2:-0.306853 3:0.0466667 4:-0.377629 5:0.282475 6:-0.353516 7:-0.713824 8:-0.3882 
2 1:-0.6666 2:-1 3:0.343333 4:-0.710487 5:0.242453 6:-0.0429762 7:1 8:-0.6416 
2 1:-0.8412 2:-0.463521 3:0.165333 4:-0.841502 5:-0.450694 6:-0.365 7:0.601644 8:0.9474 
2 1:-0.7034 2:0.253733 3:-0.257442 4:-0.502041 5:0.0986123 6:-0.39254 7:-0.94349 8:-0.7062 
2 1:-0.7282 2:0.221187 3:-0.336228 4:-0.445655 5:0.282475 6:-0.509066 7:-0.0865036 8:-0.6964 
2 1:-0.6666 2:-1 3:-0.666667 4:-0.454462 5:-0.10412 6:-0.124762 7:-0.898488 8:-0.6416 
2 1:0.283 2:0.175454 3:-0.404216 4:-0.126856 5:0.151293 6:-0.522286 7:-0.293686 8:0.728 
2 1:-0.7286 2:0.185116 3:-0.646 4:-0.3092 5:0.319529 6:-0.403571 7:-0.941314 8:0.0756 
1.520403226192226 1:-0.1438 2:0.639994 3:-0.853358 4:-0.327782 5:0.242453 6:-0.19869 7:-0.985794 8:0.1958 
2 1:-0.3454 2:-0.0365427 3:-0.346667 4:-0.195025 5:0.0986123 6:-0.439683 7:-0.881499 8:-0.4534 
2 1:-0.6364 2:0.317081 3:-0.679932 4:-0.392998 5:0.242453 6:-0.518869 7:-0.964284 8:-0.3696 
2 1:-0.5874 2:-0.145017 3:-0.920278 4:-0.61024 5:-0.0270449 6:-0.209898 7:0.894508 8:-0.516 
2 1:-0.3354 2:0.572833 3:-0.84697 4:-0.158635 5:0.151293 6:-0.619286 7:-0.961887 8:0.3646 
0.8978107666596191 1:-0.2308 2:-0.463521 3:-0.853333 4:0.0351973 5:0.151293 6:-0.242643 7:0.20158 8:-0.4964 
2 1:-0.7392 2:-0.633796 3:-0.944444 4:-0.308287 5:0.0397208 6:-0.204286 7:-0.084238 8:-0.6276 
2 1:-0.7766 2:0.229626 3:-0.0546667 4:-0.447284 5:0.282475 6:-0.253077 7:0.888995 8:-0.771 
2 1:-0.1734 2:0.144662 3:-0.802184 4:-0.29871 5:0.0397208 6:-0.362857 7:-0.967092 8:-0.4706 
2 1:0 2:-0.0365427 3:0.466667 4:-0.499139 5:0.198948 6:-0.449286 7:1 8:-0.7448 
1.151588511244427 1:-0.6506 2:0.391462 3:-0.749259 4:0.267783 5:0.0397208 6:-0.662411 7:-0.75873 8:0.733 
2 1:-0.6666 2:-0.768951 3:0.146667 4:-0.329867 5:-0.306853 6:-0.219107 7:1 8:0.6682 
0.03568374116227339 1:-0.3658 2:-0.145017 3:0.0891667 4:-0.736629 5:-0.195281 6:0.0834286 7:0.4239 8:-0.4352 
2 1:-0.4634 2:-0.200702 3:0.301212 4:-0.589807 5:0.0986123 6:-0.259286 7:-0.365631 8:-0.6566 
2 1:-0.2642 2:0.566827 3:-0.904465 4:-0.33114 5:0.416607 6:-0.468487 7:-0.948361 8:-0.6516 
2 1:-0.9 2:-0.463521 3:-0.068 4:-0.569778 5:-0.10412 6:-0.563452 7:0.200502 8:0.7282 
2 1:-0.5172 2:-0.351363 3:-0.840476 4:-0.722009 5:-0.450694 6:-0.171429 7:-0.416655 8:0.6732 
2 1:-0.834 2:0.0148408 3:0.327619 4:-0.162736 5:-0.195281 6:-0.261143 7:0.801942 8:-0.6532 
2 1:-0.8 2:-0.402747 3:-0.62 4:-0.127517 5:0.0397208 6:-0.468571 7:-0.94282 8:0.6728 
2 1:-0.3684 2:-0.171698 3:-0.197879 4:-0.703285 5:-0.195281 6:-0.445714 7:-0.533585 8:-0.6658 
2 1:-0.5484 2:0.110735 3:-0.295062 4:-0.17904 5:-0.195281 6:-0.405857 7:0.671359 8:0.6732 
2 1:-0.1666 2:0.133732 3:0.213778 4:-0.693991 5:-0.10412 6:-0.0828571 7:0.336673 8:-0.6606 
2 1:-0.781 2:0.203639 3:-0.523333 4:-0.562424 5:0.0986123 6:-0.407619 7:-0.79138 8:-0.6328 
2 1:0.1264 2:0.297273 3:0.18963 4:0.0232838 5:-0.0270449 6:-0.461224 7:0.920818 8:0.5864 
2 1:0.1264 2:0.297273 3:0.303262 4:-0.0257233 5:0.0397208 6:-0.506607 7:0.937605 8:0.674 
2 1:-0.874 2:-0.0555956 3:0.276471 4:-0.31546 5:0.242453 6:-0.504405 7:0.637394 8:-0.4038 
2 1:-0.6666 2:-0.200702 3:-0.0869697 4:0.0738286 5:-0.0270449 6:-0.507143 7:0.961253 8:0.3292 
1.141073720891835 1:-0.661 2:0.133732 3:0.0164368 4:-0.439387 5:-0.195281 6:-0.405857 7:0.544389 8:0.7274 
2 1:-0.6582 2:0.283383 3:-0.861773 4:-0.34528 5:0.0397208 6:-0.535982 7:-0.982994 8:-0.4708 
2 1:0.1686 2:0.317081 3:-0.285461 4:-0.0250433 5:0.0397208 6:-0.579821 7:0.958978 8:0.68 
2 1:-0.0952 2:-0.0185203 3:-0.811852 4:-0.128816 5:-0.195281 6:-0.214143 7:-0.994708 8:-0.7424 
2 1:-0.9674 2:-0.768951 3:0.218333 4:-0.157493 5:-0.0270449 6:-0.242449 7:-0.869694 8:-0.6802 
1.718725648013456 1:0.5384 2:0.304008 3:-0.786383 4:-0.0463103 5:0.198948 6:-0.369026 7:-0.786281 8:-0.691 
2 1:-0.25 2:0.165503 3:0.300909 4:0.271702 5:-0.10412 6:-0.58119 7:0.994979 8:0.5724 
2 1:-0.579 2:-0.537902 3:-0.6675 4:-0.255022 5:0.242453 6:-0.322083 7:0.998898 8:-0.6292 
2 1:-0.6094 2:0.434688 3:-0.736667 4:-0.125907 5:0.0397208 6:-0.462054 7:0.973721 8:-0.6354 
1.959185473774952 1:0.3334 2:-0.232472 3:-0.154667 4:-0.324538 5:0.198948 6:-0.356299 7:-0.760578 8:0.6064 
2 1:-0.7142 2:-1 3:-0.9 4:-0.120967 5:-0.306853 6:0.454464 7:0.999994 8:0.673 
2 1:-0.8138 2:0.0986123 3:-0.95963 4:-0.560807 5:0.497866 6:-0.20825 7:-0.862797 8:0.6732 
2 1:-0.9512 2:-1 3:-0.473333 4:0.051 5:-0.653426 6:-0.438929 7:-0.972226 8:-0.6272 
2 1:-0.979 2:-1 3:-0.12 4:-0.38916 5:-0.653426 6:-0.751429 7:1 8:-0.7936 
2 1:-0.969 2:-0.463521 3:-0.771333 4:-0.406113 5:-0.306853 6:-0.479107 7:-0.987977 8:-0.6042 
2 1:-0.3372 2:0.347684 3:0.0457407 4:-0.27259 5:0.0986123 6:-0.440952 7:-0.896375 8:0.2262 
2 1:-0.3218 2:0.221187 3:-0.614561 4:-0.522733 5:0.242453 6:-0.256845 7:-0.824094 8:-0.8482 
0.1768024823871793 1:0.0834 2:0.391462 3:0.0815897 4:-0.147139 5:0.151293 6:-0.6315 7:-0.119481 8:-0.818 
2 1:0.647 2:0.476939 3:-0.0769076 4:-0.372773 5:0.0397208 6:-0.505089 7:-0.806181 8:-0.2586 
2 1:-0.7778 2:-0.633796 3:0.364444 4:-0.731564 5:-0.450694 6:-0.478333 7:-0.285209 8:-0.8666 
2 1:-0.7392 2:-0.633796 3:0.255556 4:-0.577049 5:-0.450694 6:-0.485476 7:1 8:0.6704 
2 1:-0.5898 2:-0.306853 3:-0.748333 4:-0.0500267 5:-0.0270449 6:-0.340612 7:0.956457 8:0.666 
2 1:-0.4316 2:0.0986123 3:0.2304 4:-0.281916 5:0.354025 6:-0.414381 7:0.763745 8:-0.3736 
2 1:-0.1428 2:-0.633796 3:-0.481111 4:-0.390658 5:-0.10412 6:-0.389405 7:-0.9674 8:-0.799 
2 1:-0.9428 2:-0.768951 3:0.05 4:-0.810387 5:-0.306853 6:-0.315536 7:0.997758 8:-0.8004 
2 1:-0.974 2:-1 3:0.74 4:-0.067376 5:-0.195281 6:-0.249571 7:1 8:-0.6544 
2 1:-0.7804 2:-0.0365427 3:-0.933333 4:-0.430621 5:0.198948 6:-0.487532 7:-0.851165 8:0.673 
2 1:-0.1428 2:-0.633796 3:0.408889 4:-0.306158 5:0.242453 6:-0.482024 7:0.657096 8:-0.874 
2 1:-0.909 2:-1 3:0.3 4:-0.415093 5:-0.306853 6:0.1475 7:1 8:-0.6582 
2 1:-0.8908 2:-0.0185203 3:-0.730877 4:-0.177182 5:-0.10412 6:-0.581786 7:-0.993869 8:-0.8766 
1.942643108897441 1:0.3334 2:-0.306853 3:-0.409583 4:-0.0305173 5:-0.195281 6:-0.384714 7:-0.97457 8:0.2978 
2 1:-0.5156 2:0.329661 3:-0.38821 4:-0.123261 5:0.198948 6:-0.328831 7:-0.577039 8:-0.8794 
0.5499577224918301 1:-0.7688 2:0.175454 3:-0.130294 4:-0.293724 5:0.445186 6:-0.269484 7:0.987823 8:0.673 
2 1:-0.6532 2:0.341784 3:-0.445152 4:-0.508682 5:0.242453 6:-0.423393 7:-0.84906 8:-0.4892 
2 1:-0.2976 2:0.359179 3:-0.675345 4:0.0347273 5:0.198948 6:-0.611818 7:-0.874538 8:-0.1656 
2 1:-0.3684 2:-0.402747 3:-0.193333 4:-0.143563 5:0.0397208 6:-0.33625 7:1 8:-0.698 
2 1:-0.9204 2:-0.0973166 3:-0.526444 4:-0.0693928 5:0.282475 6:-0.528901 7:-0.582558 8:-0.7596 
2 1:-0.573 2:-0.0185203 3:0.34902 4:-0.452658 5:-0.450694 6:-0.577857 7:0.647812 8:0.7258 
2 1:-0.97 2:-0.537902 3:-0.595833 4:-0.0678629 5:-0.0270449 6:-0.461531 7:-0.97523 8:-0.7906 
2 1:-0.4884 2:0.0303475 3:-0.73381 4:-0.351867 5:0.198948 6:-0.472662 7:-0.744176 8:-0.7486 
2 1:0.6078 2:0.468906 3:-0.0753586 4:-0.114747 5:0.0397208 6:-0.403571 7:-0.720413 8:-0.6082 
0.3831495245171081 1:0.625 2:-0.145017 3:-0.945 4:-0.22502 5:0.354025 6:-0.497571 7:1 8:-0.3062 
2 1:0.2778 2:0.411369 3:-0.0114493 4:-0.29369 5:0.472219 6:-0.214436 7:1 8:-0.7084 
0.1818316417890964 1:0.6666 2:0.460676 3:-0.292009 4:0.029305 5:0.386294 6:-0.353437 7:-0.210428 8:0.354 
2 1:-0.488 2:0.155245 3:-0.368125 4:-0.738329 5:0.242453 6:-0.46869 7:-0.914047 8:-0.7422 
0.2687088613171001 1:-0.2728 2:-0.537902 3:-0.225 4:-0.801973 5:-0.306853 6:-0.536429 7:0.414729 8:0.4162 
0.3783028154855415 1:0.091 2:-0.171698 3:0.136667 4:-0.553723 5:-0.195281 6:-0.366429 7:0.165616 8:0.576 
2 1:0.4492 2:0.304008 3:0.0645652 4:-0.169637 5:0.0397208 6:-0.212857 7:0.97477 8:0.7016 
2 1:-0.4546 2:-0.633796 3:0.127778 4:-0.224098 5:-0.450694 6:-0.16381 7:0.455434 8:-0.8424 
2 1:-0.1428 2:-0.633796 3:-0.00333333 4:-0.316279 5:0.198948 6:-0.477597 7:0.657096 8:-0.8646 
0.7031250035942568 1:0.3334 2:-0.306853 3:0.53875 4:-0.11 5:0.151293 6:-0.413214 7:0.999986 8:-0.961 
2 1:-0.3994 2:0.492446 3:-0.418276 4:-0.462415 5:0.198948 6:-0.395779 7:-0.78698 8:-0.7098 
0.07545133953853725 1:0.2 2:0.0593513 3:-0.681528 4:-0.544155 5:0.386294 6:-0.50067 7:-0.644348 8:-0.4598 
0.2842767374226015 1:0.641 2:0.386294 3:-0.243646 4:-0.512153 5:0.354025 6:-0.475905 7:-0.91525 8:0.3834 
2 1:0.282 2:0.0729586 3:0.0704348 4:-0.30436 5:0.242453 6:-0.499167 7:1 8:-0.6984 
2 1:-0.633 2:0.353481 3:-0.899181 4:-0.562062 5:0.282475 6:-0.139396 7:-0.979424 8:-0.5202 
2 1:0.1428 2:-0.537902 3:0.634167 4:-0.613095 5:0.386294 6:-0.274643 7:0.999866 8:-0.6282 
2 1:-0.039 2:0.203639 3:0.0260606 4:-0.204093 5:0.319529 6:-0.524439 7:0.474935 8:-0.3966 
2 1:-0.8222 2:-0.537902 3:-0.31 4:-0.466541 5:-0.0270449 6:-0.393061 7:1 8:-0.761 
2 1:-0.8416 2:-0.306853 3:0.0257143 4:-0.00583111 5:-0.10412 6:-0.498929 7:1 8:0.372 
0.303453726223599 1:0.1482 2:0.606761 3:-0.895962 4:-0.320922 5:0.242453 6:-0.548095 7:-0.840479 8:0.6482 
2 1:-0.8342 2:0.144662 3:-0.317471 4:-0.400049 5:-0.10412 6:-0.0275 7:-0.377915 8:-0.3592 
2 1:0.1364 2:0.304008 3:-0.171702 4:0.100893 5:0.0397208 6:-0.545625 7:0.950185 8:0.6692 
1.625643273389213 1:0.628 2:0.185116 3:-0.00744444 4:-0.10244 5:-0.306853 6:-0.565179 7:-0.505117 8:-0.9126 
2 1:-0.5016 2:0.468906 3:-0.369218 4:-0.637448 5:-0.0270449 6:-0.261837 7:-0.945953 8:0.4318 
2 1:-0.625 2:0.133732 3:0.406111 4:-0.0966889 5:-0.10412 6:-0.563214 7:0.453087 8:0.5288 
2 1:-0.4152 2:0.492446 3:-0.718106 4:-0.538732 5:0.198948 6:-0.126753 7:-0.95697 8:-0.6736 
2 1:-0.9726 2:-1 3:0.44 4:-0.644067 5:-0.306853 6:-0.0301786 7:1 8:-0.6632 
2 1:-0.4546 2:-0.633796 3:-0.405556 4:-0.497566 5:-0.0270449 6:-0.140612 7:-0.67851 8:-0.601 
1.586464219511516 1:0.5918 2:0.221187 3:-0.782252 4:-0.607081 5:0.282475 6:-0.538681 7:-0.778268 8:-0.8824 
2 1:-0.5592 2:0.401564 3:-0.724876 4:-0.396451 5:0.151293 6:-0.351571 7:-0.965905 8:-0.3676 
0.3378879532783706 1:-0.11 2:0.524904 3:-0.722222 4:-0.279994 5:0.805459 6:-0.421622 7:-0.342685 8:0.6814 
2 1:-0.8626 2:-0.267592 3:-0.703333 4:-0.192554 5:0.282475 6:-0.546264 7:-0.966864 8:-0.3266 
0.09650071036229406 1:0.1262 2:0.353481 3:-0.776099 4:-0.284873 5:0.242453 6:-0.516488 7:-0.687276 8:0.479 
1.449803317276519 1:-0.3334 2:0.411369 3:0.0846078 4:0.168077 5:0.386294 6:-0.265491 7:0.886002 8:-0.684 
2 1:-0.489 2:0.353481 3:-0.274464 4:-0.411723 5:0.0397208 6:-0.343571 7:-0.58714 8:-0.7766 
0.5690896832973222 1:-0.9058 2:-0.145017 3:-0.799231 4:-0.470453 5:0.242453 6:-0.524821 7:-0.350304 8:0.6728 
1.954321188409836 1:-0.25 2:0.165503 3:0.375806 4:-0.374907 5:0.386294 6:-0.43183 7:0.745898 8:0.3644 
1.67141981443477 1:0.4188 2:0.745481 3:0.424365 4:0.00773926 5:0.0986123 6:-0.436825 7:0.968109 8:-0.4874 
2 1:-0.9792 2:-0.768951 3:0.735 4:-0.718667 5:-0.195281 6:-0.112143 7:1 8:-0.6968 
2 1:-0.7672 2:0.175454 3:-0.143725 4:-0.34585 5:0.445186 6:-0.273294 7:0.994714 8:-0.5258 
2 1:-0.4 2:-0.633796 3:-0.737778 4:-0.484195 5:0.151293 6:-0.557 7:-0.982482 8:-0.7254 
2 1:-0.3612 2:0.507263 3:-0.0680586 4:-0.446023 5:0.0397208 6:-0.05125 7:-0.963656 8:0.7582 
0.8088557746039837 1:0.613 2:0.439163 3:-0.510137 4:0.060665 5:0.386294 6:-0.240491 7:-0.217403 8:0.8946 
0.2802143473376306 1:-0.5 2:-0.200702 3:-0.397879 4:-0.597113 5:0.198948 6:-0.286104 7:0.366155 8:0.472 
2 1:-0.3954 2:-0.145017 3:-0.463611 4:-0.128013 5:-0.10412 6:-0.446548 7:-0.91214 8:-0.8288 
2 1:-0.8388 2:-0.463521 3:0.281333 4:-0.780113 5:-0.306853 6:-0.11875 7:0.999812 8:0.6728 
0.2984925087572329 1:-0.1112 2:-0.537902 3:-0.0908333 4:-0.120103 5:0.282475 6:-0.22522 7:-0.91941 8:-0.6996 
2 1:-0.5758 2:0.0148408 3:0.100667 4:-0.201328 5:0.151293 6:-0.490857 7:-0.09933 8:-0.7078 
2 1:-0.5028 2:0.276214 3:-0.196884 4:-0.481256 5:0.151293 6:-0.423857 7:-0.364041 8:-0.7142 
2 1:-0.2522 2:0.253733 3:-0.734109 4:-0.053901 5:-0.0270449 6:-0.508163 7:-0.890115 8:-0.3662 
1.011322458238459 1:0.3334 2:-0.537902 3:0.244167 4:-0.167783 5:-0.0270449 6:-0.413673 7:0.994038 8:-0.9806 
2 1:-0.8182 2:-0.0973166 3:-0.506923 4:-0.355878 5:0.242453 6:-0.468452 7:-0.230452 8:-0.3152 
2 1:-0.8122 2:0.144662 3:-0.667667 4:-0.578446 5:-0.0270449 6:-0.390816 7:-0.71276 8:-0.1662 
2 1:-0.2728 2:-0.537902 3:-0.789167 4:-0.290469 5:-0.0270449 6:-0.384898 7:0.399017 8:-0.2346 
2 1:-0.3688 2:0.538374 3:-0.715748 4:0.5203 5:0.0397208 6:-0.575089 7:-0.909528 8:-0.56 
2 1:-0.7844 2:-0.200702 3:0.167333 4:0.08571 5:0.0397208 6:-0.508304 7:0.60023 8:0.3942 
2 1:-0.6176 2:-0.145017 3:-0.0953846 4:0.426649 5:-0.10412 6:-0.553214 7:0.990897 8:0.662 
2 1:-0.9306 2:-0.200702 3:-0.584545 4:-0.396053 5:-0.0270449 6:-0.346429 7:-0.449891 8:-0.6668 
2 1:-0.4308 2:0.185116 3:-0.434476 4:-0.538027 5:-0.450694 6:-0.360476 7:-0.160879 8:-0.5638 
2 1:-0.6666 2:-0.633796 3:0.357778 4:-0.631369 5:0.0986123 6:-0.233413 7:0.999631 8:-0.8374 
2 1:-0.7286 2:0.212529 3:0.0897222 4:-0.478603 5:0.282475 6:-0.504286 7:0.991412 8:-0.5182 
2 1:0 2:-0.463521 3:-0.588667 4:-0.361539 5:-0.0270449 6:-0.257959 7:0.998696 8:-0.8506 
1.845898246004699 1:0.4782 2:0.175454 3:0.188687 4:0.358582 5:-0.10412 6:-0.553214 7:0.991551 8:0.643 
2 1:-0.1666 2:-0.463521 3:-0.0844444 4:-0.398007 5:0.198948 6:-0.49487 7:0.999992 8:-0.9162 
2 1:-0.9566 2:-0.768951 3:-0.02 4:-0.278384 5:-0.195281 6:-0.568143 7:-0.993578 8:-0.6924 
2 1:-0.1746 2:0.0860322 3:-0.199872 4:-0.41802 5:0.242453 6:-0.457202 7:0.0791372 8:-0.695 
2 1:0.283 2:0.175454 3:-0.513011 4:-0.274949 5:0.151293 6:-0.475071 7:-0.414718 8:0.6974 
1.396256450350893 1:-0.4736 2:-0.463521 3:0.246667 4:-0.16356 5:-0.10412 6:-0.256905 7:1 8:0.673 
2 1:-0.5738 2:-0.145017 3:0.216154 4:0.0699378 5:-0.450694 6:-0.426905 7:-0.0699835 8:-0.6922 
2 1:0.5666 2:0.283383 3:-0.158527 4:-0.0649333 5:0.0397208 6:-0.441696 7:0.9557 8:0.395 
2 1:0.7142 2:0.425555 3:-0.0783099 4:0.181696 5:-0.195281 6:-0.519 7:0.937993 8:-0.7328 
2 1:-0.2222 2:-0.351363 3:0.518571 4:-0.453569 5:-0.10412 6:-0.486071 7:0.714518 8:0.673 
2 1:-0.5184 2:0.425555 3:-0.222464 4:-0.578075 5:-0.195281 6:0.107 7:-0.961479 8:-0.5564 
2 1:-0.3154 2:0.614729 3:0.476179 4:-0.508118 5:-0.0270449 6:-0.106429 7:0.999745 8:-0.7264 
2 1:-0.9274 2:-0.200702 3:-0.644545 4:-0.311139 5:-0.0270449 6:-0.237449 7:-0.447727 8:-0.673 
0.2896953802480606 1:0.5714 2:-0.200702 3:-0.436667 4:0.0750756 5:0.0986123 6:-0.528492 7:0.999333 8:0.2914 
2 1:-0.7828 2:0.165503 3:-0.549271 4:-0.635615 5:0.198948 6:-0.342208 7:-0.948537 8:0.4332 
2 1:0.119 2:0.283383 3:0.366963 4:0.00205926 5:0.0986123 6:-0.181508 7:0.929908 8:0.6596 
2 1:0 2:0.460676 3:-0.687374 4:-0.515074 5:0.198948 6:-0.512403 7:-0.608671 8:-0.5608 
2 1:-0.9384 2:-0.768951 3:-0.481667 4:-0.360464 5:-0.195281 6:-0.537 7:0.045522 8:-0.8542 
2 1:-0.8218 2:-0.267592 3:0.41 4:0.0226767 5:0.0397208 6:-0.508304 7:0.50033 8:-0.6218 
2 1:-0.1936 2:0.0729586 3:-0.0668 4:-0.187343 5:0.0397208 6:-0.440714 7:0.793726 8:0.433 
1.584300766300088 1:-0.2094 2:-0.0555956 3:-0.456429 4:-0.155109 5:-0.195281 6:-0.529 7:-0.112964 8:0.5608 
2 1:0 2:-0.537902 3:0.37 4:-0.319427 5:0.151293 6:-0.451143 7:0.988515 8:-0.6316 
0.1155779233702979 1:0.2142 2:0.406503 3:0.455897 4:-0.277481 5:0.0986123 6:-0.378095 7:0.999891 8:-0.7326 
2 1:-0.748 2:-0.0758038 3:-0.67625 4:-0.469131 5:-0.195281 6:-0.552857 7:-0.84072 8:-0.746 
2 1:-0.7118 2:0.165503 3:-0.779667 4:-0.358444 5:0.198948 6:-0.434416 7:-0.995703 8:-0.7974 
0.678711965170172 1:0.152 2:0.425555 3:0.341127 4:-0.651064 5:0.0986123 6:-0.34619 7:-0.160796 8:0.5718 
0.5021164627504832 1:0.6078 2:0.468906 3:0.149794 4:0.00533333 5:-0.0270449 6:-0.495 7:-0.850777 8:0.6002 
2 1:-0.1506 2:0.614729 3:-0.513995 4:-0.26715 5:0.354025 6:-0.450238 7:-0.957442 8:-0.4102 
2 1:-0.7362 2:0.212529 3:-0.627632 4:-0.418788 5:0.282475 6:-0.387363 7:-0.950003 8:0.452 
2 1:-0.8 2:-0.145017 3:0.139744 4:-0.321333 5:-0.0270449 6:-0.562755 7:-0.325295 8:-0.477 
0.5593982172690992 1:-0.3334 2:-1 3:-0.656667 4:-0.264589 5:0.151293 6:0.00192857 7:1 8:0.673 
2 1:-0.5352 2:0.443578 3:-0.0975 4:-0.592304 5:0.151293 6:-0.276429 7:0.0245626 8:-0.708 
2 1:-0.8516 2:0.0148408 3:-0.302353 4:-0.201576 5:0.0986123 6:-0.370952 7:-0.950059 8:-0.5444 
2 1:-0.2876 2:0.563783 3:-0.595443 4:-0.373742 5:0.386294 6:-0.427366 7:-0.961497 8:-0.6572 
2 1:-0.9416 2:-0.351363 3:-0.290952 4:-0.0411867 5:-0.306853 6:-0.488571 7:-0.164677 8:-0.5202 
2 1:-0.625 2:-0.267592 3:0.278148 4:0.0265173 5:-0.195281 6:-0.384714 7:-0.967894 8:-0.87 
2 1:-0.661 2:-0.00142258 3:0.0896667 4:-0.26146 5:0.0397208 6:-0.457946 7:-0.487957 8:-0.5076 
2 1:-0.2534 2:0.563783 3:-0.151495 4:-0.0686705 5:0.319529 6:-0.451735 7:-0.967335 8:-0.716 
2 1:-0.9534 2:-1 3:0.15 4:-0.22608 5:0.0397208 6:0.155982 7:1 8:-0.718 
2 1:0.3794 2:-0.00142258 3:-0.323667 4:-0.0699067 5:0.386294 6:-0.432277 7:-0.0329555 8:-0.6728 
0.5559940629398586 1:-0.2528 2:0.541658 3:0.569567 4:0.33982 5:0.354025 6:-0.344333 7:0.922052 8:0.5612 
2 1:-0.5314 2:0.468906 3:-0.843659 4:0.181132 5:0.0986123 6:-0.615635 7:-0.915324 8:0.4522 
2 1:-0.2744 2:0.581644 3:-0.122087 4:-0.198432 5:0.386294 6:-0.450402 7:-0.994027 8:-0.6384 
0.0633344195262641 1:-0.1724 2:-0.171698 3:-0.3825 4:-0.0378767 5:0.0397208 6:-0.356339 7:-0.479079 8:-0.2458 
0.9369571751917862 1:0 2:-0.267592 3:-0.0237037 4:-0.647991 5:0.242453 6:-0.28744 7:-0.0997516 8:0.591 
2 1:0.2222 2:-0.200702 3:0.334545 4:-0.15483 5:0.386294 6:-0.541786 7:0.729468 8:-0.6214 
2 1:-0.7674 2:-0.463521 3:-0.731667 4:-0.176015 5:-0.0270449 6:-0.482041 7:-0.497286 8:-0.6486 
2 1:-0.1594 2:0.353481 3:-0.081954 4:-0.114833 5:0.282475 6:-0.560769 7:-0.063064 8:-0.536 
2 1:0.798 2:0.496212 3:0.17298 4:0.0376667 5:0.151293 6:-0.497429 7:-0.740045 8:-0.697 
1.748460694177532 1:0.375 2:-0.200702 3:0.295926 4:-0.273631 5:-0.10412 6:-0.0604762 7:0.998576 8:-0.972 
2 1:-0.5 2:0.0729586 3:0.325606 4:-0.354683 5:0.0397208 6:-0.279732 7:0.644188 8:0.7834 
0.4142351733871433 1:0.8022 2:0.468906 3:-0.0535065 4:0.219509 5:-0.195281 6:-0.492143 7:-0.661205 8:-0.683 
2 1:-0.6444 2:0.0593513 3:-0.582778 4:-0.349051 5:-0.195281 6:-0.426429 7:-0.736813 8:-0.6124 
0.988738413218714 1:0.6842 2:-0.0758038 3:0.556458 4:-0.241614 5:0.609438 6:-0.428486 7:1 8:-0.8122 
1.350140780153379 1:0.923 2:0.0729586 3:-0.871067 4:-0.401696 5:0.354025 6:-0.32081 7:-0.872091 8:0.7516 
2 1:0 2:-0.768951 3:0.553333 4:-0.181237 5:0.0397208 6:-0.239643 7:1 8:-0.63 
2 1:-0.9656 2:-0.463521 3:-0.0866667 4:-0.329467 5:0.0397208 6:-0.354911 7:0.998705 8:0.673 
2 1:-0.1428 2:-0.267592 3:-0.207778 4:0.142119 5:0.354025 6:-0.35619 7:0.14029 8:-0.6784 
2 1:-0.8 2:-1 3:-0.7 4:-0.288994 5:0.319529 6:-0.428571 7:-0.995358 8:-0.6416 
1.068626045517541 1:0.1904 2:0.0729586 3:0.474394 4:-0.546288 5:0.354025 6:-0.0248095 7:0.829 8:0.8108 
2 1:-0.6102 2:0.0451647 3:-0.601884 4:-0.0819426 5:0.282475 6:-0.488407 7:0.330701 8:-0.9772 
2 1:-0.3658 2:-0.145017 3:0.125385 4:0.311884 5:-0.450694 6:-0.526905 7:0.934011 8:0.673 
2 1:-0.9334 2:-1 3:0.313333 4:-0.411556 5:-0.450694 6:-0.445952 7:-0.999582 8:-0.806 
2 1:-0.6124 2:0.375711 3:-0.223279 4:-0.566973 5:-0.10412 6:-0.481548 7:-0.908865 8:-0.1062 
2 1:-0.7598 2:0.175454 3:-0.225632 4:-0.648057 5:0.0397208 6:-0.417143 7:-0.882341 8:-0.4272 
2 1:-0.853 2:-0.463521 3:-0.586667 4:-0.296648 5:-0.0270449 6:-0.420714 7:-0.570469 8:-0.3802 
2 1:0.0038 2:0.627601 3:-0.882963 4:-0.509472 5:0.472219 6:-0.415639 7:-0.895215 8:-0.7032 
0.5959364018967767 1:0.2778 2:0.411369 3:-0.349614 4:-0.200438 5:0.416607 6:-0.208529 7:0.999999 8:-0.6934 
0.2670468376721201 1:0.091 2:0.2904 3:-0.171739 4:0.108697 5:0.0397208 6:-0.457054 7:0.319831 8:0.696 
0.03696023548427413 1:0.92 2:0.0593513 3:0.657361 4:-0.607742 5:0.242453 6:-0.166548 7:0.918583 8:-0.276 
2 1:-0.9286 2:-0.633796 3:0.324444 4:-0.567047 5:0.0397208 6:-0.277946 7:1 8:-0.8584 
2 1:-0.95 2:-0.768951 3:-0.965 4:-0.704933 5:-0.10412 6:-0.501429 7:-0.952724 8:-0.863 
2 1:-0.7778 2:-0.537902 3:0.171667 4:-0.263264 5:-0.195281 6:-0.312143 7:0.999999 8:0.6502 
0.1782147389472132 1:0.62 2:0.464816 3:0.112417 4:0.0708381 5:-0.0270449 6:-0.495 7:-0.84893 8:0.25 
2 1:-0.804 2:-0.232472 3:0.178889 4:0.08851 5:0.0397208 6:-0.508304 7:0.555812 8:-0.0172 
2 1:0.5862 2:0.812693 3:0.249941 4:-0.0949567 5:0.386294 6:-0.477812 7:-0.0409938 8:-0.5512 
2 1:-0.8888 2:-1 3:0.443333 4:-0.823458 5:-0.450694 6:-0.171429 7:1 8:-0.8168 
0.9824230764730737 1:0.1764 2:-0.00142258 3:-0.964815 4:0.0757067 5:0.282475 6:-0.394835 7:-0.894766 8:0.673 
2 1:-0.4314 2:0.496212 3:-0.724508 4:-0.415497 5:0.386294 6:-0.254062 7:-0.97149 8:-0.1712 
2 1:-0.5 2:0.341784 3:-0.510536 4:-0.789088 5:-0.195281 6:0.225143 7:-0.924665 8:-0.7798 
1.429820602109054 1:-0.0476 2:-0.232472 3:-0.133333 4:0.294116 5:-0.10412 6:-0.376071 7:0.977248 8:0.6644 
0.02131698045487451 1:0.2 2:-0.402747 3:-0.667222 4:-0.174581 5:0.0986123 6:-0.346349 7:-0.933182 8:-0.9368 
2 1:-0.0526 2:-0.0365427 3:0.342963 4:-0.294015 5:0.0986123 6:-0.402381 7:-0.513297 8:-0.7624 
0.3420218108962617 1:0.2778 2:0.411369 3:0.555169 4:-0.0794824 5:0.416607 6:-0.155714 7:0.999999 8:0.9774 
2 1:-0.6562 2:-0.200702 3:0.191818 4:0.13376 5:-0.306853 6:-0.374821 7:-0.972755 8:0.1892 
0.004569251091425563 1:-0.1112 2:0.0593513 3:0.645714 4:-0.20306 5:0.386294 6:-0.514196 7:0.923757 8:0.9326 
2 1:-0.8666 2:-1 3:0.263333 4:-0.70728 5:-0.450694 6:-0.262381 7:1 8:0.673 
2 1:-0.8038 2:0.144662 3:-0.570575 4:-0.44368 5:-0.0270449 6:0.0182653 7:-0.813973 8:0.2926 
2 1:-0.3438 2:0.0148408 3:0.322381 4:-0.371323 5:0.0397208 6:-0.578929 7:-0.423297 8:-0.5392 
2 1:-0.4782 2:0.2904 3:-0.62529 4:0.0756038 5:-0.0270449 6:-0.568878 7:0.564573 8:0.149 
1.545388166129724 1:-0.8278 2:0.0148408 3:-0.704 4:0.175742 5:0.0986123 6:-0.249921 7:0.5708 8:0.4894 
2 1:-0.617 2:0.329661 3:-0.905 4:-0.520878 5:0.198948 6:-0.392273 7:-0.877342 8:-0.4804 
0.3436977359349053 1:0.3846 2:-0.267592 3:0.351111 4:-0.094299 5:0.319529 6:-0.328316 7:1 8:-0.7624 
2 1:-0.2272 2:0.175454 3:-0.489899 4:-0.32051 5:-0.0270449 6:-0.551429 7:0.994979 8:0.5904 
2 1:-0.571 2:0.406503 3:-0.819608 4:-0.0527333 5:0.319529 6:-0.456276 7:-0.951249 8:-0.4974 
2 1:-0.6792 2:0.283383 3:-0.464493 4:-0.131893 5:0.242453 6:-0.45756 7:-0.951227 8:0.5638 
2 1:-0.9788 2:-0.633796 3:-0.161111 4:-0.38802 5:-0.306853 6:-0.335714 7:-0.924863 8:-0.9076 
2 1:-0.7298 2:-0.463521 3:-0.943333 4:-0.262949 5:-0.195281 6:-0.390714 7:0.202006 8:0.3132 
0.916890637809307 1:0.7142 2:-0.402747 3:0.434444 4:-0.154853 5:-0.10412 6:-0.0117857 7:1 8:-0.0422 
2 1:-0.2812 2:0.0451647 3:-0.79087 4:-0.513236 5:-0.10412 6:-0.607024 7:-0.995267 8:-0.7592 
2 1:-0.3592 2:0.531707 3:0.0724912 4:-0.777689 5:-0.10412 6:0.224643 7:0.622512 8:0.3346 
2 1:-0.881 2:0.0148408 3:-0.320794 4:-0.346023 5:0.282475 6:-0.551154 7:-0.572537 8:-0.4442 
0.7759861225694513 1:0.8224 2:0.821277 3:-0.0639199 4:-0.208137 5:0.522261 6:-0.247857 7:-0.871003 8:0.7378 
2 1:-0.3046 2:0.524904 3:0.291206 4:-0.2572 5:0.522261 6:-0.43966 7:0.99749 8:-0.6098 
2 1:-0.7 2:0.24589 3:-0.514841 4:-0.389949 5:0.198948 6:-0.434091 7:-0.923278 8:0.123 
2 1:-0.3002 2:0.632613 3:0.489141 4:-0.362747 5:0.0986123 6:-0.387063 7:0.976842 8:-0.7536 
1.097183427329934 1:-0.5438 2:0.391462 3:-0.885222 4:-0.438199 5:0.198948 6:0.014026 7:-0.938708 8:0.6648 
0.1974458952236708 1:0.8888 2:0.541658 3:-0.427933 4:-0.284314 5:0.319529 6:-0.316837 7:0.999987 8:-0.7124 
2 1:-0.2314 2:0.528322 3:-0.757957 4:-0.0171774 5:0.282475 6:-0.605659 7:-0.912622 8:0.673 
2 1:-0.6666 2:-0.633796 3:0.166667 4:-0.57801 5:0.0397208 6:-0.302321 7:0.752013 8:-0.4532 
2 1:-0.3334 2:0.221187 3:-0.536579 4:-0.0234433 5:0.0397208 6:-0.0260714 7:-0.93382 8:-0.5934 
1.293485340806199 1:0.5122 2:0.375711 3:-0.626935 4:-0.582527 5:0.0986123 6:-0.455159 7:-0.994071 8:-0.6236 
2 1:-0.4122 2:0.507263 3:-0.628938 4:0.546143 5:0.0397208 6:-0.445536 7:-0.964586 8:0.1862 
0.3142780789605447 1:-0.2492 2:0.625066 3:-0.547506 4:-0.213953 5:0.791759 6:-0.494643 7:-0.691055 8:0.6846 
2 1:-0.8888 2:-0.0365427 3:-0.809259 4:0.336057 5:0.0397208 6:-0.457143 7:-0.964553 8:-0.5862 
2 1:-0.1578 2:0.0593513 3:-0.917273 4:-0.518323 5:0.151293 6:-0.433214 7:-0.980388 8:-0.7718 
0.9750215208979512 1:0.5922 2:0.468906 3:-0.112593 4:-0.03596 5:-0.10412 6:-0.491548 7:-0.850778 8:0.0692 
0.8762482902908953 1:-0.5744 2:0.430153 3:-0.783379 4:-0.530261 5:0.151293 6:-0.2695 7:-0.979619 8:0.5754 
0.4132068744144227 1:0.4154 2:0.276214 3:-0.883488 4:-0.713173 5:-0.10412 6:-0.210119 7:-0.664282 8:-0.7218 
1.752237906706794 1:-0.0204 2:0.0593513 3:-0.88971 4:-0.110926 5:-0.0270449 6:-0.416224 7:-0.190215 8:0.3938 
0.07047878276281097 1:0.1322 2:0.639994 3:0.0249254 4:-0.0603111 5:0.354025 6:-0.296524 7:-0.042744 8:0.9754 
2 1:-0.3794 2:0.531707 3:-0.802847 4:-0.502613 5:0.151293 6:-0.373929 7:-0.969944 8:-0.642 
2 1:-0.1666 2:0.185116 3:0.470707 4:0.296385 5:-0.0270449 6:-0.625102 7:0.968988 8:0.7478 
2 1:0.2296 2:0.472947 3:-0.682807 4:-0.271509 5:0.242453 6:-0.389464 7:0.973644 8:-0.8554 
2 1:-0.375 2:-0.463521 3:-0.919333 4:-0.263937 5:0.198948 6:-0.415325 7:-0.990155 8:-0.6728 
2 1:-0.1304 2:-0.232472 3:-0.404 4:-0.277782 5:-0.10412 6:-0.543214 7:-0.409218 8:0 
2 1:0.1576 2:0.709966 3:0.0881437 4:-0.126309 5:0.472219 6:-0.398383 7:0.859672 8:-0.6388 
2 1:-0.9016 2:-0.633796 3:0.528889 4:-0.234101 5:-0.195281 6:-0.519143 7:1 8:-0.4398 
2 1:-0.7344 2:-0.0555956 3:-0.772083 4:-0.468505 5:0.354025 6:-0.365238 7:-0.973774 8:-0.7328 
2 1:-0.9224 2:-0.306853 3:-0.35619 4:-0.599627 5:0.0986123 6:-0.552063 7:0.447185 8:0.6346 
2 1:-0.5556 2:0.396552 3:-0.660707 4:-0.424577 5:0.0397208 6:-0.295446 7:-0.985131 8:-0.6452 
0.455458712580441 1:0.4102 2:0.797876 3:-0.115959 4:0.0801867 5:0.151293 6:-0.548214 7:-0.429809 8:0.7876 
0.6267385663748977 1:0.7368 2:0.165503 3:-0.506162 4:-0.188334 5:0.416607 6:-0.443025 7:-0.347616 8:-0.099 
2 1:-0.6516 2:0.375711 3:-0.641183 4:-0.117592 5:0.151293 6:-0.455071 7:-0.890645 8:0.2364 
2 1:-0.25 2:-0.633796 3:-0.941111 4:0.125736 5:0.242453 6:-0.50994 7:-0.916888 8:-0.6374 
0.007112485571470767 1:0.6364 2:-0.267592 3:-0.744444 4:0.116466 5:0.522261 6:-0.449626 7:-0.751093 8:0.8336 
2 1:-0.8318 2:0.110735 3:-0.642381 4:-0.718661 5:-0.195281 6:-0.424143 7:-0.974263 8:-0.8014 
2 1:-0.9406 2:-0.633796 3:0.162222 4:-0.437916 5:-0.0270449 6:-0.539592 7:1 8:-0.845 
2 1:-0.6666 2:-0.633796 3:0.187778 4:-0.602862 5:0.0986123 6:-0.22127 7:0.999767 8:-0.912 
2 1:-0.8796 2:-0.0365427 3:-0.699074 4:-0.287809 5:0.242453 6:-0.328571 7:-0.880059 8:0.8062 
2 1:-0.4594 2:-0.232472 3:-0.473704 4:-0.480147 5:0.151293 6:-0.0395 7:-0.74831 8:-0.2058 
2 1:0.344 2:0.476939 3:-0.280247 4:-0.126697 5:0.354025 6:-0.585952 7:-0.61166 8:-0.6528 
2 1:-0.9108 2:-0.0758038 3:0.251458 4:-0.421016 5:0.151293 6:-0.389143 7:0.994044 8:-0.5702 
0.5589272990373431 1:0.9706 2:0.401564 3:-0.755636 4:-0.489967 5:0.0986123 6:-0.0773016 7:-0.833307 8:0.8914 
2 1:-0.8286 2:-0.0973166 3:-0.620667 4:-0.68936 5:0.0986123 6:-0.310317 7:-0.242995 8:0.3598 
2 1:-0.1428 2:-0.633796 3:-0.321111 4:-0.398213 5:-0.10412 6:-0.415 7:-0.9674 8:-0.799 
0.7337479529784618 1:-0.0142 2:0.411369 3:-0.456919 4:-0.690507 5:-0.195281 6:-0.428857 7:-0.217232 8:0.58 
2 1:-0.0628 2:0.468906 3:0.578889 4:-0.270544 5:0.416607 6:-0.380588 7:1 8:-0.7088 
0.7323031996654723 1:0.75 2:-0.351363 3:0.231905 4:-0.342241 5:0.472219 6:-0.473008 7:0.331459 8:-0.7644 
2 1:-0.4772 2:0.276214 3:-0.18 4:-0.662944 5:-0.195281 6:-0.397286 7:0.0479984 8:-0.621 
2 1:-0.6666 2:-1 3:-0.406667 4:-0.746693 5:-0.195281 6:-0.290429 7:0.999998 8:-0.648 
2 1:-0.3694 2:0.185116 3:-0.890808 4:-0.26477 5:0.0397208 6:-0.543929 7:-0.868548 8:-0.9736 
1.825457597480246 1:-0.03 2:0.524904 3:-0.646816 4:-0.490657 5:0.0397208 6:0.0632143 7:-0.207588 8:-0.8984 
2 1:-0.6408 2:0.353481 3:-0.476078 4:-0.793471 5:-0.10412 6:-0.351667 7:-0.643204 8:-0.5386 
2 1:-0.9362 2:-0.633796 3:-0.296667 4:-0.748533 5:-0.306853 6:-0.495536 7:1 8:-0.7792 
2 1:-0.5138 2:0.185116 3:0.212255 4:-0.495675 5:0.198948 6:-0.286429 7:0.221691 8:-0.7652 
1.103941760667132 1:0.7858 2:0.0729586 3:-0.389649 4:-0.219339 5:-0.195281 6:-0.073 7:-0.0701944 8:0.99 
0.7176961926672266 1:0.946 2:0.425555 3:-0.970404 4:0.10036 5:-0.306853 6:-0.560179 7:1 8:0.871 
2 1:0.077 2:-0.351363 3:0.194762 4:0.0667638 5:0.319529 6:-0.272959 7:1 8:-0.6596 
2 1:-0.707 2:0.229626 3:-0.695175 4:-0.32358 5:0.386294 6:-0.370759 7:0.989606 8:-0.4722 
2 1:0.1264 2:0.297273 3:-0.0273333 4:0.09021 5:0.0397208 6:-0.456607 7:0.920818 8:0.5864 
2 1:0 2:-0.537902 3:-0.045 4:-0.0859911 5:-0.10412 6:-0.54619 7:0.994038 8:-0.9806 
2 1:-0.8862 2:-0.0185203 3:-0.650351 4:-0.433167 5:0.242453 6:-0.478036 7:-0.993134 8:-0.845 
2 1:-0.8526 2:0.0451647 3:-0.196667 4:-0.17713 5:0.319529 6:-0.532908 7:-0.801522 8:0.3682 
2 1:-0.9692 2:-1 3:-0.926667 4:-0.521333 5:-0.450694 6:0.012381 7:-0.999644 8:-0.7686 
2 1:-0.5234 2:0.370291 3:-0.851056 4:-0.0309638 5:-0.0270449 6:-0.468878 7:-0.962969 8:-0.73 
2 1:-0.1194 2:0.590228 3:0.697429 4:0.00231333 5:0.386294 6:-0.390893 7:0.901305 8:-0.83 
0.02795978916804623 1:0.6 2:-0.537902 3:0.709167 4:-0.31419 5:0.0986123 6:-0.317698 7:1 8:-0.9678 
1.83952260032938 1:-0.3334 2:-0.768951 3:-0.696667 4:-0.379518 5:0.282475 6:-0.212033 7:1 8:-0.8636 
0.2478290156526718 1:0.1428 2:-0.537902 3:0.0075 4:-0.84692 5:-0.306853 6:-0.0625 7:0.500881 8:-0.3614 
2 1:-0.7354 2:0.304008 3:-0.822348 4:-0.04637 5:0.0397208 6:-0.605893 7:-0.948842 8:-0.0974 
0.3854729452619509 1:0.9434 2:0.82688 3:-0.921786 4:0.179914 5:0.0986123 6:-0.181825 7:0.95866 8:0.7916 
0.006632967616657011 1:0.7142 2:0.24589 3:-0.297642 4:-0.638851 5:0.242453 6:-0.245238 7:-0.911047 8:0.1094 
0.2712821006802793 1:0.9036 2:0.822687 3:0.666667 4:-0.0521586 5:0.472219 6:-0.337556 7:0.999971 8:0.8748 
2 1:0 2:-0.402747 3:-0.0777778 4:-0.165269 5:-0.0270449 6:-0.358265 7:0.351604 8:-0.5718 
2 1:-0.9546 2:-0.537902 3:0.065 4:-0.209867 5:-0.195281 6:-0.0418571 7:0.520432 8:0.411 
2 1:-0.6836 2:0.0729586 3:-0.901594 4:-0.38057 5:0.198948 6:-0.432078 7:-0.925 8:-0.586 
2 1:-0.3632 2:0.347684 3:-0.390727 4:-0.331469 5:0.151293 6:-0.384 7:-0.443043 8:-0.8092 
2 1:-0.6666 2:-1 3:-0.443333 4:-0.651567 5:-0.306853 6:-0.375893 7:0.999998 8:-0.0476 
2 1:-0.7058 2:-0.463521 3:-0.887333 4:-0.237315 5:0.151293 6:-0.530071 7:1 8:0.8026 
2 1:-0.5724 2:0.375711 3:-0.886022 4:-0.331757 5:0.0986123 6:-0.0278571 7:-0.995392 8:-0.5734 
0.0543629485343889 1:0.1708 2:0.0593513 3:0.209242 4:-0.353653 5:0.242453 6:-0.0557143 7:0.828306 8:0.9216 
2 1:-0.1666 2:-0.463521 3:-0.491333 4:-0.40725 5:0.0986123 6:-0.185794 7:-0.0768456 8:-0.7532 
2 1:-0.3526 2:0.499937 3:-0.541311 4:-0.424327 5:0.198948 6:-0.126753 7:-0.882131 8:-0.7162 
2 1:-0.3776 2:0.496212 3:-0.748485 4:-0.379967 5:0.0397208 6:-0.539196 7:-0.969413 8:-0.492 
2 1:-0.3664 2:0.155245 3:0.0982796 4:-0.398397 5:0.445186 6:-0.349881 7:0.580962 8:-0.719 
0.0761634605131698 1:0.5902 2:0.805367 3:-0.353786 4:-0.627331 5:0.151293 6:-0.3185 7:-0.337677 8:0.7958 
2 1:-0.1622 2:0.144662 3:-0.668452 4:-0.301314 5:-0.0270449 6:-0.581939 7:-0.918071 8:-0.593 
0.4255354962493614 1:0.8788 2:0.144662 3:-0.758267 4:-0.322593 5:0.242453 6:-0.20994 7:0.45819 8:0.848 
2 1:-0.4908 2:0.335778 3:-0.566182 4:-0.894093 5:-0.306853 6:0.2725 7:-0.92237 8:-0.8048 
2 1:-0.7968 2:0.203639 3:-0.536762 4:-0.642953 5:-0.306853 6:-0.262857 7:-0.191423 8:0.0108 
2 1:-0.9114 2:-0.0758038 3:0.192917 4:-0.387085 5:0.151293 6:-0.399 7:0.998783 8:-0.7602 
0.2748118135701942 1:0.785 2:0.472947 3:-0.0806911 4:-0.344503 5:0.0397208 6:-0.505625 7:-0.852576 8:0.8148 
0.6614520171566184 1:-0.3742 2:0.55761 3:-0.732952 4:-0.505502 5:-0.10412 6:-0.456667 7:-0.966683 8:-0.0668 
0.5512355153890066 1:0.612 2:0.329661 3:-0.123827 4:-0.09743 5:0.0397208 6:0.233214 7:0.337146 8:0.568 
2 1:-0.9394 2:-0.633796 3:0.458889 4:-0.19436 5:0.0397208 6:-0.544643 7:1 8:-0.6954 
2 1:-0.7 2:-0.633796 3:-0.0233333 4:-0.188027 5:-0.450694 6:-0.526905 7:0.997366 8:0.661 
2 1:0.2066 2:0.430153 3:-0.13404 4:-0.603168 5:-0.195281 6:-0.043 7:-0.877981 8:-0.6618 
2 1:-0.3888 2:0.335778 3:-0.557531 4:-0.404818 5:-0.10412 6:-0.0527381 7:-0.962753 8:-0.7264 
2 1:-0.8276 2:-0.463521 3:-0.587333 4:-0.36573 5:-0.0270449 6:-0.420714 7:-0.570685 8:-0.1486 
1.734025351071791 1:-0.0618 2:0.443578 3:0.039589 4:-0.127634 5:-0.0270449 6:-0.521327 7:0.144052 8:0.7134 
2 1:-0.9106 2:-0.145017 3:-0.17 4:-0.411713 5:0.0986123 6:-0.563413 7:0.790475 8:0.1074 
2 1:-0.1344 2:0.353481 3:-0.362467 4:-0.190837 5:0.151293 6:-0.509286 7:-0.173279 8:-0.5532 
2 1:-0.796 2:-0.463521 3:0.364 4:-0.509731 5:0.198948 6:-0.363571 7:-0.669882 8:-0.7418 
1.782269407644915 1:0.8164 2:0.496212 3:-0.219333 4:0.0843867 5:-0.10412 6:-0.510357 7:-0.740071 8:-0.5286 
0.9861836665427056 1:0.3334 2:-0.306853 3:-0.649167 4:-0.625163 5:-0.195281 6:0.542571 7:-0.972393 8:-0.8974 
0.5538033642148966 1:0.2142 2:0.310609 3:-0.691773 4:-0.556693 5:-0.0270449 6:-0.0909184 7:-0.861286 8:-0.7878 
2 1:0.8806 2:0.612094 3:0.471452 4:-0.0147733 5:0.354025 6:-0.299333 7:0.999985 8:-0.7304 
2 1:-0.5728 2:0.0303475 3:-0.4665 4:-0.462975 5:-0.0270449 6:-0.418265 7:-0.770173 8:-0.151 
2 1:-0.5282 2:0.420893 3:-0.607136 4:-0.342333 5:0.242453 6:-0.566905 7:-0.97868 8:-0.8126 
2 1:-0.4774 2:0.528322 3:-0.194688 4:0.477447 5:0.0397208 6:-0.387411 7:0.99842 8:-0.8006 
2 1:-0.5348 2:-0.232472 3:-0.0544444 4:-0.610301 5:-0.0270449 6:-0.171735 7:0.608848 8:-0.6268 
2 1:-0.8596 2:-0.00142258 3:-0.482333 4:-0.217465 5:0.319529 6:-0.417857 7:-0.698419 8:-0.3092 
2 1:-0.8182 2:-0.633796 3:0.416667 4:-0.270644 5:-0.0270449 6:-0.295102 7:0.601107 8:-0.7714 
2 1:-0.3406 2:0.133732 3:0.400741 4:-0.27437 5:0.354025 6:-0.41719 7:0.854794 8:0.359 
0.4974224985188207 1:-0.7482 2:0.175454 3:-0.644706 4:0.405775 5:-0.0270449 6:-0.536735 7:-0.245779 8:0.7228 
2 1:-0.923 2:-1 3:-0.366667 4:-0.23508 5:-0.653426 6:-0.438929 7:-0.972226 8:-0.6272 
2 1:-0.0462 2:0.144662 3:-0.856882 4:-0.282888 5:-0.0270449 6:-0.54949 7:0.936476 8:-0.7322 
0.3510124410604099 1:0.6072 2:0.499937 3:0.318829 4:-0.381748 5:0.282475 6:-0.442692 7:0.999849 8:-0.8144 
1.938685850700708 1:0.1538 2:0.439163 3:0.135286 4:-0.358473 5:0.198948 6:-0.467792 7:-0.618421 8:0.109 
0.0329368205424277 1:0.3334 2:-0.537902 3:0.655833 4:-0.594676 5:0.522261 6:-0.316531 7:1 8:-0.6178 
2 1:-0.9848 2:-1 3:-0.476667 4:0.107344 5:-0.195281 6:-0.539429 7:-0.884328 8:-0.8724 
2 1:-0.6 2:-1 3:-0.296667 4:-0.115639 5:0.0986123 6:-0.541111 7:1 8:-0.7422 
2 1:-0.3334 2:-0.633796 3:-0.978889 4:-0.17327 5:0.282475 6:-0.509341 7:-0.701432 8:-0.6412 
0.4152673148658403 1:0.594 2:0.791759 3:0.276991 4:0.344885 5:0.354025 6:-0.58119 7:-0.61486 8:0.7212 
0.2488231014683951 1:-0.2104 2:0.55761 3:-0.810597 4:-0.720763 5:0.151293 6:-0.0995714 7:-0.959532 8:-0.6116 
2 1:-0.7976 2:-0.0555956 3:-0.612157 4:-0.689131 5:-0.0270449 6:-0.458673 7:-0.226365 8:-0.4964 
2 1:-0.8298 2:-0.537902 3:-0.645 4:-0.231585 5:-0.0270449 6:0.0184694 7:-0.997374 8:-0.7898 
1.248280574722212 1:-0.3334 2:-1 3:0.51 4:-0.484541 5:0.198948 6:-0.311364 7:1 8:0.6004 
0.2820280976049666 1:0.3514 2:0.0729586 3:-0.769067 4:-0.409382 5:0.386294 6:-0.190268 7:-0.483393 8:0.6732 
2 1:-0.697 2:-0.463521 3:-0.978 4:-0.451901 5:0.151293 6:-0.561 7:-0.94259 8:-0.7466 
2 1:0.1538 2:0.670212 3:-0.348829 4:0.0859562 5:0.319529 6:-0.383367 7:-0.985085 8:-0.738 
2 1:-0.8508 2:-0.463521 3:-0.832 4:0.236258 5:-0.450694 6:-0.28 7:1 8:-0.5972 
0.8133520380147701 1:-0.8168 2:0.0593513 3:-0.115 4:-0.197445 5:0.151293 6:-0.236786 7:0.00223508 8:0.9238 
1.039473502506453 1:0.2728 2:-0.351363 3:0.281905 4:-0.72829 5:-0.0270449 6:-0.0320408 7:-0.949163 8:-0.7152 
2 1:-0.6438 2:0.347684 3:-0.521012 4:-0.727899 5:-0.195281 6:-0.176714 7:-0.948124 8:0.398 
2 1:-0.7152 2:0.253733 3:-0.647984 4:-0.44805 5:0.0986123 6:-0.416587 7:-0.73681 8:-0.6262 
2 1:-0.811 2:0.122432 3:-0.545747 4:-0.753656 5:0.151293 6:-0.106357 7:-0.979173 8:-0.8626 
2 1:-0.6392 2:0.347684 3:-0.103743 4:-0.627038 5:0.198948 6:-0.343247 7:-0.791991 8:-0.8804 
2 1:-0.7116 2:-0.0973166 3:0.372667 4:-0.319047 5:0.198948 6:-0.397273 7:0.999122 8:0.1996 
2 1:-0.519 2:0.381045 3:-0.323011 4:-0.155951 5:0.416607 6:-0.373151 7:-0.939214 8:-0.938 
2 1:-0.3794 2:0.194506 3:-0.882593 4:-0.59328 5:0.0397208 6:-0.439286 7:-0.879135 8:-0.8614 
2 1:-0.595 2:0.297273 3:-0.510408 4:-0.283678 5:0.198948 6:-0.268701 7:-0.820587 8:-0.213 
0.4794067021950036 1:0.0598 2:0.651942 3:0.205579 4:0.276965 5:0.354025 6:-0.471238 7:-0.915918 8:-0.6202 
1.041393959838472 1:0.5384 2:0.229626 3:-0.632 4:0.446579 5:-0.0270449 6:-0.58949 7:-0.482992 8:0.7276 
2 1:0.3334 2:0.133732 3:-0.242644 4:-0.590663 5:0.354025 6:-0.299238 7:0.477731 8:-0.9374 
2 1:-0.131 2:0.430153 3:-0.916941 4:-0.0614456 5:0.472219 6:-0.565714 7:-0.972149 8:-0.476 
0.7829658865198889 1:0.5302 2:0.790213 3:-0.153507 4:-0.129816 5:0.198948 6:-0.553896 7:-0.284836 8:0.7578 
2 1:-0.923 2:-0.402747 3:-0.314444 4:0.0181307 5:0.151293 6:-0.438286 7:0.351744 8:0.6728 
2 1:0.258 2:0.221187 3:-0.916667 4:-0.0597552 5:0.198948 6:-0.469351 7:-0.975647 8:-0.6792 
1.240340769336771 1:-0.1568 2:0.575796 3:0.768909 4:0.16999 5:0.386294 6:-0.396518 7:0.929491 8:-0.8644 
0.06857831261214653 1:-0.21 2:0.649587 3:0.317658 4:-0.295273 5:0.242453 6:-0.431786 7:0.998648 8:-0.6026 
2 1:-0.5576 2:0.0451647 3:-0.394638 4:-0.152427 5:0.319529 6:-0.42051 7:0.58639 8:-0.2548 
2 1:-0.5 2:-0.537902 3:0.386667 4:-0.552409 5:-0.450694 6:-0.341429 7:1 8:0.6976 
2 1:-0.7438 2:0.237857 3:-0.904667 4:-0.104299 5:-0.195281 6:-0.416 7:-0.826948 8:-0.6654 
0.3845536369135613 1:-0.6888 2:-0.351363 3:-0.470476 4:-0.409109 5:0.242453 6:-0.452083 7:-0.698045 8:0.673 
2 1:-0.5394 2:0.237857 3:-0.574634 4:-0.463669 5:0.319529 6:-0.0836735 7:-0.954515 8:-0.696 
2 1:-0.6154 2:-0.232472 3:-0.390667 4:-0.308552 5:0.151293 6:-0.526929 7:0.995943 8:0.6732 
2 1:-0.5112 2:-0.200702 3:0.343939 4:-0.481268 5:0.282475 6:-0.453022 7:0.559233 8:-0.278 
0.5802288015932692 1:0.3454 2:0.203639 3:0.622252 4:-0.390663 5:-0.0270449 6:-0.148163 7:0.946011 8:-0.9142 
2 1:-0.1428 2:-0.267592 3:-0.238519 4:-0.423613 5:-0.10412 6:-0.5875 7:0.811944 8:0.674 
0.04448744762767733 1:0.3334 2:0.133732 3:-0.288851 4:-0.452482 5:0.319529 6:-0.319286 7:0.483078 8:0.2268 
2 1:-0.4616 2:-0.351363 3:-0.0304762 4:-0.405393 5:0.242453 6:-0.401488 7:-0.0544674 8:-0.6486 
1.0942862437123 1:-0.3828 2:0.329661 3:-0.17732 4:-0.274857 5:0.0397208 6:-0.4375 7:0.739359 8:0.6338 
2 1:-0.6484 2:-0.0758038 3:-0.864375 4:-0.171662 5:0.354025 6:-0.604333 7:-0.996808 8:0.7324 
2 1:-0.75 2:-1 3:0.286667 4:0.0112457 5:-0.0270449 6:-0.43102 7:1 8:0.673 
2 1:-0.702 2:0.144662 3:-0.442688 4:-0.539147 5:-0.450694 6:0.01 7:-0.932803 8:-0.409 
2 1:-0.6514 2:0.323431 3:-0.288824 4:-0.648833 5:-0.306853 6:-0.120536 7:-0.937359 8:-0.3684 
2 1:0.2258 2:-0.0185203 3:-0.304386 4:-0.330428 5:0.354025 6:-0.411619 7:-0.122362 8:-0.7294 
2 1:-0.6326 2:0.0986123 3:-0.414938 4:-0.621787 5:-0.195281 6:0.43 7:-0.921395 8:-0.7242 
0.4853250299349453 1:0.0244 2:0.55132 3:-0.873942 4:-0.171739 5:0.445186 6:-0.581111 7:-0.97745 8:-0.286 
2 1:-0.5574 2:0.0986123 3:0.390513 4:-0.54192 5:-0.306853 6:-0.336964 7:-0.394712 8:-0.4864 
2 1:-0.5428 2:0.229626 3:-0.413772 4:-0.791707 5:-0.195281 6:0.225143 7:-0.890462 8:-0.7442 
0.8346902603660021 1:0.25 2:-0.00142258 3:0.097 4:-0.215259 5:0.319529 6:-0.312653 7:-0.168266 8:-0.879 
2 1:0.3334 2:-0.402747 3:0.436667 4:-0.0372933 5:-0.10412 6:-0.158929 7:0.791326 8:-0.7932 
0.3946282433203811 1:0.826 2:0.24589 3:-0.438699 4:-0.612647 5:0.386294 6:-0.253929 7:-0.911437 8:0.6388 
2 1:-0.8826 2:-0.00142258 3:-0.565556 4:-0.0271886 5:0.319529 6:-0.48801 7:-0.298364 8:-0.5554 
2 1:0.423 2:0.203639 3:0.111071 4:-0.55185 5:0.0397208 6:-0.319732 7:-0.934996 8:-0.6754 
2 1:0.2272 2:0.0986123 3:-0.235507 4:-0.362742 5:0.242453 6:-0.56006 7:-0.349457 8:-0.3926 
2 1:-0.9286 2:-1 3:-0.0966667 4:0.0166333 5:0.0397208 6:-0.495536 7:0.99993 8:0.5038 
2 1:-0.2206 2:0.443578 3:-0.594292 4:-0.417749 5:0.151293 6:-0.378143 7:-0.677509 8:-0.732 
2 1:-0.326 2:0.375711 3:-0.74306 4:-0.296794 5:0.0986123 6:-0.454762 7:-0.752574 8:-0.5392 
2 1:-0.9686 2:-0.633796 3:0.561111 4:-0.236513 5:0.0397208 6:-0.402143 7:1 8:-0.7186 
2 1:-0.6024 2:0.411369 3:-0.141095 4:-0.0716457 5:-0.0270449 6:-0.172143 7:0.119143 8:-0.6202 
2 1:-0.3476 2:0.55761 3:-0.543899 4:-0.158779 5:0.319529 6:-0.597092 7:-0.544754 8:-0.819 
2 1:-0.844 2:0.0303475 3:-0.914127 4:-0.701339 5:0.151293 6:-0.3645 7:-0.969344 8:-0.781 
2 1:-0.9032 2:-0.633796 3:0.282222 4:-0.325856 5:0.354025 6:-0.287048 7:0.586755 8:0.4164 
0.07833664331907723 1:0.9102 2:0.711933 3:-0.721463 4:0.00354222 5:0.445186 6:-0.580833 7:0.233034 8:0.7664 
2 1:0.149 2:0.56071 3:-0.212749 4:-0.439965 5:0.386294 6:-0.25067 7:0.999927 8:-0.7064 
2 1:-0.6846 2:0.237857 3:-0.442927 4:-0.525491 5:0.282475 6:-0.23 7:0.911887 8:-0.7622 
2 1:0.2252 2:0.406503 3:0.463179 4:-0.268379 5:0.0986123 6:-0.378095 7:0.999468 8:-0.807 
0.4364120508386453 1:-0.0506 2:0.439163 3:-0.0796804 4:0.0414178 5:-0.10412 6:-0.547738 7:0.113942 8:-0.595 
2 1:0.1242 2:0.697917 3:-0.535679 4:-0.0012 5:0.242453 6:-0.38756 7:-0.931623 8:-0.7646 
2 1:-0.3878 2:0.499937 3:-0.240303 4:-0.291711 5:0.242453 6:-0.477738 7:-0.962472 8:-0.7068 
2 1:-0.4512 2:0.359179 3:-0.592069 4:-0.815037 5:0.0397208 6:-0.104375 7:-0.926441 8:-0.6608 
2 1:0.2978 2:0.480884 3:-0.282236 4:-0.19194 5:0.354025 6:-0.603048 7:-0.621713 8:-0.7788 
2 1:-0.579 2:-0.537902 3:0.188333 4:-0.547035 5:0.198948 6:-0.288442 7:0.500048 8:-0.6276 
0.1103323420617214 1:0.0878 2:0.681142 3:-0.898401 4:-0.291169 5:0.282475 6:-0.435495 7:0.987726 8:0.6868 
2 1:-0.8444 2:0.0986123 3:-0.657407 4:-0.839675 5:-0.195281 6:0.0814286 7:-0.899954 8:-0.7326 
2 1:-0.9344 2:-0.768951 3:0.243333 4:-0.0853219 5:-0.0270449 6:-0.59551 7:1 8:-0.053 
1.672843109842508 1:0.4088 2:0.75423 3:0.0557527 4:0.0864571 5:-0.0270449 6:-0.576224 7:0.393134 8:0.6896 
2 1:-0.9572 2:-0.633796 3:0.0566667 4:0.537765 5:-0.195281 6:-0.528286 7:-0.910456 8:-0.6656 
2 1:-0.1428 2:-0.633796 3:-0.311111 4:-0.408862 5:-0.10412 6:-0.415 7:-0.952966 8:-0.8086 
0.8238883911961251 1:-0.0602 2:0.699955 3:-0.529053 4:0.0890895 5:0.319529 6:-0.48102 7:-0.942409 8:0.969 
2 1:0.8542 2:0.496212 3:-0.285119 4:-0.15412 5:0.0397208 6:-0.535982 7:-0.760802 8:-0.7854 
2 1:-0.6162 2:-0.0185203 3:0.532105 4:-0.30015 5:0.282475 6:-0.51044 7:1 8:-0.5472 
2 1:-0.1112 2:0.2904 3:-0.767986 4:0.0105387 5:0.354025 6:-0.397429 7:-0.852184 8:-0.6558 
2 1:-0.6364 2:-0.768951 3:0.568333 4:-0.788 5:-0.10412 6:-0.209405 7:1 8:0.813 
2 1:-0.7236 2:0.24589 3:-0.326504 4:-0.47374 5:0.0397208 6:-0.113214 7:-0.876324 8:-0.0596 
2 1:-0.9872 2:-0.768951 3:-0.226667 4:-0.528514 5:-0.0270449 6:-0.633571 7:-0.995088 8:-0.2234 
0.5317907431852194 1:0.8948 2:-0.0365427 3:0.041875 4:-0.142002 5:0.282475 6:-0.316429 7:0.999999 8:0.8252 
2 1:-0.7122 2:0.237857 3:-0.494333 4:-0.495162 5:-0.0270449 6:-0.240204 7:-0.899405 8:-0.5518 
2 1:-0.4622 2:0.521449 3:0.498121 4:-0.586904 5:0.242453 6:-0.290119 7:0.760093 8:-0.6738 
2 1:-0.3572 2:-0.267592 3:-0.157037 4:0.265307 5:-0.450694 6:-0.526905 7:0.863066 8:0.4082 
2 1:-0.2326 2:0.165503 3:0.214747 4:0.55776 5:-0.10412 6:-0.604762 7:0.99335 8:0.4572 
0.7747314614715665 1:0.394 2:0.0451647 3:-0.259275 4:-0.273958 5:0.386294 6:-0.287366 7:-0.791217 8:-0.5342 
2 1:-0.6364 2:-0.232472 3:0.160667 4:-0.402382 5:0.0986123 6:-0.522857 7:0.995943 8:0.6588 
0.2885360985343118 1:-0.1052 2:0.703996 3:0.671363 4:-0.27827 5:0.666102 6:-0.531658 7:0.999125 8:0.7684 
2 1:-0.5882 2:0.416165 3:-0.478952 4:-0.357124 5:-0.10412 6:-0.0467857 7:-0.948332 8:-0.7338 
1.410902913820622 1:-0.3334 2:-1 3:0.476667 4:-0.588708 5:0.198948 6:-0.357857 7:1 8:-0.6968 
2 1:-0.4016 2:0.456483 3:0.0312821 4:-0.260228 5:0.354025 6:-0.406619 7:-0.939162 8:-0.837 
2 1:-0.6256 2:0.237857 3:-0.273333 4:-0.380673 5:0.282475 6:-0.279396 7:0.92656 8:-0.7254 
2 1:-0.3636 2:-0.351363 3:-0.720476 4:-0.721375 5:-0.0270449 6:-0.0596939 7:-0.709581 8:-0.2678 
2 1:-0.514 2:0.370291 3:-0.585085 4:-0.432883 5:0.151293 6:-0.385429 7:-0.983059 8:-0.66 
2 1:-0.85 2:0.0593513 3:-0.305417 4:-0.611824 5:0.151293 6:-0.618 7:-0.800659 8:-0.5316 
2 1:-0.3692 2:0.237857 3:-0.179412 4:-0.714902 5:-0.10412 6:-0.494881 7:-0.144127 8:-0.774 
0.06587206345856007 1:0.026 2:0.762756 3:-0.625337 4:0.466627 5:0.386294 6:-0.482946 7:-0.195021 8:0.683 
2 1:-0.387 2:-0.0185203 3:-0.614561 4:-0.557188 5:0.198948 6:-0.338766 7:-0.507573 8:-0.8686 
1.279611930125308 1:0.6538 2:0.253733 3:-0.383178 4:0.419547 5:0.0397208 6:-0.591518 7:-0.245698 8:0.7128 
2 1:-0.7142 2:-0.633796 3:0.756667 4:-0.450379 5:-0.195281 6:-0.272571 7:1 8:-0.247 
2 1:-0.8246 2:-0.463521 3:-0.591333 4:-0.42357 5:0.0397208 6:-0.306875 7:-0.570983 8:-0.4988 
2 1:-0.8064 2:0.194506 3:-0.345588 4:-0.314392 5:0.151293 6:-0.635714 7:-0.16433 8:-0.5114 
2 1:-0.4286 2:-0.0365427 3:-0.75098 4:-0.264086 5:0.282475 6:-0.480385 7:-0.678734 8:-0.6432 
2 1:-0.6666 2:0.381045 3:0.398563 4:-0.45621 5:-0.0270449 6:-0.42602 7:0.642486 8:-0.507 
1.827492050934386 1:-0.3096 2:0.122432 3:0.39642 4:-0.208775 5:0.416607 6:-0.560378 7:0.647679 8:0.7168 
2 1:-0.4666 2:-0.537902 3:-0.296667 4:-0.102623 5:0.0397208 6:-0.263214 7:-0.994512 8:-0.8314 
0.8682256849468145 1:-0.5198 2:0.50362 3:-0.909015 4:-0.193127 5:0.242453 6:-0.326845 7:-0.504836 8:0.0354 
2 1:-0.8406 2:-0.00142258 3:0.4635 4:-0.174945 5:-0.0270449 6:-0.216327 7:0.891786 8:-0.6706 
0.6740564915222458 1:0.1808 2:0.569843 3:-0.223053 4:0.228392 5:-0.0270449 6:-0.560306 7:-0.0296805 8:-0.8348 
1.421082094054111 1:-0.2632 2:-0.351363 3:-0.345238 4:-0.101747 5:-0.10412 6:-0.573571 7:0.367048 8:0.6728 
2 1:0.2234 2:0.381045 3:-0.0982222 4:-0.764789 5:-0.0270449 6:-0.315 7:-0.895197 8:-0.189 
2 1:-0.727 2:0.203639 3:-0.423694 4:0.0426347 5:-0.195281 6:-0.476857 7:-0.999171 8:-0.558 
0.05054602030634678 1:0.7142 2:0.24589 3:-0.315772 4:-0.25707 5:0.386294 6:-0.190357 7:-0.911047 8:0.1094 
2 1:-0.6 2:-1 3:-0.293333 4:-0.0177333 5:0.0397208 6:-0.555714 7:1 8:-0.7422 
2 1:-0.2596 2:0.447935 3:-0.342325 4:0.139724 5:0.319529 6:-0.427449 7:0.76849 8:-0.6814 
2 1:0.0584 2:0.658911 3:0.175394 4:-0.0659263 5:0.416607 6:-0.44605 7:0.992699 8:-0.6348 
2 1:-0.377 2:-0.0185203 3:-0.747895 4:-0.557676 5:-0.10412 6:-0.0777381 7:0.999995 8:-0.7084 
2 1:-0.3246 2:0.54491 3:-0.372945 4:-0.263997 5:0.0397208 6:-0.566696 7:-0.794933 8:-0.6008 
0.1055198498396142 1:-0.3226 2:0.614729 3:0.101291 4:0.149352 5:0.151293 6:-0.449571 7:0.970147 8:0.4488 
0.7493975773554469 1:0.251 2:0.705998 3:0.101759 4:0.0824533 5:0.319529 6:-0.442653 7:0.83712 8:-0.6806 
1.827026320288689 1:0.2452 2:0.165503 3:-0.852929 4:-0.145347 5:0.242453 6:-0.510595 7:-0.959427 8:0.6378 
2 1:-0.1506 2:0.375711 3:-0.62 4:-0.323832 5:0.319529 6:-0.462143 7:-0.773172 8:-0.7974 
1.006016061754287 1:0 2:-0.0365427 3:0.0631373 4:-0.265875 5:0.151293 6:-0.537857 7:-0.221372 8:0.2792 
2 1:-0.6348 2:0.401564 3:-0.810859 4:-0.464939 5:0.319529 6:-0.56801 7:-0.883581 8:-0.7994 
2 1:-0.3388 2:0.593041 3:-0.959524 4:-0.292932 5:0.386294 6:-0.293482 7:-0.991956 8:0.2832 
2 1:-0.1516 2:0.110735 3:-0.530385 4:0.0760167 5:0.0397208 6:-0.3575 7:-0.789248 8:-0.4836 
2 1:-0.8236 2:0.0148408 3:-0.506984 4:-0.7072 5:-0.10412 6:-0.160714 7:-0.994346 8:0.6732 
2 1:-0.3334 2:-0.768951 3:-0.346667 4:-0.199659 5:-0.195281 6:-0.213571 7:-0.994566 8:-0.7628 
2 1:-0.2164 2:0.401564 3:-0.755323 4:-0.222799 5:0.545521 6:-0.529221 7:-0.967996 8:-0.523 
0.1506463306648318 1:0.0476 2:0.0303475 3:-0.0559091 4:-0.55716 5:0.0397208 6:-0.6075 7:-0.0304745 8:-0.3448 
2 1:0 2:-0.537902 3:-0.298333 4:-0.353838 5:0.282475 6:-0.527692 7:0.988515 8:-0.6316 
0.9216241287605699 1:0.6704 2:0.443578 3:0.272899 4:-0.621493 5:0.0986123 6:-0.225635 7:0.479915 8:-0.963 
2 1:-0.5 2:-1 3:0.0366667 4:-0.373357 5:0.0986123 6:-0.44119 7:-0.971786 8:-0.7624 
2 1:0.0496 2:0.689635 3:-0.330021 4:-0.691313 5:-0.306853 6:-0.531429 7:-0.953026 8:0.318 
2 1:-0.443 2:0.472947 3:-0.465679 4:-0.580368 5:-0.195281 6:-0.310571 7:-0.968777 8:-0.7036 
1.60269162074362 1:-0.5028 2:0.496212 3:-0.765402 4:-0.715073 5:-0.306853 6:-0.157143 7:-0.977178 8:0.019 
2 1:-0.9916 2:-1 3:0.643333 4:-0.674813 5:-0.653426 6:-0.660357 7:0.999998 8:-0.8468 
2 1:-0.8368 2:-0.537902 3:0.348333 4:-0.492178 5:-0.10412 6:-0.355 7:1 8:-0.761 
2 1:-0.497 2:0.480884 3:-0.758675 4:-0.780687 5:-0.306853 6:-0.13125 7:-0.976681 8:0.6354 
2 1:-0.8918 2:-0.768951 3:-0.41 4:-0.345653 5:-0.10412 6:-0.405595 7:0.046717 8:-0.7456 
0.5717680606741657 1:-0.3914 2:0.528322 3:0.0999298 4:-0.726592 5:-0.195281 6:0.0575714 7:0.622944 8:0.3726 
2 1:-0.5598 2:0.359179 3:-0.632599 4:-0.523462 5:0.242453 6:-0.232381 7:-0.908279 8:-0.5362 
2 1:-0.5742 2:0.323431 3:-0.3325 4:-0.0522917 5:0.386294 6:-0.295312 7:0.775675 8:-0.7554 
2 1:-0.9216 2:-0.537902 3:0.395833 4:-0.477587 5:-0.653426 6:-0.751429 7:0.000641 8:-0.9066 
1.732632565672108 1:-0.5882 2:-0.351363 3:-0.409048 4:-0.401155 5:0.282475 6:-0.39511 7:0.538082 8:0.1458 
2 1:-0.6724 2:0.2904 3:-0.256099 4:-0.3238 5:0.151293 6:-0.656714 7:-0.827225 8:-0.751 
1.694863242689816 1:-0.5814 2:0.425555 3:-0.394413 4:-0.123408 5:0.354025 6:-0.574238 7:-0.901971 8:-0.2418 
1.146093296081716 1:0.116 2:0.777573 3:-0.723383 4:0.27303 5:0.445186 6:-0.592341 7:-0.638 8:0.5108 
0.3256610538109819 1:0 2:-0.768951 3:0.258333 4:-0.271456 5:0.151293 6:-0.501643 7:0.99993 8:0.5038 
2 1:-0.5918 2:-0.00142258 3:-0.673667 4:-0.297611 5:0.319529 6:-0.308878 7:-0.780921 8:0.1134 
2 1:0.0476 2:-0.200702 3:0.0478788 4:-0.12928 5:0.416607 6:-0.51395 7:0.729468 8:-0.6156 
2 1:-0.6264 2:-0.0555956 3:-0.0724444 4:0.221907 5:-0.306853 6:-0.514464 7:0.0673576 8:-0.614 
1.673415930576848 1:-0.6752 2:-0.0185203 3:-0.330702 4:-0.355725 5:0.151293 6:-0.633357 7:-0.250275 8:0.9396 
2 1:-0.7142 2:-1 3:-0.66 4:-0.183849 5:-0.450694 6:0.535952 7:0.999994 8:0.673 
2 1:0.3334 2:-0.537902 3:-0.8375 4:-0.766107 5:-0.450694 6:0.155952 7:-0.98924 8:-0.9308 
2 1:-0.6048 2:0.391462 3:-0.671094 4:-0.624391 5:-0.10412 6:-0.288452 7:-0.956501 8:-0.5996 
2 1:0.6078 2:0.468906 3:0.563169 4:0.0667517 5:0.386294 6:-0.302321 7:0.736536 8:-0.9146 
2 1:0.3948 2:0.747249 3:-0.191165 4:-0.00212296 5:0.445186 6:-0.468452 7:0.977897 8:-0.7388 
1.743764353348636 1:0.2238 2:0.237857 3:-0.402018 4:-0.658322 5:0.319529 6:-0.407908 7:-0.664104 8:0.2244 
1.361862726086623 1:0.4444 2:0.779179 3:-0.838416 4:-0.08068 5:0.629048 6:-0.432802 7:0.898359 8:-0.388 
2 1:0.081 2:-0.00142258 3:-0.669474 4:-0.222975 5:0.319529 6:-0.233673 7:-0.640177 8:-0.7512 
2 1:-0.5784 2:0.283383 3:-0.799787 4:-0.150798 5:0.282475 6:-0.593846 7:-0.956841 8:0.0474 
2 1:-0.9754 2:-0.768951 3:0.13 4:-0.397707 5:0.0397208 6:-0.487946 7:1 8:-0.889 
2 1:-0.8358 2:-0.0758038 3:-0.663111 4:-0.332871 5:-0.10412 6:-0.415833 7:-0.598294 8:0.4984 
2 1:-0.2904 2:-0.200702 3:-0.396364 4:-0.387618 5:0.242453 6:-0.363214 7:-0.420262 8:-0.752 
2 1:-0.8416 2:-0.306853 3:0.521905 4:0.0852296 5:0.0986123 6:-0.508651 7:1 8:-0.2956 
0.1561316492286115 1:0.6394 2:0.304008 3:0.181267 4:-0.20898 5:0.497866 6:-0.322929 7:-0.832558 8:0.6668 
2 1:-0.4924 2:0.304008 3:-0.613469 4:-0.303707 5:-0.10412 6:-0.502738 7:-0.883911 8:0.366 
2 1:-0.7272 2:-0.633796 3:-0.0855556 4:0.167991 5:-0.10412 6:-0.528452 7:0.762913 8:-0.6348 
0.149990502848595 1:0.2858 2:0.329661 3:-0.342667 4:-0.88101 5:-0.0270449 6:-0.283061 7:0.625418 8:0.9452 
2 1:0.0188 2:0.0986123 3:-0.36859 4:-0.553555 5:0.151293 6:-0.489286 7:-0.934454 8:-0.7564 
2 1:-0.6282 2:0.420893 3:0.285343 4:-0.629416 5:0.198948 6:-0.297273 7:0.997754 8:-0.6764 
2 1:-0.606 2:0.317081 3:0.601176 4:-0.298994 5:0.354025 6:-0.278429 7:0.771267 8:-0.9792 
0.09126063079746266 1:0.2728 2:-0.351363 3:0.377143 4:-0.651563 5:-0.195281 6:0.24 7:-0.953157 8:-0.4296 
0.1008877934081999 1:-0.3194 2:0.297273 3:0.171773 4:-0.415389 5:0.198948 6:-0.286039 7:0.30056 8:0.979 
2 1:-0.802 2:-0.232472 3:0.160741 4:-0.0203467 5:-0.0270449 6:-0.532755 7:0.555843 8:-0.7426 
0.3856086068991371 1:0.3508 2:0.775959 3:-0.792846 4:-0.335501 5:0.319529 6:-0.453878 7:-0.271552 8:0.3224 
2 1:-0.637 2:0.370291 3:-0.0175956 4:-0.373667 5:0.151293 6:-0.363286 7:0.1854 8:-0.7076 
2 1:-0.5192 2:0.439163 3:-0.682593 4:-0.446484 5:0.242453 6:-0.41125 7:-0.841179 8:-0.695 
0.4460181660716497 1:0.1598 2:0.528322 3:0.0358596 4:0.0430255 5:0.198948 6:-0.563182 7:-0.153504 8:0.98 
2 1:-0.9616 2:-1 3:0.203333 4:-0.469991 5:-0.10412 6:-0.566429 7:0.996524 8:-0.6354 
0.9991947596370212 1:-0.3636 2:-0.351363 3:-0.70619 4:-0.720223 5:0.198948 6:-0.382013 7:-0.709581 8:-0.2678 
2 1:-0.9708 2:-0.463521 3:-0.574667 4:-0.853427 5:-0.653426 6:-0.264286 7:-0.196861 8:-0.8742 
0.3773339935646773 1:0.5 2:-0.171698 3:-0.543056 4:-0.283267 5:-0.10412 6:-0.494405 7:-0.655975 8:-0.653 
2 1:-0.5638 2:0.416165 3:0.270386 4:0.0284036 5:0.354025 6:-0.522571 7:0.164245 8:-0.4516 
1.004703488236771 1:0.7872 2:0.24589 3:-0.834815 4:-0.24987 5:0.777674 6:-0.40149 7:1 8:0.3532 
1.047904140526517 1:-0.582 2:0.391462 3:-0.456931 4:-0.371079 5:0.0986123 6:-0.310397 7:-0.994789 8:0.7716 
2 1:0.477 2:0.2904 3:0.0136957 4:0.23443 5:-0.0270449 6:-0.583367 7:0.941115 8:0.6724 
2 1:-0.6572 2:-0.402747 3:-0.129444 4:-0.322762 5:0.319529 6:-0.512704 7:-0.237857 8:-0.2478 
0.8729917944224517 1:0.2942 2:-0.200702 3:0.0833333 4:0.0344244 5:0.242453 6:-0.253988 7:0.0042312 8:0.8476 
0.2948240529912721 1:0.5218 2:0.782369 3:-0.326746 4:-0.496316 5:0.282475 6:-0.501374 7:-0.415613 8:0.0948 
2 1:-0.0724 2:0.386294 3:-0.624035 4:-0.535168 5:-0.195281 6:-0.261143 7:-0.747592 8:-0.6256 
2 1:0.2272 2:0.0986123 3:-0.234203 4:-0.316194 5:0.198948 6:-0.520844 7:-0.299601 8:0.6696 
2 1:-0.2976 2:0.625066 3:0.437971 4:0.314391 5:0.0986123 6:-0.53127 7:0.998879 8:-0.0496 
0.4951943447933742 1:0.569 2:0.817013 3:0.0923435 4:-0.306223 5:0.472219 6:-0.420752 7:-0.808009 8:0.6212 
2 1:-0.5 2:-1 3:-0.226667 4:-0.259416 5:0.0986123 6:-0.411667 7:-0.971786 8:-0.7624 
1.489420132254868 1:0.5328 2:0.55132 3:-0.206111 4:-0.211307 5:-0.0270449 6:-0.411224 7:-0.331311 8:0.676 
0.3021660843432944 1:0.7162 2:0.614729 3:-0.0632011 4:0.329721 5:0.354025 6:-0.336857 7:0.829982 8:0.0614 
0.07097158161153541 1:0.9278 2:0.460676 3:-0.352374 4:-0.755456 5:0.242453 6:-0.222321 7:-0.837651 8:-0.6526 
0.8853565708637232 1:0.8492 2:0.817013 3:0.501328 4:0.0730635 5:0.416607 6:-0.246471 7:-0.864022 8:0.6728 
2 1:-0.537 2:0.439163 3:-0.61787 4:-0.493898 5:0.198948 6:-0.378052 7:-0.983735 8:-0.6606 
2 1:0 2:-0.537902 3:-0.976667 4:-0.21248 5:0.354025 6:-0.436762 7:-0.961496 8:0.2038 
2 1:-0.4698 2:0.0303475 3:-0.574762 4:-0.373181 5:0.319529 6:-0.535765 7:-0.744176 8:-0.7486 
2 1:-0.3266 2:0.165503 3:0.180202 4:-0.504237 5:0.0986123 6:-0.541825 7:-0.635401 8:-0.5416 
2 1:0.1892 2:0.396552 3:-0.64732 4:-0.399314 5:0.354025 6:-0.455857 7:-0.776436 8:0.4042 
2 1:-0.8636 2:-0.402747 3:-0.714444 4:-0.4688 5:-0.10412 6:-0.544167 7:-0.650114 8:-0.7114 
2 1:-0.192 2:0.229626 3:-0.838547 4:-0.424251 5:0.354025 6:-0.277524 7:-0.841827 8:-0.647 
2 1:-0.6148 2:0.283383 3:-0.12234 4:-0.547883 5:-0.195281 6:-0.0414286 7:-0.613363 8:-0.5174 
2 1:-0.3158 2:-0.145017 3:-0.668974 4:-0.619516 5:-0.10412 6:-0.33 7:-0.696946 8:-0.3406 
2 1:-0.7212 2:0.229626 3:-0.548376 4:-0.916827 5:-0.450694 6:-0.694524 7:-0.898489 8:-0.5336 
2 1:-0.5604 2:0.420893 3:0.0902857 4:-0.42755 5:0.0397208 6:-0.476071 7:-0.810361 8:-0.7598 
2 1:-0.8096 2:-0.537902 3:-0.466667 4:-0.825008 5:-0.195281 6:-0.351857 7:-0.496393 8:-0.3956 
2 1:-0.8224 2:0.175454 3:0.382451 4:-0.06915 5:0.0397208 6:-0.469911 7:0.943587 8:-0.6254 
2 1:-0.5814 2:-0.267592 3:-0.252963 4:0.0979444 5:0.242453 6:-0.189762 7:1 8:-0.6816 
1.641758379177227 1:-0.355 2:0.619937 3:-0.93463 4:-0.158463 5:0.319529 6:-0.489286 7:-0.952356 8:0.673 
2 1:-0.381 2:-0.145017 3:0.0394872 4:-0.433381 5:-0.195281 6:-0.485286 7:-0.620629 8:0.6092 
0.8873322175428184 1:-0.6596 2:0.2904 3:-0.650435 4:-0.425135 5:0.386294 6:-0.442232 7:0.991507 8:0.17 
2 1:-0.3116 2:0.614729 3:0.58813 4:-0.398179 5:0.198948 6:-0.321104 7:0.999286 8:-0.7202 
2 1:0 2:-1 3:-0.12 4:0.00269333 5:-0.195281 6:-0.606857 7:1 8:-0.6286 
2 1:0.375 2:-0.200702 3:0.257037 4:-0.278453 5:-0.10412 6:-0.0604762 7:0.998331 8:-0.8432 
2 1:-0.513 2:0.110735 3:0.388765 4:-0.480098 5:-0.450694 6:-0.466429 7:-0.417054 8:-0.4056 
2 1:-0.9946 2:-1 3:-0.236667 4:-0.593764 5:-0.10412 6:-0.49881 7:0.993188 8:-0.9008 
1.341777283888589 1:0.1112 2:0.185116 3:-0.502745 4:0.18154 5:-0.306853 6:-0.635714 7:-0.922849 8:0.2118 
2 1:-0.7142 2:0.24589 3:-0.468246 4:-0.474738 5:0.354025 6:-0.344429 7:-0.961865 8:-0.661 
2 1:-0.8484 2:-0.463521 3:-0.623333 4:-0.513617 5:0.0397208 6:-0.179732 7:-0.931752 8:-0.836 
2 1:0 2:-0.633796 3:-0.965556 4:-0.540053 5:-0.10412 6:-0.463214 7:-0.995462 8:0.7446 
2 1:-0.375 2:-0.463521 3:-0.318667 4:0.188993 5:-0.306853 6:-0.303571 7:-0.197658 8:-0.8792 
2 1:-0.62 2:0.370291 3:0.0206897 4:-0.556457 5:0.0397208 6:-0.477768 7:-0.786292 8:-0.4288 
2 1:0.295 2:0.709966 3:0.666347 4:0.22969 5:0.386294 6:-0.289509 7:0.941592 8:-0.78 
2 1:-0.288 2:0.625066 3:0.411286 4:-0.391896 5:0.198948 6:-0.205455 7:0.999679 8:-0.7146 
2 1:-0.81 2:0.155245 3:-0.2425 4:-0.559482 5:0.319529 6:-0.542704 7:-0.985831 8:-0.232 
2 1:-0.9232 2:-0.120314 3:-0.508095 4:-0.577535 5:0.198948 6:-0.497273 7:-0.680276 8:-0.6196 
0.7002697352154396 1:-0.3666 2:-0.0185203 3:-0.865263 4:-0.3124 5:-0.306853 6:-0.355179 7:0.999922 8:0.8658 
1.679108500583126 1:0.2 2:0.0593513 3:-0.283194 4:-0.515328 5:0.386294 6:-0.197991 7:-0.862026 8:0.6996 
2 1:-0.2222 2:-0.351363 3:-0.0338095 4:-0.401409 5:0.282475 6:-0.380604 7:0.999954 8:-0.7864 
2 1:-0.5714 2:-0.633796 3:0.442222 4:-0.188018 5:-0.450694 6:-0.228333 7:1 8:0.705 
1.156225090942795 1:0.5484 2:0.0593513 3:-0.733188 4:-0.345288 5:0.151293 6:0.00421429 7:0.920308 8:0.9424 
2 1:-0.988 2:-0.768951 3:-0.498333 4:-0.00773867 5:-0.195281 6:-0.292286 7:-0.86942 8:-0.7242 
2 1:-0.956 2:-0.768951 3:0.0133333 4:-0.528667 5:-0.450694 6:-0.676667 7:1 8:-0.7034 
2 1:-0.804 2:0.133732 3:-0.906092 4:-0.394764 5:0.0986123 6:-0.221111 7:-0.651058 8:-0.7446 
1.811909133053222 1:0.7648 2:0.499937 3:0.16407 4:0.0169813 5:0.151293 6:-0.488714 7:-0.743069 8:-0.702 
1.862767122710202 1:0.345 2:0.75423 3:-0.155679 4:-0.0469844 5:0.242453 6:-0.298036 7:0.532184 8:-0.5636 
2 1:-0.0724 2:0.155245 3:-0.856778 4:-0.107685 5:-0.195281 6:-0.531 7:-0.892059 8:0.497 
2 1:-0.546 2:0.155245 3:-0.917738 4:-0.428533 5:0.282475 6:-0.627308 7:-0.993513 8:-0.702 
2 1:-0.5416 2:-0.200702 3:0.0286667 4:-0.526667 5:0.0397208 6:-0.330268 7:0.636393 8:-0.7416 
2 1:-0.5094 2:0.452236 3:-0.508615 4:-0.602704 5:-0.195281 6:-0.158 7:-0.402229 8:-0.5404 
1.2557627291166 1:-0.3668 2:0.468906 3:0.108025 4:-0.152227 5:0.319529 6:-0.33699 7:-0.939354 8:-0.8254 
2 1:-0.5664 2:0.297273 3:-0.131565 4:-0.10992 5:-0.450694 6:-0.324048 7:-0.423513 8:0.216 
1.193588682596426 1:-0.0416 2:0.0451647 3:-0.371818 4:-0.538741 5:0.0986123 6:-0.0625397 7:-0.291371 8:-0.7916 
2 1:-0.4286 2:-0.537902 3:-0.846667 4:-0.0508533 5:-0.195281 6:-0.461857 7:-0.99165 8:-0.744 
0.08603121253347462 1:-0.0434 2:-0.200702 3:0.214545 4:0.110527 5:0.0397208 6:-0.494643 7:0.779897 8:0.748 
2 1:-0.7342 2:0.261397 3:-0.682033 4:-0.241755 5:0.198948 6:-0.565779 7:-0.977579 8:-0.5442 
2 1:-0.3676 2:0.203639 3:-0.46036 4:-0.190104 5:0.151293 6:-0.635571 7:-0.75569 8:-0.9146 
2 1:-0.2984 2:0.614729 3:0.61187 4:-0.400008 5:0.151293 6:-0.289 7:0.999748 8:-0.6936 
2 1:-0.5476 2:0.411369 3:-0.442108 4:-0.162732 5:0.198948 6:-0.40961 7:-0.963677 8:-0.7864 
2 1:-0.4136 2:0.452236 3:-0.676325 4:-0.0549267 5:0.242453 6:-0.307083 7:-0.902775 8:-0.694 
2 1:-0.5238 2:-0.463521 3:0.448667 4:-0.24281 5:0.0397208 6:-0.343393 7:1 8:0.673 
2 1:-0.481 2:0.496212 3:-0.844719 4:0.097448 5:0.151293 6:-0.617643 7:-0.958691 8:0.4736 
2 1:-0.6924 2:-0.768951 3:-0.311667 4:-0.331056 5:0.282475 6:-0.436484 7:1 8:-0.9694 
2 1:-0.6334 2:-0.200702 3:-0.0118182 4:-0.492333 5:-0.653426 6:0.555714 7:-0.422358 8:0.6868 
2 1:0.0852 2:0.310609 3:-0.920496 4:-0.398664 5:0.472219 6:-0.317932 7:-0.85812 8:-0.6692 
2 1:-0.8386 2:-0.0365427 3:-0.44119 4:-0.15768 5:0.198948 6:-0.298636 7:0.440832 8:-0.1006 
2 1:-0.9572 2:-0.402747 3:-0.807222 4:-0.219161 5:0.0986123 6:-0.238492 7:0.00492433 8:0.6732 
2 1:-0.8058 2:-0.232472 3:-0.0877778 4:0.03842 5:-0.306853 6:-0.514464 7:0.555933 8:0.0214 
2 1:0.1162 2:0.425555 3:-0.72981 4:-0.188393 5:0.0397208 6:-0.344821 7:-0.968916 8:-0.6078 
2 1:-0.077 2:-0.171698 3:-0.885833 4:-0.680037 5:-0.195281 6:-0.0735714 7:-0.653493 8:-0.6594 
2 1:-0.0256 2:-0.0185203 3:-0.589792 4:-0.355273 5:0.198948 6:-0.338831 7:-0.983768 8:-0.9918 
2 1:-0.6734 2:-0.306853 3:-0.53875 4:-0.188789 5:-0.195281 6:0.0178571 7:0.862989 8:-0.6956 
2 1:-0.1546 2:0.468906 3:-0.528477 4:-0.301673 5:0.198948 6:-0.410065 7:-0.770476 8:-0.5624 
2 1:-0.6326 2:-0.0365427 3:-0.750926 4:-0.523613 5:0.0397208 6:-0.15875 7:-0.978532 8:-0.2702 
1.935571032514795 1:0.7828 2:0.683285 3:0.630022 4:0.0220659 5:0.416607 6:-0.258908 7:0.847836 8:-0.277 
2 1:-0.416 2:0.55448 3:-0.765206 4:-0.0646467 5:-0.306853 6:-0.494107 7:0.931609 8:-0.5932 
2 1:-0.2096 2:0.396552 3:-0.872292 4:-0.407926 5:0.522261 6:-0.509082 7:-0.785673 8:-0.5622 
2 1:-0.1594 2:0.122432 3:-0.669012 4:0.0296 5:-0.0270449 6:-0.426122 7:1 8:-0.3898 
2 1:-0.7228 2:0.110735 3:0.485357 4:-0.301641 5:0.0986123 6:-0.444127 7:0.952766 8:-0.6776 
1.565344338551865 1:0 2:-0.633796 3:-0.97 4:0.335202 5:0.198948 6:-0.566364 7:-0.785097 8:0.673 
2 1:-0.6902 2:0.165503 3:-0.507677 4:-0.187515 5:0.386294 6:-0.414241 7:-0.956337 8:-0.778 
2 1:-0.7242 2:-0.537902 3:0.103333 4:0.0271467 5:0.151293 6:-0.565714 7:0.500942 8:-0.8294 
2 1:-0.1146 2:0.644825 3:-0.58686 4:-0.457056 5:0.354025 6:-0.459905 7:-0.941459 8:-0.7024 
2 1:-0.0334 2:0.122432 3:-0.74954 4:0.153745 5:0.198948 6:-0.616948 7:-0.808287 8:-0.7416 
2 1:-0.804 2:-0.0973166 3:-0.460222 4:-0.665989 5:-0.0270449 6:-0.213469 7:-0.198357 8:-0.4898 
2 1:-0.8666 2:-1 3:0.773333 4:-0.62616 5:-0.450694 6:-0.344286 7:1 8:-0.6994 
0.2119536350084441 1:-0.2538 2:0.535057 3:0.267643 4:0.292962 5:0.386294 6:-0.295982 7:0.92135 8:0.1358 
2 1:-0.5776 2:0.406503 3:-0.0108955 4:-0.537596 5:0.242453 6:-0.519762 7:-0.850044 8:-0.5786 
0.8768352595702404 1:0.7778 2:-0.306853 3:-0.87619 4:-0.322656 5:0.242453 6:-0.352798 7:-0.103638 8:0.8082 
0.6052262984690792 1:0.6194 2:0.81844 3:-0.283766 4:-0.21249 5:0.319529 6:-0.497347 7:0.526931 8:-0.2162 
1.512163037624416 1:0.077 2:-0.351363 3:-0.587143 4:0.0618438 5:-0.0270449 6:-0.58449 7:0.741056 8:-0.3966 
2 1:-0.3986 2:0.484782 3:-0.493255 4:-0.720353 5:0.0397208 6:-0.0652679 7:-0.986817 8:-0.7032 
2 1:-0.4712 2:0.0451647 3:-0.0721739 4:-0.12853 5:-0.0270449 6:-0.478367 7:0.973262 8:0.5868 
2 1:0.1112 2:-0.0973166 3:-0.123095 4:-0.285248 5:-0.195281 6:-0.301 7:-0.338821 8:-0.7526 
2 1:-0.7188 2:0.0986123 3:-0.439067 4:-0.542397 5:0.0986123 6:-0.452143 7:-0.751941 8:0.1158 
2 1:-0.75 2:-0.306853 3:-0.835417 4:-0.425333 5:-0.0270449 6:-0.59102 7:0.999996 8:0.3408 
2 1:-0.7192 2:-0.306853 3:0.0654167 4:-0.449973 5:-0.450694 6:-0.532619 7:-0.888419 8:-0.5996 
2 1:-0.6038 2:0.370291 3:-0.627541 4:-0.429564 5:0.0986123 6:-0.308175 7:-0.985322 8:-0.7642 
2 1:-0.593 2:0.0451647 3:-0.337778 4:-0.173661 5:-0.0270449 6:0.0312245 7:-0.960784 8:0.4122 
0.3640749496127367 1:0.0232 2:0.678984 3:-0.472522 4:-0.736926 5:0.198948 6:-0.477143 7:-0.669034 8:0.3336 
2 1:-0.7824 2:0.155245 3:-0.481149 4:-0.694149 5:0.319529 6:-0.365816 7:-0.95724 8:-0.124 
2 1:-0.7362 2:0.212529 3:-0.409649 4:-0.18417 5:0.386294 6:-0.499241 7:-0.824539 8:-0.866 
2 1:-0.6 2:0.323431 3:0.610577 4:-0.281954 5:0.354025 6:-0.278429 7:0.775685 8:-0.5322 
2 1:-0.6082 2:-0.0185203 3:0.23807 4:-0.433056 5:-0.195281 6:-0.543 7:0.901 8:-0.7604 
2 1:-0.7524 2:0.229626 3:-0.914188 4:-0.09764 5:-0.10412 6:0.0934524 7:-0.828551 8:-0.7022 
2 1:0.6 2:-0.537902 3:0.69 4:-0.31379 5:0.0986123 6:-0.20873 7:1 8:-0.7738 
1.870857523029071 1:-0.1102 2:0.598597 3:-0.373475 4:-0.5266 5:0.445186 6:-0.486706 7:0.00296359 8:-0.549 
2 1:-0.68 2:-0.537902 3:-0.01 4:-0.473107 5:0.0397208 6:-0.339464 7:0.999982 8:-0.7508 
2 1:-0.7114 2:0.24589 3:-0.73381 4:-0.509853 5:0.242453 6:-0.411726 7:-0.864137 8:-0.6736 
2 1:-0.5624 2:0.447935 3:-0.66545 4:-0.219747 5:0.242453 6:-0.516488 7:-0.983166 8:-0.015 
0.5430951764099924 1:0.6452 2:0.310609 3:-0.7374 4:-0.0212747 5:0.354025 6:-0.306238 7:-0.471792 8:-0.8802 
2 1:-0.5882 2:0.0148408 3:0.482 4:-0.52243 5:0.354025 6:-0.404476 7:0.999687 8:-0.634 
2 1:-0.873 2:-0.00142258 3:-0.748333 4:-0.144356 5:0.416607 6:-0.49563 7:-0.990102 8:-0.8506 
2 1:-0.8114 2:-0.463521 3:0.157333 4:-0.81712 5:-0.306853 6:-0.11875 7:0.999812 8:0.6728 
1.898072934387513 1:0.6666 2:-0.463521 3:0.296 4:-0.304659 5:-0.0270449 6:-0.607245 7:1 8:0.6948 
2 1:-0.3334 2:-1 3:-0.893333 4:0.297877 5:0.0397208 6:-0.633571 7:-0.979972 8:-0.314 
0.8736610249587173 1:0.214 2:0.644825 3:-0.0530414 4:-0.0463295 5:0.319529 6:-0.525 7:0.113749 8:-0.0198 
0.1753384427079327 1:0.375 2:-0.200702 3:0.0616667 4:0.139457 5:0.198948 6:-0.200779 7:0.0043608 8:0.3538 
2 1:-0.2684 2:0.514432 3:-0.761004 4:-0.262034 5:0.198948 6:-0.520974 7:-0.981943 8:-0.6934 
2 1:-0.901 2:-0.463521 3:0.338667 4:-0.462733 5:0.0397208 6:-0.544643 7:0.200542 8:-0.323 
2 1:-0.2414 2:-0.200702 3:0.32375 4:-0.362726 5:0.0986123 6:-0.199365 7:1 8:-0.0502 
2 1:-0.5834 2:0.364782 3:-0.765722 4:-0.368531 5:0.151293 6:-0.396357 7:-0.787646 8:-0.784 
0.1300880143124966 1:0.5556 2:0.185116 3:0.135161 4:-0.623676 5:0.522261 6:-0.291531 7:1 8:0.6786 
0.4605776337590613 1:0 2:0.261397 3:0.680238 4:-0.176323 5:0.497866 6:-0.387714 7:0.907651 8:0.0218 
2 1:-0.8602 2:0.0860322 3:-0.873205 4:-0.455779 5:0.151293 6:-0.301357 7:-0.884089 8:-0.7328 
2 1:0.125 2:-0.0365427 3:-0.85963 4:-0.202296 5:0.151293 6:-0.482214 7:-0.749417 8:-0.6478 
2 1:-0.8114 2:0.133732 3:-0.702143 4:-0.809351 5:-0.450694 6:0.00690476 7:-0.95536 8:-0.6074 
0.6876187294916322 1:0.8182 2:-0.232472 3:0.907333 4:-0.725604 5:-0.0270449 6:-0.294388 7:1 8:-0.2734 
2 1:-0.5842 2:0.24589 3:-0.18439 4:-0.669867 5:-0.0270449 6:-0.292041 7:0.205747 8:-0.8124 
2 1:-0.978 2:-1 3:0.526667 4:-0.269687 5:-0.306853 6:-0.618929 7:1 8:-0.8154 
2 1:-0.6486 2:0.0860322 3:-0.834933 4:-0.389869 5:0.282475 6:-0.515275 7:-0.684853 8:-0.5296 
0.1191518336639457 1:0.1428 2:-0.00142258 3:-0.671667 4:-0.0680388 5:0.198948 6:-0.620455 7:-0.381011 8:0.945 
2 1:0.6666 2:0.391462 3:-0.605714 4:-0.0718183 5:0.386294 6:-0.311875 7:-0.574428 8:-0.7998 
0.09586837743660609 1:0.7338 2:0.828266 3:-0.506192 4:-0.228061 5:0.497866 6:-0.319143 7:-0.603075 8:0.0506 
2 1:-0.6842 2:-0.633796 3:-0.697778 4:-0.716378 5:0.198948 6:-0.421883 7:-0.076534 8:-0.9468 
2 1:-0.8 2:-0.463521 3:-0.961333 4:-0.483956 5:-0.10412 6:-0.284881 7:-0.729754 8:0.673 
2 1:-0.8696 2:-0.633796 3:0.325556 4:-0.383347 5:-0.306853 6:-0.649643 7:0.122458 8:-0.63 
2 1:-0.5078 2:0.456483 3:-0.527131 4:0.0760333 5:0.242453 6:-0.566786 7:-0.838136 8:0.0174 
1.055267665331384 1:0.4286 2:0.229626 3:-0.925833 4:-0.254287 5:0.242453 6:-0.315357 7:-0.79512 8:-0.5886 
0.3738351519835069 1:-0.34 2:0.165503 3:0.475376 4:-0.139374 5:0.416607 6:-0.263067 7:0.873353 8:0.673 
2 1:-0.637 2:0.359179 3:-0.423503 4:-0.47753 5:0.386294 6:-0.277366 7:-0.94017 8:-0.6638 
2 1:-0.9948 2:-1 3:0.0733333 4:0.218464 5:-0.195281 6:-0.465286 7:0.999926 8:-0.9254 
2 1:-0.84 2:-0.768951 3:0.581667 4:-0.599453 5:-0.10412 6:-0.553333 7:1 8:-0.6422 
2 1:-0.2298 2:0.347684 3:-0.838772 4:-0.319744 5:0.242453 6:-0.600714 7:-0.963807 8:-0.4944 
0.4041264357637809 1:0.2056 2:0.480884 3:-0.220675 4:-0.142393 5:0.76318 6:-0.481576 7:0.416051 8:0.6856 
2 1:-0.8182 2:-1 3:0.376667 4:-0.552924 5:0.0986123 6:-0.331905 7:-0.865454 8:-0.625 
2 1:-0.4166 2:0.416165 3:-0.429701 4:-0.713152 5:0.151293 6:-0.296714 7:-0.174216 8:-0.714 
2 1:-0.849 2:0.0593513 3:-0.739861 4:-0.358907 5:-0.0270449 6:-0.361633 7:-0.956893 8:0.5526 
2 1:-0.8836 2:-0.0555956 3:-0.92 4:-0.399077 5:0.151293 6:-0.524643 7:-0.442604 8:0.487 
0.244832641058101 1:0.8 2:-0.267592 3:-0.28037 4:-0.19651 5:0.445186 6:-0.355119 7:-0.908478 8:-0.5214 
2 1:-0.9048 2:-0.537902 3:-0.680833 4:-0.276735 5:0.386294 6:-0.547187 7:-0.006228 8:-0.2432 
2 1:-0.9616 2:-0.633796 3:-0.682222 4:-0.0679573 5:-0.195281 6:-0.531571 7:-0.325613 8:-0.6544 
2 1:-0.5562 2:0.411369 3:-0.555645 4:-0.87592 5:-0.306853 6:-0.409821 7:-0.942214 8:-0.2388 
0.1507390641994475 1:0.3904 2:0.771069 3:-0.796667 4:-0.135391 5:0.416607 6:-0.287857 7:0.895241 8:0.9564 
2 1:-0.4736 2:-0.463521 3:-0.556 4:-0.462284 5:0.0986123 6:-0.179841 7:-0.984673 8:-0.8788 
2 1:-0.7586 2:0.221187 3:-0.584188 4:-0.476888 5:0.319529 6:-0.308929 7:-0.936435 8:-0.6822 
2 1:-0.9656 2:-1 3:0.353333 4:-0.211101 5:-0.0270449 6:-0.0755102 7:1 8:-0.718 
2 1:-0.5714 2:-0.633796 3:-0.858889 4:-0.263592 5:-0.0270449 6:-0.640306 7:-0.99469 8:-0.6266 
2 1:-0.5462 2:0.0986123 3:-0.759012 4:-0.405976 5:0.0986123 6:-0.356905 7:-0.900671 8:-0.3288 
2 1:-0.7 2:0.347684 3:-0.817051 4:-0.356646 5:0.282475 6:-0.63956 7:-0.949666 8:-0.1078 
1.44964985297987 1:0.6448 2:0.492446 3:0.494406 4:-0.0339233 5:0.386294 6:-0.302321 7:0.664637 8:-0.6258 
2 1:-0.5588 2:-0.0973166 3:0.485111 4:0.31955 5:-0.0270449 6:-0.469184 7:0.994678 8:0.6046 
2 1:-0.875 2:-0.306853 3:-0.7175 4:-0.204339 5:0.319529 6:-0.304847 7:-0.977087 8:-0.6678 
0.02293887492955743 1:0.4098 2:0.253733 3:0.351783 4:-0.341032 5:-0.0270449 6:-0.148163 7:0.889431 8:0.3294 
2 1:0.3466 2:0.709966 3:-0.286267 4:0.156348 5:0.386294 6:-0.290312 7:0.941587 8:-0.791 
2 1:-0.5188 2:0.447935 3:-0.236711 4:0.17964 5:0.151293 6:-0.664929 7:-0.789559 8:0.729 
2 1:-0.4804 2:0.531707 3:0.299593 4:-0.587408 5:0.198948 6:-0.240065 7:0.99689 8:-0.743 
2 1:0.5094 2:0.229626 3:-0.52213 4:-0.309327 5:0.0397208 6:-0.301429 7:-0.970635 8:-0.7276 
0.7593533395877691 1:0.5714 2:0.165503 3:-0.281667 4:-0.51676 5:0.0397208 6:-0.511518 7:-0.193425 8:0.3188 
2 1:-0.4118 2:-0.0973166 3:0.189556 4:-0.478246 5:0.0986123 6:-0.489365 7:0.624318 8:0.1916 
2 1:-0.3794 2:0.531707 3:-0.03 4:-0.366267 5:-0.306853 6:-0.538036 7:-0.831626 8:-0.6914 
2 1:-0.472 2:0.531707 3:0.0940972 4:0.378074 5:0.0986123 6:-0.428175 7:0.933166 8:-0.7122 
2 1:-0.966 2:-0.633796 3:-0.613333 4:-0.114209 5:-0.10412 6:-0.354643 7:1 8:-0.7198 
1.460509035632932 1:-0.7884 2:0.229626 3:0.2645 4:-0.293733 5:0.198948 6:-0.559221 7:0.86554 8:0.2198 
0.5959505418587542 1:0.2258 2:-0.0185203 3:0.0384211 4:-0.0386702 5:0.354025 6:-0.325905 7:-0.122454 8:-0.4518 
2 1:-0.5556 2:-0.537902 3:0.148333 4:-0.309843 5:0.0397208 6:-0.457054 7:0.916462 8:0.677 
2 1:-0.9664 2:-0.768951 3:-0.14 4:-0.385403 5:-0.195281 6:-0.537 7:0.046427 8:-0.8274 
2 1:-0.4982 2:0.406503 3:0.620588 4:-0.0828764 5:0.354025 6:-0.390381 7:0.827731 8:-0.7186 
2 1:0.0476 2:-0.200702 3:-0.175152 4:-0.346427 5:0.0397208 6:-0.509107 7:0.789395 8:-0.5286 
2 1:-0.5098 2:0.0729586 3:-0.0101389 4:-0.1765 5:0.0397208 6:-0.488036 7:-0.249232 8:-0.6976 
2 1:0.423 2:0.203639 3:-0.365357 4:-0.63867 5:-0.0270449 6:-0.439082 7:-0.936416 8:-0.9162 
0.1788366193747932 1:0.9592 2:0.2904 3:0.830851 4:-0.357569 5:0.282475 6:-0.125989 7:1 8:0.7028 
2 1:0.0298 2:0.411369 3:-0.142745 4:-0.339321 5:0.354025 6:-0.575238 7:0.26815 8:-0.6602 
2 1:-0.4462 2:-0.0365427 3:-0.939074 4:-0.505136 5:-0.195281 6:-0.246143 7:0.487471 8:-0.793 
0.4242379187563352 1:0.808 2:0.691725 3:-0.191047 4:-0.268827 5:-0.195281 6:-0.206286 7:0.973288 8:0.5768 
2 1:-0.68 2:-0.537902 3:0.174167 4:-0.0702552 5:-0.0270449 6:-0.488265 7:1 8:-0.574 
2 1:-0.7344 2:0.297273 3:-0.282431 4:-0.490316 5:0.242453 6:-0.400774 7:-0.306904 8:-0.7576 
2 1:-0.5 2:-0.232472 3:0.265667 4:0.0771147 5:-0.195281 6:-0.384714 7:-0.970837 8:-0.7108 
2 1:-0.4754 2:-0.0758038 3:-0.468974 4:-0.471079 5:0.0986123 6:-0.314921 7:-0.98341 8:0.5062 
